{"learner":{"attributes":{"best_iteration":"0","best_score":"0.5021961202872665","scikit_learn":"{\"_estimator_type\": \"regressor\"}"},"feature_names":["hour","dayofweek","quarter","month","year","dayofyear","dayofmonth","weekofyear","lag(1)","lag(2)","lag(3)","rolling_mean(2)","rolling_std(2)","rolling_mean(3)","rolling_std(3)","rolling_mean(4)","rolling_std(4)","rolling_mean(5)","rolling_std(5)","rolling_mean(6)","rolling_std(6)"],"feature_types":["float","float","float","float","float","float","float","float","float","float","float","float","float","float","float","float","float","float","float","float","float"],"gradient_booster":{"model":{"gbtree_model_param":{"num_parallel_tree":"1","num_trees":"51"},"iteration_indptr":[0,1,2,3,4,5,6,7,8,9,10,11,12,13,14,15,16,17,18,19,20,21,22,23,24,25,26,27,28,29,30,31,32,33,34,35,36,37,38,39,40,41,42,43,44,45,46,47,48,49,50,51],"tree_info":[0,0,0,0,0,0,0,0,0,0,0,0,0,0,0,0,0,0,0,0,0,0,0,0,0,0,0,0,0,0,0,0,0,0,0,0,0,0,0,0,0,0,0,0,0,0,0,0,0,0,0],"trees":[{"base_weights":[-7.113001E-1,-8.206291E-1,4.3672833E-1,-1.0778943E-2,-5.388663E-1,4.6726814E-3,9.6204784E-4,5.832216E-4,-5.541107E-1,-6.7753876E-3,-4.054959E-3],"categories":[],"categories_nodes":[],"categories_segments":[],"categories_sizes":[],"default_left":[0,0,0,0,0,0,0,0,0,0,0],"id":0,"left_children":[1,3,5,-1,7,-1,-1,-1,9,-1,-1],"loss_changes":[1.2407623E1,5.7980843E0,4.8642397E-2,0E0,4.328823E-1,0E0,0E0,0E0,5.140209E-1,0E0,0E0],"parents":[2147483647,0,0,1,1,2,2,4,4,8,8],"right_children":[2,4,6,-1,8,-1,-1,-1,10,-1,-1],"split_conditions":[1.6206071E0,-2.7631977E-1,1.5069596E0,-1.0778943E-2,-1.6108878E0,4.6726814E-3,9.6204784E-4,5.832216E-4,5.716053E-1,-6.7753876E-3,-4.054959E-3],"split_indices":[11,11,5,0,5,0,0,0,5,0,0],"split_type":[0,0,0,0,0,0,0,0,0,0,0],"sum_hessian":[9.5E1,8.7E1,8E0,4.4E1,4.3E1,7E0,1E0,1E0,4.2E1,2.1E1,2.1E1],"tree_param":{"num_deleted":"0","num_feature":"21","num_nodes":"11","size_leaf_vector":"1"}},{"base_weights":[-7.0434743E-1,-8.1266177E-1,4.3298712E-1,-1.0673549E0,-5.3371054E-1,4.6317955E-3,9.5723773E-4,-1.1582992E-2,-8.301246E-3,5.8030547E-4,-5.488215E-1,-6.650879E-3,-3.953477E-3],"categories":[],"categories_nodes":[],"categories_segments":[],"categories_sizes":[],"default_left":[0,0,0,0,0,0,0,0,0,0,0,0,0],"id":1,"left_children":[1,3,5,7,9,-1,-1,-1,-1,-1,11,-1,-1],"loss_changes":[1.21780815E1,5.682472E0,4.730797E-2,9.334564E-3,4.2528725E-1,0E0,0E0,0E0,0E0,0E0,5.0434494E-1,0E0,0E0],"parents":[2147483647,0,0,1,1,2,2,3,3,4,4,10,10],"right_children":[2,4,6,8,10,-1,-1,-1,-1,-1,12,-1,-1],"split_conditions":[1.6206071E0,-2.7631977E-1,1.5069596E0,-6.4089084E-1,-1.6108878E0,4.6317955E-3,9.5723773E-4,-1.1582992E-2,-8.301246E-3,5.8030547E-4,6.062481E-1,-6.650879E-3,-3.953477E-3],"split_indices":[11,11,5,5,5,0,0,0,0,0,5,0,0],"split_type":[0,0,0,0,0,0,0,0,0,0,0,0,0],"sum_hessian":[9.5E1,8.7E1,8E0,4.4E1,4.3E1,7E0,1E0,2.9E1,1.5E1,1E0,4.2E1,2.2E1,2E1],"tree_param":{"num_deleted":"0","num_feature":"21","num_nodes":"13","size_leaf_vector":"1"}},{"base_weights":[-6.975573E-1,-8.04875E-1,4.2927822E-1,-1.0571232E0,-5.286012E-1,4.591267E-3,9.524515E-4,-1.1471023E-2,-8.223421E-3,5.774039E-4,-5.435799E-1,-6.6472273E-3,-3.9772885E-3],"categories":[],"categories_nodes":[],"categories_segments":[],"categories_sizes":[],"default_left":[0,0,0,0,0,0,0,0,0,0,0,0,0],"id":2,"left_children":[1,3,5,7,9,-1,-1,-1,-1,-1,11,-1,-1],"loss_changes":[1.1954742E1,5.5738907E0,4.600382E-2,7.331848E-3,4.1782093E-1,0E0,0E0,0E0,0E0,0E0,4.953804E-1,0E0,0E0],"parents":[2147483647,0,0,1,1,2,2,3,3,4,4,10,10],"right_children":[2,4,6,8,10,-1,-1,-1,-1,-1,12,-1,-1],"split_conditions":[1.6206071E0,-2.7631977E-1,1.5069596E0,-6.4089084E-1,-1.6108878E0,4.591267E-3,9.524515E-4,-1.1471023E-2,-8.223421E-3,5.774039E-4,5.716053E-1,-6.6472273E-3,-3.9772885E-3],"split_indices":[11,11,5,5,5,0,0,0,0,0,5,0,0],"split_type":[0,0,0,0,0,0,0,0,0,0,0,0,0],"sum_hessian":[9.5E1,8.7E1,8E0,4.4E1,4.3E1,7E0,1E0,2.9E1,1.5E1,1E0,4.2E1,2.1E1,2.1E1],"tree_param":{"num_deleted":"0","num_feature":"21","num_nodes":"13","size_leaf_vector":"1"}},{"base_weights":[-6.9083375E-1,-7.971642E-1,4.256014E-1,-1.0469897E0,-5.2354354E-1,4.5510936E-3,9.476894E-4,-1.1360136E-2,-8.146327E-3,5.7451695E-4,-5.383912E-1,-6.5837763E-3,-3.939323E-3],"categories":[],"categories_nodes":[],"categories_segments":[],"categories_sizes":[],"default_left":[0,0,0,0,0,0,0,0,0,0,0,0,0],"id":3,"left_children":[1,3,5,7,9,-1,-1,-1,-1,-1,11,-1,-1],"loss_changes":[1.1735542E1,5.467304E0,4.472947E-2,5.405426E-3,4.1049194E-1,0E0,0E0,0E0,0E0,0E0,4.859686E-1,0E0,0E0],"parents":[2147483647,0,0,1,1,2,2,3,3,4,4,10,10],"right_children":[2,4,6,8,10,-1,-1,-1,-1,-1,12,-1,-1],"split_conditions":[1.6206071E0,-2.7631977E-1,1.5069596E0,-6.4089084E-1,-1.6108878E0,4.5510936E-3,9.476894E-4,-1.1360136E-2,-8.146327E-3,5.7451695E-4,5.716053E-1,-6.5837763E-3,-3.939323E-3],"split_indices":[11,11,5,5,5,0,0,0,0,0,5,0,0],"split_type":[0,0,0,0,0,0,0,0,0,0,0,0,0],"sum_hessian":[9.5E1,8.7E1,8E0,4.4E1,4.3E1,7E0,1E0,2.9E1,1.5E1,1E0,4.2E1,2.1E1,2.1E1],"tree_param":{"num_deleted":"0","num_feature":"21","num_nodes":"13","size_leaf_vector":"1"}},{"base_weights":[-6.8417495E-1,-7.895273E-1,4.2195636E-1,-1.0369532E0,-5.1853424E-1,4.511271E-3,9.4295084E-4,-1.1250322E-2,-8.069956E-3,5.716443E-4,-5.33252E-1,-6.4630155E-3,-3.8404283E-3],"categories":[],"categories_nodes":[],"categories_segments":[],"categories_sizes":[],"default_left":[0,0,0,0,0,0,0,0,0,0,0,0,0],"id":4,"left_children":[1,3,5,7,9,-1,-1,-1,-1,-1,11,-1,-1],"loss_changes":[1.15203705E1,5.3627625E0,4.348421E-2,3.5552979E-3,4.0329456E-1,0E0,0E0,0E0,0E0,0E0,4.771185E-1,0E0,0E0],"parents":[2147483647,0,0,1,1,2,2,3,3,4,4,10,10],"right_children":[2,4,6,8,10,-1,-1,-1,-1,-1,12,-1,-1],"split_conditions":[1.6206071E0,-2.7631977E-1,1.5069596E0,-6.4089084E-1,-1.6108878E0,4.511271E-3,9.4295084E-4,-1.1250322E-2,-8.069956E-3,5.716443E-4,6.062481E-1,-6.4630155E-3,-3.8404283E-3],"split_indices":[11,11,5,5,5,0,0,0,0,0,5,0,0],"split_type":[0,0,0,0,0,0,0,0,0,0,0,0,0],"sum_hessian":[9.5E1,8.7E1,8E0,4.4E1,4.3E1,7E0,1E0,2.9E1,1.5E1,1E0,4.2E1,2.2E1,2E1],"tree_param":{"num_deleted":"0","num_feature":"21","num_nodes":"13","size_leaf_vector":"1"}},{"base_weights":[-6.77579E-1,-7.8196216E-1,4.183428E-1,-1.0270131E0,-5.135701E-1,4.471797E-3,9.382361E-4,-1.1141568E-2,-7.9943E-3,5.6878594E-4,-5.281591E-1,-6.459239E-3,-3.86387E-3],"categories":[],"categories_nodes":[],"categories_segments":[],"categories_sizes":[],"default_left":[0,0,0,0,0,0,0,0,0,0,0,0,0],"id":5,"left_children":[1,3,5,7,9,-1,-1,-1,-1,-1,11,-1,-1],"loss_changes":[1.1309124E1,5.260292E0,4.2267203E-2,1.7738342E-3,3.962221E-1,0E0,0E0,0E0,0E0,0E0,4.6834087E-1,0E0,0E0],"parents":[2147483647,0,0,1,1,2,2,3,3,4,4,10,10],"right_children":[2,4,6,8,10,-1,-1,-1,-1,-1,12,-1,-1],"split_conditions":[1.6206071E0,-2.7631977E-1,1.5069596E0,-6.4089084E-1,-1.6108878E0,4.471797E-3,9.382361E-4,-1.1141568E-2,-7.9943E-3,5.6878594E-4,5.716053E-1,-6.459239E-3,-3.86387E-3],"split_indices":[11,11,5,5,5,0,0,0,0,0,5,0,0],"split_type":[0,0,0,0,0,0,0,0,0,0,0,0,0],"sum_hessian":[9.5E1,8.7E1,8E0,4.4E1,4.3E1,7E0,1E0,2.9E1,1.5E1,1E0,4.2E1,2.1E1,2.1E1],"tree_param":{"num_deleted":"0","num_feature":"21","num_nodes":"13","size_leaf_vector":"1"}},{"base_weights":[-6.710478E-1,-7.744708E-1,4.147605E-1,-1.0171682E0,-5.086561E-1,4.4326694E-3,9.335449E-4,-1.10338675E-2,-7.919353E-3,5.659419E-4,-5.2311754E-1,-6.340539E-3,-3.767054E-3],"categories":[],"categories_nodes":[],"categories_segments":[],"categories_sizes":[],"default_left":[0,0,0,0,0,0,0,0,0,0,0,0,0],"id":6,"left_children":[1,3,5,7,9,-1,-1,-1,-1,-1,11,-1,-1],"loss_changes":[1.1101791E1,5.1597137E0,4.107821E-2,5.340576E-5,3.8927746E-1,0E0,0E0,0E0,0E0,0E0,4.595728E-1,0E0,0E0],"parents":[2147483647,0,0,1,1,2,2,3,3,4,4,10,10],"right_children":[2,4,6,8,10,-1,-1,-1,-1,-1,12,-1,-1],"split_conditions":[1.6206071E0,-2.7631977E-1,1.5069596E0,-6.4089084E-1,-1.6108878E0,4.4326694E-3,9.335449E-4,-1.10338675E-2,-7.919353E-3,5.659419E-4,6.062481E-1,-6.340539E-3,-3.767054E-3],"split_indices":[11,11,5,5,5,0,0,0,0,0,5,0,0],"split_type":[0,0,0,0,0,0,0,0,0,0,0,0,0],"sum_hessian":[9.5E1,8.7E1,8E0,4.4E1,4.3E1,7E0,1E0,2.9E1,1.5E1,1E0,4.2E1,2.2E1,2E1],"tree_param":{"num_deleted":"0","num_feature":"21","num_nodes":"13","size_leaf_vector":"1"}},{"base_weights":[-6.6457826E-1,-7.670499E-1,4.1120914E-1,-1.0074177E-2,-5.037864E-1,4.393883E-3,9.2887727E-4,5.631122E-4,-5.181214E-1,-6.3370597E-3,-3.7898596E-3],"categories":[],"categories_nodes":[],"categories_segments":[],"categories_sizes":[],"default_left":[0,0,0,0,0,0,0,0,0,0,0],"id":7,"left_children":[1,3,5,-1,7,-1,-1,-1,9,-1,-1],"loss_changes":[1.0898239E1,5.061123E0,3.9916635E-2,0E0,3.8245392E-1,0E0,0E0,0E0,4.513569E-1,0E0,0E0],"parents":[2147483647,0,0,1,1,2,2,4,4,8,8],"right_children":[2,4,6,-1,8,-1,-1,-1,10,-1,-1],"split_conditions":[1.6206071E0,-2.7631977E-1,1.5069596E0,-1.0074177E-2,-1.6108878E0,4.393883E-3,9.2887727E-4,5.631122E-4,5.716053E-1,-6.3370597E-3,-3.7898596E-3],"split_indices":[11,11,5,0,5,0,0,0,5,0,0],"split_type":[0,0,0,0,0,0,0,0,0,0,0],"sum_hessian":[9.5E1,8.7E1,8E0,4.4E1,4.3E1,7E0,1E0,1E0,4.2E1,2.1E1,2.1E1],"tree_param":{"num_deleted":"0","num_feature":"21","num_nodes":"11","size_leaf_vector":"1"}},{"base_weights":[-6.580816E-1,-7.596026E-1,4.0768847E-1,-9.9756736E-1,-4.9896586E-1,4.3554367E-3,9.242329E-4,-1.0829823E-2,-7.7506634E-3,5.6029676E-4,-5.131757E-1,-6.1668903E-3,-3.6330102E-3],"categories":[],"categories_nodes":[],"categories_segments":[],"categories_sizes":[],"default_left":[0,0,0,0,0,0,0,0,0,0,0,0,0],"id":8,"left_children":[1,3,5,7,9,-1,-1,-1,-1,-1,11,-1,-1],"loss_changes":[1.0696693E1,4.9602165E0,3.8781643E-2,1.5834808E-2,3.7575626E-1,0E0,0E0,0E0,0E0,0E0,4.4305897E-1,0E0,0E0],"parents":[2147483647,0,0,1,1,2,2,3,3,4,4,10,10],"right_children":[2,4,6,8,10,-1,-1,-1,-1,-1,12,-1,-1],"split_conditions":[1.6206071E0,-2.7631977E-1,1.5069596E0,-6.4089084E-1,-1.6108878E0,4.3554367E-3,9.242329E-4,-1.0829823E-2,-7.7506634E-3,5.6029676E-4,6.4089084E-1,-6.1668903E-3,-3.6330102E-3],"split_indices":[11,11,5,5,5,0,0,0,0,0,5,0,0],"split_type":[0,0,0,0,0,0,0,0,0,0,0,0,0],"sum_hessian":[9.5E1,8.7E1,8E0,4.4E1,4.3E1,7E0,1E0,2.9E1,1.5E1,1E0,4.2E1,2.3E1,1.9E1],"tree_param":{"num_deleted":"0","num_feature":"21","num_nodes":"13","size_leaf_vector":"1"}},{"base_weights":[-6.5173554E-1,-7.5232273E-1,4.041982E-1,-9.8800457E-1,-4.941862E-1,4.317327E-3,9.196117E-4,-1.0625741E-2,-7.469882E-3,5.5749534E-4,-5.082719E-1,-6.2177037E-3,-3.7167012E-3],"categories":[],"categories_nodes":[],"categories_segments":[],"categories_sizes":[],"default_left":[0,0,0,0,0,0,0,0,0,0,0,0,0],"id":9,"left_children":[1,3,5,7,9,-1,-1,-1,-1,-1,11,-1,-1],"loss_changes":[1.0500568E1,4.865494E0,3.7672877E-2,1.5029907E-2,3.691702E-1,0E0,0E0,0E0,0E0,0E0,4.3558216E-1,0E0,0E0],"parents":[2147483647,0,0,1,1,2,2,3,3,4,4,10,10],"right_children":[2,4,6,8,10,-1,-1,-1,-1,-1,12,-1,-1],"split_conditions":[1.6206071E0,-2.7631977E-1,1.5069596E0,-5.716053E-1,-1.6108878E0,4.317327E-3,9.196117E-4,-1.0625741E-2,-7.469882E-3,5.5749534E-4,5.716053E-1,-6.2177037E-3,-3.7167012E-3],"split_indices":[11,11,5,5,5,0,0,0,0,0,5,0,0],"split_type":[0,0,0,0,0,0,0,0,0,0,0,0,0],"sum_hessian":[9.5E1,8.7E1,8E0,4.4E1,4.3E1,7E0,1E0,3.1E1,1.3E1,1E0,4.2E1,2.1E1,2.1E1],"tree_param":{"num_deleted":"0","num_feature":"21","num_nodes":"13","size_leaf_vector":"1"}},{"base_weights":[-6.454498E-1,-7.4511164E-1,4.007381E-1,-9.7852665E-1,-4.8945743E-1,4.27955E-3,9.1501354E-4,-1.06224185E-2,-7.6040267E-3,5.5470795E-4,-5.034202E-1,-6.216599E-3,-3.7357432E-1,-4.0212376E-3,-2.2566353E-3],"categories":[],"categories_nodes":[],"categories_segments":[],"categories_sizes":[],"default_left":[0,0,0,0,0,0,0,0,0,0,0,0,0,0,0],"id":10,"left_children":[1,3,5,7,9,-1,-1,-1,-1,-1,11,-1,13,-1,-1],"loss_changes":[1.0308033E1,4.7723274E0,3.658974E-2,1.39808655E-2,3.627081E-1,0E0,0E0,0E0,0E0,0E0,4.2794132E-1,0E0,6.378889E-3,0E0,0E0],"parents":[2147483647,0,0,1,1,2,2,3,3,4,4,10,10,12,12],"right_children":[2,4,6,8,10,-1,-1,-1,-1,-1,12,-1,14,-1,-1],"split_conditions":[1.6206071E0,-2.7631977E-1,1.5069596E0,-6.4089084E-1,-1.6108878E0,4.27955E-3,9.1501354E-4,-1.06224185E-2,-7.6040267E-3,5.5470795E-4,5.369626E-1,-6.216599E-3,1.1128838E0,-4.0212376E-3,-2.2566353E-3],"split_indices":[11,11,5,5,5,0,0,0,0,0,5,0,6,0,0],"split_type":[0,0,0,0,0,0,0,0,0,0,0,0,0,0,0],"sum_hessian":[9.5E1,8.7E1,8E0,4.4E1,4.3E1,7E0,1E0,2.9E1,1.5E1,1E0,4.2E1,2E1,2.2E1,1.7E1,5E0],"tree_param":{"num_deleted":"0","num_feature":"21","num_nodes":"15","size_leaf_vector":"1"}},{"base_weights":[-6.3925546E-1,-7.380033E-1,3.9730787E-1,-9.6914643E-1,-4.848342E-1,4.242104E-3,9.104386E-4,-1.0421786E-2,-7.3299096E-3,5.519345E-4,-4.9867657E-1,-5.9934566E-3,-3.5293978E-3],"categories":[],"categories_nodes":[],"categories_segments":[],"categories_sizes":[],"default_left":[0,0,0,0,0,0,0,0,0,0,0,0,0],"id":11,"left_children":[1,3,5,7,9,-1,-1,-1,-1,-1,11,-1,-1],"loss_changes":[1.0119625E1,4.679737E0,3.553164E-2,1.2207031E-2,3.5643387E-1,0E0,0E0,0E0,0E0,0E0,4.193287E-1,0E0,0E0],"parents":[2147483647,0,0,1,1,2,2,3,3,4,4,10,10],"right_children":[2,4,6,8,10,-1,-1,-1,-1,-1,12,-1,-1],"split_conditions":[1.6206071E0,-2.7631977E-1,1.5069596E0,-5.716053E-1,-1.6108878E0,4.242104E-3,9.104386E-4,-1.0421786E-2,-7.3299096E-3,5.519345E-4,6.4089084E-1,-5.9934566E-3,-3.5293978E-3],"split_indices":[11,11,5,5,5,0,0,0,0,0,5,0,0],"split_type":[0,0,0,0,0,0,0,0,0,0,0,0,0],"sum_hessian":[9.5E1,8.7E1,8E0,4.4E1,4.3E1,7E0,1E0,3.1E1,1.3E1,1E0,4.2E1,2.3E1,1.9E1],"tree_param":{"num_deleted":"0","num_feature":"21","num_nodes":"13","size_leaf_vector":"1"}},{"base_weights":[-6.330876E-1,-7.30927E-1,3.939073E-1,-9.393963E-1,-4.5727882E-1,4.204985E-3,9.058863E-4,-1.0320825E-2,-7.2243223E-3,5.4917485E-4,-4.718202E-1,-5.6037423E-3,-3.3737519E-3],"categories":[],"categories_nodes":[],"categories_segments":[],"categories_sizes":[],"default_left":[0,0,0,0,0,0,0,0,0,0,0,0,0],"id":12,"left_children":[1,3,5,7,9,-1,-1,-1,-1,-1,11,-1,-1],"loss_changes":[9.934048E0,4.5905952E0,3.4498215E-2,2.3976135E-1,3.238325E-1,0E0,0E0,0E0,0E0,0E0,2.7526474E-1,0E0,0E0],"parents":[2147483647,0,0,1,1,2,2,3,3,4,4,10,10],"right_children":[2,4,6,8,10,-1,-1,-1,-1,-1,12,-1,-1],"split_conditions":[1.6206071E0,-2.1103737E-1,1.5069596E0,-5.716053E-1,-1.6108878E0,4.204985E-3,9.058863E-4,-1.0320825E-2,-7.2243223E-3,5.4917485E-4,7.1017635E-1,-5.6037423E-3,-3.3737519E-3],"split_indices":[11,11,5,5,5,0,0,0,0,0,5,0,0],"split_type":[0,0,0,0,0,0,0,0,0,0,0,0,0],"sum_hessian":[9.5E1,8.7E1,8E0,4.8E1,3.9E1,7E0,1E0,3.1E1,1.7E1,1E0,3.8E1,2.1E1,1.7E1],"tree_param":{"num_deleted":"0","num_feature":"21","num_nodes":"13","size_leaf_vector":"1"}},{"base_weights":[-6.2697405E-1,-7.239129E-1,3.905361E-1,-9.5065254E-1,-4.755675E-1,4.168192E-3,9.013569E-4,-1.0319224E-2,-7.388557E-3,5.4642884E-4,-4.891687E-1,-6.043858E-3,-3.6270234E-1,-3.907762E-3,-2.180304E-3],"categories":[],"categories_nodes":[],"categories_segments":[],"categories_sizes":[],"default_left":[0,0,0,0,0,0,0,0,0,0,0,0,0,0,0],"id":13,"left_children":[1,3,5,7,9,-1,-1,-1,-1,-1,11,-1,13,-1,-1],"loss_changes":[9.751793E0,4.5031586E0,3.348887E-2,1.2126923E-2,3.4403706E-1,0E0,0E0,0E0,0E0,0E0,4.0734386E-1,0E0,8.213282E-3,0E0,0E0],"parents":[2147483647,0,0,1,1,2,2,3,3,4,4,10,10,12,12],"right_children":[2,4,6,8,10,-1,-1,-1,-1,-1,12,-1,14,-1,-1],"split_conditions":[1.6206071E0,-2.7631977E-1,1.5069596E0,-6.4089084E-1,-1.6108878E0,4.168192E-3,9.013569E-4,-1.0319224E-2,-7.388557E-3,5.4642884E-4,5.369626E-1,-6.043858E-3,1.1128838E0,-3.907762E-3,-2.180304E-3],"split_indices":[11,11,5,5,5,0,0,0,0,0,5,0,6,0,0],"split_type":[0,0,0,0,0,0,0,0,0,0,0,0,0,0,0],"sum_hessian":[9.5E1,8.7E1,8E0,4.4E1,4.3E1,7E0,1E0,2.9E1,1.5E1,1E0,4.2E1,2E1,2.2E1,1.7E1,5E0],"tree_param":{"num_deleted":"0","num_feature":"21","num_nodes":"15","size_leaf_vector":"1"}},{"base_weights":[-6.209566E-1,-7.170066E-1,3.87194E-1,-9.16738E-1,-4.4255602E-1,4.13172E-3,8.968502E-4,-1.0122707E-2,-7.075914E-3,5.436966E-4,-4.570638E-1,-5.4337233E-3,-3.3097805E-3],"categories":[],"categories_nodes":[],"categories_segments":[],"categories_sizes":[],"default_left":[0,0,0,0,0,0,0,0,0,0,0,0,0],"id":14,"left_children":[1,3,5,7,9,-1,-1,-1,-1,-1,11,-1,-1],"loss_changes":[9.573574E0,4.4181366E0,3.250289E-2,2.8274155E-1,3.0601263E-1,0E0,0E0,0E0,0E0,0E0,2.3368311E-1,0E0,0E0],"parents":[2147483647,0,0,1,1,2,2,3,3,4,4,10,10],"right_children":[2,4,6,8,10,-1,-1,-1,-1,-1,12,-1,-1],"split_conditions":[1.6206071E0,-1.9424622E-1,1.5069596E0,-5.716053E-1,-1.6108878E0,4.13172E-3,8.968502E-4,-1.0122707E-2,-7.075914E-3,5.436966E-4,7.1017635E-1,-5.4337233E-3,-3.3097805E-3],"split_indices":[11,11,5,5,5,0,0,0,0,0,5,0,0],"split_type":[0,0,0,0,0,0,0,0,0,0,0,0,0],"sum_hessian":[9.5E1,8.7E1,8E0,4.9E1,3.8E1,7E0,1E0,3.1E1,1.8E1,1E0,3.7E1,2E1,1.7E1],"tree_param":{"num_deleted":"0","num_feature":"21","num_nodes":"13","size_leaf_vector":"1"}},{"base_weights":[-6.1495924E-1,-7.1012515E-1,3.838808E-1,-9.079145E-1,-4.3834072E-1,4.0955674E-3,8.923659E-4,-1.0121618E-2,-7.1575576E-3,5.40978E-4,-4.5272326E-1,-5.381974E-3,-3.2785216E-3],"categories":[],"categories_nodes":[],"categories_segments":[],"categories_sizes":[],"default_left":[0,0,0,0,0,0,0,0,0,0,0,0,0],"id":15,"left_children":[1,3,5,7,9,-1,-1,-1,-1,-1,11,-1,-1],"loss_changes":[9.397934E0,4.3325577E0,3.1539917E-2,2.7714157E-1,3.0070925E-1,0E0,0E0,0E0,0E0,0E0,2.2913456E-1,0E0,0E0],"parents":[2147483647,0,0,1,1,2,2,3,3,4,4,10,10],"right_children":[2,4,6,8,10,-1,-1,-1,-1,-1,12,-1,-1],"split_conditions":[1.6206071E0,-1.9424622E-1,1.5069596E0,-6.4089084E-1,-1.6108878E0,4.0955674E-3,8.923659E-4,-1.0121618E-2,-7.1575576E-3,5.40978E-4,7.1017635E-1,-5.381974E-3,-3.2785216E-3],"split_indices":[11,11,5,5,5,0,0,0,0,0,5,0,0],"split_type":[0,0,0,0,0,0,0,0,0,0,0,0,0],"sum_hessian":[9.5E1,8.7E1,8E0,4.9E1,3.8E1,7E0,1E0,2.9E1,2E1,1E0,3.7E1,2E1,1.7E1],"tree_param":{"num_deleted":"0","num_feature":"21","num_nodes":"13","size_leaf_vector":"1"}},{"base_weights":[-6.0902226E-1,-7.033125E-1,3.805962E-1,-9.2361325E-1,-4.620206E-1,4.0597315E-3,8.8790414E-4,-1.0121314E-2,-7.346065E-3,5.3827313E-4,-4.7526887E-1,-5.933919E-3,-3.5703015E-1,-3.8908445E-3,-2.2360052E-3],"categories":[],"categories_nodes":[],"categories_segments":[],"categories_sizes":[],"default_left":[0,0,0,0,0,0,0,0,0,0,0,0,0,0,0],"id":16,"left_children":[1,3,5,7,9,-1,-1,-1,-1,-1,11,-1,13,-1,-1],"loss_changes":[9.225567E0,4.251068E0,3.0599713E-2,9.353638E-3,3.2628155E-1,0E0,0E0,0E0,0E0,0E0,3.8871098E-1,0E0,1.5648365E-2,0E0,0E0],"parents":[2147483647,0,0,1,1,2,2,3,3,4,4,10,10,12,12],"right_children":[2,4,6,8,10,-1,-1,-1,-1,-1,12,-1,14,-1,-1],"split_conditions":[1.6206071E0,-2.7631977E-1,1.5069596E0,-7.113522E-1,-1.6108878E0,4.0597315E-3,8.8790414E-4,-1.0121314E-2,-7.346065E-3,5.3827313E-4,5.023199E-1,-5.933919E-3,9.977976E-1,-3.8908445E-3,-2.2360052E-3],"split_indices":[11,11,5,11,5,0,0,0,0,0,5,0,6,0,0],"split_type":[0,0,0,0,0,0,0,0,0,0,0,0,0,0,0],"sum_hessian":[9.5E1,8.7E1,8E0,4.4E1,4.3E1,7E0,1E0,2.7E1,1.7E1,1E0,4.2E1,1.9E1,2.3E1,1.7E1,6E0],"tree_param":{"num_deleted":"0","num_feature":"21","num_nodes":"15","size_leaf_vector":"1"}},{"base_weights":[-6.031825E-1,-6.9660884E-1,3.7733996E-1,-8.906244E-1,-4.300092E-1,4.0242085E-3,8.8346447E-4,-9.83386E-3,-6.8751923E-3,5.3558167E-4,-4.4414407E-1,-5.280041E-3,-3.2163267E-3],"categories":[],"categories_nodes":[],"categories_segments":[],"categories_sizes":[],"default_left":[0,0,0,0,0,0,0,0,0,0,0,0,0],"id":17,"left_children":[1,3,5,7,9,-1,-1,-1,-1,-1,11,-1,-1],"loss_changes":[9.057095E0,4.1687775E0,2.9681444E-2,2.6592255E-1,2.903595E-1,0E0,0E0,0E0,0E0,0E0,2.2058058E-1,0E0,0E0],"parents":[2147483647,0,0,1,1,2,2,3,3,4,4,10,10],"right_children":[2,4,6,8,10,-1,-1,-1,-1,-1,12,-1,-1],"split_conditions":[1.6206071E0,-1.9424622E-1,1.5069596E0,-5.716053E-1,-1.6108878E0,4.0242085E-3,8.8346447E-4,-9.83386E-3,-6.8751923E-3,5.3558167E-4,7.1017635E-1,-5.280041E-3,-3.2163267E-3],"split_indices":[11,11,5,5,5,0,0,0,0,0,5,0,0],"split_type":[0,0,0,0,0,0,0,0,0,0,0,0,0],"sum_hessian":[9.5E1,8.7E1,8E0,4.9E1,3.8E1,7E0,1E0,3.1E1,1.8E1,1E0,3.7E1,2E1,1.7E1],"tree_param":{"num_deleted":"0","num_feature":"21","num_nodes":"13","size_leaf_vector":"1"}},{"base_weights":[-5.973565E-1,-6.899231E-1,3.7411186E-1,-9.0600467E-1,-4.532505E-1,3.9889966E-3,8.790472E-4,-9.928889E-3,-7.205178E-3,5.3290365E-4,-4.6626982E-1,-5.9472313E-3,-3.5940713E-1,-3.906048E-3,-2.189271E-3],"categories":[],"categories_nodes":[],"categories_segments":[],"categories_sizes":[],"default_left":[0,0,0,0,0,0,0,0,0,0,0,0,0,0,0],"id":18,"left_children":[1,3,5,7,9,-1,-1,-1,-1,-1,11,-1,13,-1,-1],"loss_changes":[8.890953E0,4.0897293E0,2.8784871E-2,9.819031E-3,3.1502056E-1,0E0,0E0,0E0,0E0,0E0,3.7650776E-1,0E0,2.8434992E-2,0E0,0E0],"parents":[2147483647,0,0,1,1,2,2,3,3,4,4,10,10,12,12],"right_children":[2,4,6,8,10,-1,-1,-1,-1,-1,12,-1,14,-1,-1],"split_conditions":[1.6206071E0,-2.7631977E-1,1.5069596E0,-7.113522E-1,-1.6108878E0,3.9889966E-3,8.790472E-4,-9.928889E-3,-7.205178E-3,5.3290365E-4,1.2217334E-1,-5.9472313E-3,9.977976E-1,-3.906048E-3,-2.189271E-3],"split_indices":[11,11,5,11,5,0,0,0,0,0,10,0,6,0,0],"split_type":[0,0,0,0,0,0,0,0,0,0,0,0,0,0,0],"sum_hessian":[9.5E1,8.7E1,8E0,4.4E1,4.3E1,7E0,1E0,2.7E1,1.7E1,1E0,4.2E1,1.7E1,2.5E1,1.9E1,6E0],"tree_param":{"num_deleted":"0","num_feature":"21","num_nodes":"15","size_leaf_vector":"1"}},{"base_weights":[-5.916306E-1,-6.833494E-1,3.7091166E-1,-8.7364626E-1,-4.2185718E-1,3.954093E-3,8.7465195E-4,-9.738563E-3,-6.8888688E-3,5.30239E-4,-4.3574944E-1,-5.133967E-3,-3.0963242E-3],"categories":[],"categories_nodes":[],"categories_segments":[],"categories_sizes":[],"default_left":[0,0,0,0,0,0,0,0,0,0,0,0,0],"id":19,"left_children":[1,3,5,7,9,-1,-1,-1,-1,-1,11,-1,-1],"loss_changes":[8.728645E0,4.0104256E0,2.7909398E-2,2.5485992E-1,2.8039408E-1,0E0,0E0,0E0,0E0,0E0,2.131567E-1,0E0,0E0],"parents":[2147483647,0,0,1,1,2,2,3,3,4,4,10,10],"right_children":[2,4,6,8,10,-1,-1,-1,-1,-1,12,-1,-1],"split_conditions":[1.6206071E0,-1.9424622E-1,1.5069596E0,-6.4089084E-1,-1.6108878E0,3.954093E-3,8.7465195E-4,-9.738563E-3,-6.8888688E-3,5.30239E-4,7.448191E-1,-5.133967E-3,-3.0963242E-3],"split_indices":[11,11,5,5,5,0,0,0,0,0,5,0,0],"split_type":[0,0,0,0,0,0,0,0,0,0,0,0,0],"sum_hessian":[9.5E1,8.7E1,8E0,4.9E1,3.8E1,7E0,1E0,2.9E1,2E1,1E0,3.7E1,2.1E1,1.6E1],"tree_param":{"num_deleted":"0","num_feature":"21","num_nodes":"13","size_leaf_vector":"1"}},{"base_weights":[-5.859174E-1,-6.767923E-1,3.6773905E-1,-8.887531E-1,-4.446326E-1,3.919495E-3,8.7027875E-4,-9.787702E-3,-7.1405754E-3,5.2758784E-4,-4.5742676E-1,-5.8377013E-3,-3.5236493E-1,-3.8303563E-3,-2.1439658E-3],"categories":[],"categories_nodes":[],"categories_segments":[],"categories_sizes":[],"default_left":[0,0,0,0,0,0,0,0,0,0,0,0,0,0,0],"id":20,"left_children":[1,3,5,7,9,-1,-1,-1,-1,-1,11,-1,13,-1,-1],"loss_changes":[8.568573E0,3.9351997E0,2.7054667E-2,8.75473E-3,3.0413628E-1,0E0,0E0,0E0,0E0,0E0,3.6507607E-1,0E0,2.7899742E-2,0E0,0E0],"parents":[2147483647,0,0,1,1,2,2,3,3,4,4,10,10,12,12],"right_children":[2,4,6,8,10,-1,-1,-1,-1,-1,12,-1,14,-1,-1],"split_conditions":[1.6206071E0,-2.7631977E-1,1.5069596E0,-7.6625293E-1,-1.6108878E0,3.919495E-3,8.7027875E-4,-9.787702E-3,-7.1405754E-3,5.2758784E-4,1.2217334E-1,-5.8377013E-3,9.977976E-1,-3.8303563E-3,-2.1439658E-3],"split_indices":[11,11,5,11,5,0,0,0,0,0,10,0,6,0,0],"split_type":[0,0,0,0,0,0,0,0,0,0,0,0,0,0,0],"sum_hessian":[9.5E1,8.7E1,8E0,4.4E1,4.3E1,7E0,1E0,2.6E1,1.8E1,1E0,4.2E1,1.7E1,2.5E1,1.9E1,6E0],"tree_param":{"num_deleted":"0","num_feature":"21","num_nodes":"15","size_leaf_vector":"1"}},{"base_weights":[-5.8030224E-1,-6.70345E-1,3.6459386E-1,-8.8024175E-1,-4.404427E-1,3.885199E-1,8.659273E-4,-9.645802E-3,-7.0014624E-3,5.2495004E-4,-4.531272E-1,4.108609E-3,1.1606648E-3,-5.782567E-3,-3.490711E-1,-3.793968E-3,-2.125589E-3],"categories":[],"categories_nodes":[],"categories_segments":[],"categories_sizes":[],"default_left":[0,0,0,0,0,0,0,0,0,0,0,0,0,0,0,0,0],"id":21,"left_children":[1,3,5,7,9,11,-1,-1,-1,-1,13,-1,-1,-1,15,-1,-1],"loss_changes":[8.412182E0,3.8588066E0,2.6220322E-2,8.155823E-3,2.9890442E-1,1.0079145E-3,0E0,0E0,0E0,0E0,3.580284E-1,0E0,0E0,0E0,2.6991367E-2,0E0,0E0],"parents":[2147483647,0,0,1,1,2,2,3,3,4,4,5,5,10,10,14,14],"right_children":[2,4,6,8,10,12,-1,-1,-1,-1,14,-1,-1,-1,16,-1,-1],"split_conditions":[1.6206071E0,-2.7631977E-1,1.5069596E0,-7.113522E-1,-1.6108878E0,2.5205812E0,8.659273E-4,-9.645802E-3,-7.0014624E-3,5.2495004E-4,1.2217334E-1,4.108609E-3,1.1606648E-3,-5.782567E-3,9.977976E-1,-3.793968E-3,-2.125589E-3],"split_indices":[11,11,5,11,5,19,0,0,0,0,10,0,0,0,6,0,0],"split_type":[0,0,0,0,0,0,0,0,0,0,0,0,0,0,0,0,0],"sum_hessian":[9.5E1,8.7E1,8E0,4.4E1,4.3E1,7E0,1E0,2.7E1,1.7E1,1E0,4.2E1,6E0,1E0,1.7E1,2.5E1,1.9E1,6E0],"tree_param":{"num_deleted":"0","num_feature":"21","num_nodes":"17","size_leaf_vector":"1"}},{"base_weights":[-5.7472515E-1,-6.639577E-1,3.616296E-1,-8.488309E-1,-4.0991634E-1,3.8529336E-1,8.6159765E-4,-9.372432E-3,-6.552506E-3,5.2232534E-4,-4.2345268E-1,4.073392E-3,1.1548614E-3,-5.0365487E-3,-3.0635828E-3],"categories":[],"categories_nodes":[],"categories_segments":[],"categories_sizes":[],"default_left":[0,0,0,0,0,0,0,0,0,0,0,0,0,0,0],"id":22,"left_children":[1,3,5,7,9,11,-1,-1,-1,-1,13,-1,-1,-1,-1],"loss_changes":[8.26123E0,3.7850075E0,2.5471091E-2,2.416153E-1,2.6609468E-1,5.431175E-4,0E0,0E0,0E0,0E0,2.0256758E-1,0E0,0E0,0E0,0E0],"parents":[2147483647,0,0,1,1,2,2,3,3,4,4,5,5,10,10],"right_children":[2,4,6,8,10,12,-1,-1,-1,-1,14,-1,-1,-1,-1],"split_conditions":[1.6206071E0,-1.9424622E-1,1.5069596E0,-5.716053E-1,-1.6108878E0,2.5205812E0,8.6159765E-4,-9.372432E-3,-6.552506E-3,5.2232534E-4,7.1017635E-1,4.073392E-3,1.1548614E-3,-5.0365487E-3,-3.0635828E-3],"split_indices":[11,11,5,5,5,19,0,0,0,0,5,0,0,0,0],"split_type":[0,0,0,0,0,0,0,0,0,0,0,0,0,0,0],"sum_hessian":[9.5E1,8.7E1,8E0,4.9E1,3.8E1,7E0,1E0,3.1E1,1.8E1,1E0,3.7E1,6E0,1E0,2E1,1.7E1],"tree_param":{"num_deleted":"0","num_feature":"21","num_nodes":"15","size_leaf_vector":"1"}},{"base_weights":[-5.6915927E-1,-6.575852E-1,3.5869E-1,-8.6345977E-1,-4.320866E-1,3.82094E-1,8.572897E-4,-9.510312E-3,-6.9357096E-3,5.1971374E-4,-4.4455236E-1,4.038478E-3,1.1490872E-3,-5.740931E-3,-3.4652478E-1,-3.845385E-3,-2.2777086E-3],"categories":[],"categories_nodes":[],"categories_segments":[],"categories_sizes":[],"default_left":[0,0,0,0,0,0,0,0,0,0,0,0,0,0,0,0,0],"id":23,"left_children":[1,3,5,7,9,11,-1,-1,-1,-1,13,-1,-1,-1,15,-1,-1],"loss_changes":[8.112282E0,3.712265E0,2.4738789E-2,9.8724365E-3,2.886076E-1,9.286404E-5,0E0,0E0,0E0,0E0,3.4710026E-1,0E0,0E0,0E0,3.429866E-2,0E0,0E0],"parents":[2147483647,0,0,1,1,2,2,3,3,4,4,5,5,10,10,14,14],"right_children":[2,4,6,8,10,12,-1,-1,-1,-1,14,-1,-1,-1,16,-1,-1],"split_conditions":[1.6206071E0,-2.7631977E-1,1.5069596E0,-7.6625293E-1,-1.6108878E0,2.5205812E0,8.572897E-4,-9.510312E-3,-6.9357096E-3,5.1971374E-4,3.983916E-1,4.038478E-3,1.1490872E-3,-5.740931E-3,7.6762515E-1,-3.845385E-3,-2.2777086E-3],"split_indices":[11,11,5,11,5,19,0,0,0,0,5,0,0,0,6,0,0],"split_type":[0,0,0,0,0,0,0,0,0,0,0,0,0,0,0,0,0],"sum_hessian":[9.5E1,8.7E1,8E0,4.4E1,4.3E1,7E0,1E0,2.6E1,1.8E1,1E0,4.2E1,6E0,1E0,1.6E1,2.6E1,1.8E1,8E0],"tree_param":{"num_deleted":"0","num_feature":"21","num_nodes":"17","size_leaf_vector":"1"}},{"base_weights":[-5.636942E-1,-6.5132517E-1,3.5577476E-1,-8.369905E-1,-4.0760204E-1,3.789215E-3,8.5300324E-4,-9.1935275E-3,-6.4406907E-3,5.171153E-4,-4.2070523E-1,-5.047189E-3,-3.0570563E-3],"categories":[],"categories_nodes":[],"categories_segments":[],"categories_sizes":[],"default_left":[0,0,0,0,0,0,0,0,0,0,0,0,0],"id":24,"left_children":[1,3,5,7,9,-1,-1,-1,-1,-1,11,-1,-1],"loss_changes":[7.9668217E0,3.6409225E0,2.4023294E-2,1.8645859E-1,2.6249504E-1,0E0,0E0,0E0,0E0,0E0,2.2250462E-1,0E0,0E0],"parents":[2147483647,0,0,1,1,2,2,3,3,4,4,10,10],"right_children":[2,4,6,8,10,-1,-1,-1,-1,-1,12,-1,-1],"split_conditions":[1.6206071E0,-2.1103737E-1,1.5069596E0,-5.716053E-1,-1.6108878E0,3.789215E-3,8.5300324E-4,-9.1935275E-3,-6.4406907E-3,5.171153E-4,6.755336E-1,-5.047189E-3,-3.0570563E-3],"split_indices":[11,11,5,5,5,0,0,0,0,0,5,0,0],"split_type":[0,0,0,0,0,0,0,0,0,0,0,0,0],"sum_hessian":[9.5E1,8.7E1,8E0,4.8E1,3.9E1,7E0,1E0,3.1E1,1.7E1,1E0,3.8E1,2E1,1.8E1],"tree_param":{"num_deleted":"0","num_feature":"21","num_nodes":"13","size_leaf_vector":"1"}},{"base_weights":[-5.582508E-1,-6.450758E-1,3.5273284E-1,-8.24654E-1,-3.9830694E-1,3.7560597E-1,8.4873824E-4,-9.192146E-3,-6.50298E-3,5.1452965E-4,-4.1149676E-1,3.971384E-3,1.124396E-3,-4.8506553E-3,-2.9208437E-3],"categories":[],"categories_nodes":[],"categories_segments":[],"categories_sizes":[],"default_left":[0,0,0,0,0,0,0,0,0,0,0,0,0,0,0],"id":25,"left_children":[1,3,5,7,9,11,-1,-1,-1,-1,13,-1,-1,-1,-1],"loss_changes":[7.820774E0,3.5711899E0,2.3262024E-2,2.2659683E-1,2.525301E-1,6.787777E-4,0E0,0E0,0E0,0E0,1.9215155E-1,0E0,0E0,0E0,0E0],"parents":[2147483647,0,0,1,1,2,2,3,3,4,4,5,5,10,10],"right_children":[2,4,6,8,10,12,-1,-1,-1,-1,14,-1,-1,-1,-1],"split_conditions":[1.6206071E0,-1.9424622E-1,1.5069596E0,-6.4089084E-1,-1.6108878E0,2.5205812E0,8.4873824E-4,-9.192146E-3,-6.50298E-3,5.1452965E-4,7.448191E-1,3.971384E-3,1.124396E-3,-4.8506553E-3,-2.9208437E-3],"split_indices":[11,11,5,5,5,19,0,0,0,0,5,0,0,0,0],"split_type":[0,0,0,0,0,0,0,0,0,0,0,0,0,0,0],"sum_hessian":[9.5E1,8.7E1,8E0,4.9E1,3.8E1,7E0,1E0,2.9E1,2E1,1E0,3.7E1,6E0,1E0,2.1E1,1.6E1],"tree_param":{"num_deleted":"0","num_feature":"21","num_nodes":"15","size_leaf_vector":"1"}},{"base_weights":[-5.528454E-1,-6.3888586E-1,3.49866E-1,-8.389052E-1,-4.1980046E-1,3.724869E-1,8.444947E-4,-9.556892E-3,-7.072504E-3,5.119571E-4,-4.3194446E-1,3.937343E-3,1.1187741E-3,-5.5856034E-3,-3.362254E-1,-3.7337856E-3,-2.2043255E-3],"categories":[],"categories_nodes":[],"categories_segments":[],"categories_sizes":[],"default_left":[0,0,0,0,0,0,0,0,0,0,0,0,0,0,0,0,0],"id":26,"left_children":[1,3,5,7,9,11,-1,-1,-1,-1,13,-1,-1,-1,15,-1,-1],"loss_changes":[7.6798115E0,3.5041046E0,2.2579193E-2,1.597023E-2,2.7378416E-1,2.4843216E-4,0E0,0E0,0E0,0E0,3.3333874E-1,0E0,0E0,0E0,3.3851147E-2,0E0,0E0],"parents":[2147483647,0,0,1,1,2,2,3,3,4,4,5,5,10,10,14,14],"right_children":[2,4,6,8,10,12,-1,-1,-1,-1,14,-1,-1,-1,16,-1,-1],"split_conditions":[1.6206071E0,-2.7631977E-1,1.5069596E0,-9.526756E-1,-1.6108878E0,2.5205812E0,8.444947E-4,-9.556892E-3,-7.072504E-3,5.119571E-4,3.983916E-1,3.937343E-3,1.1187741E-3,-5.5856034E-3,7.6762515E-1,-3.7337856E-3,-2.2043255E-3],"split_indices":[11,11,5,5,5,19,0,0,0,0,5,0,0,0,6,0,0],"split_type":[0,0,0,0,0,0,0,0,0,0,0,0,0,0,0,0,0],"sum_hessian":[9.5E1,8.7E1,8E0,4.4E1,4.3E1,7E0,1E0,2E1,2.4E1,1E0,4.2E1,6E0,1E0,1.6E1,2.6E1,1.8E1,8E0],"tree_param":{"num_deleted":"0","num_feature":"21","num_nodes":"17","size_leaf_vector":"1"}},{"base_weights":[-5.475434E-1,-6.3281107E-1,3.4702295E-1,-8.606643E-3,-4.424293E-1,3.69394E-3,8.402723E-4,-5.345075E-1,-3.2040676E-1,5.0939736E-4,-5.589839E-3,-3.4568834E-3,-1.8694736E-3],"categories":[],"categories_nodes":[],"categories_segments":[],"categories_sizes":[],"default_left":[0,0,0,0,0,0,0,0,0,0,0,0,0],"id":27,"left_children":[1,3,5,-1,7,-1,-1,9,11,-1,-1,-1,-1],"loss_changes":[7.542248E0,3.4365768E0,2.1912217E-2,0E0,3.90522E-1,0E0,0E0,4.1537523E-1,1.63517E-2,0E0,0E0,0E0,0E0],"parents":[2147483647,0,0,1,1,2,2,4,4,7,7,8,8],"right_children":[2,4,6,-1,8,-1,-1,10,12,-1,-1,-1,-1],"split_conditions":[1.6206071E0,-3.609963E-1,1.5069596E0,-8.606643E-3,5.023199E-1,3.69394E-3,8.402723E-4,-1.6108878E0,1.1128838E0,5.0939736E-4,-5.589839E-3,-3.4568834E-3,-1.8694736E-3],"split_indices":[11,11,5,0,5,0,0,5,6,0,0,0,0],"split_type":[0,0,0,0,0,0,0,0,0,0,0,0,0],"sum_hessian":[9.5E1,8.7E1,8E0,3.8E1,4.9E1,7E0,1E0,2.6E1,2.3E1,1E0,2.5E1,1.8E1,5E0],"tree_param":{"num_deleted":"0","num_feature":"21","num_nodes":"13","size_leaf_vector":"1"}},{"base_weights":[-5.422188E-1,-6.2669903E-1,3.4405652E-1,-8.011744E-1,-3.869435E-1,3.6616182E-1,8.3607103E-4,-9.025397E-3,-6.4293942E-3,5.068505E-4,-3.9979383E-1,3.871932E-3,1.0947105E-3,-4.80224E-3,-2.9408871E-3],"categories":[],"categories_nodes":[],"categories_segments":[],"categories_sizes":[],"default_left":[0,0,0,0,0,0,0,0,0,0,0,0,0,0,0],"id":28,"left_children":[1,3,5,7,9,11,-1,-1,-1,-1,13,-1,-1,-1,-1],"loss_changes":[7.4034023E0,3.3711548E0,2.1202087E-2,2.2169876E-1,2.395873E-1,8.020401E-4,0E0,0E0,0E0,0E0,1.818428E-1,0E0,0E0,0E0,0E0],"parents":[2147483647,0,0,1,1,2,2,3,3,4,4,5,5,10,10],"right_children":[2,4,6,8,10,12,-1,-1,-1,-1,14,-1,-1,-1,-1],"split_conditions":[1.6206071E0,-1.9424622E-1,1.5069596E0,-7.113522E-1,-1.6108878E0,2.5205812E0,8.3607103E-4,-9.025397E-3,-6.4293942E-3,5.068505E-4,6.755336E-1,3.871932E-3,1.0947105E-3,-4.80224E-3,-2.9408871E-3],"split_indices":[11,11,5,11,5,19,0,0,0,0,5,0,0,0,0],"split_type":[0,0,0,0,0,0,0,0,0,0,0,0,0,0,0],"sum_hessian":[9.5E1,8.7E1,8E0,4.9E1,3.8E1,7E0,1E0,2.7E1,2.2E1,1E0,3.7E1,6E0,1E0,1.9E1,1.8E1],"tree_param":{"num_deleted":"0","num_feature":"21","num_nodes":"15","size_leaf_vector":"1"}},{"base_weights":[-5.369726E-1,-6.206899E-1,3.4126073E-1,-8.150284E-1,-4.0782803E-1,3.6312103E-1,8.318907E-4,-9.29795E-3,-6.8602334E-3,5.0431606E-4,-4.1965806E-1,3.838744E-3,1.089237E-3,-5.4304395E-3,-3.264277E-1,-3.6265973E-3,-2.1366812E-3],"categories":[],"categories_nodes":[],"categories_segments":[],"categories_sizes":[],"default_left":[0,0,0,0,0,0,0,0,0,0,0,0,0,0,0,0,0],"id":29,"left_children":[1,3,5,7,9,11,-1,-1,-1,-1,13,-1,-1,-1,15,-1,-1],"loss_changes":[7.2700577E0,3.30793E0,2.0565987E-2,2.8383255E-2,2.596979E-1,3.9052963E-4,0E0,0E0,0E0,0E0,3.1737804E-1,0E0,0E0,0E0,3.2819748E-2,0E0,0E0],"parents":[2147483647,0,0,1,1,2,2,3,3,4,4,5,5,10,10,14,14],"right_children":[2,4,6,8,10,12,-1,-1,-1,-1,14,-1,-1,-1,16,-1,-1],"split_conditions":[1.6206071E0,-2.7631977E-1,1.5069596E0,-9.526756E-1,-1.6108878E0,2.5205812E0,8.318907E-4,-9.29795E-3,-6.8602334E-3,5.0431606E-4,3.983916E-1,3.838744E-3,1.089237E-3,-5.4304395E-3,7.6762515E-1,-3.6265973E-3,-2.1366812E-3],"split_indices":[11,11,5,5,5,19,0,0,0,0,5,0,0,0,6,0,0],"split_type":[0,0,0,0,0,0,0,0,0,0,0,0,0,0,0,0,0],"sum_hessian":[9.5E1,8.7E1,8E0,4.4E1,4.3E1,7E0,1E0,2E1,2.4E1,1E0,4.2E1,6E0,1E0,1.6E1,2.6E1,1.8E1,8E0],"tree_param":{"num_deleted":"0","num_feature":"21","num_nodes":"17","size_leaf_vector":"1"}},{"base_weights":[-5.318225E-1,-6.147881E-1,3.384881E-1,-8.362821E-3,-4.2972693E-1,3.6010584E-3,8.2773116E-4,-5.272483E-1,-3.194284E-1,5.017945E-4,-5.533986E-3,-3.4771955E-3,-1.9296398E-3],"categories":[],"categories_nodes":[],"categories_segments":[],"categories_sizes":[],"default_left":[0,0,0,0,0,0,0,0,0,0,0,0,0],"id":30,"left_children":[1,3,5,-1,7,-1,-1,9,11,-1,-1,-1,-1],"loss_changes":[7.1398582E0,3.2477455E0,1.9944668E-2,0E0,3.694048E-1,0E0,0E0,4.0526676E-1,2.5926113E-2,0E0,0E0,0E0,0E0],"parents":[2147483647,0,0,1,1,2,2,4,4,7,7,8,8],"right_children":[2,4,6,-1,8,-1,-1,10,12,-1,-1,-1,-1],"split_conditions":[1.6206071E0,-3.609963E-1,1.5069596E0,-8.362821E-3,1.2217334E-1,3.6010584E-3,8.2773116E-4,-1.6108878E0,9.977976E-1,5.017945E-4,-5.533986E-3,-3.4771955E-3,-1.9296398E-3],"split_indices":[11,11,5,0,10,0,0,5,6,0,0,0,0],"split_type":[0,0,0,0,0,0,0,0,0,0,0,0,0],"sum_hessian":[9.5E1,8.7E1,8E0,3.8E1,4.9E1,7E0,1E0,2.4E1,2.5E1,1E0,2.3E1,1.9E1,6E0],"tree_param":{"num_deleted":"0","num_feature":"21","num_nodes":"13","size_leaf_vector":"1"}},{"base_weights":[-5.26654E-1,-6.088539E-1,3.355953E-1,-8.281338E-3,-4.2563844E-1,3.569549E-1,8.2359253E-4,-5.264135E-1,-3.2029623E-1,3.7749745E-3,1.0657855E-3,4.9928547E-4,-5.536427E-3,-3.5972695E-3,-2.1729125E-3],"categories":[],"categories_nodes":[],"categories_segments":[],"categories_sizes":[],"default_left":[0,0,0,0,0,0,0,0,0,0,0,0,0,0,0],"id":31,"left_children":[1,3,5,-1,7,9,-1,11,13,-1,-1,-1,-1,-1,-1],"loss_changes":[7.008503E0,3.1829567E0,1.928258E-2,0E0,3.6218452E-1,9.138584E-4,0E0,4.042821E-1,3.1496763E-2,0E0,0E0,0E0,0E0,0E0,0E0],"parents":[2147483647,0,0,1,1,2,2,4,4,5,5,7,7,8,8],"right_children":[2,4,6,-1,8,10,-1,12,14,-1,-1,-1,-1,-1,-1],"split_conditions":[1.6206071E0,-3.609963E-1,1.5069596E0,-8.281338E-3,3.983916E-1,2.5205812E0,8.2359253E-4,-1.6108878E0,6.525389E-1,3.7749745E-3,1.0657855E-3,4.9928547E-4,-5.536427E-3,-3.5972695E-3,-2.1729125E-3],"split_indices":[11,11,5,0,5,19,0,5,6,0,0,0,0,0,0],"split_type":[0,0,0,0,0,0,0,0,0,0,0,0,0,0,0],"sum_hessian":[9.5E1,8.7E1,8E0,3.8E1,4.9E1,7E0,1E0,2.3E1,2.6E1,6E0,1E0,1E0,2.2E1,1.7E1,9E0],"tree_param":{"num_deleted":"0","num_feature":"21","num_nodes":"15","size_leaf_vector":"1"}},{"base_weights":[-5.215273E-1,-6.029822E-1,3.328687E-1,-7.708316E-1,-3.7232974E-1,3.5399044E-1,8.1947446E-4,-8.7409895E-3,-6.2253773E-3,4.967889E-4,-3.847426E-1,3.7426173E-3,1.0604566E-3,-4.5366553E-3,-2.729162E-3],"categories":[],"categories_nodes":[],"categories_segments":[],"categories_sizes":[],"default_left":[0,0,0,0,0,0,0,0,0,0,0,0,0,0,0],"id":32,"left_children":[1,3,5,7,9,11,-1,-1,-1,-1,13,-1,-1,-1,-1],"loss_changes":[6.881815E0,3.1199036E0,1.8690348E-2,2.2153473E-1,2.2340822E-1,5.2046776E-4,0E0,0E0,0E0,0E0,1.6906881E-1,0E0,0E0,0E0,0E0],"parents":[2147483647,0,0,1,1,2,2,3,3,4,4,5,5,10,10],"right_children":[2,4,6,8,10,12,-1,-1,-1,-1,14,-1,-1,-1,-1],"split_conditions":[1.6206071E0,-1.9424622E-1,1.5069596E0,-7.6625293E-1,-1.6108878E0,2.5205812E0,8.1947446E-4,-8.7409895E-3,-6.2253773E-3,4.967889E-4,7.448191E-1,3.7426173E-3,1.0604566E-3,-4.5366553E-3,-2.729162E-3],"split_indices":[11,11,5,11,5,19,0,0,0,0,5,0,0,0,0],"split_type":[0,0,0,0,0,0,0,0,0,0,0,0,0,0,0],"sum_hessian":[9.5E1,8.7E1,8E0,4.9E1,3.8E1,7E0,1E0,2.6E1,2.3E1,1E0,3.7E1,6E0,1E0,2.1E1,1.6E1],"tree_param":{"num_deleted":"0","num_feature":"21","num_nodes":"15","size_leaf_vector":"1"}},{"base_weights":[-5.1647985E-1,-5.9719944E-1,3.3016473E-1,-8.123219E-3,-4.1745985E-1,3.510509E-1,8.1537693E-4,-5.1644737E-1,-3.1400946E-1,3.7105375E-3,1.0551541E-3,4.9430487E-4,-5.431999E-3,-3.489518E-3,-2.0535232E-3],"categories":[],"categories_nodes":[],"categories_segments":[],"categories_sizes":[],"default_left":[0,0,0,0,0,0,0,0,0,0,0,0,0,0,0],"id":33,"left_children":[1,3,5,-1,7,9,-1,11,13,-1,-1,-1,-1,-1,-1],"loss_changes":[6.757889E0,3.0634995E0,1.8111825E-2,0E0,3.4984684E-1,1.3941526E-4,0E0,3.901782E-1,3.0853748E-2,0E0,0E0,0E0,0E0,0E0,0E0],"parents":[2147483647,0,0,1,1,2,2,4,4,5,5,7,7,8,8],"right_children":[2,4,6,-1,8,10,-1,12,14,-1,-1,-1,-1,-1,-1],"split_conditions":[1.6206071E0,-3.609963E-1,1.5069596E0,-8.123219E-3,3.983916E-1,2.5205812E0,8.1537693E-4,-1.6108878E0,7.6762515E-1,3.7105375E-3,1.0551541E-3,4.9430487E-4,-5.431999E-3,-3.489518E-3,-2.0535232E-3],"split_indices":[11,11,5,0,5,19,0,5,6,0,0,0,0,0,0],"split_type":[0,0,0,0,0,0,0,0,0,0,0,0,0,0,0],"sum_hessian":[9.5E1,8.7E1,8E0,3.8E1,4.9E1,7E0,1E0,2.3E1,2.6E1,6E0,1E0,1E0,2.2E1,1.8E1,8E0],"tree_param":{"num_deleted":"0","num_feature":"21","num_nodes":"15","size_leaf_vector":"1"}},{"base_weights":[-5.114507E-1,-5.9143883E-1,3.274832E-1,-8.044071E-3,-4.1349486E-1,3.481361E-3,8.1129995E-4,-5.114886E-1,-3.1107464E-1,4.918334E-4,-5.3800405E-3,-3.4945218E-3,-2.1088761E-3],"categories":[],"categories_nodes":[],"categories_segments":[],"categories_sizes":[],"default_left":[0,0,0,0,0,0,0,0,0,0,0,0,0],"id":34,"left_children":[1,3,5,-1,7,-1,-1,9,11,-1,-1,-1,-1],"loss_changes":[6.635744E0,3.002266E0,1.7546892E-2,0E0,3.4271526E-1,0E0,0E0,3.8325644E-1,3.011775E-2,0E0,0E0,0E0,0E0],"parents":[2147483647,0,0,1,1,2,2,4,4,7,7,8,8],"right_children":[2,4,6,-1,8,-1,-1,10,12,-1,-1,-1,-1],"split_conditions":[1.6206071E0,-3.609963E-1,1.5069596E0,-8.044071E-3,3.983916E-1,3.481361E-3,8.1129995E-4,-1.6108878E0,6.525389E-1,4.918334E-4,-5.3800405E-3,-3.4945218E-3,-2.1088761E-3],"split_indices":[11,11,5,0,5,0,0,5,6,0,0,0,0],"split_type":[0,0,0,0,0,0,0,0,0,0,0,0,0],"sum_hessian":[9.5E1,8.7E1,8E0,3.8E1,4.9E1,7E0,1E0,2.3E1,2.6E1,1E0,2.2E1,1.7E1,9E0],"tree_param":{"num_deleted":"0","num_feature":"21","num_nodes":"13","size_leaf_vector":"1"}},{"base_weights":[-5.0648457E-1,-5.857351E-1,3.2468534E-1,-7.690716E-1,-3.8491967E-1,3.450899E-1,8.072436E-4,-8.813661E-3,-6.439814E-3,4.893741E-4,-3.9614743E-1,3.6488927E-3,1.0324713E-3,-5.125712E-3,-3.0817142E-1,-3.4240826E-3,-2.016524E-3],"categories":[],"categories_nodes":[],"categories_segments":[],"categories_sizes":[],"default_left":[0,0,0,0,0,0,0,0,0,0,0,0,0,0,0,0,0],"id":35,"left_children":[1,3,5,7,9,11,-1,-1,-1,-1,13,-1,-1,-1,15,-1,-1],"loss_changes":[6.5137596E0,2.9438457E0,1.694411E-2,6.453323E-2,2.3372126E-1,6.328821E-4,0E0,0E0,0E0,0E0,2.8246784E-1,0E0,0E0,0E0,2.9417992E-2,0E0,0E0],"parents":[2147483647,0,0,1,1,2,2,3,3,4,4,5,5,10,10,14,14],"right_children":[2,4,6,8,10,12,-1,-1,-1,-1,14,-1,-1,-1,16,-1,-1],"split_conditions":[1.6206071E0,-2.7631977E-1,1.5069596E0,-9.526756E-1,-1.6108878E0,2.5205812E0,8.072436E-4,-8.813661E-3,-6.439814E-3,4.893741E-4,3.983916E-1,3.6488927E-3,1.0324713E-3,-5.125712E-3,7.6762515E-1,-3.4240826E-3,-2.016524E-3],"split_indices":[11,11,5,5,5,19,0,0,0,0,5,0,0,0,6,0,0],"split_type":[0,0,0,0,0,0,0,0,0,0,0,0,0,0,0,0,0],"sum_hessian":[9.5E1,8.7E1,8E0,4.4E1,4.3E1,7E0,1E0,2E1,2.4E1,1E0,4.2E1,6E0,1E0,1.6E1,2.6E1,1.8E1,8E0],"tree_param":{"num_deleted":"0","num_feature":"21","num_nodes":"17","size_leaf_vector":"1"}},{"base_weights":[-5.0162643E-1,-5.8016557E-1,3.2204834E-1,-7.890772E-3,-4.0561122E-1,3.4222418E-1,8.0320745E-4,-4.9758634E-1,-3.0157313E-1,3.6176166E-3,1.027309E-3,4.869273E-4,-5.2237683E-3,-3.2841086E-3,-1.8181202E-3],"categories":[],"categories_nodes":[],"categories_segments":[],"categories_sizes":[],"default_left":[0,0,0,0,0,0,0,0,0,0,0,0,0,0,0],"id":36,"left_children":[1,3,5,-1,7,9,-1,11,13,-1,-1,-1,-1,-1,-1],"loss_changes":[6.397152E0,2.8889885E0,1.640588E-2,0E0,3.283863E-1,2.6863813E-4,0E0,3.6399937E-1,2.3857832E-2,0E0,0E0,0E0,0E0,0E0,0E0],"parents":[2147483647,0,0,1,1,2,2,4,4,5,5,7,7,8,8],"right_children":[2,4,6,-1,8,10,-1,12,14,-1,-1,-1,-1,-1,-1],"split_conditions":[1.6206071E0,-3.609963E-1,1.5069596E0,-7.890772E-3,1.2217334E-1,2.5205812E0,8.0320745E-4,-1.6108878E0,9.977976E-1,3.6176166E-3,1.027309E-3,4.869273E-4,-5.2237683E-3,-3.2841086E-3,-1.8181202E-3],"split_indices":[11,11,5,0,10,19,0,5,6,0,0,0,0,0,0],"split_type":[0,0,0,0,0,0,0,0,0,0,0,0,0,0,0],"sum_hessian":[9.5E1,8.7E1,8E0,3.8E1,4.9E1,7E0,1E0,2.4E1,2.5E1,6E0,1E0,1E0,2.3E1,1.9E1,6E0],"tree_param":{"num_deleted":"0","num_feature":"21","num_nodes":"15","size_leaf_vector":"1"}},{"base_weights":[-4.9673808E-1,-5.745654E-1,3.1943318E-1,-7.383145E-1,-3.5960862E-1,3.3938251E-3,7.991913E-4,-8.654571E-3,-6.207866E-3,4.8449278E-4,-3.7131393E-1,-4.500534E-3,-2.7400878E-1,-2.9364377E-3,-1.5637499E-3],"categories":[],"categories_nodes":[],"categories_segments":[],"categories_sizes":[],"default_left":[0,0,0,0,0,0,0,0,0,0,0,0,0,0,0],"id":37,"left_children":[1,3,5,7,9,-1,-1,-1,-1,-1,11,-1,13,-1,-1],"loss_changes":[6.281492E0,2.8320084E0,1.5880167E-2,1.9493103E-1,2.090478E-1,0E0,0E0,0E0,0E0,0E0,1.7549038E-1,0E0,2.7620792E-4,0E0,0E0],"parents":[2147483647,0,0,1,1,2,2,3,3,4,4,10,10,12,12],"right_children":[2,4,6,8,10,-1,-1,-1,-1,-1,12,-1,14,-1,-1],"split_conditions":[1.6206071E0,-2.1103737E-1,1.5069596E0,-9.526756E-1,-1.6108878E0,3.3938251E-3,7.991913E-4,-8.654571E-3,-6.207866E-3,4.8449278E-4,6.4089084E-1,-4.500534E-3,1.2279701E0,-2.9364377E-3,-1.5637499E-3],"split_indices":[11,11,5,5,5,0,0,0,0,0,5,0,6,0,0],"split_type":[0,0,0,0,0,0,0,0,0,0,0,0,0,0,0],"sum_hessian":[9.5E1,8.7E1,8E0,4.8E1,3.9E1,7E0,1E0,2E1,2.8E1,1E0,3.8E1,1.9E1,1.9E1,1.5E1,4E0],"tree_param":{"num_deleted":"0","num_feature":"21","num_nodes":"15","size_leaf_vector":"1"}},{"base_weights":[-4.9197054E-1,-5.690854E-1,3.1670475E-1,-7.7408534E-3,-3.9780375E-1,3.3641294E-1,7.951954E-4,-4.9198583E-1,-2.9935285E-1,3.5575184E-3,1.0052033E-3,4.8207043E-4,-5.1756846E-3,-3.3632698E-3,-2.0286418E-3],"categories":[],"categories_nodes":[],"categories_segments":[],"categories_sizes":[],"default_left":[0,0,0,0,0,0,0,0,0,0,0,0,0,0,0],"id":38,"left_children":[1,3,5,-1,7,9,-1,11,13,-1,-1,-1,-1,-1,-1],"loss_changes":[6.166876E0,2.7819881E0,1.5319049E-2,0E0,3.1633806E-1,7.3492527E-4,0E0,3.5661936E-1,2.8096199E-2,0E0,0E0,0E0,0E0,0E0,0E0],"parents":[2147483647,0,0,1,1,2,2,4,4,5,5,7,7,8,8],"right_children":[2,4,6,-1,8,10,-1,12,14,-1,-1,-1,-1,-1,-1],"split_conditions":[1.6206071E0,-3.609963E-1,1.5069596E0,-7.7408534E-3,3.983916E-1,2.5205812E0,7.951954E-4,-1.6108878E0,6.525389E-1,3.5575184E-3,1.0052033E-3,4.8207043E-4,-5.1756846E-3,-3.3632698E-3,-2.0286418E-3],"split_indices":[11,11,5,0,5,19,0,5,6,0,0,0,0,0,0],"split_type":[0,0,0,0,0,0,0,0,0,0,0,0,0,0,0],"sum_hessian":[9.5E1,8.7E1,8E0,3.8E1,4.9E1,7E0,1E0,2.3E1,2.6E1,6E0,1E0,1E0,2.2E1,1.7E1,9E0],"tree_param":{"num_deleted":"0","num_feature":"21","num_nodes":"15","size_leaf_vector":"1"}},{"base_weights":[-4.871807E-1,-5.6359714E-1,3.1413302E-1,-7.816457E-3,-4.0485474E-1,3.3361918E-1,7.9121947E-4,-5.020628E-1,-3.0013102E-1,3.5270255E-3,1.0001772E-3,4.7966003E-4,-5.259826E-3,-3.3648866E-3,-2.0103839E-3],"categories":[],"categories_nodes":[],"categories_segments":[],"categories_sizes":[],"default_left":[0,0,0,0,0,0,0,0,0,0,0,0,0,0,0],"id":39,"left_children":[1,3,5,-1,7,9,-1,11,13,-1,-1,-1,-1,-1,-1],"loss_changes":[6.055462E0,2.7295399E0,1.481849E-2,0E0,3.8885498E-1,3.8677454E-4,0E0,3.673005E-1,3.3230305E-2,0E0,0E0,0E0,0E0,0E0,0E0],"parents":[2147483647,0,0,1,1,2,2,4,4,5,5,7,7,8,8],"right_children":[2,4,6,-1,8,10,-1,12,14,-1,-1,-1,-1,-1,-1],"split_conditions":[1.6206071E0,-4.8107073E-1,1.5069596E0,-7.816457E-3,3.6374885E-1,2.5205812E0,7.9121947E-4,-1.6108878E0,6.525389E-1,3.5270255E-3,1.0001772E-3,4.7966003E-4,-5.259826E-3,-3.3648866E-3,-2.0103839E-3],"split_indices":[11,11,5,0,5,19,0,5,6,0,0,0,0,0,0],"split_type":[0,0,0,0,0,0,0,0,0,0,0,0,0,0,0],"sum_hessian":[9.5E1,8.7E1,8E0,3.5E1,5.2E1,7E0,1E0,2.5E1,2.7E1,6E0,1E0,1E0,2.4E1,1.8E1,9E0],"tree_param":{"num_deleted":"0","num_feature":"21","num_nodes":"15","size_leaf_vector":"1"}},{"base_weights":[-4.8244074E-1,-5.581654E-1,3.1158262E-1,-7.7404636E-3,-4.0099782E-1,3.3084887E-1,7.872635E-4,-4.9722606E-1,-2.9732168E-1,3.4967938E-3,9.951764E-4,4.7726184E-4,-5.209332E-3,-3.3693232E-3,-2.0547502E-3],"categories":[],"categories_nodes":[],"categories_segments":[],"categories_sizes":[],"default_left":[0,0,0,0,0,0,0,0,0,0,0,0,0,0,0],"id":40,"left_children":[1,3,5,-1,7,9,-1,11,13,-1,-1,-1,-1,-1,-1],"loss_changes":[5.946121E0,2.6754017E0,1.4329851E-2,0E0,3.8092232E-1,4.9471855E-5,0E0,3.6076307E-1,3.2635927E-2,0E0,0E0,0E0,0E0,0E0,0E0],"parents":[2147483647,0,0,1,1,2,2,4,4,5,5,7,7,8,8],"right_children":[2,4,6,-1,8,10,-1,12,14,-1,-1,-1,-1,-1,-1],"split_conditions":[1.6206071E0,-4.8107073E-1,1.5069596E0,-7.7404636E-3,3.6374885E-1,2.5205812E0,7.872635E-4,-1.6108878E0,5.374527E-1,3.4967938E-3,9.951764E-4,4.7726184E-4,-5.209332E-3,-3.3693232E-3,-2.0547502E-3],"split_indices":[11,11,5,0,5,19,0,5,6,0,0,0,0,0,0],"split_type":[0,0,0,0,0,0,0,0,0,0,0,0,0,0,0],"sum_hessian":[9.5E1,8.7E1,8E0,3.5E1,5.2E1,7E0,1E0,2.5E1,2.7E1,6E0,1E0,1E0,2.4E1,1.7E1,1E1],"tree_param":{"num_deleted":"0","num_feature":"21","num_nodes":"15","size_leaf_vector":"1"}},{"base_weights":[-4.7774774E-1,-5.5278707E-1,3.090534E-1,-7.665209E-3,-3.9717945E-1,3.2810187E-3,7.833272E-4,-4.9243578E-1,-2.945422E-1,4.7487556E-4,-5.1593217E-3,-3.3375018E-3,-2.0360707E-3],"categories":[],"categories_nodes":[],"categories_segments":[],"categories_sizes":[],"default_left":[0,0,0,0,0,0,0,0,0,0,0,0,0],"id":41,"left_children":[1,3,5,-1,7,-1,-1,9,11,-1,-1,-1,-1],"loss_changes":[5.8387833E0,2.6223125E0,1.3852775E-2,0E0,3.7312984E-1,0E0,0E0,3.543434E-1,3.1876802E-2,0E0,0E0,0E0,0E0],"parents":[2147483647,0,0,1,1,2,2,4,4,7,7,8,8],"right_children":[2,4,6,-1,8,-1,-1,10,12,-1,-1,-1,-1],"split_conditions":[1.6206071E0,-4.8107073E-1,1.5069596E0,-7.665209E-3,3.6374885E-1,3.2810187E-3,7.833272E-4,-1.6108878E0,5.374527E-1,4.7487556E-4,-5.1593217E-3,-3.3375018E-3,-2.0360707E-3],"split_indices":[11,11,5,0,5,0,0,5,6,0,0,0,0],"split_type":[0,0,0,0,0,0,0,0,0,0,0,0,0],"sum_hessian":[9.5E1,8.7E1,8E0,3.5E1,5.2E1,7E0,1E0,2.5E1,2.7E1,1E0,2.4E1,1.7E1,1E1],"tree_param":{"num_deleted":"0","num_feature":"21","num_nodes":"13","size_leaf_vector":"1"}},{"base_weights":[-4.7311255E-1,-5.474606E-1,3.0641448E-1,-7.187885E-1,-3.5979664E-1,3.2523102E-1,7.794106E-4,-8.603656E-3,-6.193211E-3,4.725012E-4,-3.703617E-1,3.4386986E-3,9.7379566E-4,-4.7893953E-3,-2.8828073E-1,-3.2028193E-3,-1.8869146E-3],"categories":[],"categories_nodes":[],"categories_segments":[],"categories_sizes":[],"default_left":[0,0,0,0,0,0,0,0,0,0,0,0,0,0,0,0,0],"id":42,"left_children":[1,3,5,7,9,11,-1,-1,-1,-1,13,-1,-1,-1,15,-1,-1],"loss_changes":[5.731558E0,2.5707664E0,1.3342857E-2,1.00860596E-1,2.0671988E-1,4.891753E-4,0E0,0E0,0E0,0E0,2.4515486E-1,0E0,0E0,0E0,2.5613546E-2,0E0,0E0],"parents":[2147483647,0,0,1,1,2,2,3,3,4,4,5,5,10,10,14,14],"right_children":[2,4,6,8,10,12,-1,-1,-1,-1,14,-1,-1,-1,16,-1,-1],"split_conditions":[1.6206071E0,-2.7631977E-1,1.5069596E0,-1.0240623E0,-1.6108878E0,2.5205812E0,7.794106E-4,-8.603656E-3,-6.193211E-3,4.725012E-4,3.983916E-1,3.4386986E-3,9.7379566E-4,-4.7893953E-3,7.6762515E-1,-3.2028193E-3,-1.8869146E-3],"split_indices":[11,11,5,11,5,19,0,0,0,0,5,0,0,0,6,0,0],"split_type":[0,0,0,0,0,0,0,0,0,0,0,0,0,0,0,0,0],"sum_hessian":[9.5E1,8.7E1,8E0,4.4E1,4.3E1,7E0,1E0,1.5E1,2.9E1,1E0,4.2E1,6E0,1E0,1.6E1,2.6E1,1.8E1,8E0],"tree_param":{"num_deleted":"0","num_feature":"21","num_nodes":"17","size_leaf_vector":"1"}},{"base_weights":[-4.6857947E-1,-5.4226106E-1,3.0392718E-1,-7.5204307E-3,-3.8953626E-1,3.2253027E-1,7.7551365E-4,-4.8280287E-1,-2.8901955E-1,3.4092239E-3,9.689265E-4,4.7013877E-4,-5.058761E-3,-3.2748508E-3,-1.9980147E-3],"categories":[],"categories_nodes":[],"categories_segments":[],"categories_sizes":[],"default_left":[0,0,0,0,0,0,0,0,0,0,0,0,0,0,0],"id":43,"left_children":[1,3,5,-1,7,9,-1,11,13,-1,-1,-1,-1,-1,-1],"loss_changes":[5.6290817E0,2.5264778E0,1.2888908E-2,0E0,3.5732746E-1,1.667738E-4,0E0,3.4162235E-1,3.0658722E-2,0E0,0E0,0E0,0E0,0E0,0E0],"parents":[2147483647,0,0,1,1,2,2,4,4,5,5,7,7,8,8],"right_children":[2,4,6,-1,8,10,-1,12,14,-1,-1,-1,-1,-1,-1],"split_conditions":[1.6206071E0,-4.8107073E-1,1.5069596E0,-7.5204307E-3,3.6374885E-1,2.5205812E0,7.7551365E-4,-1.6108878E0,5.374527E-1,3.4092239E-3,9.689265E-4,4.7013877E-4,-5.058761E-3,-3.2748508E-3,-1.9980147E-3],"split_indices":[11,11,5,0,5,19,0,5,6,0,0,0,0,0,0],"split_type":[0,0,0,0,0,0,0,0,0,0,0,0,0,0,0],"sum_hessian":[9.5E1,8.7E1,8E0,3.5E1,5.2E1,7E0,1E0,2.5E1,2.7E1,6E0,1E0,1E0,2.4E1,1.7E1,1E1],"tree_param":{"num_deleted":"0","num_feature":"21","num_nodes":"15","size_leaf_vector":"1"}},{"base_weights":[-4.6402106E-1,-5.3703594E-1,3.0146056E-1,-7.4473154E-3,-3.8582698E-1,3.1985221E-3,7.71636E-4,-4.7815132E-1,-2.8631768E-1,4.6778796E-4,-5.0101965E-3,-3.2439213E-3,-1.979851E-3],"categories":[],"categories_nodes":[],"categories_segments":[],"categories_sizes":[],"default_left":[0,0,0,0,0,0,0,0,0,0,0,0,0],"id":44,"left_children":[1,3,5,-1,7,-1,-1,9,11,-1,-1,-1,-1],"loss_changes":[5.527487E0,2.4763412E0,1.2445867E-2,0E0,3.500142E-1,0E0,0E0,3.3554888E-1,2.9945374E-2,0E0,0E0,0E0,0E0],"parents":[2147483647,0,0,1,1,2,2,4,4,7,7,8,8],"right_children":[2,4,6,-1,8,-1,-1,10,12,-1,-1,-1,-1],"split_conditions":[1.6206071E0,-4.8107073E-1,1.5069596E0,-7.4473154E-3,3.6374885E-1,3.1985221E-3,7.71636E-4,-1.6108878E0,5.374527E-1,4.6778796E-4,-5.0101965E-3,-3.2439213E-3,-1.979851E-3],"split_indices":[11,11,5,0,5,0,0,5,6,0,0,0,0],"split_type":[0,0,0,0,0,0,0,0,0,0,0,0,0],"sum_hessian":[9.5E1,8.7E1,8E0,3.5E1,5.2E1,7E0,1E0,2.5E1,2.7E1,1E0,2.4E1,1.7E1,1E1],"tree_param":{"num_deleted":"0","num_feature":"21","num_nodes":"13","size_leaf_vector":"1"}},{"base_weights":[-4.595188E-1,-5.3186125E-1,2.988871E-1,-7.374911E-3,-3.8215297E-1,3.1705356E-1,7.6777785E-4,-4.735445E-1,-2.8364104E-1,3.3525862E-3,9.4808935E-4,4.654491E-4,-4.962099E-3,-3.17925E-3,-1.9013744E-3],"categories":[],"categories_nodes":[],"categories_segments":[],"categories_sizes":[],"default_left":[0,0,0,0,0,0,0,0,0,0,0,0,0,0,0],"id":45,"left_children":[1,3,5,-1,7,9,-1,11,13,-1,-1,-1,-1,-1,-1],"loss_changes":[5.4260006E0,2.4272003E0,1.1971772E-2,0E0,3.428502E-1,5.823374E-4,0E0,3.295846E-1,2.9309511E-2,0E0,0E0,0E0,0E0,0E0,0E0],"parents":[2147483647,0,0,1,1,2,2,4,4,5,5,7,7,8,8],"right_children":[2,4,6,-1,8,10,-1,12,14,-1,-1,-1,-1,-1,-1],"split_conditions":[1.6206071E0,-4.8107073E-1,1.5069596E0,-7.374911E-3,3.6374885E-1,2.5205812E0,7.6777785E-4,-1.6108878E0,6.525389E-1,3.3525862E-3,9.4808935E-4,4.654491E-4,-4.962099E-3,-3.17925E-3,-1.9013744E-3],"split_indices":[11,11,5,0,5,19,0,5,6,0,0,0,0,0,0],"split_type":[0,0,0,0,0,0,0,0,0,0,0,0,0,0,0],"sum_hessian":[9.5E1,8.7E1,8E0,3.5E1,5.2E1,7E0,1E0,2.5E1,2.7E1,6E0,1E0,1E0,2.4E1,1.8E1,9E0],"tree_param":{"num_deleted":"0","num_feature":"21","num_nodes":"15","size_leaf_vector":"1"}},{"base_weights":[-4.5504737E-1,-5.2673525E-1,2.964614E-1,-7.163315E-3,-3.683154E-1,3.1442058E-1,7.63939E-4,-4.447846E-1,-2.6694107E-1,3.32385E-3,9.43349E-4,4.6312183E-4,-4.6545416E-3,-2.8855011E-3,-1.540223E-3],"categories":[],"categories_nodes":[],"categories_segments":[],"categories_sizes":[],"default_left":[0,0,0,0,0,0,0,0,0,0,0,0,0,0,0],"id":46,"left_children":[1,3,5,-1,7,9,-1,11,13,-1,-1,-1,-1,-1,-1],"loss_changes":[5.328066E0,2.3793163E0,1.1550307E-2,0E0,2.688694E-1,2.7412176E-4,0E0,2.9562664E-1,1.4118552E-2,0E0,0E0,0E0,0E0,0E0,0E0],"parents":[2147483647,0,0,1,1,2,2,4,4,5,5,7,7,8,8],"right_children":[2,4,6,-1,8,10,-1,12,14,-1,-1,-1,-1,-1,-1],"split_conditions":[1.6206071E0,-3.609963E-1,1.5069596E0,-7.163315E-3,5.023199E-1,2.5205812E0,7.63939E-4,-1.6108878E0,1.1128838E0,3.32385E-3,9.43349E-4,4.6312183E-4,-4.6545416E-3,-2.8855011E-3,-1.540223E-3],"split_indices":[11,11,5,0,5,19,0,5,6,0,0,0,0,0,0],"split_type":[0,0,0,0,0,0,0,0,0,0,0,0,0,0,0],"sum_hessian":[9.5E1,8.7E1,8E0,3.8E1,4.9E1,7E0,1E0,2.6E1,2.3E1,6E0,1E0,1E0,2.5E1,1.8E1,5E0],"tree_param":{"num_deleted":"0","num_feature":"21","num_nodes":"15","size_leaf_vector":"1"}},{"base_weights":[-4.5060888E-1,-5.216472E-1,2.940558E-1,-7.233567E-3,-3.7479457E-1,3.1180978E-3,7.6011923E-4,-4.6441385E-1,-2.7819115E-1,4.608062E-4,-4.8667686E-3,-3.152075E-3,-1.9232883E-3],"categories":[],"categories_nodes":[],"categories_segments":[],"categories_sizes":[],"default_left":[0,0,0,0,0,0,0,0,0,0,0,0,0],"id":47,"left_children":[1,3,5,-1,7,-1,-1,9,11,-1,-1,-1,-1],"loss_changes":[5.2317677E0,2.3355885E0,1.1139095E-2,0E0,3.2965326E-1,0E0,0E0,3.1791973E-1,2.8369188E-2,0E0,0E0,0E0,0E0],"parents":[2147483647,0,0,1,1,2,2,4,4,7,7,8,8],"right_children":[2,4,6,-1,8,-1,-1,10,12,-1,-1,-1,-1],"split_conditions":[1.6206071E0,-4.8107073E-1,1.5069596E0,-7.233567E-3,3.6374885E-1,3.1180978E-3,7.6011923E-4,-1.6108878E0,5.374527E-1,4.608062E-4,-4.8667686E-3,-3.152075E-3,-1.9232883E-3],"split_indices":[11,11,5,0,5,0,0,5,6,0,0,0,0],"split_type":[0,0,0,0,0,0,0,0,0,0,0,0,0],"sum_hessian":[9.5E1,8.7E1,8E0,3.5E1,5.2E1,7E0,1E0,2.5E1,2.7E1,1E0,2.4E1,1.7E1,1E1],"tree_param":{"num_deleted":"0","num_feature":"21","num_nodes":"13","size_leaf_vector":"1"}},{"base_weights":[-4.4623652E-1,-5.166207E-1,2.9154614E-1,-6.6040504E-1,-3.1903508E-1,3.0908144E-1,7.5631856E-4,-8.178564E-3,-5.6955856E-3,4.5850215E-4,-3.298439E-1,3.268633E-3,9.2304166E-4,-3.9631855E-3,-2.4251037E-3],"categories":[],"categories_nodes":[],"categories_segments":[],"categories_sizes":[],"default_left":[0,0,0,0,0,0,0,0,0,0,0,0,0,0,0],"id":48,"left_children":[1,3,5,7,9,11,-1,-1,-1,-1,13,-1,-1,-1,-1],"loss_changes":[5.135729E0,2.28936E0,1.0698676E-2,2.493782E-1,1.6893864E-1,6.6679716E-4,0E0,0E0,0E0,0E0,1.2449598E-1,0E0,0E0,0E0,0E0],"parents":[2147483647,0,0,1,1,2,2,3,3,4,4,5,5,10,10],"right_children":[2,4,6,8,10,12,-1,-1,-1,-1,14,-1,-1,-1,-1],"split_conditions":[1.6206071E0,-1.9424622E-1,1.5069596E0,-1.0240623E0,-1.6108878E0,2.5205812E0,7.5631856E-4,-8.178564E-3,-5.6955856E-3,4.5850215E-4,6.755336E-1,3.268633E-3,9.2304166E-4,-3.9631855E-3,-2.4251037E-3],"split_indices":[11,11,5,11,5,19,0,0,0,0,5,0,0,0,0],"split_type":[0,0,0,0,0,0,0,0,0,0,0,0,0,0,0],"sum_hessian":[9.5E1,8.7E1,8E0,4.9E1,3.8E1,7E0,1E0,1.5E1,3.4E1,1E0,3.7E1,6E0,1E0,1.9E1,1.8E1],"tree_param":{"num_deleted":"0","num_feature":"21","num_nodes":"15","size_leaf_vector":"1"}},{"base_weights":[-4.419289E-1,-5.1167953E-1,2.8918046E-1,-7.0975213E-3,-3.674853E-1,3.0651456E-1,7.5253693E-4,-4.5536566E-1,-2.7275765E-1,3.240616E-3,9.184265E-4,4.5620976E-4,-4.7722994E-3,-3.0917113E-3,-1.8837575E-3],"categories":[],"categories_nodes":[],"categories_segments":[],"categories_sizes":[],"default_left":[0,0,0,0,0,0,0,0,0,0,0,0,0,0,0],"id":49,"left_children":[1,3,5,-1,7,9,-1,11,13,-1,-1,-1,-1,-1,-1],"loss_changes":[5.04352E0,2.2525368E0,1.0307789E-2,0E0,3.1700468E-1,3.721714E-4,0E0,3.0656815E-1,2.7793646E-2,0E0,0E0,0E0,0E0,0E0,0E0],"parents":[2147483647,0,0,1,1,2,2,4,4,5,5,7,7,8,8],"right_children":[2,4,6,-1,8,10,-1,12,14,-1,-1,-1,-1,-1,-1],"split_conditions":[1.6206071E0,-4.8107073E-1,1.5069596E0,-7.0975213E-3,3.6374885E-1,2.5205812E0,7.5253693E-4,-1.6108878E0,5.374527E-1,3.240616E-3,9.184265E-4,4.5620976E-4,-4.7722994E-3,-3.0917113E-3,-1.8837575E-3],"split_indices":[11,11,5,0,5,19,0,5,6,0,0,0,0,0,0],"split_type":[0,0,0,0,0,0,0,0,0,0,0,0,0,0,0],"sum_hessian":[9.5E1,8.7E1,8E0,3.5E1,5.2E1,7E0,1E0,2.5E1,2.7E1,6E0,1E0,1E0,2.4E1,1.7E1,1E1],"tree_param":{"num_deleted":"0","num_feature":"21","num_nodes":"15","size_leaf_vector":"1"}},{"base_weights":[-4.3762916E-1,-5.06749E-1,2.8683436E-1,-7.028518E-3,-3.6398575E-1,3.039693E-1,7.487744E-4,-4.50978E-1,-2.7020776E-1,3.212839E-3,9.1383426E-4,4.539287E-4,-4.7264853E-3,-3.0299406E-3,-1.8089296E-3],"categories":[],"categories_nodes":[],"categories_segments":[],"categories_sizes":[],"default_left":[0,0,0,0,0,0,0,0,0,0,0,0,0,0,0],"id":50,"left_children":[1,3,5,-1,7,9,-1,11,13,-1,-1,-1,-1,-1,-1],"loss_changes":[4.952532E0,2.2078419E0,9.926319E-3,0E0,3.1051397E-1,8.672476E-5,0E0,3.0112743E-1,2.7183056E-2,0E0,0E0,0E0,0E0,0E0,0E0],"parents":[2147483647,0,0,1,1,2,2,4,4,5,5,7,7,8,8],"right_children":[2,4,6,-1,8,10,-1,12,14,-1,-1,-1,-1,-1,-1],"split_conditions":[1.6206071E0,-4.8107073E-1,1.5069596E0,-7.028518E-3,3.6374885E-1,2.5205812E0,7.487744E-4,-1.6108878E0,6.525389E-1,3.212839E-3,9.1383426E-4,4.539287E-4,-4.7264853E-3,-3.0299406E-3,-1.8089296E-3],"split_indices":[11,11,5,0,5,19,0,5,6,0,0,0,0,0,0],"split_type":[0,0,0,0,0,0,0,0,0,0,0,0,0,0,0],"sum_hessian":[9.5E1,8.7E1,8E0,3.5E1,5.2E1,7E0,1E0,2.5E1,2.7E1,6E0,1E0,1E0,2.4E1,1.8E1,9E0],"tree_param":{"num_deleted":"0","num_feature":"21","num_nodes":"15","size_leaf_vector":"1"}}]},"name":"gbtree"},"learner_model_param":{"base_score":"5E-1","boost_from_average":"0","num_class":"0","num_feature":"21","num_target":"1"},"objective":{"name":"reg:squarederror","reg_loss_param":{"scale_pos_weight":"1"}}},"version":[2,1,1]}