{"learner":{"attributes":{"best_iteration":"999","best_score":"0.01248230575863598","scikit_learn":"{\"_estimator_type\": \"regressor\"}"},"feature_names":["hour","dayofweek","quarter","month","year","dayofyear","dayofmonth","weekofyear","lag(1)","lag(2)","lag(3)","lag(4)","lag(5)","rolling_mean(2)","rolling_std(2)"],"feature_types":["float","float","float","float","float","float","float","float","float","float","float","float","float","float","float"],"gradient_booster":{"model":{"gbtree_model_param":{"num_parallel_tree":"1","num_trees":"1000"},"iteration_indptr":[0,1,2,3,4,5,6,7,8,9,10,11,12,13,14,15,16,17,18,19,20,21,22,23,24,25,26,27,28,29,30,31,32,33,34,35,36,37,38,39,40,41,42,43,44,45,46,47,48,49,50,51,52,53,54,55,56,57,58,59,60,61,62,63,64,65,66,67,68,69,70,71,72,73,74,75,76,77,78,79,80,81,82,83,84,85,86,87,88,89,90,91,92,93,94,95,96,97,98,99,100,101,102,103,104,105,106,107,108,109,110,111,112,113,114,115,116,117,118,119,120,121,122,123,124,125,126,127,128,129,130,131,132,133,134,135,136,137,138,139,140,141,142,143,144,145,146,147,148,149,150,151,152,153,154,155,156,157,158,159,160,161,162,163,164,165,166,167,168,169,170,171,172,173,174,175,176,177,178,179,180,181,182,183,184,185,186,187,188,189,190,191,192,193,194,195,196,197,198,199,200,201,202,203,204,205,206,207,208,209,210,211,212,213,214,215,216,217,218,219,220,221,222,223,224,225,226,227,228,229,230,231,232,233,234,235,236,237,238,239,240,241,242,243,244,245,246,247,248,249,250,251,252,253,254,255,256,257,258,259,260,261,262,263,264,265,266,267,268,269,270,271,272,273,274,275,276,277,278,279,280,281,282,283,284,285,286,287,288,289,290,291,292,293,294,295,296,297,298,299,300,301,302,303,304,305,306,307,308,309,310,311,312,313,314,315,316,317,318,319,320,321,322,323,324,325,326,327,328,329,330,331,332,333,334,335,336,337,338,339,340,341,342,343,344,345,346,347,348,349,350,351,352,353,354,355,356,357,358,359,360,361,362,363,364,365,366,367,368,369,370,371,372,373,374,375,376,377,378,379,380,381,382,383,384,385,386,387,388,389,390,391,392,393,394,395,396,397,398,399,400,401,402,403,404,405,406,407,408,409,410,411,412,413,414,415,416,417,418,419,420,421,422,423,424,425,426,427,428,429,430,431,432,433,434,435,436,437,438,439,440,441,442,443,444,445,446,447,448,449,450,451,452,453,454,455,456,457,458,459,460,461,462,463,464,465,466,467,468,469,470,471,472,473,474,475,476,477,478,479,480,481,482,483,484,485,486,487,488,489,490,491,492,493,494,495,496,497,498,499,500,501,502,503,504,505,506,507,508,509,510,511,512,513,514,515,516,517,518,519,520,521,522,523,524,525,526,527,528,529,530,531,532,533,534,535,536,537,538,539,540,541,542,543,544,545,546,547,548,549,550,551,552,553,554,555,556,557,558,559,560,561,562,563,564,565,566,567,568,569,570,571,572,573,574,575,576,577,578,579,580,581,582,583,584,585,586,587,588,589,590,591,592,593,594,595,596,597,598,599,600,601,602,603,604,605,606,607,608,609,610,611,612,613,614,615,616,617,618,619,620,621,622,623,624,625,626,627,628,629,630,631,632,633,634,635,636,637,638,639,640,641,642,643,644,645,646,647,648,649,650,651,652,653,654,655,656,657,658,659,660,661,662,663,664,665,666,667,668,669,670,671,672,673,674,675,676,677,678,679,680,681,682,683,684,685,686,687,688,689,690,691,692,693,694,695,696,697,698,699,700,701,702,703,704,705,706,707,708,709,710,711,712,713,714,715,716,717,718,719,720,721,722,723,724,725,726,727,728,729,730,731,732,733,734,735,736,737,738,739,740,741,742,743,744,745,746,747,748,749,750,751,752,753,754,755,756,757,758,759,760,761,762,763,764,765,766,767,768,769,770,771,772,773,774,775,776,777,778,779,780,781,782,783,784,785,786,787,788,789,790,791,792,793,794,795,796,797,798,799,800,801,802,803,804,805,806,807,808,809,810,811,812,813,814,815,816,817,818,819,820,821,822,823,824,825,826,827,828,829,830,831,832,833,834,835,836,837,838,839,840,841,842,843,844,845,846,847,848,849,850,851,852,853,854,855,856,857,858,859,860,861,862,863,864,865,866,867,868,869,870,871,872,873,874,875,876,877,878,879,880,881,882,883,884,885,886,887,888,889,890,891,892,893,894,895,896,897,898,899,900,901,902,903,904,905,906,907,908,909,910,911,912,913,914,915,916,917,918,919,920,921,922,923,924,925,926,927,928,929,930,931,932,933,934,935,936,937,938,939,940,941,942,943,944,945,946,947,948,949,950,951,952,953,954,955,956,957,958,959,960,961,962,963,964,965,966,967,968,969,970,971,972,973,974,975,976,977,978,979,980,981,982,983,984,985,986,987,988,989,990,991,992,993,994,995,996,997,998,999,1000],"tree_info":[0,0,0,0,0,0,0,0,0,0,0,0,0,0,0,0,0,0,0,0,0,0,0,0,0,0,0,0,0,0,0,0,0,0,0,0,0,0,0,0,0,0,0,0,0,0,0,0,0,0,0,0,0,0,0,0,0,0,0,0,0,0,0,0,0,0,0,0,0,0,0,0,0,0,0,0,0,0,0,0,0,0,0,0,0,0,0,0,0,0,0,0,0,0,0,0,0,0,0,0,0,0,0,0,0,0,0,0,0,0,0,0,0,0,0,0,0,0,0,0,0,0,0,0,0,0,0,0,0,0,0,0,0,0,0,0,0,0,0,0,0,0,0,0,0,0,0,0,0,0,0,0,0,0,0,0,0,0,0,0,0,0,0,0,0,0,0,0,0,0,0,0,0,0,0,0,0,0,0,0,0,0,0,0,0,0,0,0,0,0,0,0,0,0,0,0,0,0,0,0,0,0,0,0,0,0,0,0,0,0,0,0,0,0,0,0,0,0,0,0,0,0,0,0,0,0,0,0,0,0,0,0,0,0,0,0,0,0,0,0,0,0,0,0,0,0,0,0,0,0,0,0,0,0,0,0,0,0,0,0,0,0,0,0,0,0,0,0,0,0,0,0,0,0,0,0,0,0,0,0,0,0,0,0,0,0,0,0,0,0,0,0,0,0,0,0,0,0,0,0,0,0,0,0,0,0,0,0,0,0,0,0,0,0,0,0,0,0,0,0,0,0,0,0,0,0,0,0,0,0,0,0,0,0,0,0,0,0,0,0,0,0,0,0,0,0,0,0,0,0,0,0,0,0,0,0,0,0,0,0,0,0,0,0,0,0,0,0,0,0,0,0,0,0,0,0,0,0,0,0,0,0,0,0,0,0,0,0,0,0,0,0,0,0,0,0,0,0,0,0,0,0,0,0,0,0,0,0,0,0,0,0,0,0,0,0,0,0,0,0,0,0,0,0,0,0,0,0,0,0,0,0,0,0,0,0,0,0,0,0,0,0,0,0,0,0,0,0,0,0,0,0,0,0,0,0,0,0,0,0,0,0,0,0,0,0,0,0,0,0,0,0,0,0,0,0,0,0,0,0,0,0,0,0,0,0,0,0,0,0,0,0,0,0,0,0,0,0,0,0,0,0,0,0,0,0,0,0,0,0,0,0,0,0,0,0,0,0,0,0,0,0,0,0,0,0,0,0,0,0,0,0,0,0,0,0,0,0,0,0,0,0,0,0,0,0,0,0,0,0,0,0,0,0,0,0,0,0,0,0,0,0,0,0,0,0,0,0,0,0,0,0,0,0,0,0,0,0,0,0,0,0,0,0,0,0,0,0,0,0,0,0,0,0,0,0,0,0,0,0,0,0,0,0,0,0,0,0,0,0,0,0,0,0,0,0,0,0,0,0,0,0,0,0,0,0,0,0,0,0,0,0,0,0,0,0,0,0,0,0,0,0,0,0,0,0,0,0,0,0,0,0,0,0,0,0,0,0,0,0,0,0,0,0,0,0,0,0,0,0,0,0,0,0,0,0,0,0,0,0,0,0,0,0,0,0,0,0,0,0,0,0,0,0,0,0,0,0,0,0,0,0,0,0,0,0,0,0,0,0,0,0,0,0,0,0,0,0,0,0,0,0,0,0,0,0,0,0,0,0,0,0,0,0,0,0,0,0,0,0,0,0,0,0,0,0,0,0,0,0,0,0,0,0,0,0,0,0,0,0,0,0,0,0,0,0,0,0,0,0,0,0,0,0,0,0,0,0,0,0,0,0,0,0,0,0,0,0,0,0,0,0,0,0,0,0,0,0,0,0,0,0,0,0,0,0,0,0,0,0,0,0,0,0,0,0,0,0,0,0,0,0,0,0,0,0,0,0,0,0,0,0,0,0,0,0,0,0,0,0,0,0,0,0,0,0,0,0,0,0,0,0,0,0,0,0,0,0,0,0,0,0,0,0,0,0,0,0,0,0,0,0,0,0,0,0,0,0,0,0,0,0,0,0,0,0,0,0,0,0,0,0,0,0,0,0,0,0,0,0,0,0,0,0,0,0,0,0,0,0,0,0,0,0,0,0,0,0,0,0,0,0,0,0,0,0,0,0,0,0,0,0,0,0,0,0,0,0,0,0,0,0,0,0,0,0,0,0,0,0,0,0,0,0,0,0,0,0,0,0,0,0,0,0,0,0,0,0,0,0,0,0,0,0,0,0,0,0,0,0,0,0,0,0,0,0,0,0,0,0,0,0,0,0,0,0,0,0,0,0],"trees":[{"base_weights":[-1.1736695E0,-1.4104542E0,-3.4811747E-1,-1.4811995E0,-1.1283039E0,-6.2429374E-1,9.136285E-2,-1.5340105E0,-1.4060483E0,-6.9427687E-1,-1.154238E0,9.523447E-2,-7.1212417E-1,-1.1446564E-1,2.9629347E-1,-1.5897745E-2,-1.5052254E0,-1.4281805E0,-1.3390167E-2,-8.637778E-3,-5.1975495E-1,-1.2450824E0,-1.0497574E0,-1.749375E-1,2.5307226E-1,-6.165696E-1,-1.3379272E0,-1.8389612E-1,-3.0942772E-2,1.9462667E-1,4.1473907E-1,-1.4525528E-2,-1.5409257E-2,-1.3694859E-2,-1.4680373E-2,-6.01686E-3,-4.1046836E-3,-1.2193063E-2,-1.4085695E-2,-1.0080181E-2,-1.4397632E-2,-2.5490602E-3,-8.669156E-5,9.5471484E-4,3.3822437E-3,-8.090749E-3,-4.9569653E-3,1.7685031E-3,-1.4171197E-2,3.0130984E-3,-1.9948091E-3,3.2395747E-4,-6.5527845E-4,1.4467308E-3,2.4189258E-3,3.5839814E-3,4.9074367E-3],"categories":[],"categories_nodes":[],"categories_segments":[],"categories_sizes":[],"default_left":[0,0,0,0,0,0,0,0,0,0,0,0,0,0,0,0,0,0,0,0,0,0,0,0,0,0,0,0,0,0,0,0,0,0,0,0,0,0,0,0,0,0,0,0,0,0,0,0,0,0,0,0,0,0,0,0,0],"id":0,"left_children":[1,3,5,7,9,11,13,15,17,19,21,23,25,27,29,-1,31,33,-1,-1,35,37,39,41,43,45,47,49,51,53,55,-1,-1,-1,-1,-1,-1,-1,-1,-1,-1,-1,-1,-1,-1,-1,-1,-1,-1,-1,-1,-1,-1,-1,-1,-1,-1],"loss_changes":[1.4962852E3,1.1709473E2,2.0736388E2,1.6710938E1,1.2672119E1,6.636093E1,2.7873085E1,2.0708008E0,1.0163574E0,1.6217575E0,9.399414E0,4.948257E0,5.5086517E1,1.9079909E0,3.9051762E0,0E0,1.2460938E0,1.4257812E0,0E0,0E0,8.432388E-2,8.0255127E-1,7.192566E0,5.6952846E-1,9.4737244E-1,1.8516418E1,1.5005569E1,1.4212365E0,3.328985E-1,3.900032E-1,4.75008E-1,0E0,0E0,0E0,0E0,0E0,0E0,0E0,0E0,0E0,0E0,0E0,0E0,0E0,0E0,0E0,0E0,0E0,0E0,0E0,0E0,0E0,0E0,0E0,0E0,0E0,0E0],"parents":[2147483647,0,0,1,1,2,2,3,3,4,4,5,5,6,6,7,7,8,8,9,9,10,10,11,11,12,12,13,13,14,14,16,16,17,17,20,20,21,21,22,22,23,23,24,24,25,25,26,26,27,27,28,28,29,29,30,30],"right_children":[2,4,6,8,10,12,14,16,18,20,22,24,26,28,30,-1,32,34,-1,-1,36,38,40,42,44,46,48,50,52,54,56,-1,-1,-1,-1,-1,-1,-1,-1,-1,-1,-1,-1,-1,-1,-1,-1,-1,-1,-1,-1,-1,-1,-1,-1,-1,-1],"split_conditions":[5.5308205E-1,-2.3885506E-1,1.8664334E0,-5.6196463E-1,-4.6805713E-1,-6.587428E-2,2.5486689E0,-7.268655E-1,-3.816963E-1,2.2285616E0,1.1606241E-1,4.3731213E0,3.0543513E0,2.1794033E0,3.011636E0,-1.5897745E-2,-6.348095E-1,-4.9232242E-1,-1.3390167E-2,-8.637778E-3,2.6827757E0,2.0218948E-1,7.957016E-1,8.751467E-1,1.0419754E0,1.015914E0,3.4302118E-1,1.0438226E0,-1.0849038E0,2.8030539E0,3.2513747E0,-1.4525528E-2,-1.5409257E-2,-1.3694859E-2,-1.4680373E-2,-6.01686E-3,-4.1046836E-3,-1.2193063E-2,-1.4085695E-2,-1.0080181E-2,-1.4397632E-2,-2.5490602E-3,-8.669156E-5,9.5471484E-4,3.3822437E-3,-8.090749E-3,-4.9569653E-3,1.7685031E-3,-1.4171197E-2,3.0130984E-3,-1.9948091E-3,3.2395747E-4,-6.5527845E-4,1.4467308E-3,2.4189258E-3,3.5839814E-3,4.9074367E-3],"split_indices":[13,13,13,13,8,8,13,13,13,14,13,14,14,13,13,0,8,8,0,0,14,8,8,13,13,13,8,8,0,13,13,0,0,0,0,0,0,0,0,0,0,0,0,0,0,0,0,0,0,0,0,0,0,0,0,0,0],"split_type":[0,0,0,0,0,0,0,0,0,0,0,0,0,0,0,0,0,0,0,0,0,0,0,0,0,0,0,0,0,0,0,0,0,0,0,0,0,0,0,0,0,0,0,0,0,0,0,0,0,0,0,0,0,0,0,0,0],"sum_hessian":[7.656E3,5.949E3,1.707E3,4.753E3,1.196E3,1.048E3,6.59E2,2.78E3,1.973E3,6.9E1,1.127E3,1.14E2,9.34E2,3.29E2,3.3E2,9.28E2,1.852E3,1.468E3,5.05E2,3.3E1,3.6E1,5.97E2,5.3E2,4.2E1,7.2E1,8.12E2,1.22E2,1.79E2,1.5E2,1.79E2,1.51E2,7.65E2,1.087E3,6.08E2,8.6E2,1.8E1,1.8E1,5.23E2,7.4E1,4.82E2,4.8E1,2.8E1,1.4E1,2.6E1,4.6E1,3.11E2,5.01E2,6E0,1.16E2,5E0,1.74E2,5.3E1,9.7E1,8.9E1,9E1,9E1,6.1E1],"tree_param":{"num_deleted":"0","num_feature":"15","num_nodes":"57","size_leaf_vector":"1"}},{"base_weights":[-1.1619546E0,-1.396376E0,-3.4464258E-1,-1.466406E0,-1.117079E0,-6.1807346E-1,9.046899E-2,-1.5280983E0,-1.4031245E0,-6.876021E-1,-1.1427406E0,9.429691E-2,-7.0503014E-1,-1.133189E-1,2.9336786E-1,-1.6025184E-2,-1.5086181E0,-1.4294214E0,-1.3406605E-2,-8.323991E-3,-4.8964316E-1,-1.2326754E0,-1.0393059E0,-1.7324942E-1,2.5060096E-1,-6.104199E-1,-1.3246489E0,-1.820515E-1,-3.0635545E-2,1.9270188E-1,4.1064757E-1,-1.4789543E-2,-1.5628282E-2,-1.3707107E-2,-1.4672708E-2,-2.250503E-3,-5.0925445E-3,-1.2071365E-2,-1.3946717E-2,-9.979588E-3,-1.4256595E-2,-2.5244488E-3,-8.5882406E-5,1.1804968E-3,3.5117634E-3,-7.6747313E-3,-4.652337E-3,1.7533443E-3,-1.4030696E-2,2.9879895E-3,-1.974975E-3,3.2077794E-4,-6.4879266E-4,1.4324242E-3,2.3950022E-3,3.5485355E-3,4.8591536E-3],"categories":[],"categories_nodes":[],"categories_segments":[],"categories_sizes":[],"default_left":[0,0,0,0,0,0,0,0,0,0,0,0,0,0,0,0,0,0,0,0,0,0,0,0,0,0,0,0,0,0,0,0,0,0,0,0,0,0,0,0,0,0,0,0,0,0,0,0,0,0,0,0,0,0,0,0,0],"id":1,"left_children":[1,3,5,7,9,11,13,15,17,19,21,23,25,27,29,-1,31,33,-1,-1,35,37,39,41,43,45,47,49,51,53,55,-1,-1,-1,-1,-1,-1,-1,-1,-1,-1,-1,-1,-1,-1,-1,-1,-1,-1,-1,-1,-1,-1,-1,-1,-1,-1],"loss_changes":[1.4665645E3,1.1473828E2,2.0326169E2,1.6416016E1,1.2406494E1,6.504718E1,2.7323145E1,1.0561523E0,1.9580078E0,1.5988922E0,9.212036E0,4.852553E0,5.4003235E1,1.8698258E0,3.8286781E0,0E0,7.6953125E-1,1.6442871E0,0E0,0E0,5.1440716E-2,7.904053E-1,7.0597534E0,5.585699E-1,9.317355E-1,1.8180939E1,1.4714493E1,1.3959117E0,3.2635945E-1,3.8232517E-1,4.658947E-1,0E0,0E0,0E0,0E0,0E0,0E0,0E0,0E0,0E0,0E0,0E0,0E0,0E0,0E0,0E0,0E0,0E0,0E0,0E0,0E0,0E0,0E0,0E0,0E0,0E0,0E0],"parents":[2147483647,0,0,1,1,2,2,3,3,4,4,5,5,6,6,7,7,8,8,9,9,10,10,11,11,12,12,13,13,14,14,16,16,17,17,20,20,21,21,22,22,23,23,24,24,25,25,26,26,27,27,28,28,29,29,30,30],"right_children":[2,4,6,8,10,12,14,16,18,20,22,24,26,28,30,-1,32,34,-1,-1,36,38,40,42,44,46,48,50,52,54,56,-1,-1,-1,-1,-1,-1,-1,-1,-1,-1,-1,-1,-1,-1,-1,-1,-1,-1,-1,-1,-1,-1,-1,-1,-1,-1],"split_conditions":[5.5308205E-1,-2.3885506E-1,1.8664334E0,-5.9557235E-1,-4.6805713E-1,-6.587428E-2,2.5486689E0,-7.9543465E-1,-4.2052507E-1,1.955706E-1,1.1606241E-1,4.3731213E0,3.0543513E0,2.1794033E0,3.011636E0,-1.6025184E-2,-5.8979607E-1,-5.2125067E-1,-1.3406605E-2,-8.323991E-3,-8.1170166E-1,2.0218948E-1,7.957016E-1,8.751467E-1,1.0838448E0,1.1678537E0,3.4302118E-1,1.0438226E0,-1.0849038E0,2.8030539E0,3.2513747E0,-1.4789543E-2,-1.5628282E-2,-1.3707107E-2,-1.4672708E-2,-2.250503E-3,-5.0925445E-3,-1.2071365E-2,-1.3946717E-2,-9.979588E-3,-1.4256595E-2,-2.5244488E-3,-8.5882406E-5,1.1804968E-3,3.5117634E-3,-7.6747313E-3,-4.652337E-3,1.7533443E-3,-1.4030696E-2,2.9879895E-3,-1.974975E-3,3.2077794E-4,-6.4879266E-4,1.4324242E-3,2.3950022E-3,3.5485355E-3,4.8591536E-3],"split_indices":[13,13,13,13,8,8,13,13,13,13,13,14,14,13,13,0,8,8,0,0,8,8,8,13,13,13,8,8,0,13,13,0,0,0,0,0,0,0,0,0,0,0,0,0,0,0,0,0,0,0,0,0,0,0,0,0,0],"split_type":[0,0,0,0,0,0,0,0,0,0,0,0,0,0,0,0,0,0,0,0,0,0,0,0,0,0,0,0,0,0,0,0,0,0,0,0,0,0,0,0,0,0,0,0,0,0,0,0,0,0,0,0,0,0,0,0,0],"sum_hessian":[7.656E3,5.949E3,1.707E3,4.753E3,1.196E3,1.048E3,6.59E2,2.395E3,2.358E3,6.9E1,1.127E3,1.14E2,9.34E2,3.29E2,3.3E2,4.8E2,1.915E3,1.644E3,7.14E2,3.8E1,3.1E1,5.97E2,5.3E2,4.2E1,7.2E1,8.12E2,1.22E2,1.79E2,1.5E2,1.79E2,1.51E2,1.256E3,6.59E2,6.59E2,9.85E2,3E0,2.8E1,5.23E2,7.4E1,4.82E2,4.8E1,2.8E1,1.4E1,3.2E1,4E1,3.88E2,4.24E2,6E0,1.16E2,5E0,1.74E2,5.3E1,9.7E1,8.9E1,9E1,9E1,6.1E1],"tree_param":{"num_deleted":"0","num_feature":"15","num_nodes":"57","size_leaf_vector":"1"}},{"base_weights":[-1.1503565E0,-1.369182E0,-2.92165E-1,-1.4471215E0,-1.0577692E0,-5.5194044E-1,1.2309675E-1,-1.4960694E0,-1.3599702E0,-6.1040986E-1,-1.0910112E0,-4.537854E-1,-1.2893102E0,-6.384266E-2,3.0900612E-1,-1.54867815E-2,-1.4637246E0,-1.3899692E0,-1.303581E-2,-7.5288314E-1,-3.420064E-1,-1.1795633E0,-9.660894E-1,1.3063443E-1,-5.421023E-1,-7.8385735E-1,-1.39733935E-2,-1.1294591E-1,5.017408E-2,2.0805465E-1,4.065964E-1,-1.40269995E-2,-1.4932486E-2,-1.3142004E-2,-1.4261199E-2,-8.614322E-3,-6.221155E-3,-4.020339E-3,-2.3611144E-3,-1.1552948E-2,-1.4314148E-2,-9.1145765E-3,-1.3869767E-2,-5.26759E-4,2.7931496E-3,-6.8536275E-3,-3.7138325E-3,-4.170217E-3,-8.9535685E-3,3.1713347E-3,-1.2714987E-3,-6.127714E-5,7.796394E-4,2.2072233E-3,7.933055E-4,3.5134398E-3,4.811346E-3],"categories":[],"categories_nodes":[],"categories_segments":[],"categories_sizes":[],"default_left":[0,0,0,0,0,0,0,0,0,0,0,0,0,0,0,0,0,0,0,0,0,0,0,0,0,0,0,0,0,0,0,0,0,0,0,0,0,0,0,0,0,0,0,0,0,0,0,0,0,0,0,0,0,0,0,0,0],"id":2,"left_children":[1,3,5,7,9,11,13,15,17,19,21,23,25,27,29,-1,31,33,-1,35,37,39,41,43,45,47,-1,49,51,53,55,-1,-1,-1,-1,-1,-1,-1,-1,-1,-1,-1,-1,-1,-1,-1,-1,-1,-1,-1,-1,-1,-1,-1,-1,-1,-1],"loss_changes":[1.43754E3,1.4654883E2,1.6802899E2,1.8770508E1,1.7551147E1,6.875171E1,2.0872002E1,3.0302734E0,1.1738281E0,3.069416E0,1.1460083E1,4.378798E1,5.020294E0,1.6852444E0,2.8808212E0,0E0,1.4116211E0,1.2402344E0,0E0,2.5899315E-1,1.08486414E-1,2.392456E0,9.726868E0,3.0672374E0,1.7746033E1,5.264597E-1,0E0,1.3231788E0,1.4285807E-1,2.2708607E-1,4.5695496E-1,0E0,0E0,0E0,0E0,0E0,0E0,0E0,0E0,0E0,0E0,0E0,0E0,0E0,0E0,0E0,0E0,0E0,0E0,0E0,0E0,0E0,0E0,0E0,0E0,0E0,0E0],"parents":[2147483647,0,0,1,1,2,2,3,3,4,4,5,5,6,6,7,7,8,8,9,9,10,10,11,11,12,12,13,13,14,14,16,16,17,17,19,19,20,20,21,21,22,22,23,23,24,24,25,25,27,27,28,28,29,29,30,30],"right_children":[2,4,6,8,10,12,14,16,18,20,22,24,26,28,30,-1,32,34,-1,36,38,40,42,44,46,48,-1,50,52,54,56,-1,-1,-1,-1,-1,-1,-1,-1,-1,-1,-1,-1,-1,-1,-1,-1,-1,-1,-1,-1,-1,-1,-1,-1,-1,-1],"split_conditions":[7.0128554E-1,-1.8959838E-1,1.9392799E0,-5.304963E-1,-4.310002E-1,2.0308516E0,2.6555142E0,-7.048116E-1,-3.816963E-1,2.6827757E0,3.0029228E-1,3.4302118E-1,3.6438212E0,2.3364596E0,3.011636E0,-1.54867815E-2,-6.388437E-1,-5.0017387E-1,-1.303581E-2,1.9990059E0,5.5308205E-1,9.1029745E-1,9.768141E-1,4.816789E0,1.3712391E0,1.6848485E0,-1.39733935E-2,1.5471776E0,2.4402077E0,2.8805202E-1,3.2513747E0,-1.40269995E-2,-1.4932486E-2,-1.3142004E-2,-1.4261199E-2,-8.614322E-3,-6.221155E-3,-4.020339E-3,-2.3611144E-3,-1.1552948E-2,-1.4314148E-2,-9.1145765E-3,-1.3869767E-2,-5.26759E-4,2.7931496E-3,-6.8536275E-3,-3.7138325E-3,-4.170217E-3,-8.9535685E-3,3.1713347E-3,-1.2714987E-3,-6.127714E-5,7.796394E-4,2.2072233E-3,7.933055E-4,3.5134398E-3,4.811346E-3],"split_indices":[13,13,13,13,8,8,13,13,13,14,13,8,14,13,13,0,8,8,0,14,13,14,8,14,13,14,0,8,13,14,13,0,0,0,0,0,0,0,0,0,0,0,0,0,0,0,0,0,0,0,0,0,0,0,0,0,0],"split_type":[0,0,0,0,0,0,0,0,0,0,0,0,0,0,0,0,0,0,0,0,0,0,0,0,0,0,0,0,0,0,0,0,0,0,0,0,0,0,0,0,0,0,0,0,0,0,0,0,0,0,0,0,0,0,0,0,0],"sum_hessian":[7.656E3,6.1E3,1.556E3,4.876E3,1.224E3,9.57E2,5.99E2,3.112E3,1.764E3,8.6E1,1.138E3,8.46E2,1.11E2,2.99E2,3E2,1.167E3,1.945E3,1.136E3,6.28E2,5.5E1,3.1E1,6.61E2,4.77E2,1.11E2,7.35E2,2.1E1,9E1,2.09E2,9E1,1.49E2,1.51E2,6.5E2,1.295E3,3.79E2,7.57E2,2.7E1,2.8E1,1.8E1,1.3E1,6.08E2,5.3E1,4.25E2,5.2E1,5E1,6.1E1,3.98E2,3.37E2,6E0,1.5E1,6E0,2.03E2,3E1,6E1,1.35E2,1.4E1,9E1,6.1E1],"tree_param":{"num_deleted":"0","num_feature":"15","num_nodes":"57","size_leaf_vector":"1"}},{"base_weights":[-1.138876E0,-1.3686551E0,-3.3774924E-1,-1.4372699E0,-1.0950011E0,-6.058211E-1,8.883426E-2,-1.4978291E0,-1.3751518E0,-6.741498E-1,-1.120147E0,9.2639305E-2,-6.9108003E-1,-1.1082779E-1,2.8762472E-1,-1.5710719E-2,-1.4786601E0,-1.4009069E0,-1.3139737E0,-8.783715E-3,-5.335104E-1,-1.208441E0,-1.018603E0,-1.6975234E-1,2.4592975E-1,-5.9826046E-1,-1.2989764E0,-1.782063E-1,-2.977509E-2,1.889491E-1,4.0258518E-1,-1.4493729E-2,-1.5321988E-2,-1.3431002E-2,-1.4381803E-2,-1.2303061E-2,-1.3416977E-2,-6.1185304E-3,-3.9822515E-3,-1.1832659E-2,-1.368218E-2,-9.780056E-3,-1.3979892E-2,-2.4755532E-3,-8.016437E-5,9.140846E-4,3.2946472E-3,-7.856716E-3,-4.8059E-3,1.7428311E-3,-1.3760177E-2,2.5911015E-3,-1.9477531E-3,3.1960395E-4,-6.348877E-4,1.4022905E-3,2.3505737E-3,3.4786914E-3,4.764009E-3],"categories":[],"categories_nodes":[],"categories_segments":[],"categories_sizes":[],"default_left":[0,0,0,0,0,0,0,0,0,0,0,0,0,0,0,0,0,0,0,0,0,0,0,0,0,0,0,0,0,0,0,0,0,0,0,0,0,0,0,0,0,0,0,0,0,0,0,0,0,0,0,0,0,0,0,0,0,0,0],"id":3,"left_children":[1,3,5,7,9,11,13,15,17,19,21,23,25,27,29,-1,31,33,35,-1,37,39,41,43,45,47,49,51,53,55,57,-1,-1,-1,-1,-1,-1,-1,-1,-1,-1,-1,-1,-1,-1,-1,-1,-1,-1,-1,-1,-1,-1,-1,-1,-1,-1,-1,-1],"loss_changes":[1.4090547E3,1.1014844E2,1.9537221E2,1.5824219E1,1.1912231E1,6.2531982E1,2.622788E1,1.0405273E0,1.8759766E0,1.5418949E0,8.882446E0,4.667292E0,5.197998E1,1.7968931E0,3.678728E0,0E0,7.836914E-1,1.6130371E0,7.93457E-3,0E0,2.22682E-1,7.86438E-1,6.8112793E0,5.3910756E-1,9.1216326E-1,1.75513E1,1.4200546E1,1.3547311E0,3.1631005E-1,3.713894E-1,4.4818687E-1,0E0,0E0,0E0,0E0,0E0,0E0,0E0,0E0,0E0,0E0,0E0,0E0,0E0,0E0,0E0,0E0,0E0,0E0,0E0,0E0,0E0,0E0,0E0,0E0,0E0,0E0,0E0,0E0],"parents":[2147483647,0,0,1,1,2,2,3,3,4,4,5,5,6,6,7,7,8,8,9,9,10,10,11,11,12,12,13,13,14,14,16,16,17,17,18,18,20,20,21,21,22,22,23,23,24,24,25,25,26,26,27,27,28,28,29,29,30,30],"right_children":[2,4,6,8,10,12,14,16,18,20,22,24,26,28,30,-1,32,34,36,-1,38,40,42,44,46,48,50,52,54,56,58,-1,-1,-1,-1,-1,-1,-1,-1,-1,-1,-1,-1,-1,-1,-1,-1,-1,-1,-1,-1,-1,-1,-1,-1,-1,-1,-1,-1],"split_conditions":[5.5308205E-1,-2.3885506E-1,1.8664334E0,-5.9557235E-1,-4.6805713E-1,-6.587428E-2,2.5486689E0,-7.9543465E-1,-4.2052507E-1,8.056123E-2,1.1606241E-1,4.3731213E0,3.0543513E0,2.1794033E0,3.011636E0,-1.5710719E-2,-5.8979607E-1,-5.2125067E-1,-4.237612E-1,-8.783715E-3,2.6827757E0,2.0218948E-1,7.957016E-1,8.751467E-1,1.0419754E0,1.015914E0,3.4302118E-1,1.2106562E0,-1.0849038E0,2.8030539E0,3.2513747E0,-1.4493729E-2,-1.5321988E-2,-1.3431002E-2,-1.4381803E-2,-1.2303061E-2,-1.3416977E-2,-6.1185304E-3,-3.9822515E-3,-1.1832659E-2,-1.368218E-2,-9.780056E-3,-1.3979892E-2,-2.4755532E-3,-8.016437E-5,9.140846E-4,3.2946472E-3,-7.856716E-3,-4.8059E-3,1.7428311E-3,-1.3760177E-2,2.5911015E-3,-1.9477531E-3,3.1960395E-4,-6.348877E-4,1.4022905E-3,2.3505737E-3,3.4786914E-3,4.764009E-3],"split_indices":[13,13,13,13,8,8,13,13,13,13,13,14,14,13,13,0,8,8,8,0,14,8,8,13,13,13,8,8,0,13,13,0,0,0,0,0,0,0,0,0,0,0,0,0,0,0,0,0,0,0,0,0,0,0,0,0,0,0,0],"split_type":[0,0,0,0,0,0,0,0,0,0,0,0,0,0,0,0,0,0,0,0,0,0,0,0,0,0,0,0,0,0,0,0,0,0,0,0,0,0,0,0,0,0,0,0,0,0,0,0,0,0,0,0,0,0,0,0,0,0,0],"sum_hessian":[7.656E3,5.949E3,1.707E3,4.753E3,1.196E3,1.048E3,6.59E2,2.395E3,2.358E3,6.9E1,1.127E3,1.14E2,9.34E2,3.29E2,3.3E2,4.8E2,1.915E3,1.644E3,7.14E2,2.6E1,4.3E1,5.97E2,5.3E2,4.2E1,7.2E1,8.12E2,1.22E2,1.79E2,1.5E2,1.79E2,1.51E2,1.256E3,6.59E2,6.59E2,9.85E2,1.89E2,5.25E2,2.5E1,1.8E1,5.23E2,7.4E1,4.82E2,4.8E1,2.8E1,1.4E1,2.6E1,4.6E1,3.11E2,5.01E2,6E0,1.16E2,6E0,1.73E2,5.3E1,9.7E1,8.9E1,9E1,9E1,6.1E1],"tree_param":{"num_deleted":"0","num_feature":"15","num_nodes":"59","size_leaf_vector":"1"}},{"base_weights":[-1.1275104E0,-1.3420036E0,-2.8630927E-1,-1.4183817E0,-1.0368302E0,-5.409553E-1,1.2075273E-1,-1.4664104E0,-1.3328679E0,-6.061716E-1,-1.0700365E0,-4.4465074E-1,-1.2644285E0,-6.247484E-2,3.0297038E-1,-1.518126E-2,-1.4346168E0,-1.3622242E0,-1.2776833E-2,-7.4262327E-1,-3.3564594E-1,-1.1568213E0,-9.47714E-1,1.2842527E-1,-5.312538E-1,-7.706424E-1,-1.3699105E0,-1.1062258E-1,4.932187E-2,2.040322E-1,3.9861354E-1,-1.3744696E-2,-1.4637227E-2,-1.2877352E-2,-1.3977698E-2,-8.535066E-3,-6.0698586E-3,-3.9445246E-3,-2.3186237E-3,-1.1324916E-2,-1.4140965E-2,-8.940485E-3,-1.3601686E-2,-5.122617E-4,2.7413168E-3,-6.721307E-3,-3.6338067E-3,-4.1096113E-3,-8.798378E-3,-1.3893125E-2,-7.5833397E-3,3.1297961E-3,-1.2461569E-3,-5.792704E-5,7.6522364E-4,2.1656062E-3,7.683881E-4,3.4442868E-3,4.7171367E-3],"categories":[],"categories_nodes":[],"categories_segments":[],"categories_sizes":[],"default_left":[0,0,0,0,0,0,0,0,0,0,0,0,0,0,0,0,0,0,0,0,0,0,0,0,0,0,0,0,0,0,0,0,0,0,0,0,0,0,0,0,0,0,0,0,0,0,0,0,0,0,0,0,0,0,0,0,0,0,0],"id":4,"left_children":[1,3,5,7,9,11,13,15,17,19,21,23,25,27,29,-1,31,33,-1,35,37,39,41,43,45,47,49,51,53,55,57,-1,-1,-1,-1,-1,-1,-1,-1,-1,-1,-1,-1,-1,-1,-1,-1,-1,-1,-1,-1,-1,-1,-1,-1,-1,-1,-1,-1],"loss_changes":[1.3811826E3,1.4073438E2,1.614588E2,1.8076172E1,1.6869629E1,6.618524E1,2.0051304E1,2.9404297E0,1.1188965E0,3.0729752E0,1.0963135E1,4.2104965E1,4.777878E0,1.6202838E0,2.766962E0,0E0,1.3950195E0,1.2104492E0,0E0,3.692894E-1,1.0384226E-1,2.5297241E0,9.342102E0,2.9457955E0,1.7161758E1,5.024824E-1,2.6229858E-2,1.2837791E0,1.3686533E-1,2.2239017E-1,4.3959045E-1,0E0,0E0,0E0,0E0,0E0,0E0,0E0,0E0,0E0,0E0,0E0,0E0,0E0,0E0,0E0,0E0,0E0,0E0,0E0,0E0,0E0,0E0,0E0,0E0,0E0,0E0,0E0,0E0],"parents":[2147483647,0,0,1,1,2,2,3,3,4,4,5,5,6,6,7,7,8,8,9,9,10,10,11,11,12,12,13,13,14,14,16,16,17,17,19,19,20,20,21,21,22,22,23,23,24,24,25,25,26,26,27,27,28,28,29,29,30,30],"right_children":[2,4,6,8,10,12,14,16,18,20,22,24,26,28,30,-1,32,34,-1,36,38,40,42,44,46,48,50,52,54,56,58,-1,-1,-1,-1,-1,-1,-1,-1,-1,-1,-1,-1,-1,-1,-1,-1,-1,-1,-1,-1,-1,-1,-1,-1,-1,-1,-1,-1],"split_conditions":[7.0128554E-1,-1.8959838E-1,1.9392799E0,-5.304963E-1,-4.106226E-1,2.0308516E0,2.6555142E0,-7.048116E-1,-3.816963E-1,2.6827757E0,3.0029228E-1,3.4302118E-1,3.6438212E0,2.3364596E0,3.011636E0,-1.518126E-2,-6.388437E-1,-5.0017387E-1,-1.2776833E-2,1.9990059E0,5.5308205E-1,9.1029745E-1,9.768141E-1,4.816789E0,1.3712391E0,1.6848485E0,1.6594309E0,1.5471776E0,2.4402077E0,2.8805202E-1,3.2513747E0,-1.3744696E-2,-1.4637227E-2,-1.2877352E-2,-1.3977698E-2,-8.535066E-3,-6.0698586E-3,-3.9445246E-3,-2.3186237E-3,-1.1324916E-2,-1.4140965E-2,-8.940485E-3,-1.3601686E-2,-5.122617E-4,2.7413168E-3,-6.721307E-3,-3.6338067E-3,-4.1096113E-3,-8.798378E-3,-1.3893125E-2,-7.5833397E-3,3.1297961E-3,-1.2461569E-3,-5.792704E-5,7.6522364E-4,2.1656062E-3,7.683881E-4,3.4442868E-3,4.7171367E-3],"split_indices":[13,13,13,13,8,8,13,13,13,14,13,8,14,13,13,0,8,8,0,14,13,14,8,14,13,14,13,8,13,14,13,0,0,0,0,0,0,0,0,0,0,0,0,0,0,0,0,0,0,0,0,0,0,0,0,0,0,0,0],"split_type":[0,0,0,0,0,0,0,0,0,0,0,0,0,0,0,0,0,0,0,0,0,0,0,0,0,0,0,0,0,0,0,0,0,0,0,0,0,0,0,0,0,0,0,0,0,0,0,0,0,0,0,0,0,0,0,0,0,0,0],"sum_hessian":[7.656E3,6.1E3,1.556E3,4.876E3,1.224E3,9.57E2,5.99E2,3.112E3,1.764E3,8.9E1,1.135E3,8.46E2,1.11E2,2.99E2,3E2,1.167E3,1.945E3,1.136E3,6.28E2,5.8E1,3.1E1,6.59E2,4.76E2,1.11E2,7.35E2,2.1E1,9E1,2.09E2,9E1,1.49E2,1.51E2,6.5E2,1.295E3,3.79E2,7.57E2,2.9E1,2.9E1,1.8E1,1.3E1,6.07E2,5.2E1,4.24E2,5.2E1,5E1,6.1E1,3.98E2,3.37E2,6E0,1.5E1,8.6E1,4E0,6E0,2.03E2,3E1,6E1,1.35E2,1.4E1,9E1,6.1E1],"tree_param":{"num_deleted":"0","num_feature":"15","num_nodes":"59","size_leaf_vector":"1"}},{"base_weights":[-1.116259E0,-1.3414873E0,-3.3099854E-1,-1.4075522E0,-1.0686401E0,-5.9381926E-1,8.7228626E-2,-1.4591417E0,-1.3353659E0,-6.862583E-1,-1.0962272E0,9.100662E-2,-6.7741406E-1,-1.0839104E-1,2.8199375E-1,-1.5126034E-2,-1.4315513E0,-1.3579602E0,-1.2713091E-2,-8.2279843E-1,-4.7331172E-1,-1.1840926E0,-1.0011129E0,-1.6632578E-1,2.4133933E-1,-5.8634263E-1,-1.2738664E0,-1.7444351E-1,-2.893517E-2,1.8526892E-1,3.946811E-1,-1.3807141E-2,-1.4660271E-2,-1.3127183E-2,-1.4071354E-2,-9.076181E-3,-6.705247E-3,-2.144021E-3,-4.914513E-3,-1.1653181E-2,-1.41696315E-2,-9.612025E-3,-1.3708275E-2,-2.4276054E-3,-7.4634925E-5,1.117237E-3,3.3977777E-3,-7.7029956E-3,-4.7084284E-3,1.732283E-3,-1.349557E-2,2.56139E-3,-1.9076325E-3,3.1839008E-4,-6.2127726E-4,1.3727625E-3,2.3069829E-3,3.4102222E-3,4.6707266E-3],"categories":[],"categories_nodes":[],"categories_segments":[],"categories_sizes":[],"default_left":[0,0,0,0,0,0,0,0,0,0,0,0,0,0,0,0,0,0,0,0,0,0,0,0,0,0,0,0,0,0,0,0,0,0,0,0,0,0,0,0,0,0,0,0,0,0,0,0,0,0,0,0,0,0,0,0,0,0,0],"id":5,"left_children":[1,3,5,7,9,11,13,15,17,19,21,23,25,27,29,-1,31,33,-1,35,37,39,41,43,45,47,49,51,53,55,57,-1,-1,-1,-1,-1,-1,-1,-1,-1,-1,-1,-1,-1,-1,-1,-1,-1,-1,-1,-1,-1,-1,-1,-1,-1,-1,-1,-1],"loss_changes":[1.3537949E3,1.0574902E2,1.8779301E2,1.587793E1,1.1526489E1,6.0114685E1,2.5176493E1,1.9365234E0,1.1784668E0,1.9656944E0,7.8739014E0,4.4889703E0,5.0042084E1,1.7268772E0,3.534666E0,0E0,1.2236328E0,1.4208984E0,0E0,1.1379242E-2,5.431366E-2,7.883301E-1,6.458496E0,5.2032006E-1,8.934574E-1,1.6911102E1,1.3706131E1,1.3137207E0,3.0658293E-1,3.6078024E-1,4.3115616E-1,0E0,0E0,0E0,0E0,0E0,0E0,0E0,0E0,0E0,0E0,0E0,0E0,0E0,0E0,0E0,0E0,0E0,0E0,0E0,0E0,0E0,0E0,0E0,0E0,0E0,0E0,0E0,0E0],"parents":[2147483647,0,0,1,1,2,2,3,3,4,4,5,5,6,6,7,7,8,8,9,9,10,10,11,11,12,12,13,13,14,14,16,16,17,17,19,19,20,20,21,21,22,22,23,23,24,24,25,25,26,26,27,27,28,28,29,29,30,30],"right_children":[2,4,6,8,10,12,14,16,18,20,22,24,26,28,30,-1,32,34,-1,36,38,40,42,44,46,48,50,52,54,56,58,-1,-1,-1,-1,-1,-1,-1,-1,-1,-1,-1,-1,-1,-1,-1,-1,-1,-1,-1,-1,-1,-1,-1,-1,-1,-1,-1,-1],"split_conditions":[5.5308205E-1,-2.2660092E-1,1.8664334E0,-5.6196463E-1,-4.310002E-1,-6.587428E-2,2.5486689E0,-7.268655E-1,-3.816963E-1,1.955706E-1,1.1606241E-1,4.3731213E0,3.0543513E0,2.1794033E0,3.011636E0,-1.5126034E-2,-6.348095E-1,-4.4394094E-1,-1.2713091E-2,-1.0026355E-3,-8.1170166E-1,9.1029745E-1,7.957016E-1,8.751467E-1,1.0838448E0,1.015914E0,3.4302118E-1,1.2106562E0,-1.0849038E0,2.8030539E0,3.2513747E0,-1.3807141E-2,-1.4660271E-2,-1.3127183E-2,-1.4071354E-2,-9.076181E-3,-6.705247E-3,-2.144021E-3,-4.914513E-3,-1.1653181E-2,-1.41696315E-2,-9.612025E-3,-1.3708275E-2,-2.4276054E-3,-7.4634925E-5,1.117237E-3,3.3977777E-3,-7.7029956E-3,-4.7084284E-3,1.732283E-3,-1.349557E-2,2.56139E-3,-1.9076325E-3,3.1839008E-4,-6.2127726E-4,1.3727625E-3,2.3069829E-3,3.4102222E-3,4.6707266E-3],"split_indices":[13,13,13,13,8,8,13,13,13,13,13,14,14,13,13,0,8,8,0,13,8,14,8,13,13,13,8,8,0,13,13,0,0,0,0,0,0,0,0,0,0,0,0,0,0,0,0,0,0,0,0,0,0,0,0,0,0,0,0],"split_type":[0,0,0,0,0,0,0,0,0,0,0,0,0,0,0,0,0,0,0,0,0,0,0,0,0,0,0,0,0,0,0,0,0,0,0,0,0,0,0,0,0,0,0,0,0,0,0,0,0,0,0,0,0,0,0,0,0,0,0],"sum_hessian":[7.656E3,5.949E3,1.707E3,4.786E3,1.163E3,1.048E3,6.59E2,2.78E3,2.006E3,8E1,1.083E3,1.14E2,9.34E2,3.29E2,3.3E2,9.28E2,1.852E3,1.468E3,5.38E2,4.7E1,3.3E1,5.57E2,5.26E2,4.2E1,7.2E1,8.12E2,1.22E2,1.79E2,1.5E2,1.79E2,1.51E2,7.65E2,1.087E3,7.79E2,6.89E2,2.7E1,2E1,3E0,3E1,5.21E2,3.6E1,4.78E2,4.8E1,2.8E1,1.4E1,3.2E1,4E1,3.11E2,5.01E2,6E0,1.16E2,6E0,1.73E2,5.3E1,9.7E1,8.9E1,9E1,9E1,6.1E1],"tree_param":{"num_deleted":"0","num_feature":"15","num_nodes":"59","size_leaf_vector":"1"}},{"base_weights":[-1.105118E0,-1.3153634E0,-2.805757E-1,-1.3902038E0,-1.0163332E0,-5.301963E-1,1.1845282E-1,-1.4373096E0,-1.3063339E0,-5.9442014E-1,-1.0488648E0,-4.356992E-1,-1.2400964E0,-6.113698E-2,2.9705244E-1,-1.4860555E-2,-1.4048084E0,-1.3350183E0,-1.2524064E0,-7.282753E-1,-3.2904914E-1,-1.1340278E0,-9.2883027E-1,1.2625808E-1,-5.206225E-1,-7.576678E-1,-1.3431002E0,-1.0834816E-1,4.8483733E-2,2.0008728E-1,3.9078745E-1,-1.344967E-2,-1.4338242E-2,-1.261799E-2,-1.3699632E-2,-1.1715894E-2,-1.28219575E-2,-8.370767E-3,-5.9519797E-3,-3.8640292E-3,-2.2770835E-3,-1.1101153E-2,-1.3869492E-2,-8.761328E-3,-1.3338793E-2,-4.976055E-4,2.6901118E-3,-6.5915743E-3,-3.5554531E-3,-4.0500322E-3,-8.646042E-3,-1.3622386E-2,-7.4147084E-3,3.0887658E-3,-1.2213357E-3,-5.468831E-5,7.510743E-4,2.124781E-3,7.4404455E-4,3.3764946E-3,4.6247724E-3],"categories":[],"categories_nodes":[],"categories_segments":[],"categories_sizes":[],"default_left":[0,0,0,0,0,0,0,0,0,0,0,0,0,0,0,0,0,0,0,0,0,0,0,0,0,0,0,0,0,0,0,0,0,0,0,0,0,0,0,0,0,0,0,0,0,0,0,0,0,0,0,0,0,0,0,0,0,0,0,0,0],"id":6,"left_children":[1,3,5,7,9,11,13,15,17,19,21,23,25,27,29,-1,31,33,35,37,39,41,43,45,47,49,51,53,55,57,59,-1,-1,-1,-1,-1,-1,-1,-1,-1,-1,-1,-1,-1,-1,-1,-1,-1,-1,-1,-1,-1,-1,-1,-1,-1,-1,-1,-1,-1,-1],"loss_changes":[1.3270195E3,1.35125E2,1.5514891E2,1.7389648E1,1.6190308E1,6.3725677E1,1.926296E1,2.8447266E0,1.0583496E0,2.9572754E0,1.0559448E1,4.048732E1,4.547867E0,1.5578501E0,2.6576061E0,0E0,1.3461914E0,1.180542E0,1.2023926E-2,3.5603523E-1,9.800553E-2,2.4520264E0,9.01297E0,2.827633E0,1.6597183E1,4.7951126E-1,3.7750244E-2,1.2455637E0,1.3112468E-1,2.1778822E-1,4.22884E-1,0E0,0E0,0E0,0E0,0E0,0E0,0E0,0E0,0E0,0E0,0E0,0E0,0E0,0E0,0E0,0E0,0E0,0E0,0E0,0E0,0E0,0E0,0E0,0E0,0E0,0E0,0E0,0E0,0E0,0E0],"parents":[2147483647,0,0,1,1,2,2,3,3,4,4,5,5,6,6,7,7,8,8,9,9,10,10,11,11,12,12,13,13,14,14,16,16,17,17,18,18,19,19,20,20,21,21,22,22,23,23,24,24,25,25,26,26,27,27,28,28,29,29,30,30],"right_children":[2,4,6,8,10,12,14,16,18,20,22,24,26,28,30,-1,32,34,36,38,40,42,44,46,48,50,52,54,56,58,60,-1,-1,-1,-1,-1,-1,-1,-1,-1,-1,-1,-1,-1,-1,-1,-1,-1,-1,-1,-1,-1,-1,-1,-1,-1,-1,-1,-1,-1,-1],"split_conditions":[7.0128554E-1,-1.8959838E-1,1.9392799E0,-5.304963E-1,-4.106226E-1,2.0308516E0,2.6555142E0,-6.9805396E-1,-3.816963E-1,2.6827757E0,3.0029228E-1,3.4302118E-1,3.6438212E0,2.3364596E0,3.011636E0,-1.4860555E-2,-6.348095E-1,-5.0017387E-1,-3.579444E-1,1.9990059E0,5.5308205E-1,9.1029745E-1,9.768141E-1,4.816789E0,1.3712391E0,1.6848485E0,1.6594309E0,1.5471776E0,2.4402077E0,2.8805202E-1,3.2513747E0,-1.344967E-2,-1.4338242E-2,-1.261799E-2,-1.3699632E-2,-1.1715894E-2,-1.28219575E-2,-8.370767E-3,-5.9519797E-3,-3.8640292E-3,-2.2770835E-3,-1.1101153E-2,-1.3869492E-2,-8.761328E-3,-1.3338793E-2,-4.976055E-4,2.6901118E-3,-6.5915743E-3,-3.5554531E-3,-4.0500322E-3,-8.646042E-3,-1.3622386E-2,-7.4147084E-3,3.0887658E-3,-1.2213357E-3,-5.468831E-5,7.510743E-4,2.124781E-3,7.4404455E-4,3.3764946E-3,4.6247724E-3],"split_indices":[13,13,13,13,8,8,13,13,13,14,13,8,14,13,13,0,8,8,8,14,13,14,8,14,13,14,13,8,13,14,13,0,0,0,0,0,0,0,0,0,0,0,0,0,0,0,0,0,0,0,0,0,0,0,0,0,0,0,0,0,0],"split_type":[0,0,0,0,0,0,0,0,0,0,0,0,0,0,0,0,0,0,0,0,0,0,0,0,0,0,0,0,0,0,0,0,0,0,0,0,0,0,0,0,0,0,0,0,0,0,0,0,0,0,0,0,0,0,0,0,0,0,0,0,0],"sum_hessian":[7.656E3,6.1E3,1.556E3,4.876E3,1.224E3,9.57E2,5.99E2,3.112E3,1.764E3,8.9E1,1.135E3,8.46E2,1.11E2,2.99E2,3E2,1.227E3,1.885E3,1.136E3,6.28E2,5.8E1,3.1E1,6.59E2,4.76E2,1.11E2,7.35E2,2.1E1,9E1,2.09E2,9E1,1.49E2,1.51E2,6.31E2,1.254E3,3.79E2,7.57E2,1.8E2,4.48E2,2.9E1,2.9E1,1.8E1,1.3E1,6.07E2,5.2E1,4.24E2,5.2E1,5E1,6.1E1,3.98E2,3.37E2,6E0,1.5E1,8.6E1,4E0,6E0,2.03E2,3E1,6E1,1.35E2,1.4E1,9E1,6.1E1],"tree_param":{"num_deleted":"0","num_feature":"15","num_nodes":"61","size_leaf_vector":"1"}},{"base_weights":[-1.0940915E0,-1.3148595E0,-3.2438248E-1,-1.3807328E0,-1.0521388E0,-5.82055E-1,8.565213E-2,-1.4391392E0,-1.3208249E0,-6.4802206E-1,-1.0762843E0,8.9405045E-2,-6.6401845E-1,-1.06006354E-1,2.764728E-1,-1.5103198E-2,-1.4205188E0,-1.3455478E0,-1.2620976E0,-8.069085E-3,-4.845042E-1,-1.1613839E0,-9.7842026E-1,-1.6296937E-1,2.3683922E-1,-5.7466215E-1,-1.2492435E0,-1.7075935E-1,-2.8115315E-2,1.8166004E-1,3.8693222E-1,-1.3918104E-2,-1.47304265E-2,-1.2891949E-2,-1.3819043E-2,-1.207305E-2,-1.3049126E-2,-5.025609E-3,-2.0989608E-3,-1.13685625E-2,-1.3172644E-2,-9.392872E-3,-1.3441917E-2,-2.3806004E-3,-6.9294074E-5,8.5547706E-4,3.1871223E-3,-7.2343936E-3,-4.371351E-3,1.7217E-3,-1.323608E-2,2.5319436E-3,-1.8683359E-3,3.171377E-4,-6.079547E-4,1.3438287E-3,2.2642142E-3,3.3431007E-3,4.5792707E-3],"categories":[],"categories_nodes":[],"categories_segments":[],"categories_sizes":[],"default_left":[0,0,0,0,0,0,0,0,0,0,0,0,0,0,0,0,0,0,0,0,0,0,0,0,0,0,0,0,0,0,0,0,0,0,0,0,0,0,0,0,0,0,0,0,0,0,0,0,0,0,0,0,0,0,0,0,0,0,0],"id":7,"left_children":[1,3,5,7,9,11,13,15,17,19,21,23,25,27,29,-1,31,33,35,-1,37,39,41,43,45,47,49,51,53,55,57,-1,-1,-1,-1,-1,-1,-1,-1,-1,-1,-1,-1,-1,-1,-1,-1,-1,-1,-1,-1,-1,-1,-1,-1,-1,-1,-1,-1],"loss_changes":[1.3007041E3,1.0151953E2,1.80508E2,1.4733398E1,1.09823E1,5.779126E1,2.4167095E1,1.0307617E0,1.7270508E0,1.4277039E0,8.257935E0,4.3175883E0,4.8176575E1,1.6596127E0,3.3962593E0,0E0,8.388672E-1,1.588623E0,1.0192871E-1,0E0,7.798004E-2,7.8881836E-1,6.338043E0,5.021877E-1,8.7696314E-1,1.6318481E1,1.3229324E1,1.2739573E0,2.9716685E-1,3.5048723E-1,4.1476822E-1,0E0,0E0,0E0,0E0,0E0,0E0,0E0,0E0,0E0,0E0,0E0,0E0,0E0,0E0,0E0,0E0,0E0,0E0,0E0,0E0,0E0,0E0,0E0,0E0,0E0,0E0,0E0,0E0],"parents":[2147483647,0,0,1,1,2,2,3,3,4,4,5,5,6,6,7,7,8,8,9,9,10,10,11,11,12,12,13,13,14,14,16,16,17,17,18,18,20,20,21,21,22,22,23,23,24,24,25,25,26,26,27,27,28,28,29,29,30,30],"right_children":[2,4,6,8,10,12,14,16,18,20,22,24,26,28,30,-1,32,34,36,-1,38,40,42,44,46,48,50,52,54,56,58,-1,-1,-1,-1,-1,-1,-1,-1,-1,-1,-1,-1,-1,-1,-1,-1,-1,-1,-1,-1,-1,-1,-1,-1,-1,-1,-1,-1],"split_conditions":[5.5308205E-1,-2.3885506E-1,1.8664334E0,-5.9557235E-1,-4.6805713E-1,-6.587428E-2,2.5486689E0,-7.9543465E-1,-4.2052507E-1,2.2285616E0,1.1606241E-1,4.3731213E0,3.0543513E0,2.1794033E0,3.011636E0,-1.5103198E-2,-5.8979607E-1,-5.2125067E-1,-3.315714E-1,-8.069085E-3,3.6438212E0,2.0218948E-1,7.957016E-1,8.751467E-1,1.0419754E0,1.1678537E0,3.4302118E-1,1.2106562E0,-1.0849038E0,2.8030539E0,3.2513747E0,-1.3918104E-2,-1.47304265E-2,-1.2891949E-2,-1.3819043E-2,-1.207305E-2,-1.3049126E-2,-5.025609E-3,-2.0989608E-3,-1.13685625E-2,-1.3172644E-2,-9.392872E-3,-1.3441917E-2,-2.3806004E-3,-6.9294074E-5,8.5547706E-4,3.1871223E-3,-7.2343936E-3,-4.371351E-3,1.7217E-3,-1.323608E-2,2.5319436E-3,-1.8683359E-3,3.171377E-4,-6.079547E-4,1.3438287E-3,2.2642142E-3,3.3431007E-3,4.5792707E-3],"split_indices":[13,13,13,13,8,8,13,13,13,14,13,14,14,13,13,0,8,8,8,0,14,8,8,13,13,13,8,8,0,13,13,0,0,0,0,0,0,0,0,0,0,0,0,0,0,0,0,0,0,0,0,0,0,0,0,0,0,0,0],"split_type":[0,0,0,0,0,0,0,0,0,0,0,0,0,0,0,0,0,0,0,0,0,0,0,0,0,0,0,0,0,0,0,0,0,0,0,0,0,0,0,0,0,0,0,0,0,0,0,0,0,0,0,0,0,0,0,0,0,0,0],"sum_hessian":[7.656E3,5.949E3,1.707E3,4.753E3,1.196E3,1.048E3,6.59E2,2.395E3,2.358E3,6.9E1,1.127E3,1.14E2,9.34E2,3.29E2,3.3E2,4.8E2,1.915E3,1.644E3,7.14E2,3.3E1,3.6E1,5.97E2,5.3E2,4.2E1,7.2E1,8.12E2,1.22E2,1.79E2,1.5E2,1.79E2,1.51E2,1.256E3,6.59E2,6.59E2,9.85E2,3.26E2,3.88E2,3.3E1,3E0,5.23E2,7.4E1,4.82E2,4.8E1,2.8E1,1.4E1,2.6E1,4.6E1,3.88E2,4.24E2,6E0,1.16E2,6E0,1.73E2,5.3E1,9.7E1,8.9E1,9E1,9E1,6.1E1],"tree_param":{"num_deleted":"0","num_feature":"15","num_nodes":"59","size_leaf_vector":"1"}},{"base_weights":[-1.0831726E0,-1.2892612E0,-2.7493247E-1,-1.3625973E0,-9.9624103E-1,-5.1961124E-1,1.1619618E-1,-1.4159625E0,-1.2911757E0,-5.8252966E-1,-1.0281405E0,-4.268827E-1,-1.2162313E0,-5.9828468E-2,2.9125E-1,-1.4680672E-2,-1.3890756E0,-1.3175408E0,-1.2275488E0,-7.455952E-1,-3.6946118E-1,-1.1116627E0,-9.1041964E-1,1.24152206E-1,-5.1015586E-1,-7.4491954E-1,-1.3168098E0,-1.06121644E-1,4.7659393E-2,1.9621842E-1,3.8311502E-1,-1.3404333E-2,-1.4235735E-2,-1.2761334E-2,-1.3693279E-2,-8.381938E-3,-1.2318488E-2,-8.423642E-3,-6.2387125E-3,-4.5153075E-3,-2.5066843E-3,-1.0881186E-2,-1.3607792E-2,-8.586816E-3,-1.3081228E-2,-4.8315612E-4,2.6401845E-3,-6.461786E-3,-3.480753E-3,-3.992152E-3,-8.496077E-3,-1.33908205E-2,-7.7810413E-3,3.0482374E-3,-1.1970251E-3,-5.1558116E-5,7.3718606E-4,2.084733E-3,7.202626E-4,3.310037E-3,4.5342166E-3],"categories":[],"categories_nodes":[],"categories_segments":[],"categories_sizes":[],"default_left":[0,0,0,0,0,0,0,0,0,0,0,0,0,0,0,0,0,0,0,0,0,0,0,0,0,0,0,0,0,0,0,0,0,0,0,0,0,0,0,0,0,0,0,0,0,0,0,0,0,0,0,0,0,0,0,0,0,0,0,0,0],"id":8,"left_children":[1,3,5,7,9,11,13,15,17,19,21,23,25,27,29,-1,31,33,35,37,39,41,43,45,47,49,51,53,55,57,59,-1,-1,-1,-1,-1,-1,-1,-1,-1,-1,-1,-1,-1,-1,-1,-1,-1,-1,-1,-1,-1,-1,-1,-1,-1,-1,-1,-1,-1,-1],"loss_changes":[1.2750664E3,1.297461E2,1.4906665E2,1.6759766E1,1.5567505E1,6.136429E1,1.8505695E1,1.8569336E0,1.9003906E0,2.8515034E0,1.0157471E1,3.892914E1,4.328308E0,1.497844E0,2.5525799E0,0E0,1.2011719E0,1.4025879E0,2.0568848E-2,6.342888E-2,2.8653574E-1,2.390442E0,8.691681E0,2.714468E0,1.6001404E1,4.570284E-1,4.989624E-2,1.208497E0,1.2562546E-1,2.1327877E-1,4.0680885E-1,0E0,0E0,0E0,0E0,0E0,0E0,0E0,0E0,0E0,0E0,0E0,0E0,0E0,0E0,0E0,0E0,0E0,0E0,0E0,0E0,0E0,0E0,0E0,0E0,0E0,0E0,0E0,0E0,0E0,0E0],"parents":[2147483647,0,0,1,1,2,2,3,3,4,4,5,5,6,6,7,7,8,8,9,9,10,10,11,11,12,12,13,13,14,14,16,16,17,17,18,18,19,19,20,20,21,21,22,22,23,23,24,24,25,25,26,26,27,27,28,28,29,29,30,30],"right_children":[2,4,6,8,10,12,14,16,18,20,22,24,26,28,30,-1,32,34,36,38,40,42,44,46,48,50,52,54,56,58,60,-1,-1,-1,-1,-1,-1,-1,-1,-1,-1,-1,-1,-1,-1,-1,-1,-1,-1,-1,-1,-1,-1,-1,-1,-1,-1,-1,-1,-1,-1],"split_conditions":[7.0128554E-1,-1.8959838E-1,1.9392799E0,-5.6196463E-1,-4.106226E-1,2.0308516E0,2.6555142E0,-7.268655E-1,-3.816963E-1,2.732274E-1,3.0029228E-1,3.4302118E-1,3.6438212E0,2.3364596E0,3.011636E0,-1.4680672E-2,-6.3115466E-1,-4.3362743E-1,-6.5561587E-1,6.438854E-2,4.9084586E-1,9.1029745E-1,9.768141E-1,4.816789E0,1.3712391E0,1.6848485E0,1.6143122E0,1.5471776E0,2.4402077E0,2.8805202E-1,3.2513747E0,-1.3404333E-2,-1.4235735E-2,-1.2761334E-2,-1.3693279E-2,-8.381938E-3,-1.2318488E-2,-8.423642E-3,-6.2387125E-3,-4.5153075E-3,-2.5066843E-3,-1.0881186E-2,-1.3607792E-2,-8.586816E-3,-1.3081228E-2,-4.8315612E-4,2.6401845E-3,-6.461786E-3,-3.480753E-3,-3.992152E-3,-8.496077E-3,-1.33908205E-2,-7.7810413E-3,3.0482374E-3,-1.1970251E-3,-5.1558116E-5,7.3718606E-4,2.084733E-3,7.202626E-4,3.310037E-3,4.5342166E-3],"split_indices":[13,13,13,13,8,8,13,13,13,13,13,8,14,13,13,0,8,8,8,13,13,14,8,14,13,14,13,8,13,14,13,0,0,0,0,0,0,0,0,0,0,0,0,0,0,0,0,0,0,0,0,0,0,0,0,0,0,0,0,0,0],"split_type":[0,0,0,0,0,0,0,0,0,0,0,0,0,0,0,0,0,0,0,0,0,0,0,0,0,0,0,0,0,0,0,0,0,0,0,0,0,0,0,0,0,0,0,0,0,0,0,0,0,0,0,0,0,0,0,0,0,0,0,0,0],"sum_hessian":[7.656E3,6.1E3,1.556E3,4.876E3,1.224E3,9.57E2,5.99E2,2.78E3,2.096E3,8.9E1,1.135E3,8.46E2,1.11E2,2.99E2,3E2,9.28E2,1.852E3,1.468E3,6.28E2,4.9E1,4E1,6.59E2,4.76E2,1.11E2,7.35E2,2.1E1,9E1,2.09E2,9E1,1.49E2,1.51E2,7.85E2,1.067E3,8.3E2,6.38E2,9E0,6.19E2,2.4E1,2.5E1,2.2E1,1.8E1,6.07E2,5.2E1,4.24E2,5.2E1,5E1,6.1E1,3.98E2,3.37E2,6E0,1.5E1,8.5E1,5E0,6E0,2.03E2,3E1,6E1,1.35E2,1.4E1,9E1,6.1E1],"tree_param":{"num_deleted":"0","num_feature":"15","num_nodes":"61","size_leaf_vector":"1"}},{"base_weights":[-1.072365E0,-1.2763944E0,-2.722013E-1,-1.3435321E0,-9.626694E-1,-5.144584E-1,1.1505619E-1,-1.3947922E0,-1.2593268E0,-5.4527634E-1,-9.9735856E-1,-4.2262307E-1,-1.2043697E0,-5.922174E-2,2.8837287E-1,-1.4404274E-2,-1.3618388E0,-1.2928528E0,-1.2014388E0,-6.691617E-1,-3.1917998E-1,-9.698415E-1,-1.3084272E0,1.22929946E-1,-5.050678E-1,-7.38038E-1,-1.3038743E0,-1.0505163E-1,4.719033E-2,1.9427493E-1,3.7933546E-1,-1.3009886E-2,-1.3901212E-2,-1.22146495E-2,-1.3259684E-2,-8.324001E-3,-1.2076216E-2,-7.328857E-3,-5.2418653E-3,-3.745128E-3,-2.2128688E-3,-1.0726957E-2,-8.546755E-3,-8.9172125E-3,-1.3498566E-2,-4.7841933E-4,2.6142085E-3,-6.561359E-3,-3.6181414E-3,-3.9579337E-3,-8.416426E-3,-1.3225164E-2,-7.187254E-3,3.0221099E-3,-1.1851136E-3,-5.1059164E-5,7.29935E-4,2.064039E-3,7.135401E-4,3.2773006E-3,4.489606E-3],"categories":[],"categories_nodes":[],"categories_segments":[],"categories_sizes":[],"default_left":[0,0,0,0,0,0,0,0,0,0,0,0,0,0,0,0,0,0,0,0,0,0,0,0,0,0,0,0,0,0,0,0,0,0,0,0,0,0,0,0,0,0,0,0,0,0,0,0,0,0,0,0,0,0,0,0,0,0,0,0,0],"id":9,"left_children":[1,3,5,7,9,11,13,15,17,19,21,23,25,27,29,-1,31,33,35,37,39,41,43,45,47,49,51,53,55,57,59,-1,-1,-1,-1,-1,-1,-1,-1,-1,-1,-1,-1,-1,-1,-1,-1,-1,-1,-1,-1,-1,-1,-1,-1,-1,-1,-1,-1,-1,-1],"loss_changes":[1.24971E3,1.2721094E2,1.4613051E2,1.9924805E1,1.50789795E1,6.0188156E1,1.814024E1,2.7197266E0,2.1555176E0,2.1672668E0,7.247986E0,3.8158432E1,4.234741E0,1.4680133E0,2.5026817E0,0E0,1.3339844E0,1.210083E0,6.2609863E-1,1.1470413E-1,9.0459585E-2,9.957153E0,1.4289856E-1,2.661346E0,1.5690414E1,4.4696236E-1,4.2129517E-2,1.1869617E0,1.2316893E-1,2.0890713E-1,3.9900208E-1,0E0,0E0,0E0,0E0,0E0,0E0,0E0,0E0,0E0,0E0,0E0,0E0,0E0,0E0,0E0,0E0,0E0,0E0,0E0,0E0,0E0,0E0,0E0,0E0,0E0,0E0,0E0,0E0,0E0,0E0],"parents":[2147483647,0,0,1,1,2,2,3,3,4,4,5,5,6,6,7,7,8,8,9,9,10,10,11,11,12,12,13,13,14,14,16,16,17,17,18,18,19,19,20,20,21,21,22,22,23,23,24,24,25,25,26,26,27,27,28,28,29,29,30,30],"right_children":[2,4,6,8,10,12,14,16,18,20,22,24,26,28,30,-1,32,34,36,38,40,42,44,46,48,50,52,54,56,58,60,-1,-1,-1,-1,-1,-1,-1,-1,-1,-1,-1,-1,-1,-1,-1,-1,-1,-1,-1,-1,-1,-1,-1,-1,-1,-1,-1,-1,-1,-1],"split_conditions":[7.0128554E-1,-1.1852316E-1,1.9392799E0,-5.304963E-1,-3.6878932E-1,2.0308516E0,2.6555142E0,-6.919411E-1,-3.6724457E-1,2.6827757E0,8.544396E-1,3.4302118E-1,3.6438212E0,2.3364596E0,3.011636E0,-1.4404274E-2,-6.348095E-1,-5.0017387E-1,-6.5561587E-1,1.955706E-1,5.5308205E-1,2.732274E-1,1.444152E0,4.816789E0,1.2816718E0,1.6848485E0,1.6594309E0,1.5471776E0,2.4402077E0,2.8805202E-1,3.2513747E0,-1.3009886E-2,-1.3901212E-2,-1.22146495E-2,-1.3259684E-2,-8.324001E-3,-1.2076216E-2,-7.328857E-3,-5.2418653E-3,-3.745128E-3,-2.2128688E-3,-1.0726957E-2,-8.546755E-3,-8.9172125E-3,-1.3498566E-2,-4.7841933E-4,2.6142085E-3,-6.561359E-3,-3.6181414E-3,-3.9579337E-3,-8.416426E-3,-1.3225164E-2,-7.187254E-3,3.0221099E-3,-1.1851136E-3,-5.1059164E-5,7.29935E-4,2.064039E-3,7.135401E-4,3.2773006E-3,4.489606E-3],"split_indices":[13,13,13,13,8,8,13,13,13,14,8,8,14,13,13,0,8,8,8,13,13,13,14,14,13,14,13,8,13,14,13,0,0,0,0,0,0,0,0,0,0,0,0,0,0,0,0,0,0,0,0,0,0,0,0,0,0,0,0,0,0],"split_type":[0,0,0,0,0,0,0,0,0,0,0,0,0,0,0,0,0,0,0,0,0,0,0,0,0,0,0,0,0,0,0,0,0,0,0,0,0,0,0,0,0,0,0,0,0,0,0,0,0,0,0,0,0,0,0,0,0,0,0,0,0],"sum_hessian":[7.656E3,6.1E3,1.556E3,5.022E3,1.078E3,9.57E2,5.99E2,3.112E3,1.91E3,8.4E1,9.94E2,8.46E2,1.11E2,2.99E2,3E2,1.287E3,1.825E3,1.196E3,7.14E2,5.3E1,3.1E1,9.17E2,7.7E1,1.11E2,7.35E2,2.1E1,9E1,2.09E2,9E1,1.49E2,1.51E2,5.94E2,1.231E3,3.91E2,8.05E2,1.4E1,7E2,3.4E1,1.9E1,1.8E1,1.3E1,4.8E2,4.37E2,9E0,6.8E1,5E1,6.1E1,3.56E2,3.79E2,6E0,1.5E1,8.6E1,4E0,6E0,2.03E2,3E1,6E1,1.35E2,1.4E1,9E1,6.1E1],"tree_param":{"num_deleted":"0","num_feature":"15","num_nodes":"61","size_leaf_vector":"1"}},{"base_weights":[-1.0616643E0,-1.2759144E0,-3.1467947E-1,-1.3386946E0,-1.0166322E0,-5.648498E-1,8.34165E-2,-1.3966001E0,-1.2801327E0,-6.620577E-1,-1.0435972E0,-4.8176965E-1,-1.1980448E0,-1.02383435E-1,2.6840308E-1,-1.4662236E-2,-1.3783927E0,-1.3055329E0,-1.222561E0,-8.44165E-3,-5.0409645E-1,-1.1276269E0,-9.529507E-1,-5.49296E-1,2.040526E-1,-7.363527E-1,-1.2988874E0,-1.6522132E-1,-2.6799314E-2,1.7639586E-1,3.7559322E-1,-1.3339803E-2,-1.4108244E-2,-1.2502773E-2,-1.3411953E-2,-1.16767045E-2,-1.2644919E-2,-5.7160994E-3,-3.7096476E-3,-1.108855E-2,-1.3674528E-2,-9.148649E-3,-1.3050339E-2,-7.1751247E-3,-4.273935E-3,4.9832783E-4,3.0286475E-3,-3.9002853E-3,-8.560139E-3,-1.3276377E-2,-8.670628E-3,2.4958358E-3,-1.8095933E-3,3.1765283E-4,-5.8796135E-4,1.3005632E-3,2.2028775E-3,3.2448878E-3,4.4454336E-3],"categories":[],"categories_nodes":[],"categories_segments":[],"categories_sizes":[],"default_left":[0,0,0,0,0,0,0,0,0,0,0,0,0,0,0,0,0,0,0,0,0,0,0,0,0,0,0,0,0,0,0,0,0,0,0,0,0,0,0,0,0,0,0,0,0,0,0,0,0,0,0,0,0,0,0,0,0,0,0],"id":10,"left_children":[1,3,5,7,9,11,13,15,17,19,21,23,25,27,29,-1,31,33,35,-1,37,39,41,43,45,47,49,51,53,55,57,-1,-1,-1,-1,-1,-1,-1,-1,-1,-1,-1,-1,-1,-1,-1,-1,-1,-1,-1,-1,-1,-1,-1,-1,-1,-1,-1,-1],"loss_changes":[1.2250381E3,9.549219E1,1.7014993E2,1.44453125E1,1.043811E1,5.4606445E1,2.2712006E1,1.0161133E0,1.9013672E0,2.0195618E0,7.1518555E0,4.3135086E1,4.6770935E0,1.5629222E0,3.1981583E0,0E0,8.774414E-1,1.5649414E0,2.4511719E-1,0E0,2.193861E-1,9.8223877E-1,5.8594055E0,1.7041412E1,1.264966E0,6.607294E-1,6.55365E-2,1.2202411E0,2.8482375E-1,3.3745813E-1,3.9134598E-1,0E0,0E0,0E0,0E0,0E0,0E0,0E0,0E0,0E0,0E0,0E0,0E0,0E0,0E0,0E0,0E0,0E0,0E0,0E0,0E0,0E0,0E0,0E0,0E0,0E0,0E0,0E0,0E0],"parents":[2147483647,0,0,1,1,2,2,3,3,4,4,5,5,6,6,7,7,8,8,9,9,10,10,11,11,12,12,13,13,14,14,16,16,17,17,18,18,20,20,21,21,22,22,23,23,24,24,25,25,26,26,27,27,28,28,29,29,30,30],"right_children":[2,4,6,8,10,12,14,16,18,20,22,24,26,28,30,-1,32,34,36,-1,38,40,42,44,46,48,50,52,54,56,58,-1,-1,-1,-1,-1,-1,-1,-1,-1,-1,-1,-1,-1,-1,-1,-1,-1,-1,-1,-1,-1,-1,-1,-1,-1,-1,-1,-1],"split_conditions":[5.5308205E-1,-2.2660092E-1,1.8664334E0,-5.9557235E-1,-4.106226E-1,1.8919854E0,2.5486689E0,-7.9543465E-1,-4.2052507E-1,1.9990059E0,1.1606241E-1,3.9378846E0,3.6438212E0,2.1794033E0,3.011636E0,-1.4662236E-2,-6.700521E-1,-5.2125067E-1,-3.315714E-1,-8.44165E-3,2.6827757E0,9.1029745E-1,7.957016E-1,1.015914E0,1.0419754E0,1.6848485E0,1.5543444E0,1.2106562E0,-1.0849038E0,2.8030539E0,3.2513747E0,-1.3339803E-2,-1.4108244E-2,-1.2502773E-2,-1.3411953E-2,-1.16767045E-2,-1.2644919E-2,-5.7160994E-3,-3.7096476E-3,-1.108855E-2,-1.3674528E-2,-9.148649E-3,-1.3050339E-2,-7.1751247E-3,-4.273935E-3,4.9832783E-4,3.0286475E-3,-3.9002853E-3,-8.560139E-3,-1.3276377E-2,-8.670628E-3,2.4958358E-3,-1.8095933E-3,3.1765283E-4,-5.8796135E-4,1.3005632E-3,2.2028775E-3,3.2448878E-3,4.4454336E-3],"split_indices":[13,13,13,13,8,8,13,13,13,14,13,14,14,13,13,0,8,8,8,0,14,14,8,13,13,14,13,8,0,13,13,0,0,0,0,0,0,0,0,0,0,0,0,0,0,0,0,0,0,0,0,0,0,0,0,0,0,0,0],"split_type":[0,0,0,0,0,0,0,0,0,0,0,0,0,0,0,0,0,0,0,0,0,0,0,0,0,0,0,0,0,0,0,0,0,0,0,0,0,0,0,0,0,0,0,0,0,0,0,0,0,0,0,0,0,0,0,0,0,0,0],"sum_hessian":[7.656E3,5.949E3,1.707E3,4.786E3,1.163E3,1.048E3,6.59E2,2.395E3,2.391E3,8.4E1,1.079E3,9.28E2,1.2E2,3.29E2,3.3E2,4.8E2,1.915E3,1.644E3,7.47E2,3.7E1,4.7E1,5.54E2,5.25E2,8.45E2,8.3E1,2.3E1,9.7E1,1.79E2,1.5E2,1.79E2,1.51E2,8.26E2,1.089E3,6.59E2,9.85E2,3.36E2,4.11E2,2.9E1,1.8E1,5.19E2,3.5E1,4.77E2,4.8E1,3.53E2,4.92E2,3.3E1,5E1,7E0,1.6E1,8.9E1,8E0,6E0,1.73E2,5.3E1,9.7E1,8.9E1,9E1,9E1,6.1E1],"tree_param":{"num_deleted":"0","num_feature":"15","num_nodes":"59","size_leaf_vector":"1"}},{"base_weights":[-1.0510722E0,-1.2631817E0,-3.1155068E-1,-1.3264272E0,-1.010941E0,-5.5924165E-1,8.259993E-2,-1.3856018E0,-1.2715633E0,-6.228854E-1,-1.0341263E0,8.769389E-2,-6.3821316E-1,-1.0135833E-1,2.6575288E-1,-1.4515918E-2,-1.3671569E0,-1.2970259E0,-1.2170025E0,-8.123671E-3,-4.9245605E-1,-1.1160438E0,-9.3992513E-1,-1.5295717E-1,2.2824597E-1,-5.521352E-1,-1.2019784E0,-1.635653E-1,-2.6533104E-2,1.7465137E-1,3.718879E-1,-1.3229585E-2,-1.4017247E-2,-1.2453413E-2,-1.3344085E-2,-1.1397704E-2,-1.244817E-2,-5.6486577E-3,-3.6745034E-3,-1.0920202E-2,-1.2690074E-2,-9.022361E-3,-1.2922499E-2,-2.2491359E-3,-3.6443093E-5,1.0290226E-3,3.235654E-3,-7.263468E-3,-4.427604E-3,1.7309543E-3,-1.2739744E-2,2.474443E-3,-1.7916012E-3,3.145352E-4,-5.821417E-4,1.287702E-3,2.1810909E-3,3.2127956E-3,4.4016964E-3],"categories":[],"categories_nodes":[],"categories_segments":[],"categories_sizes":[],"default_left":[0,0,0,0,0,0,0,0,0,0,0,0,0,0,0,0,0,0,0,0,0,0,0,0,0,0,0,0,0,0,0,0,0,0,0,0,0,0,0,0,0,0,0,0,0,0,0,0,0,0,0,0,0,0,0,0,0,0,0],"id":11,"left_children":[1,3,5,7,9,11,13,15,17,19,21,23,25,27,29,-1,31,33,35,-1,37,39,41,43,45,47,49,51,53,55,57,-1,-1,-1,-1,-1,-1,-1,-1,-1,-1,-1,-1,-1,-1,-1,-1,-1,-1,-1,-1,-1,-1,-1,-1,-1,-1,-1,-1],"loss_changes":[1.2006807E3,9.358008E1,1.6679404E2,1.3671875E1,1.0125366E1,5.3648834E1,2.2263987E1,7.8564453E-1,1.8654785E0,1.3299236E0,7.6555176E0,3.924673E0,4.4709778E1,1.5316944E0,3.1355076E0,0E0,8.8964844E-1,1.574707E0,3.104248E-1,0E0,1.9071102E-1,8.1170654E-1,5.885132E0,4.6117318E-1,8.3888555E-1,1.5169601E1,1.2397491E1,1.1980653E0,2.7922985E-1,3.3081436E-1,3.8383675E-1,0E0,0E0,0E0,0E0,0E0,0E0,0E0,0E0,0E0,0E0,0E0,0E0,0E0,0E0,0E0,0E0,0E0,0E0,0E0,0E0,0E0,0E0,0E0,0E0,0E0,0E0,0E0,0E0],"parents":[2147483647,0,0,1,1,2,2,3,3,4,4,5,5,6,6,7,7,8,8,9,9,10,10,11,11,12,12,13,13,14,14,16,16,17,17,18,18,20,20,21,21,22,22,23,23,24,24,25,25,26,26,27,27,28,28,29,29,30,30],"right_children":[2,4,6,8,10,12,14,16,18,20,22,24,26,28,30,-1,32,34,36,-1,38,40,42,44,46,48,50,52,54,56,58,-1,-1,-1,-1,-1,-1,-1,-1,-1,-1,-1,-1,-1,-1,-1,-1,-1,-1,-1,-1,-1,-1,-1,-1,-1,-1,-1,-1],"split_conditions":[5.5308205E-1,-2.3885506E-1,1.8664334E0,-6.056419E-1,-4.6805713E-1,-6.587428E-2,2.5486689E0,-7.9543465E-1,-4.3385306E-1,8.056123E-2,1.1606241E-1,4.3731213E0,3.0543513E0,2.1794033E0,3.011636E0,-1.4515918E-2,-6.700521E-1,-5.2125067E-1,-4.237612E-1,-8.123671E-3,2.6827757E0,2.0218948E-1,7.957016E-1,8.751467E-1,1.0838448E0,1.015914E0,3.4302118E-1,1.2106562E0,-1.0849038E0,2.8030539E0,3.2513747E0,-1.3229585E-2,-1.4017247E-2,-1.2453413E-2,-1.3344085E-2,-1.1397704E-2,-1.244817E-2,-5.6486577E-3,-3.6745034E-3,-1.0920202E-2,-1.2690074E-2,-9.022361E-3,-1.2922499E-2,-2.2491359E-3,-3.6443093E-5,1.0290226E-3,3.235654E-3,-7.263468E-3,-4.427604E-3,1.7309543E-3,-1.2739744E-2,2.474443E-3,-1.7916012E-3,3.145352E-4,-5.821417E-4,1.287702E-3,2.1810909E-3,3.2127956E-3,4.4016964E-3],"split_indices":[13,13,13,13,8,8,13,13,13,13,13,14,14,13,13,0,8,8,8,0,14,8,8,13,13,13,8,8,0,13,13,0,0,0,0,0,0,0,0,0,0,0,0,0,0,0,0,0,0,0,0,0,0,0,0,0,0,0,0],"split_type":[0,0,0,0,0,0,0,0,0,0,0,0,0,0,0,0,0,0,0,0,0,0,0,0,0,0,0,0,0,0,0,0,0,0,0,0,0,0,0,0,0,0,0,0,0,0,0,0,0,0,0,0,0,0,0,0,0,0,0],"sum_hessian":[7.656E3,5.949E3,1.707E3,4.753E3,1.196E3,1.048E3,6.59E2,2.275E3,2.478E3,6.9E1,1.127E3,1.14E2,9.34E2,3.29E2,3.3E2,4.8E2,1.795E3,1.674E3,8.04E2,2.6E1,4.3E1,5.97E2,5.3E2,4.2E1,7.2E1,8.12E2,1.22E2,1.79E2,1.5E2,1.79E2,1.51E2,8.05E2,9.9E2,7.17E2,9.57E2,2.24E2,5.8E2,2.5E1,1.8E1,5.23E2,7.4E1,4.82E2,4.8E1,2.8E1,1.4E1,3.2E1,4E1,3.11E2,5.01E2,6E0,1.16E2,6E0,1.73E2,5.3E1,9.7E1,8.9E1,9E1,9E1,6.1E1],"tree_param":{"num_deleted":"0","num_feature":"15","num_nodes":"59","size_leaf_vector":"1"}},{"base_weights":[-1.0405829E0,-1.2385881E0,-2.640442E-1,-1.303743E0,-9.341286E-1,-4.9916673E-1,1.1180817E-1,-1.3535646E0,-1.221902E0,-5.2805424E-1,-9.6787953E-1,-4.0990683E-1,-1.1697378E0,-5.7299122E-2,2.799822E-1,-1.3999779E-2,-1.3226265E0,-1.2543273E0,-1.1659092E0,-6.4821917E-1,-3.087742E-1,-9.409797E-1,-1.2720611E0,1.2094482E-1,-4.9013165E-1,-7.1949047E-1,-1.2657346E0,-1.0181087E-1,4.604996E-2,2.0502935E-1,3.8827342E-1,-1.278437E-2,-1.3596071E-2,-1.1845627E-2,-1.2867012E-2,-8.067142E-3,-1.171932E-2,-7.103453E-3,-5.0708735E-3,-3.6396922E-3,-2.1181132E-3,-1.0409442E-2,-8.290529E-3,-8.683941E-3,-1.3121279E-2,-4.370563E-4,2.5443237E-3,-6.218362E-3,-3.3320778E-3,-3.8796365E-3,-8.195654E-3,-1.2872226E-2,-7.4678226E-3,2.968573E-3,-1.1499159E-3,-4.563661E-5,7.101672E-4,1.5615727E-3,2.511113E-3,3.3356298E-3,4.3583894E-3],"categories":[],"categories_nodes":[],"categories_segments":[],"categories_sizes":[],"default_left":[0,0,0,0,0,0,0,0,0,0,0,0,0,0,0,0,0,0,0,0,0,0,0,0,0,0,0,0,0,0,0,0,0,0,0,0,0,0,0,0,0,0,0,0,0,0,0,0,0,0,0,0,0,0,0,0,0,0,0,0,0],"id":12,"left_children":[1,3,5,7,9,11,13,15,17,19,21,23,25,27,29,-1,31,33,35,37,39,41,43,45,47,49,51,53,55,57,59,-1,-1,-1,-1,-1,-1,-1,-1,-1,-1,-1,-1,-1,-1,-1,-1,-1,-1,-1,-1,-1,-1,-1,-1,-1,-1,-1,-1,-1,-1],"loss_changes":[1.1770039E3,1.1980664E2,1.3765001E2,1.8828125E1,1.4277039E1,5.686171E1,1.7079716E1,2.6186523E0,2.00708E0,2.0395794E0,6.94458E0,3.6130875E1,3.930191E0,1.3847631E0,2.3635273E0,0E0,1.3439941E0,1.1793213E0,6.014404E-1,1.13264084E-1,9.4166994E-2,9.408203E0,1.2210083E-1,2.472744E0,1.500415E1,4.119444E-1,5.3497314E-2,1.1376295E0,1.15317E-1,3.6616945E-1,1.7210579E-1,0E0,0E0,0E0,0E0,0E0,0E0,0E0,0E0,0E0,0E0,0E0,0E0,0E0,0E0,0E0,0E0,0E0,0E0,0E0,0E0,0E0,0E0,0E0,0E0,0E0,0E0,0E0,0E0,0E0,0E0],"parents":[2147483647,0,0,1,1,2,2,3,3,4,4,5,5,6,6,7,7,8,8,9,9,10,10,11,11,12,12,13,13,14,14,16,16,17,17,18,18,19,19,20,20,21,21,22,22,23,23,24,24,25,25,26,26,27,27,28,28,29,29,30,30],"right_children":[2,4,6,8,10,12,14,16,18,20,22,24,26,28,30,-1,32,34,36,38,40,42,44,46,48,50,52,54,56,58,60,-1,-1,-1,-1,-1,-1,-1,-1,-1,-1,-1,-1,-1,-1,-1,-1,-1,-1,-1,-1,-1,-1,-1,-1,-1,-1,-1,-1,-1,-1],"split_conditions":[7.0128554E-1,-1.1852316E-1,1.9392799E0,-5.304963E-1,-3.6878932E-1,2.0308516E0,2.6555142E0,-6.9805396E-1,-3.6724457E-1,2.6827757E0,8.544396E-1,3.4302118E-1,3.6438212E0,2.3364596E0,3.078668E0,-1.3999779E-2,-5.9227026E-1,-5.0017387E-1,-6.5561587E-1,1.955706E-1,5.5308205E-1,2.732274E-1,1.444152E0,4.816789E0,1.3712391E0,1.6848485E0,1.6143122E0,1.5471776E0,2.4402077E0,2.862584E0,3.2513747E0,-1.278437E-2,-1.3596071E-2,-1.1845627E-2,-1.2867012E-2,-8.067142E-3,-1.171932E-2,-7.103453E-3,-5.0708735E-3,-3.6396922E-3,-2.1181132E-3,-1.0409442E-2,-8.290529E-3,-8.683941E-3,-1.3121279E-2,-4.370563E-4,2.5443237E-3,-6.218362E-3,-3.3320778E-3,-3.8796365E-3,-8.195654E-3,-1.2872226E-2,-7.4678226E-3,2.968573E-3,-1.1499159E-3,-4.563661E-5,7.101672E-4,1.5615727E-3,2.511113E-3,3.3356298E-3,4.3583894E-3],"split_indices":[13,13,13,13,8,8,13,13,13,14,8,8,14,13,13,0,8,8,8,13,13,13,14,14,13,14,13,8,13,13,13,0,0,0,0,0,0,0,0,0,0,0,0,0,0,0,0,0,0,0,0,0,0,0,0,0,0,0,0,0,0],"split_type":[0,0,0,0,0,0,0,0,0,0,0,0,0,0,0,0,0,0,0,0,0,0,0,0,0,0,0,0,0,0,0,0,0,0,0,0,0,0,0,0,0,0,0,0,0,0,0,0,0,0,0,0,0,0,0,0,0,0,0,0,0],"sum_hessian":[7.656E3,6.1E3,1.556E3,5.022E3,1.078E3,9.57E2,5.99E2,3.112E3,1.91E3,8.4E1,9.94E2,8.46E2,1.11E2,2.99E2,3E2,1.227E3,1.885E3,1.196E3,7.14E2,5.3E1,3.1E1,9.17E2,7.7E1,1.11E2,7.35E2,2.1E1,9E1,2.09E2,9E1,1.79E2,1.21E2,8.75E2,1.01E3,3.91E2,8.05E2,1.4E1,7E2,3.4E1,1.9E1,1.8E1,1.3E1,4.8E2,4.37E2,9E0,6.8E1,5E1,6.1E1,3.98E2,3.37E2,6E0,1.5E1,8.5E1,5E0,6E0,2.03E2,3E1,6E1,8.9E1,9E1,6E1,6.1E1],"tree_param":{"num_deleted":"0","num_feature":"15","num_nodes":"61","size_leaf_vector":"1"}},{"base_weights":[-1.030199E0,-1.2381094E0,-3.0531853E-1,-1.2980299E0,-9.824871E-1,-5.4815704E-1,8.1110105E-2,-1.3468646E0,-1.2307215E0,-6.2088424E-1,-1.0082417E0,-4.673789E-1,-1.163816E0,-9.91233E-2,2.6055396E-1,-1.3968856E-2,-1.3210597E0,-1.252834E0,-1.1714699E0,-7.4644354E-3,-4.364414E-1,-1.0900036E0,-9.239459E-1,-5.329391E-1,1.984698E-1,-7.17217E-1,-1.2613115E0,-1.6010725E-1,-2.5770746E-2,1.7119661E-1,3.6465767E-1,-1.2739667E-2,-1.3544812E-2,-1.2126282E-2,-1.3031598E-2,-1.0939091E-2,-1.2023177E-2,-1.943608E-3,-4.535988E-3,-1.0714689E-2,-1.3150914E-2,-8.869321E-3,-1.2669187E-2,-6.965559E-3,-4.143725E-3,4.7446578E-4,2.9526036E-3,-3.7968915E-3,-8.338644E-3,-1.2894688E-2,-8.395919E-3,2.4457907E-3,-1.7546758E-3,3.1317744E-4,-5.69647E-4,1.2623637E-3,2.1378146E-3,3.1507488E-3,4.315508E-3],"categories":[],"categories_nodes":[],"categories_segments":[],"categories_sizes":[],"default_left":[0,0,0,0,0,0,0,0,0,0,0,0,0,0,0,0,0,0,0,0,0,0,0,0,0,0,0,0,0,0,0,0,0,0,0,0,0,0,0,0,0,0,0,0,0,0,0,0,0,0,0,0,0,0,0,0,0,0,0],"id":13,"left_children":[1,3,5,7,9,11,13,15,17,19,21,23,25,27,29,-1,31,33,35,-1,37,39,41,43,45,47,49,51,53,55,57,-1,-1,-1,-1,-1,-1,-1,-1,-1,-1,-1,-1,-1,-1,-1,-1,-1,-1,-1,-1,-1,-1,-1,-1,-1,-1,-1,-1],"loss_changes":[1.1536094E3,8.986035E1,1.6032275E2,1.4175781E1,9.934692E0,5.1624695E1,2.1371399E1,1.7446289E0,1.2011719E0,1.4805851E0,6.277954E0,4.0659546E1,4.363861E0,1.4720724E0,3.0166779E0,0E0,1.190918E0,1.392334E0,4.6142578E-2,0E0,5.305624E-2,8.062134E-1,5.5664673E0,1.6123337E1,1.2138717E0,6.28314E-1,8.1085205E-2,1.1618166E0,2.706872E-1,3.1764555E-1,3.681755E-1,0E0,0E0,0E0,0E0,0E0,0E0,0E0,0E0,0E0,0E0,0E0,0E0,0E0,0E0,0E0,0E0,0E0,0E0,0E0,0E0,0E0,0E0,0E0,0E0,0E0,0E0,0E0,0E0],"parents":[2147483647,0,0,1,1,2,2,3,3,4,4,5,5,6,6,7,7,8,8,9,9,10,10,11,11,12,12,13,13,14,14,16,16,17,17,18,18,20,20,21,21,22,22,23,23,24,24,25,25,26,26,27,27,28,28,29,29,30,30],"right_children":[2,4,6,8,10,12,14,16,18,20,22,24,26,28,30,-1,32,34,36,-1,38,40,42,44,46,48,50,52,54,56,58,-1,-1,-1,-1,-1,-1,-1,-1,-1,-1,-1,-1,-1,-1,-1,-1,-1,-1,-1,-1,-1,-1,-1,-1,-1,-1,-1,-1],"split_conditions":[5.5308205E-1,-2.1535076E-1,1.8664334E0,-5.6196463E-1,-4.310002E-1,1.8919854E0,2.5486689E0,-7.268655E-1,-3.816963E-1,1.955706E-1,1.1606241E-1,3.9378846E0,3.6438212E0,2.1794033E0,3.011636E0,-1.3968856E-2,-6.3115466E-1,-4.3362743E-1,-3.579444E-1,-7.4644354E-3,-8.1170166E-1,9.1029745E-1,7.957016E-1,1.015914E0,1.0419754E0,1.6848485E0,1.5543444E0,1.2106562E0,-1.0849038E0,2.8030539E0,3.2513747E0,-1.2739667E-2,-1.3544812E-2,-1.2126282E-2,-1.3031598E-2,-1.0939091E-2,-1.2023177E-2,-1.943608E-3,-4.535988E-3,-1.0714689E-2,-1.3150914E-2,-8.869321E-3,-1.2669187E-2,-6.965559E-3,-4.143725E-3,4.7446578E-4,2.9526036E-3,-3.7968915E-3,-8.338644E-3,-1.2894688E-2,-8.395919E-3,2.4457907E-3,-1.7546758E-3,3.1317744E-4,-5.69647E-4,1.2623637E-3,2.1378146E-3,3.1507488E-3,4.315508E-3],"split_indices":[13,13,13,13,8,8,13,13,13,13,13,14,14,13,13,0,8,8,8,0,8,14,8,13,13,14,13,8,0,13,13,0,0,0,0,0,0,0,0,0,0,0,0,0,0,0,0,0,0,0,0,0,0,0,0,0,0,0,0],"split_type":[0,0,0,0,0,0,0,0,0,0,0,0,0,0,0,0,0,0,0,0,0,0,0,0,0,0,0,0,0,0,0,0,0,0,0,0,0,0,0,0,0,0,0,0,0,0,0,0,0,0,0,0,0,0,0,0,0,0,0],"sum_hessian":[7.656E3,5.949E3,1.707E3,4.816E3,1.133E3,1.048E3,6.59E2,2.78E3,2.036E3,7.7E1,1.056E3,9.28E2,1.2E2,3.29E2,3.3E2,9.28E2,1.852E3,1.468E3,5.68E2,4.4E1,3.3E1,5.3E2,5.26E2,8.45E2,8.3E1,2.3E1,9.7E1,1.79E2,1.5E2,1.79E2,1.51E2,7.85E2,1.067E3,8.3E2,6.38E2,1.72E2,3.96E2,3E0,3E1,4.95E2,3.5E1,4.78E2,4.8E1,3.53E2,4.92E2,3.3E1,5E1,7E0,1.6E1,8.9E1,8E0,6E0,1.73E2,5.3E1,9.7E1,8.9E1,9E1,9E1,6.1E1],"tree_param":{"num_deleted":"0","num_feature":"15","num_nodes":"59","size_leaf_vector":"1"}},{"base_weights":[-1.0199203E0,-1.2140024E0,-2.5876746E-1,-1.2778579E0,-9.1561484E-1,-4.8925713E-1,1.0967899E-1,-1.3267038E0,-1.1976198E0,-5.168401E-1,-9.487608E-1,-4.0169188E-1,-1.1471009E0,-5.607522E-2,2.7451813E-1,-1.3704864E-2,-1.2950944E0,-1.2293067E0,-1.142897E0,-6.3511395E-1,-3.0110165E-1,-9.2226344E-1,-1.2484508E0,1.1984298E-1,-4.8051012E-1,-7.067941E-1,-1.2409432E0,-9.972235E-2,4.5265142E-2,2.0099387E-1,3.8074642E-1,-1.2502249E-2,-1.33139305E-2,-1.1900238E-2,-1.286715E-2,-7.9036495E-3,-1.1488101E-2,-6.957125E-3,-4.973108E-3,-3.5647904E-3,-2.0443937E-3,-1.0203547E-2,-8.1243655E-3,-8.53169E-3,-1.28764445E-2,-4.057102E-4,2.4986346E-3,-6.1004763E-3,-3.2617282E-3,-3.8255074E-3,-8.044759E-3,-1.2587362E-2,-6.831563E-3,2.9295185E-3,-1.1270762E-3,-4.281482E-5,6.970252E-4,1.5307287E-3,2.4617955E-3,3.271829E-3,4.2730495E-3],"categories":[],"categories_nodes":[],"categories_segments":[],"categories_sizes":[],"default_left":[0,0,0,0,0,0,0,0,0,0,0,0,0,0,0,0,0,0,0,0,0,0,0,0,0,0,0,0,0,0,0,0,0,0,0,0,0,0,0,0,0,0,0,0,0,0,0,0,0,0,0,0,0,0,0,0,0,0,0,0,0],"id":14,"left_children":[1,3,5,7,9,11,13,15,17,19,21,23,25,27,29,-1,31,33,35,37,39,41,43,45,47,49,51,53,55,57,59,-1,-1,-1,-1,-1,-1,-1,-1,-1,-1,-1,-1,-1,-1,-1,-1,-1,-1,-1,-1,-1,-1,-1,-1,-1,-1,-1,-1,-1,-1],"loss_changes":[1.1308252E3,1.1507617E2,1.3227893E2,1.8097656E1,1.3771606E1,5.4724075E1,1.6409063E1,2.5336914E0,1.9089355E0,1.9776478E0,6.749878E0,3.4874756E1,3.7506866E0,1.3314787E0,2.2743893E0,0E0,1.309082E0,1.1682129E0,5.824585E-1,1.0494995E-1,9.841466E-2,9.06073E0,1.0984039E-1,2.3461332E0,1.4515472E1,3.8904667E-1,4.322815E-2,1.1038046E0,1.1048029E-1,3.5207796E-1,1.6444206E-1,0E0,0E0,0E0,0E0,0E0,0E0,0E0,0E0,0E0,0E0,0E0,0E0,0E0,0E0,0E0,0E0,0E0,0E0,0E0,0E0,0E0,0E0,0E0,0E0,0E0,0E0,0E0,0E0,0E0,0E0],"parents":[2147483647,0,0,1,1,2,2,3,3,4,4,5,5,6,6,7,7,8,8,9,9,10,10,11,11,12,12,13,13,14,14,16,16,17,17,18,18,19,19,20,20,21,21,22,22,23,23,24,24,25,25,26,26,27,27,28,28,29,29,30,30],"right_children":[2,4,6,8,10,12,14,16,18,20,22,24,26,28,30,-1,32,34,36,38,40,42,44,46,48,50,52,54,56,58,60,-1,-1,-1,-1,-1,-1,-1,-1,-1,-1,-1,-1,-1,-1,-1,-1,-1,-1,-1,-1,-1,-1,-1,-1,-1,-1,-1,-1,-1,-1],"split_conditions":[7.0128554E-1,-1.1852316E-1,1.9392799E0,-5.304963E-1,-3.6878932E-1,2.0308516E0,2.6555142E0,-6.919411E-1,-3.6724457E-1,2.6827757E0,8.544396E-1,3.4302118E-1,3.6438212E0,2.3364596E0,3.078668E0,-1.3704864E-2,-5.9227026E-1,-3.961756E-1,-6.5561587E-1,1.955706E-1,5.5308205E-1,2.732274E-1,1.444152E0,4.816789E0,1.3712391E0,1.6848485E0,1.6594309E0,1.5471776E0,2.4402077E0,2.862584E0,3.2513747E0,-1.2502249E-2,-1.33139305E-2,-1.1900238E-2,-1.286715E-2,-7.9036495E-3,-1.1488101E-2,-6.957125E-3,-4.973108E-3,-3.5647904E-3,-2.0443937E-3,-1.0203547E-2,-8.1243655E-3,-8.53169E-3,-1.28764445E-2,-4.057102E-4,2.4986346E-3,-6.1004763E-3,-3.2617282E-3,-3.8255074E-3,-8.044759E-3,-1.2587362E-2,-6.831563E-3,2.9295185E-3,-1.1270762E-3,-4.281482E-5,6.970252E-4,1.5307287E-3,2.4617955E-3,3.271829E-3,4.2730495E-3],"split_indices":[13,13,13,13,8,8,13,13,13,14,8,8,14,13,13,0,8,8,8,13,13,13,14,14,13,14,13,8,13,13,13,0,0,0,0,0,0,0,0,0,0,0,0,0,0,0,0,0,0,0,0,0,0,0,0,0,0,0,0,0,0],"split_type":[0,0,0,0,0,0,0,0,0,0,0,0,0,0,0,0,0,0,0,0,0,0,0,0,0,0,0,0,0,0,0,0,0,0,0,0,0,0,0,0,0,0,0,0,0,0,0,0,0,0,0,0,0,0,0,0,0,0,0,0,0],"sum_hessian":[7.656E3,6.1E3,1.556E3,5.022E3,1.078E3,9.57E2,5.99E2,3.112E3,1.91E3,8.4E1,9.94E2,8.46E2,1.11E2,2.99E2,3E2,1.287E3,1.825E3,1.196E3,7.14E2,5.3E1,3.1E1,9.17E2,7.7E1,1.11E2,7.35E2,2.1E1,9E1,2.09E2,9E1,1.79E2,1.21E2,8.32E2,9.93E2,7.23E2,4.73E2,1.4E1,7E2,3.4E1,1.9E1,1.8E1,1.3E1,4.8E2,4.37E2,9E0,6.8E1,5E1,6.1E1,3.98E2,3.37E2,6E0,1.5E1,8.6E1,4E0,6E0,2.03E2,3E1,6E1,8.9E1,9E1,6E1,6.1E1],"tree_param":{"num_deleted":"0","num_feature":"15","num_nodes":"61","size_leaf_vector":"1"}},{"base_weights":[-1.0097427E0,-1.213534E0,-2.9922292E-1,-1.2779478E0,-9.850763E-1,-5.3731173E-1,7.964742E-2,-1.3313587E0,-1.2259626E0,-1.0728713E0,-8.786347E-1,8.5972115E-2,-6.1339766E-1,-9.693581E-2,2.5545654E-1,-1.3955193E-2,-1.3134341E0,-1.2539843E0,-1.1879027E0,-7.965505E-3,-1.0863484E0,-4.912626E-1,-9.168961E-1,-1.4347963E-1,2.1995093E-1,-5.304793E-1,-1.1564809E0,-1.5672104E-1,-2.5026679E-2,1.678099E-1,3.57568E-1,-1.2699006E-2,-1.3475154E-2,-1.1861322E-2,-1.2857327E-2,-1.1192123E-2,-1.2164146E-2,-1.0666823E-2,-1.242205E-2,-5.4548364E-3,-3.4649123E-3,-8.803029E-3,-1.239292E-2,-2.1245105E-3,-5.69578E-6,7.538343E-4,2.9832053E-3,-6.688964E-3,-4.025387E-3,1.7385837E-3,-1.2261894E-2,2.151603E-3,-1.7301196E-3,3.1178776E-4,-5.574165E-4,1.2375223E-3,2.0953934E-3,3.0898994E-3,4.2310082E-3],"categories":[],"categories_nodes":[],"categories_segments":[],"categories_sizes":[],"default_left":[0,0,0,0,0,0,0,0,0,0,0,0,0,0,0,0,0,0,0,0,0,0,0,0,0,0,0,0,0,0,0,0,0,0,0,0,0,0,0,0,0,0,0,0,0,0,0,0,0,0,0,0,0,0,0,0,0,0,0],"id":15,"left_children":[1,3,5,7,9,11,13,15,17,19,21,23,25,27,29,-1,31,33,35,-1,37,39,41,43,45,47,49,51,53,55,57,-1,-1,-1,-1,-1,-1,-1,-1,-1,-1,-1,-1,-1,-1,-1,-1,-1,-1,-1,-1,-1,-1,-1,-1,-1,-1,-1,-1],"loss_changes":[1.108353E3,8.630078E1,1.5411263E2,1.1245605E1,1.13272705E1,4.979956E1,2.0514427E1,7.841797E-1,1.0307617E0,1.7973633E0,8.427612E0,3.5668511E0,4.149106E1,1.4147818E0,2.9023552E0,0E0,9.536133E-1,1.3679199E0,6.381836E-1,0E0,7.562256E-1,2.5057507E-1,5.3269043E0,4.237175E-1,8.0457926E-1,1.4128296E1,1.1619705E1,1.127718E0,2.624167E-1,3.0499935E-1,3.531494E-1,0E0,0E0,0E0,0E0,0E0,0E0,0E0,0E0,0E0,0E0,0E0,0E0,0E0,0E0,0E0,0E0,0E0,0E0,0E0,0E0,0E0,0E0,0E0,0E0,0E0,0E0,0E0,0E0],"parents":[2147483647,0,0,1,1,2,2,3,3,4,4,5,5,6,6,7,7,8,8,9,9,10,10,11,11,12,12,13,13,14,14,16,16,17,17,18,18,20,20,21,21,22,22,23,23,24,24,25,25,26,26,27,27,28,28,29,29,30,30],"right_children":[2,4,6,8,10,12,14,16,18,20,22,24,26,28,30,-1,32,34,36,-1,38,40,42,44,46,48,50,52,54,56,58,-1,-1,-1,-1,-1,-1,-1,-1,-1,-1,-1,-1,-1,-1,-1,-1,-1,-1,-1,-1,-1,-1,-1,-1,-1,-1,-1,-1],"split_conditions":[5.5308205E-1,-2.7713475E-1,1.8664334E0,-6.056419E-1,9.414451E-2,-6.587428E-2,2.5486689E0,-7.9543465E-1,-4.749154E-1,-4.6397227E-1,-2.1435092E-1,4.3731213E0,3.0543513E0,2.1794033E0,3.011636E0,-1.3955193E-2,-6.700521E-1,-5.715799E-1,-4.482722E-1,-7.965505E-3,2.0218948E-1,2.6827757E0,1.444152E0,8.751467E-1,1.0419754E0,1.1678537E0,3.4302118E-1,1.3367518E0,-1.0849038E0,2.8030539E0,3.2513747E0,-1.2699006E-2,-1.3475154E-2,-1.1861322E-2,-1.2857327E-2,-1.1192123E-2,-1.2164146E-2,-1.0666823E-2,-1.242205E-2,-5.4548364E-3,-3.4649123E-3,-8.803029E-3,-1.239292E-2,-2.1245105E-3,-5.69578E-6,7.538343E-4,2.9832053E-3,-6.688964E-3,-4.025387E-3,1.7385837E-3,-1.2261894E-2,2.151603E-3,-1.7301196E-3,3.1178776E-4,-5.574165E-4,1.2375223E-3,2.0953934E-3,3.0898994E-3,4.2310082E-3],"split_indices":[13,13,13,13,13,8,13,13,13,8,8,14,14,13,13,0,8,8,8,0,8,14,14,13,13,13,8,8,0,13,13,0,0,0,0,0,0,0,0,0,0,0,0,0,0,0,0,0,0,0,0,0,0,0,0,0,0,0,0],"split_type":[0,0,0,0,0,0,0,0,0,0,0,0,0,0,0,0,0,0,0,0,0,0,0,0,0,0,0,0,0,0,0,0,0,0,0,0,0,0,0,0,0,0,0,0,0,0,0,0,0,0,0,0,0,0,0,0,0,0,0],"sum_hessian":[7.656E3,5.949E3,1.707E3,4.637E3,1.312E3,1.048E3,6.59E2,2.275E3,2.362E3,7.14E2,5.98E2,1.14E2,9.34E2,3.29E2,3.3E2,4.8E2,1.795E3,1.342E3,1.02E3,3.6E1,6.78E2,5.5E1,5.43E2,4.2E1,7.2E1,8.12E2,1.22E2,1.79E2,1.5E2,1.79E2,1.51E2,8.05E2,9.9E2,4.4E2,9.02E2,3.11E2,7.09E2,6.09E2,6.9E1,3.8E1,1.7E1,4.91E2,5.2E1,2.8E1,1.4E1,2.6E1,4.6E1,3.88E2,4.24E2,6E0,1.16E2,7E0,1.72E2,5.3E1,9.7E1,8.9E1,9E1,9E1,6.1E1],"tree_param":{"num_deleted":"0","num_feature":"15","num_nodes":"59","size_leaf_vector":"1"}},{"base_weights":[-9.996659E-1,-1.1899108E0,-2.5356233E-1,-1.2525011E0,-8.974348E-1,-4.7949153E-1,1.0759385E-1,-1.3003713E0,-1.1738659E0,-5.0658804E-1,-9.2992175E-1,-3.9356732E-1,-1.1250122E0,-5.487036E-2,2.6916087E-1,-1.35120815E-2,-1.2739168E0,-1.2070992E0,-1.1235949E0,-6.2235343E-1,-2.9540315E-1,-9.0385574E-1,-1.2247761E0,1.1783515E-1,-4.708547E-1,-6.9495195E-1,-1.21662E0,-9.76664E-2,4.449269E-2,1.9703782E-1,3.7336567E-1,-1.2352622E-2,-1.3107535E-2,-1.1551865E-2,-1.2506806E-2,-7.746933E-3,-1.1289955E-2,-6.8168566E-3,-4.8740427E-3,-3.4958245E-3,-2.0077385E-3,-1.0000271E-2,-7.961794E-3,-8.390475E-3,-1.2629284E-2,-3.934165E-4,2.4522517E-3,-5.9804637E-3,-3.1931521E-3,-3.7713298E-3,-7.905632E-3,-1.2457715E-2,-8.125987E-3,2.8924644E-3,-1.1046405E-3,6.0113677E-4,-3.2487803E-4,1.5004944E-3,2.4134456E-3,3.2092547E-3,4.18938E-3],"categories":[],"categories_nodes":[],"categories_segments":[],"categories_sizes":[],"default_left":[0,0,0,0,0,0,0,0,0,0,0,0,0,0,0,0,0,0,0,0,0,0,0,0,0,0,0,0,0,0,0,0,0,0,0,0,0,0,0,0,0,0,0,0,0,0,0,0,0,0,0,0,0,0,0,0,0,0,0,0,0],"id":16,"left_children":[1,3,5,7,9,11,13,15,17,19,21,23,25,27,29,-1,31,33,35,37,39,41,43,45,47,49,51,53,55,57,59,-1,-1,-1,-1,-1,-1,-1,-1,-1,-1,-1,-1,-1,-1,-1,-1,-1,-1,-1,-1,-1,-1,-1,-1,-1,-1,-1,-1,-1,-1],"loss_changes":[1.0865503E3,1.105625E2,1.2709613E2,1.7381348E1,1.3229431E1,5.2693527E1,1.5764082E1,2.465332E0,1.8361816E0,1.8942261E0,6.540161E0,3.353311E1,3.5669556E0,1.2800491E0,2.1886196E0,0E0,1.3210449E0,1.1275635E0,5.8569336E-1,1.00112915E-1,9.387541E-2,8.710083E0,8.821869E-2,2.2521963E0,1.3995117E1,3.7036896E-1,5.947876E-2,1.0717831E0,1.113815E-1,3.385291E-1,1.5711021E-1,0E0,0E0,0E0,0E0,0E0,0E0,0E0,0E0,0E0,0E0,0E0,0E0,0E0,0E0,0E0,0E0,0E0,0E0,0E0,0E0,0E0,0E0,0E0,0E0,0E0,0E0,0E0,0E0,0E0,0E0],"parents":[2147483647,0,0,1,1,2,2,3,3,4,4,5,5,6,6,7,7,8,8,9,9,10,10,11,11,12,12,13,13,14,14,16,16,17,17,18,18,19,19,20,20,21,21,22,22,23,23,24,24,25,25,26,26,27,27,28,28,29,29,30,30],"right_children":[2,4,6,8,10,12,14,16,18,20,22,24,26,28,30,-1,32,34,36,38,40,42,44,46,48,50,52,54,56,58,60,-1,-1,-1,-1,-1,-1,-1,-1,-1,-1,-1,-1,-1,-1,-1,-1,-1,-1,-1,-1,-1,-1,-1,-1,-1,-1,-1,-1,-1,-1],"split_conditions":[7.0128554E-1,-1.1852316E-1,1.9392799E0,-5.304963E-1,-3.6878932E-1,2.0308516E0,2.6555142E0,-7.159564E-1,-3.816963E-1,2.6827757E0,8.544396E-1,3.4302118E-1,3.6438212E0,2.3364596E0,3.078668E0,-1.35120815E-2,-5.8979607E-1,-4.482722E-1,-6.5561587E-1,1.955706E-1,5.5308205E-1,2.732274E-1,1.444152E0,4.816789E0,1.3712391E0,1.6848485E0,1.5543444E0,1.5471776E0,2.5101988E0,2.862584E0,3.2513747E0,-1.2352622E-2,-1.3107535E-2,-1.1551865E-2,-1.2506806E-2,-7.746933E-3,-1.1289955E-2,-6.8168566E-3,-4.8740427E-3,-3.4958245E-3,-2.0077385E-3,-1.0000271E-2,-7.961794E-3,-8.390475E-3,-1.2629284E-2,-3.934165E-4,2.4522517E-3,-5.9804637E-3,-3.1931521E-3,-3.7713298E-3,-7.905632E-3,-1.2457715E-2,-8.125987E-3,2.8924644E-3,-1.1046405E-3,6.0113677E-4,-3.2487803E-4,1.5004944E-3,2.4134456E-3,3.2092547E-3,4.18938E-3],"split_indices":[13,13,13,13,8,8,13,13,13,14,8,8,14,13,13,0,8,8,8,13,13,13,14,14,13,14,13,8,8,13,13,0,0,0,0,0,0,0,0,0,0,0,0,0,0,0,0,0,0,0,0,0,0,0,0,0,0,0,0,0,0],"split_type":[0,0,0,0,0,0,0,0,0,0,0,0,0,0,0,0,0,0,0,0,0,0,0,0,0,0,0,0,0,0,0,0,0,0,0,0,0,0,0,0,0,0,0,0,0,0,0,0,0,0,0,0,0,0,0,0,0,0,0,0,0],"sum_hessian":[7.656E3,6.1E3,1.556E3,5.022E3,1.078E3,9.57E2,5.99E2,3.112E3,1.91E3,8.4E1,9.94E2,8.46E2,1.11E2,2.99E2,3E2,1.048E3,2.064E3,1.136E3,7.74E2,5.3E1,3.1E1,9.17E2,7.7E1,1.11E2,7.35E2,2.1E1,9E1,2.09E2,9E1,1.79E2,1.21E2,1.024E3,1.04E3,5.31E2,6.05E2,1.4E1,7.6E2,3.4E1,1.9E1,1.8E1,1.3E1,4.8E2,4.37E2,9E0,6.8E1,5E1,6.1E1,3.98E2,3.37E2,6E0,1.5E1,8.2E1,8E0,6E0,2.03E2,7.5E1,1.5E1,8.9E1,9E1,6E1,6.1E1],"tree_param":{"num_deleted":"0","num_feature":"15","num_nodes":"61","size_leaf_vector":"1"}},{"base_weights":[-9.896907E-1,-1.1780343E0,-2.510434E-1,-1.2399925E0,-8.885125E-1,-4.747377E-1,1.0654022E-1,-1.2873801E0,-1.1621498E0,-5.111839E-1,-9.215031E-1,-3.8964003E-1,-1.1140501E0,-5.4314766E-2,2.6650685E-1,-1.33011695E-2,-1.2565298E0,-1.1950493E0,-1.1123835E0,-6.601726E-3,-3.4380513E-1,-8.956361E-1,-1.2127979E0,1.16675176E-1,-4.661586E-1,-1.18421E0,-5.814027E-1,-9.668121E-2,4.4050816E-2,1.9508918E-1,3.6969268E-1,-1.198945E-2,-1.2833206E-2,-1.1436564E-2,-1.2381945E-2,-7.6746284E-3,-1.1177204E-2,-4.217133E-3,-2.2922962E-3,-9.909852E-3,-7.892915E-3,-8.314961E-3,-1.2504822E-2,-5.6722504E-4,2.2970783E-3,-6.074647E-3,-3.3217845E-3,-8.111328E-3,-1.2220572E-2,-2.062003E-3,-6.232646E-3,2.8676714E-3,-1.0936483E-3,5.952047E-4,-3.2183208E-4,1.4856564E-3,2.3895763E-3,3.1776885E-3,4.1481624E-3],"categories":[],"categories_nodes":[],"categories_segments":[],"categories_sizes":[],"default_left":[0,0,0,0,0,0,0,0,0,0,0,0,0,0,0,0,0,0,0,0,0,0,0,0,0,0,0,0,0,0,0,0,0,0,0,0,0,0,0,0,0,0,0,0,0,0,0,0,0,0,0,0,0,0,0,0,0,0,0],"id":17,"left_children":[1,3,5,7,9,11,13,15,17,19,21,23,25,27,29,-1,31,33,35,-1,37,39,41,43,45,47,49,51,53,55,57,-1,-1,-1,-1,-1,-1,-1,-1,-1,-1,-1,-1,-1,-1,-1,-1,-1,-1,-1,-1,-1,-1,-1,-1,-1,-1,-1,-1],"loss_changes":[1.0649419E3,1.0833984E2,1.245941E2,1.7033203E1,1.2960632E1,5.168495E1,1.5453333E1,2.4326172E0,1.7995605E0,1.9924717E0,6.3809204E0,3.286931E1,3.4969788E0,1.2544787E0,2.1460342E0,0E0,1.2783203E0,1.1051025E0,5.687866E-1,0E0,2.9609156E-1,8.485718E0,8.101654E-2,2.2081847E0,1.3732315E1,3.9250183E-1,1.0708332E-1,1.0526996E0,1.0923314E-1,3.3186436E-1,1.5402794E-1,0E0,0E0,0E0,0E0,0E0,0E0,0E0,0E0,0E0,0E0,0E0,0E0,0E0,0E0,0E0,0E0,0E0,0E0,0E0,0E0,0E0,0E0,0E0,0E0,0E0,0E0,0E0,0E0],"parents":[2147483647,0,0,1,1,2,2,3,3,4,4,5,5,6,6,7,7,8,8,9,9,10,10,11,11,12,12,13,13,14,14,16,16,17,17,18,18,20,20,21,21,22,22,23,23,24,24,25,25,26,26,27,27,28,28,29,29,30,30],"right_children":[2,4,6,8,10,12,14,16,18,20,22,24,26,28,30,-1,32,34,36,-1,38,40,42,44,46,48,50,52,54,56,58,-1,-1,-1,-1,-1,-1,-1,-1,-1,-1,-1,-1,-1,-1,-1,-1,-1,-1,-1,-1,-1,-1,-1,-1,-1,-1,-1,-1],"split_conditions":[7.0128554E-1,-1.1852316E-1,1.9392799E0,-5.304963E-1,-3.532354E-1,2.0308516E0,2.6555142E0,-6.919411E-1,-3.816963E-1,2.732274E-1,8.544396E-1,3.4302118E-1,1.6594309E0,2.3364596E0,3.078668E0,-1.33011695E-2,-6.348095E-1,-4.482722E-1,-6.5561587E-1,-6.601726E-3,4.9084586E-1,2.732274E-1,1.444152E0,1.015914E0,1.2816718E0,3.6438212E0,2.077068E0,1.5471776E0,2.5101988E0,2.862584E0,3.2513747E0,-1.198945E-2,-1.2833206E-2,-1.1436564E-2,-1.2381945E-2,-7.6746284E-3,-1.1177204E-2,-4.217133E-3,-2.2922962E-3,-9.909852E-3,-7.892915E-3,-8.314961E-3,-1.2504822E-2,-5.6722504E-4,2.2970783E-3,-6.074647E-3,-3.3217845E-3,-8.111328E-3,-1.2220572E-2,-2.062003E-3,-6.232646E-3,2.8676714E-3,-1.0936483E-3,5.952047E-4,-3.2183208E-4,1.4856564E-3,2.3895763E-3,3.1776885E-3,4.1481624E-3],"split_indices":[13,13,13,13,8,8,13,13,13,13,8,8,13,13,13,0,8,8,8,0,13,13,14,13,13,14,8,8,8,13,13,0,0,0,0,0,0,0,0,0,0,0,0,0,0,0,0,0,0,0,0,0,0,0,0,0,0,0,0],"split_type":[0,0,0,0,0,0,0,0,0,0,0,0,0,0,0,0,0,0,0,0,0,0,0,0,0,0,0,0,0,0,0,0,0,0,0,0,0,0,0,0,0,0,0,0,0,0,0,0,0,0,0,0,0,0,0,0,0,0,0],"sum_hessian":[7.656E3,6.1E3,1.556E3,5.022E3,1.078E3,9.57E2,5.99E2,3.112E3,1.91E3,8.8E1,9.9E2,8.46E2,1.11E2,2.99E2,3E2,1.287E3,1.825E3,1.136E3,7.74E2,4.5E1,4.3E1,9.13E2,7.7E1,1.11E2,7.35E2,9.7E1,1.4E1,2.09E2,9E1,1.79E2,1.21E2,5.94E2,1.231E3,5.31E2,6.05E2,1.4E1,7.6E2,2.4E1,1.9E1,4.77E2,4.36E2,9E0,6.8E1,4.4E1,6.7E1,3.56E2,3.79E2,1.1E1,8.6E1,2E0,1.2E1,6E0,2.03E2,7.5E1,1.5E1,8.9E1,9E1,6E1,6.1E1],"tree_param":{"num_deleted":"0","num_feature":"15","num_nodes":"59","size_leaf_vector":"1"}},{"base_weights":[-9.798142E-1,-1.1775894E0,-2.9026917E-1,-1.2345619E0,-9.3454355E-1,-5.2142817E-1,7.757336E-2,-1.2899866E0,-1.1805776E0,-5.99279E-1,-9.59764E-1,-4.443057E-1,-1.1092412E0,-9.368888E-2,2.4808383E-1,-1.3548355E-2,-1.2727637E0,-1.2050359E0,-1.1264027E0,-7.2017455E-1,-4.1635716E-1,-1.0377729E0,-8.796339E-1,-5.067757E-1,1.9014546E-1,-6.863662E-1,-1.2014836E0,-1.5162984E-1,-2.399974E-2,1.6298608E-1,3.4722534E-1,-1.1943647E-2,-1.2904761E-2,-1.1659781E-2,-1.2507482E-2,-1.0726823E-2,-1.1660808E-2,-7.88374E-3,-5.7458733E-3,-1.8232729E-3,-4.325997E-3,-1.0189924E-2,-1.2731946E-2,-8.443581E-3,-1.2058012E-2,-6.634621E-3,-3.932386E-3,4.4328274E-4,2.8362859E-3,-3.6327685E-3,-7.980337E-3,-1.2285647E-2,-7.971742E-3,2.1284067E-3,-1.6760748E-3,3.106533E-4,-5.409682E-4,1.2039738E-3,2.033157E-3,3.0013942E-3,4.1073496E-3],"categories":[],"categories_nodes":[],"categories_segments":[],"categories_sizes":[],"default_left":[0,0,0,0,0,0,0,0,0,0,0,0,0,0,0,0,0,0,0,0,0,0,0,0,0,0,0,0,0,0,0,0,0,0,0,0,0,0,0,0,0,0,0,0,0,0,0,0,0,0,0,0,0,0,0,0,0,0,0,0,0],"id":18,"left_children":[1,3,5,7,9,11,13,15,17,19,21,23,25,27,29,-1,31,33,35,37,39,41,43,45,47,49,51,53,55,57,59,-1,-1,-1,-1,-1,-1,-1,-1,-1,-1,-1,-1,-1,-1,-1,-1,-1,-1,-1,-1,-1,-1,-1,-1,-1,-1,-1,-1,-1,-1],"loss_changes":[1.0438813E3,8.123535E1,1.4527188E2,1.2889648E1,9.013428E0,4.7062103E1,1.9296566E1,9.182129E-1,1.8916016E0,1.5135345E0,5.6693115E0,3.691649E1,3.8951874E0,1.3288531E0,2.73596E0,0E0,1.0776367E0,1.5322266E0,4.0740967E-1,2.3601532E-2,5.4169178E-2,1.0370483E0,5.033905E0,1.47892E1,1.1324687E0,5.7597923E-1,9.362793E-2,1.0838828E0,2.5193253E-1,2.8468657E-1,3.312645E-1,0E0,0E0,0E0,0E0,0E0,0E0,0E0,0E0,0E0,0E0,0E0,0E0,0E0,0E0,0E0,0E0,0E0,0E0,0E0,0E0,0E0,0E0,0E0,0E0,0E0,0E0,0E0,0E0,0E0,0E0],"parents":[2147483647,0,0,1,1,2,2,3,3,4,4,5,5,6,6,7,7,8,8,9,9,10,10,11,11,12,12,13,13,14,14,16,16,17,17,18,18,19,19,20,20,21,21,22,22,23,23,24,24,25,25,26,26,27,27,28,28,29,29,30,30],"right_children":[2,4,6,8,10,12,14,16,18,20,22,24,26,28,30,-1,32,34,36,38,40,42,44,46,48,50,52,54,56,58,60,-1,-1,-1,-1,-1,-1,-1,-1,-1,-1,-1,-1,-1,-1,-1,-1,-1,-1,-1,-1,-1,-1,-1,-1,-1,-1,-1,-1,-1,-1],"split_conditions":[5.5308205E-1,-2.1535076E-1,1.8664334E0,-5.985762E-1,-4.106226E-1,1.8919854E0,2.5486689E0,-7.9543465E-1,-4.2052507E-1,1.955706E-1,1.1606241E-1,3.9378846E0,3.6438212E0,2.1794033E0,3.011636E0,-1.3548355E-2,-7.627897E-1,-4.723858E-1,-3.315714E-1,6.438854E-2,-8.1170166E-1,9.1029745E-1,7.957016E-1,1.015914E0,1.0419754E0,1.6848485E0,1.5543444E0,1.3367518E0,-1.0849038E0,2.8030539E0,3.2513747E0,-1.1943647E-2,-1.2904761E-2,-1.1659781E-2,-1.2507482E-2,-1.0726823E-2,-1.1660808E-2,-7.88374E-3,-5.7458733E-3,-1.8232729E-3,-4.325997E-3,-1.0189924E-2,-1.2731946E-2,-8.443581E-3,-1.2058012E-2,-6.634621E-3,-3.932386E-3,4.4328274E-4,2.8362859E-3,-3.6327685E-3,-7.980337E-3,-1.2285647E-2,-7.971742E-3,2.1284067E-3,-1.6760748E-3,3.106533E-4,-5.409682E-4,1.2039738E-3,2.033157E-3,3.0013942E-3,4.1073496E-3],"split_indices":[13,13,13,13,8,8,13,13,13,13,13,14,14,13,13,0,8,8,8,13,8,14,8,13,13,14,13,8,0,13,13,0,0,0,0,0,0,0,0,0,0,0,0,0,0,0,0,0,0,0,0,0,0,0,0,0,0,0,0,0,0],"split_type":[0,0,0,0,0,0,0,0,0,0,0,0,0,0,0,0,0,0,0,0,0,0,0,0,0,0,0,0,0,0,0,0,0,0,0,0,0,0,0,0,0,0,0,0,0,0,0,0,0,0,0,0,0,0,0,0,0,0,0,0,0],"sum_hessian":[7.656E3,5.949E3,1.707E3,4.816E3,1.133E3,1.048E3,6.59E2,2.365E3,2.451E3,8.1E1,1.052E3,9.28E2,1.2E2,3.29E2,3.3E2,4.8E2,1.885E3,1.674E3,7.77E2,4.7E1,3.4E1,5.27E2,5.25E2,8.45E2,8.3E1,2.3E1,9.7E1,1.79E2,1.5E2,1.79E2,1.51E2,3.6E2,1.525E3,9.17E2,7.57E2,3.42E2,4.35E2,2.9E1,1.8E1,3E0,3.1E1,4.93E2,3.4E1,4.77E2,4.8E1,3.53E2,4.92E2,3.3E1,5E1,7E0,1.6E1,8.9E1,8E0,7E0,1.72E2,5.3E1,9.7E1,8.9E1,9E1,9E1,6.1E1],"tree_param":{"num_deleted":"0","num_feature":"15","num_nodes":"61","size_leaf_vector":"1"}},{"base_weights":[-9.7003907E-1,-1.1546509E0,-2.4602717E-1,-1.2153717E0,-8.709111E-1,-4.6531513E-1,1.0451262E-1,-1.2618632E0,-1.1390015E0,-5.004813E-1,-9.032999E-1,-3.81837E-1,-1.0924637E0,-5.3151034E-2,2.6130524E-1,-1.2985251E0,-1.2271416E0,-1.1691134E0,-1.0869973E0,-6.1075324E-1,-2.8497338E-1,-8.7782055E-1,-1.1902852E0,1.1559843E-1,-4.5701492E-1,-1.1610743E0,-5.7137674E-1,-9.4690055E-2,4.329232E-2,1.9124839E-1,3.62526E-1,-1.2661161E-2,-1.3356014E-2,-1.1916346E-2,-1.2746822E-2,-1.1310961E-2,-1.2247155E-2,-7.5142537E-3,-1.0926272E-2,-6.74609E-3,-4.6612117E-3,-3.387531E-3,-1.9163134E-3,-9.713855E-3,-7.7346847E-3,-8.169568E-3,-1.2271402E-2,-3.712074E-4,2.3935777E-3,-5.4717874E-3,-2.537236E-3,-7.96382E-3,-1.198031E-2,-2.0370828E-3,-6.1227125E-3,2.8312579E-3,-1.0719016E-3,5.871695E-4,-3.2680444E-4,1.456295E-3,2.3426432E-3,3.1169103E-3,4.0669385E-3],"categories":[],"categories_nodes":[],"categories_segments":[],"categories_sizes":[],"default_left":[0,0,0,0,0,0,0,0,0,0,0,0,0,0,0,0,0,0,0,0,0,0,0,0,0,0,0,0,0,0,0,0,0,0,0,0,0,0,0,0,0,0,0,0,0,0,0,0,0,0,0,0,0,0,0,0,0,0,0,0,0,0,0],"id":19,"left_children":[1,3,5,7,9,11,13,15,17,19,21,23,25,27,29,31,33,35,37,39,41,43,45,47,49,51,53,55,57,59,61,-1,-1,-1,-1,-1,-1,-1,-1,-1,-1,-1,-1,-1,-1,-1,-1,-1,-1,-1,-1,-1,-1,-1,-1,-1,-1,-1,-1,-1,-1,-1,-1],"loss_changes":[1.0231587E3,1.0405469E2,1.197339E2,1.639746E1,1.2493591E1,4.9737183E1,1.48461895E1,2.369629E0,1.7216797E0,1.9409904E0,6.201477E0,3.1727379E1,3.3408203E0,1.2059482E0,2.0651226E0,1.07666016E-1,1.2104492E0,1.1451416E0,5.2978516E-1,2.212143E-1,9.572148E-2,8.172668E0,7.068634E-2,2.1257331E0,1.3351685E1,3.6672974E-1,1.00809574E-1,1.022123E0,1.0855739E-1,3.1910467E-1,1.4715958E-1,0E0,0E0,0E0,0E0,0E0,0E0,0E0,0E0,0E0,0E0,0E0,0E0,0E0,0E0,0E0,0E0,0E0,0E0,0E0,0E0,0E0,0E0,0E0,0E0,0E0,0E0,0E0,0E0,0E0,0E0,0E0,0E0],"parents":[2147483647,0,0,1,1,2,2,3,3,4,4,5,5,6,6,7,7,8,8,9,9,10,10,11,11,12,12,13,13,14,14,15,15,16,16,17,17,18,18,19,19,20,20,21,21,22,22,23,23,24,24,25,25,26,26,27,27,28,28,29,29,30,30],"right_children":[2,4,6,8,10,12,14,16,18,20,22,24,26,28,30,32,34,36,38,40,42,44,46,48,50,52,54,56,58,60,62,-1,-1,-1,-1,-1,-1,-1,-1,-1,-1,-1,-1,-1,-1,-1,-1,-1,-1,-1,-1,-1,-1,-1,-1,-1,-1,-1,-1,-1,-1,-1,-1],"split_conditions":[7.0128554E-1,-1.1852316E-1,1.9392799E0,-5.304963E-1,-3.532354E-1,2.0308516E0,2.6555142E0,-6.735688E-1,-3.6724457E-1,2.6827757E0,8.544396E-1,3.4302118E-1,1.6594309E0,2.3364596E0,3.078668E0,-7.074311E-1,-5.419072E-1,-3.961756E-1,-6.5561587E-1,1.955706E-1,5.5308205E-1,2.732274E-1,1.444152E0,4.816789E0,1.4123846E0,3.6438212E0,2.077068E0,1.5471776E0,2.5101988E0,2.862584E0,3.2513747E0,-1.2661161E-2,-1.3356014E-2,-1.1916346E-2,-1.2746822E-2,-1.1310961E-2,-1.2247155E-2,-7.5142537E-3,-1.0926272E-2,-6.74609E-3,-4.6612117E-3,-3.387531E-3,-1.9163134E-3,-9.713855E-3,-7.7346847E-3,-8.169568E-3,-1.2271402E-2,-3.712074E-4,2.3935777E-3,-5.4717874E-3,-2.537236E-3,-7.96382E-3,-1.198031E-2,-2.0370828E-3,-6.1227125E-3,2.8312579E-3,-1.0719016E-3,5.871695E-4,-3.2680444E-4,1.456295E-3,2.3426432E-3,3.1169103E-3,4.0669385E-3],"split_indices":[13,13,13,13,8,8,13,13,13,14,8,8,13,13,13,8,8,8,8,13,13,13,14,14,13,14,8,8,8,13,13,0,0,0,0,0,0,0,0,0,0,0,0,0,0,0,0,0,0,0,0,0,0,0,0,0,0,0,0,0,0,0,0],"split_type":[0,0,0,0,0,0,0,0,0,0,0,0,0,0,0,0,0,0,0,0,0,0,0,0,0,0,0,0,0,0,0,0,0,0,0,0,0,0,0,0,0,0,0,0,0,0,0,0,0,0,0,0,0,0,0,0,0,0,0,0,0,0,0],"sum_hessian":[7.656E3,6.1E3,1.556E3,5.022E3,1.078E3,9.57E2,5.99E2,3.112E3,1.91E3,8.8E1,9.9E2,8.46E2,1.11E2,2.99E2,3E2,1.496E3,1.616E3,1.196E3,7.14E2,5.7E1,3.1E1,9.13E2,7.7E1,1.11E2,7.35E2,9.7E1,1.4E1,2.09E2,9E1,1.79E2,1.21E2,8.17E2,6.79E2,9.4E2,6.76E2,7.23E2,4.73E2,1.4E1,7E2,3.7E1,2E1,1.8E1,1.3E1,4.77E2,4.36E2,9E0,6.8E1,5E1,6.1E1,5.08E2,2.27E2,1.1E1,8.6E1,2E0,1.2E1,6E0,2.03E2,7.5E1,1.5E1,8.9E1,9E1,6E1,6.1E1],"tree_param":{"num_deleted":"0","num_feature":"15","num_nodes":"63","size_leaf_vector":"1"}},{"base_weights":[-9.603607E-1,-1.1542187E0,-2.8447345E-1,-1.2154714E0,-9.3697256E-1,-5.1108253E-1,7.612866E-2,-1.2664974E0,-1.1658096E0,-1.0244882E0,-8.401756E-1,2.1421084E-2,-5.9244454E-1,-9.174821E-2,2.4326836E-1,-1.3285144E-2,-1.2491829E0,-1.1925327E0,-1.129517E0,-7.755933E-3,-1.0358962E0,-4.7385037E-1,-8.7726223E-1,-2.6969746E-1,1.7144549E-1,-5.035853E-1,-1.1313847E0,-1.4858916E-1,-2.3383183E-2,1.5983124E-1,3.4047502E-1,-1.1718785E-2,-1.2672157E-2,-1.1266777E-2,-1.2233736E-2,-1.07790455E-2,-1.1661411E-2,-1.0177758E-2,-1.1977211E-2,-5.2513545E-3,-3.3554384E-3,-8.413729E-3,-1.1855042E-2,-3.967599E-3,-1.4692307E-3,9.23374E-4,2.9990065E-3,-6.7380797E-3,-4.0042396E-3,1.6180567E-3,-1.1531957E-2,2.1051413E-3,-1.6433619E-3,3.085234E-4,-5.3029455E-4,1.181681E-3,1.9928017E-3,2.943436E-3,4.0269247E-3],"categories":[],"categories_nodes":[],"categories_segments":[],"categories_sizes":[],"default_left":[0,0,0,0,0,0,0,0,0,0,0,0,0,0,0,0,0,0,0,0,0,0,0,0,0,0,0,0,0,0,0,0,0,0,0,0,0,0,0,0,0,0,0,0,0,0,0,0,0,0,0,0,0,0,0,0,0,0,0],"id":20,"left_children":[1,3,5,7,9,11,13,15,17,19,21,23,25,27,29,-1,31,33,35,-1,37,39,41,43,45,47,49,51,53,55,57,-1,-1,-1,-1,-1,-1,-1,-1,-1,-1,-1,-1,-1,-1,-1,-1,-1,-1,-1,-1,-1,-1,-1,-1,-1,-1,-1,-1],"loss_changes":[1.0029385E3,7.803711E1,1.3960931E2,1.0276367E1,1.0262085E1,4.5461212E1,1.8541187E1,7.844238E-1,9.4506836E-1,1.1415405E0,8.12973E0,6.1607223E0,4.301001E1,1.2788832E0,2.6302032E0,0E0,1.0183105E0,1.3492432E0,6.7297363E-1,0E0,6.928711E-1,2.493782E-1,5.3081665E0,6.905074E-1,9.173591E-1,1.347998E1,3.796936E0,1.0524616E0,2.4442618E-1,2.7229357E-1,3.1773758E-1,0E0,0E0,0E0,0E0,0E0,0E0,0E0,0E0,0E0,0E0,0E0,0E0,0E0,0E0,0E0,0E0,0E0,0E0,0E0,0E0,0E0,0E0,0E0,0E0,0E0,0E0,0E0,0E0],"parents":[2147483647,0,0,1,1,2,2,3,3,4,4,5,5,6,6,7,7,8,8,9,9,10,10,11,11,12,12,13,13,14,14,16,16,17,17,18,18,20,20,21,21,22,22,23,23,24,24,25,25,26,26,27,27,28,28,29,29,30,30],"right_children":[2,4,6,8,10,12,14,16,18,20,22,24,26,28,30,-1,32,34,36,-1,38,40,42,44,46,48,50,52,54,56,58,-1,-1,-1,-1,-1,-1,-1,-1,-1,-1,-1,-1,-1,-1,-1,-1,-1,-1,-1,-1,-1,-1,-1,-1,-1,-1,-1,-1],"split_conditions":[5.5308205E-1,-2.7713475E-1,1.8664334E0,-6.056419E-1,8.056123E-2,2.6334062E-1,2.5486689E0,-7.9543465E-1,-4.749154E-1,-4.6397227E-1,-2.1435092E-1,8.1001747E-1,2.3963253E0,2.1794033E0,3.011636E0,-1.3285144E-2,-7.627897E-1,-5.715799E-1,-4.0082628E-1,-7.755933E-3,2.0218948E-1,2.6827757E0,1.444152E0,2.6827757E0,1.2121791E0,1.015914E0,3.620888E-1,1.3367518E0,-1.0849038E0,2.8030539E0,3.2513747E0,-1.1718785E-2,-1.2672157E-2,-1.1266777E-2,-1.2233736E-2,-1.07790455E-2,-1.1661411E-2,-1.0177758E-2,-1.1977211E-2,-5.2513545E-3,-3.3554384E-3,-8.413729E-3,-1.1855042E-2,-3.967599E-3,-1.4692307E-3,9.23374E-4,2.9990065E-3,-6.7380797E-3,-4.0042396E-3,1.6180567E-3,-1.1531957E-2,2.1051413E-3,-1.6433619E-3,3.085234E-4,-5.3029455E-4,1.181681E-3,1.9928017E-3,2.943436E-3,4.0269247E-3],"split_indices":[13,13,13,13,13,8,13,13,13,8,8,13,14,13,13,0,8,8,8,0,8,14,14,14,13,13,8,8,0,13,13,0,0,0,0,0,0,0,0,0,0,0,0,0,0,0,0,0,0,0,0,0,0,0,0,0,0,0,0],"split_type":[0,0,0,0,0,0,0,0,0,0,0,0,0,0,0,0,0,0,0,0,0,0,0,0,0,0,0,0,0,0,0,0,0,0,0,0,0,0,0,0,0,0,0,0,0,0,0,0,0,0,0,0,0,0,0,0,0,0,0],"sum_hessian":[7.656E3,5.949E3,1.707E3,4.637E3,1.312E3,1.048E3,6.59E2,2.275E3,2.362E3,6.84E2,6.28E2,1.39E2,9.09E2,3.29E2,3.3E2,4.8E2,1.795E3,1.342E3,1.02E3,3.3E1,6.51E2,5.9E1,5.69E2,4.7E1,9.2E1,7.82E2,1.27E2,1.79E2,1.5E2,1.79E2,1.51E2,3.52E2,1.443E3,4.4E2,9.02E2,4.36E2,5.84E2,5.92E2,5.9E1,4.1E1,1.8E1,5.13E2,5.6E1,2.2E1,2.5E1,5.8E1,3.4E1,2.93E2,4.89E2,2E0,1.25E2,7E0,1.72E2,5.3E1,9.7E1,8.9E1,9E1,9E1,6.1E1],"tree_param":{"num_deleted":"0","num_feature":"15","num_nodes":"59","size_leaf_vector":"1"}},{"base_weights":[-9.5077723E-1,-1.1317377E0,-2.4108505E-1,-1.1912538E0,-8.5362744E-1,-4.5603704E-1,1.0252345E-1,-1.2368208E0,-1.1164021E0,-5.2524275E-1,-8.888623E-1,-3.741629E-1,-1.0711385E0,-5.2012112E-2,2.56205E-1,-1.2857316E-2,-1.2113756E0,-1.1479877E0,-1.0686226E0,-6.904976E-1,-3.5026112E-1,-8.5994023E-1,-1.1735173E0,1.13474466E-1,-4.478602E-1,-1.1384833E0,-5.597437E-1,-9.2739545E-2,4.2545825E-2,1.8748268E-1,3.5549855E-1,-1.173719E-2,-1.2472898E-2,-1.11238845E-2,-1.2079318E-2,-7.3636705E-3,-1.0737674E-2,-7.598335E-3,-5.551075E-3,-4.279225E-3,-2.2698177E-3,-9.383218E-3,-7.5811003E-3,-3.0492214E-3,-1.2117035E-2,-5.410458E-4,2.227036E-3,-5.3657037E-3,-2.4785432E-3,-7.8039286E-3,-1.1747889E-2,-2.0125462E-3,-5.994147E-3,2.7952774E-3,-1.0505881E-3,5.7923805E-4,-3.3158727E-4,1.4275044E-3,2.2966312E-3,3.2475444E-3,4.3181777E-3],"categories":[],"categories_nodes":[],"categories_segments":[],"categories_sizes":[],"default_left":[0,0,0,0,0,0,0,0,0,0,0,0,0,0,0,0,0,0,0,0,0,0,0,0,0,0,0,0,0,0,0,0,0,0,0,0,0,0,0,0,0,0,0,0,0,0,0,0,0,0,0,0,0,0,0,0,0,0,0,0,0],"id":21,"left_children":[1,3,5,7,9,11,13,15,17,19,21,23,25,27,29,-1,31,33,35,37,39,41,43,45,47,49,51,53,55,57,59,-1,-1,-1,-1,-1,-1,-1,-1,-1,-1,-1,-1,-1,-1,-1,-1,-1,-1,-1,-1,-1,-1,-1,-1,-1,-1,-1,-1,-1,-1],"loss_changes":[9.830869E2,9.9967285E1,1.15045746E2,1.5751465E1,1.2017822E1,4.7844955E1,1.4262886E1,2.3168945E0,1.6572266E0,2.8522186E0,7.001343E0,3.0489944E1,3.2200012E0,1.159276E0,1.9872799E0,0E0,1.3286133E0,1.0826416E0,5.3411865E-1,8.513069E-2,4.1986752E-1,6.368347E0,2.5161896E0,2.0621552E0,1.2925522E1,3.5727692E-1,9.269047E-2,9.9244E-1,1.07861385E-1,3.0684376E-1,1.4602184E-1,0E0,0E0,0E0,0E0,0E0,0E0,0E0,0E0,0E0,0E0,0E0,0E0,0E0,0E0,0E0,0E0,0E0,0E0,0E0,0E0,0E0,0E0,0E0,0E0,0E0,0E0,0E0,0E0,0E0,0E0],"parents":[2147483647,0,0,1,1,2,2,3,3,4,4,5,5,6,6,7,7,8,8,9,9,10,10,11,11,12,12,13,13,14,14,16,16,17,17,18,18,19,19,20,20,21,21,22,22,23,23,24,24,25,25,26,26,27,27,28,28,29,29,30,30],"right_children":[2,4,6,8,10,12,14,16,18,20,22,24,26,28,30,-1,32,34,36,38,40,42,44,46,48,50,52,54,56,58,60,-1,-1,-1,-1,-1,-1,-1,-1,-1,-1,-1,-1,-1,-1,-1,-1,-1,-1,-1,-1,-1,-1,-1,-1,-1,-1,-1,-1,-1,-1],"split_conditions":[7.0128554E-1,-1.1852316E-1,1.9392799E0,-5.304963E-1,-2.7589977E-1,2.0308516E0,2.6555142E0,-7.159564E-1,-3.816963E-1,2.1991822E-1,1.444152E0,3.4302118E-1,1.6594309E0,2.3364596E0,3.078668E0,-1.2857316E-2,-5.8979607E-1,-3.871384E-1,-6.5561587E-1,1.444152E0,4.9084586E-1,3.2207415E-1,-2.1670233E-3,1.015914E0,1.4123846E0,3.6438212E0,2.077068E0,1.5471776E0,2.5101988E0,2.862584E0,3.380959E0,-1.173719E-2,-1.2472898E-2,-1.11238845E-2,-1.2079318E-2,-7.3636705E-3,-1.0737674E-2,-7.598335E-3,-5.551075E-3,-4.279225E-3,-2.2698177E-3,-9.383218E-3,-7.5811003E-3,-3.0492214E-3,-1.2117035E-2,-5.410458E-4,2.227036E-3,-5.3657037E-3,-2.4785432E-3,-7.8039286E-3,-1.1747889E-2,-2.0125462E-3,-5.994147E-3,2.7952774E-3,-1.0505881E-3,5.7923805E-4,-3.3158727E-4,1.4275044E-3,2.2966312E-3,3.2475444E-3,4.3181777E-3],"split_indices":[13,13,13,13,8,8,13,13,13,13,14,8,13,13,13,0,8,8,8,14,13,13,8,13,13,14,8,8,8,13,13,0,0,0,0,0,0,0,0,0,0,0,0,0,0,0,0,0,0,0,0,0,0,0,0,0,0,0,0,0,0],"split_type":[0,0,0,0,0,0,0,0,0,0,0,0,0,0,0,0,0,0,0,0,0,0,0,0,0,0,0,0,0,0,0,0,0,0,0,0,0,0,0,0,0,0,0,0,0,0,0,0,0,0,0,0,0,0,0,0,0,0,0,0,0],"sum_hessian":[7.656E3,6.1E3,1.556E3,5.022E3,1.078E3,9.57E2,5.99E2,3.112E3,1.91E3,1.06E2,9.72E2,8.46E2,1.11E2,2.99E2,3E2,1.048E3,2.064E3,1.136E3,7.74E2,5.3E1,5.3E1,8.86E2,8.6E1,1.11E2,7.35E2,9.7E1,1.4E1,2.09E2,9E1,1.79E2,1.21E2,1.024E3,1.04E3,7.25E2,4.11E2,1.4E1,7.6E2,3.2E1,2.1E1,3.1E1,2.2E1,4.96E2,3.9E2,4E0,8.2E1,4.4E1,6.7E1,5.08E2,2.27E2,1.1E1,8.6E1,2E0,1.2E1,6E0,2.03E2,7.5E1,1.5E1,8.9E1,9E1,9E1,3.1E1],"tree_param":{"num_deleted":"0","num_feature":"15","num_nodes":"61","size_leaf_vector":"1"}},{"base_weights":[-9.412891E-1,-1.1313057E0,-2.7879488E-1,-1.1879106E0,-9.0554935E-1,-5.009447E-1,7.4711084E-2,-1.2414447E0,-1.1382809E0,-5.969757E-1,-9.291971E-1,2.1265127E-2,-5.8073413E-1,-8.984904E-2,2.3854834E-1,-1.3024263E-2,-1.2244215E0,-1.1618737E0,-1.0906942E0,-7.5976634E-3,-4.454883E-1,-1.0033752E0,-8.449321E-1,-2.641432E-1,1.6834399E-1,-4.935129E-1,-1.109746E0,-1.4561202E-1,-2.2781603E-2,1.5673831E-1,3.3385924E-1,-1.1821236E-2,-1.2575876E-2,-1.1121146E-2,-1.1972173E-2,-1.063519E-2,-1.1668967E-2,-5.0455844E-3,-3.2877286E-3,-9.856529E-3,-1.23254405E-2,-8.109714E-3,-1.1589785E-2,-3.8840575E-3,-1.4405926E-3,9.046022E-4,2.9482394E-3,-6.6091707E-3,-3.920632E-3,1.608108E-3,-1.1311898E-2,2.0820396E-3,-1.6113175E-3,3.063773E-4,-5.198428E-4,1.1598198E-3,1.9532437E-3,2.885341E-3,3.95E-3],"categories":[],"categories_nodes":[],"categories_segments":[],"categories_sizes":[],"default_left":[0,0,0,0,0,0,0,0,0,0,0,0,0,0,0,0,0,0,0,0,0,0,0,0,0,0,0,0,0,0,0,0,0,0,0,0,0,0,0,0,0,0,0,0,0,0,0,0,0,0,0,0,0,0,0,0,0,0,0],"id":22,"left_children":[1,3,5,7,9,11,13,15,17,19,21,23,25,27,29,-1,31,33,35,-1,37,39,41,43,45,47,49,51,53,55,57,-1,-1,-1,-1,-1,-1,-1,-1,-1,-1,-1,-1,-1,-1,-1,-1,-1,-1,-1,-1,-1,-1,-1,-1,-1,-1,-1,-1],"loss_changes":[9.6358545E2,7.495801E1,1.3416884E2,1.1218262E1,8.179932E0,4.3720886E1,1.7815746E1,7.680664E-1,1.515625E0,1.8316784E0,6.090332E0,5.9213214E0,4.1440704E1,1.2308431E0,2.5286064E0,0E0,1.032959E0,1.5566406E0,4.9432373E-1,0E0,1.6504574E-1,1.1610718E0,4.6700134E0,6.602998E-1,8.894489E-1,1.30386505E1,3.669342E0,1.0219522E0,2.371508E-1,2.604189E-1,3.0725288E-1,0E0,0E0,0E0,0E0,0E0,0E0,0E0,0E0,0E0,0E0,0E0,0E0,0E0,0E0,0E0,0E0,0E0,0E0,0E0,0E0,0E0,0E0,0E0,0E0,0E0,0E0,0E0,0E0],"parents":[2147483647,0,0,1,1,2,2,3,3,4,4,5,5,6,6,7,7,8,8,9,9,10,10,11,11,12,12,13,13,14,14,16,16,17,17,18,18,20,20,21,21,22,22,23,23,24,24,25,25,26,26,27,27,28,28,29,29,30,30],"right_children":[2,4,6,8,10,12,14,16,18,20,22,24,26,28,30,-1,32,34,36,-1,38,40,42,44,46,48,50,52,54,56,58,-1,-1,-1,-1,-1,-1,-1,-1,-1,-1,-1,-1,-1,-1,-1,-1,-1,-1,-1,-1,-1,-1,-1,-1,-1,-1,-1,-1],"split_conditions":[5.5308205E-1,-2.3885506E-1,1.8664334E0,-6.056419E-1,-4.106226E-1,2.6334062E-1,2.5486689E0,-7.9543465E-1,-4.3877384E-1,1.9990059E0,1.1606241E-1,8.1001747E-1,2.3963253E0,2.1794033E0,3.011636E0,-1.3024263E-2,-6.700521E-1,-5.2498746E-1,-2.3931994E-1,-7.5976634E-3,2.6827757E0,9.1029745E-1,7.957016E-1,2.6827757E0,1.2121791E0,1.015914E0,3.620888E-1,1.3367518E0,-1.0849038E0,2.8030539E0,3.2513747E0,-1.1821236E-2,-1.2575876E-2,-1.1121146E-2,-1.1972173E-2,-1.063519E-2,-1.1668967E-2,-5.0455844E-3,-3.2877286E-3,-9.856529E-3,-1.23254405E-2,-8.109714E-3,-1.1589785E-2,-3.8840575E-3,-1.4405926E-3,9.046022E-4,2.9482394E-3,-6.6091707E-3,-3.920632E-3,1.608108E-3,-1.1311898E-2,2.0820396E-3,-1.6113175E-3,3.063773E-4,-5.198428E-4,1.1598198E-3,1.9532437E-3,2.885341E-3,3.95E-3],"split_indices":[13,13,13,13,8,8,13,13,13,14,13,13,14,13,13,0,8,8,8,0,14,14,8,14,13,13,8,8,0,13,13,0,0,0,0,0,0,0,0,0,0,0,0,0,0,0,0,0,0,0,0,0,0,0,0,0,0,0,0],"split_type":[0,0,0,0,0,0,0,0,0,0,0,0,0,0,0,0,0,0,0,0,0,0,0,0,0,0,0,0,0,0,0,0,0,0,0,0,0,0,0,0,0,0,0,0,0,0,0,0,0,0,0,0,0,0,0,0,0,0,0],"sum_hessian":[7.656E3,5.949E3,1.707E3,4.753E3,1.196E3,1.048E3,6.59E2,2.275E3,2.478E3,8.7E1,1.109E3,1.39E2,9.09E2,3.29E2,3.3E2,4.8E2,1.795E3,1.641E3,8.37E2,4E1,4.7E1,5.84E2,5.25E2,4.7E1,9.2E1,7.82E2,1.27E2,1.79E2,1.5E2,1.79E2,1.51E2,8.05E2,9.9E2,6.95E2,9.46E2,6.28E2,2.09E2,2.9E1,1.8E1,5.47E2,3.7E1,4.77E2,4.8E1,2.2E1,2.5E1,5.8E1,3.4E1,2.93E2,4.89E2,2E0,1.25E2,7E0,1.72E2,5.3E1,9.7E1,8.9E1,9E1,9E1,6.1E1],"tree_param":{"num_deleted":"0","num_feature":"15","num_nodes":"59","size_leaf_vector":"1"}},{"base_weights":[-9.318961E-1,-1.109277E0,-2.3624213E-1,-1.167608E0,-8.367045E-1,-4.469444E-1,1.0057288E-1,-1.2123004E0,-1.0941936E0,-5.1447827E-1,-8.7127954E-1,-3.6664402E-1,-1.0502253E0,-5.089746E-2,2.5120586E-1,-1.2478662E0,-1.1786245E0,-1.1230892E0,-1.0442883E0,-6.762542E-1,-3.43175E-1,-8.4287775E-1,-1.1508324E0,1.1138554E-1,-4.388895E-1,-1.1163276E0,-5.4834133E-1,-9.08288E-2,4.1811097E-2,1.8379085E-1,3.4861153E-1,-1.2158924E-2,-1.2844934E-2,-1.1525163E-2,-1.2412083E-2,-1.0581089E-2,-1.153299E-2,-9.539274E-3,-1.0684131E-2,-7.438348E-3,-5.441444E-3,-4.1916524E-3,-2.225287E-3,-9.197749E-3,-7.42978E-3,-2.9768522E-3,-1.1883614E-2,-3.7748777E-4,2.3226398E-3,-5.5937073E-3,-2.953661E-3,-7.6471786E-3,-1.1519942E-2,-1.9883872E-3,-5.8681564E-3,2.7597253E-3,-1.0296989E-3,5.7140883E-4,-3.3618577E-4,1.3992735E-3,2.2515266E-3,3.1833793E-3,4.23808E-3],"categories":[],"categories_nodes":[],"categories_segments":[],"categories_sizes":[],"default_left":[0,0,0,0,0,0,0,0,0,0,0,0,0,0,0,0,0,0,0,0,0,0,0,0,0,0,0,0,0,0,0,0,0,0,0,0,0,0,0,0,0,0,0,0,0,0,0,0,0,0,0,0,0,0,0,0,0,0,0,0,0,0,0],"id":23,"left_children":[1,3,5,7,9,11,13,15,17,19,21,23,25,27,29,31,33,35,37,39,41,43,45,47,49,51,53,55,57,59,61,-1,-1,-1,-1,-1,-1,-1,-1,-1,-1,-1,-1,-1,-1,-1,-1,-1,-1,-1,-1,-1,-1,-1,-1,-1,-1,-1,-1,-1,-1,-1,-1],"loss_changes":[9.445796E2,9.602539E1,1.1054162E2,1.5154297E1,1.1572815E1,4.6023987E1,1.3702644E1,2.2578125E0,1.5830078E0,2.7331905E0,6.755432E0,2.930043E1,3.1035461E0,1.1143909E0,1.9124756E0,1.9116211E-1,1.2116699E0,1.1295166E0,5.394287E-1,7.736015E-2,4.0179205E-1,6.130615E0,2.431778E0,2.027806E0,1.25616E1,3.4803772E-1,8.5021496E-2,9.636234E-1,1.071462E-1,2.9506445E-1,1.4281464E-1,0E0,0E0,0E0,0E0,0E0,0E0,0E0,0E0,0E0,0E0,0E0,0E0,0E0,0E0,0E0,0E0,0E0,0E0,0E0,0E0,0E0,0E0,0E0,0E0,0E0,0E0,0E0,0E0,0E0,0E0,0E0,0E0],"parents":[2147483647,0,0,1,1,2,2,3,3,4,4,5,5,6,6,7,7,8,8,9,9,10,10,11,11,12,12,13,13,14,14,15,15,16,16,17,17,18,18,19,19,20,20,21,21,22,22,23,23,24,24,25,25,26,26,27,27,28,28,29,29,30,30],"right_children":[2,4,6,8,10,12,14,16,18,20,22,24,26,28,30,32,34,36,38,40,42,44,46,48,50,52,54,56,58,60,62,-1,-1,-1,-1,-1,-1,-1,-1,-1,-1,-1,-1,-1,-1,-1,-1,-1,-1,-1,-1,-1,-1,-1,-1,-1,-1,-1,-1,-1,-1,-1,-1],"split_conditions":[7.0128554E-1,-1.1852316E-1,1.9392799E0,-5.304963E-1,-2.7589977E-1,2.0308516E0,2.6555142E0,-6.735688E-1,-3.6724457E-1,2.1991822E-1,1.444152E0,3.4302118E-1,1.6594309E0,2.3364596E0,3.078668E0,-7.074311E-1,-4.9736696E-1,-5.0017387E-1,-3.6412337E-1,1.444152E0,4.9084586E-1,3.2207415E-1,-2.1670233E-3,4.816789E0,1.3712391E0,3.6438212E0,2.077068E0,1.5471776E0,2.5101988E0,2.862584E0,3.380959E0,-1.2158924E-2,-1.2844934E-2,-1.1525163E-2,-1.2412083E-2,-1.0581089E-2,-1.153299E-2,-9.539274E-3,-1.0684131E-2,-7.438348E-3,-5.441444E-3,-4.1916524E-3,-2.225287E-3,-9.197749E-3,-7.42978E-3,-2.9768522E-3,-1.1883614E-2,-3.7748777E-4,2.3226398E-3,-5.5937073E-3,-2.953661E-3,-7.6471786E-3,-1.1519942E-2,-1.9883872E-3,-5.8681564E-3,2.7597253E-3,-1.0296989E-3,5.7140883E-4,-3.3618577E-4,1.3992735E-3,2.2515266E-3,3.1833793E-3,4.23808E-3],"split_indices":[13,13,13,13,8,8,13,13,13,13,14,8,13,13,13,8,8,8,8,14,13,13,8,14,13,14,8,8,8,13,13,0,0,0,0,0,0,0,0,0,0,0,0,0,0,0,0,0,0,0,0,0,0,0,0,0,0,0,0,0,0,0,0],"split_type":[0,0,0,0,0,0,0,0,0,0,0,0,0,0,0,0,0,0,0,0,0,0,0,0,0,0,0,0,0,0,0,0,0,0,0,0,0,0,0,0,0,0,0,0,0,0,0,0,0,0,0,0,0,0,0,0,0,0,0,0,0,0,0],"sum_hessian":[7.656E3,6.1E3,1.556E3,5.022E3,1.078E3,9.57E2,5.99E2,3.112E3,1.91E3,1.06E2,9.72E2,8.46E2,1.11E2,2.99E2,3E2,1.496E3,1.616E3,1.196E3,7.14E2,5.3E1,5.3E1,8.86E2,8.6E1,1.11E2,7.35E2,9.7E1,1.4E1,2.09E2,9E1,1.79E2,1.21E2,8.17E2,6.79E2,1.154E3,4.62E2,3.91E2,8.05E2,1.59E2,5.55E2,3.2E1,2.1E1,3.1E1,2.2E1,4.96E2,3.9E2,4E0,8.2E1,5E1,6.1E1,3.98E2,3.37E2,1.1E1,8.6E1,2E0,1.2E1,6E0,2.03E2,7.5E1,1.5E1,8.9E1,9E1,9E1,3.1E1],"tree_param":{"num_deleted":"0","num_feature":"15","num_nodes":"63","size_leaf_vector":"1"}},{"base_weights":[-9.2259836E-1,-1.0982076E0,-2.3389293E-1,-1.1559502E0,-8.283845E-1,-4.4251004E-1,9.958888E-2,-1.1985254E0,-1.0804286E0,-5.0951385E-1,-8.625991E-1,-3.6298537E-1,-1.0399643E0,-5.038194E-2,2.4873058E-1,-1.2354041E0,-1.1654816E0,-1.109522E0,-1.0338737E0,-6.697301E-1,-3.3986205E-1,-8.344677E-1,-1.1394949E0,1.1028906E-1,-4.3451223E-1,-1.10536E0,-5.4338163E-1,-1.10818125E-1,9.987659E-3,1.8197323E-1,3.4518626E-1,-1.2079258E-2,-1.2776065E-2,-1.13034E-2,-1.2108549E-2,-1.0708452E-2,-1.162793E-2,-9.444477E-3,-1.0577482E-2,-7.3662186E-3,-5.3895027E-3,-4.151046E-3,-2.2040019E-3,-9.105957E-3,-7.355672E-3,-2.9530376E-3,-1.1766209E-2,-3.73787E-4,2.2997884E-3,-5.7599163E-3,-3.1422954E-3,-7.5770793E-3,-1.1406068E-2,-1.9751312E-3,-5.813989E-3,2.5300973E-3,-1.2510881E-3,-2.683476E-4,6.475573E-4,1.3854362E-3,2.229259E-3,3.1518957E-3,4.1970233E-3],"categories":[],"categories_nodes":[],"categories_segments":[],"categories_sizes":[],"default_left":[0,0,0,0,0,0,0,0,0,0,0,0,0,0,0,0,0,0,0,0,0,0,0,0,0,0,0,0,0,0,0,0,0,0,0,0,0,0,0,0,0,0,0,0,0,0,0,0,0,0,0,0,0,0,0,0,0,0,0,0,0,0,0],"id":24,"left_children":[1,3,5,7,9,11,13,15,17,19,21,23,25,27,29,31,33,35,37,39,41,43,45,47,49,51,53,55,57,59,61,-1,-1,-1,-1,-1,-1,-1,-1,-1,-1,-1,-1,-1,-1,-1,-1,-1,-1,-1,-1,-1,-1,-1,-1,-1,-1,-1,-1,-1,-1,-1,-1],"loss_changes":[9.258037E2,9.4098145E1,1.0836456E2,1.4855469E1,1.13324585E1,4.513936E1,1.3432673E1,2.463379E0,1.3193359E0,2.6807518E0,6.628235E0,2.8720413E1,3.0364914E0,1.0956593E0,1.8753643E0,1.928711E-1,1.3530273E0,1.0356445E0,5.2752686E-1,7.539368E-2,3.9389658E-1,6.008484E0,2.3792496E0,1.9881207E0,1.2343903E1,3.3660126E-1,8.240032E-2,8.115562E-1,3.0625835E-1,2.8925514E-1,1.4041328E-1,0E0,0E0,0E0,0E0,0E0,0E0,0E0,0E0,0E0,0E0,0E0,0E0,0E0,0E0,0E0,0E0,0E0,0E0,0E0,0E0,0E0,0E0,0E0,0E0,0E0,0E0,0E0,0E0,0E0,0E0,0E0,0E0],"parents":[2147483647,0,0,1,1,2,2,3,3,4,4,5,5,6,6,7,7,8,8,9,9,10,10,11,11,12,12,13,13,14,14,15,15,16,16,17,17,18,18,19,19,20,20,21,21,22,22,23,23,24,24,25,25,26,26,27,27,28,28,29,29,30,30],"right_children":[2,4,6,8,10,12,14,16,18,20,22,24,26,28,30,32,34,36,38,40,42,44,46,48,50,52,54,56,58,60,62,-1,-1,-1,-1,-1,-1,-1,-1,-1,-1,-1,-1,-1,-1,-1,-1,-1,-1,-1,-1,-1,-1,-1,-1,-1,-1,-1,-1,-1,-1,-1,-1],"split_conditions":[7.0128554E-1,-1.1852316E-1,1.9392799E0,-5.227874E-1,-2.7589977E-1,2.0308516E0,2.6555142E0,-6.735688E-1,-3.6724457E-1,2.1991822E-1,1.444152E0,3.4302118E-1,1.6594309E0,2.224714E0,3.078668E0,-6.837532E-1,-5.419072E-1,-3.961756E-1,-3.6412337E-1,1.444152E0,4.9084586E-1,3.2207415E-1,-2.1670233E-3,4.816789E0,1.2399961E0,3.6438212E0,2.077068E0,1.5471776E0,2.4402077E0,2.862584E0,3.380959E0,-1.2079258E-2,-1.2776065E-2,-1.13034E-2,-1.2108549E-2,-1.0708452E-2,-1.162793E-2,-9.444477E-3,-1.0577482E-2,-7.3662186E-3,-5.3895027E-3,-4.151046E-3,-2.2040019E-3,-9.105957E-3,-7.355672E-3,-2.9530376E-3,-1.1766209E-2,-3.73787E-4,2.2997884E-3,-5.7599163E-3,-3.1422954E-3,-7.5770793E-3,-1.1406068E-2,-1.9751312E-3,-5.813989E-3,2.5300973E-3,-1.2510881E-3,-2.683476E-4,6.475573E-4,1.3854362E-3,2.229259E-3,3.1518957E-3,4.1970233E-3],"split_indices":[13,13,13,13,8,8,13,13,13,13,14,8,13,13,13,8,8,8,8,14,13,13,8,14,13,14,8,8,13,13,13,0,0,0,0,0,0,0,0,0,0,0,0,0,0,0,0,0,0,0,0,0,0,0,0,0,0,0,0,0,0,0,0],"split_type":[0,0,0,0,0,0,0,0,0,0,0,0,0,0,0,0,0,0,0,0,0,0,0,0,0,0,0,0,0,0,0,0,0,0,0,0,0,0,0,0,0,0,0,0,0,0,0,0,0,0,0,0,0,0,0,0,0,0,0,0,0,0,0],"sum_hessian":[7.656E3,6.1E3,1.556E3,5.022E3,1.078E3,9.57E2,5.99E2,3.202E3,1.82E3,1.06E2,9.72E2,8.46E2,1.11E2,2.99E2,3E2,1.496E3,1.706E3,1.106E3,7.14E2,5.3E1,5.3E1,8.86E2,8.6E1,1.11E2,7.35E2,9.7E1,1.4E1,1.49E2,1.5E2,1.79E2,1.21E2,9.24E2,5.72E2,9.76E2,7.3E2,6.53E2,4.53E2,1.59E2,5.55E2,3.2E1,2.1E1,3.1E1,2.2E1,4.96E2,3.9E2,4E0,8.2E1,5E1,6.1E1,3.36E2,3.99E2,1.1E1,8.6E1,2E0,1.2E1,5E0,1.44E2,9E1,6E1,8.9E1,9E1,9E1,3.1E1],"tree_param":{"num_deleted":"0","num_feature":"15","num_nodes":"63","size_leaf_vector":"1"}},{"base_weights":[-9.1339356E-1,-1.0977956E0,-2.7047476E-1,-1.1560618E0,-8.911419E-1,-4.8617753E-1,7.277177E-2,-1.2124501E0,-1.1148853E0,-9.7461647E-1,-7.9881877E-1,-4.1395813E-1,-1.0366375E0,-8.679129E-2,2.3163292E-1,-1.2673808E-2,-1.1950797E0,-1.1397356E0,-1.0749768E0,-7.3635927E-3,-9.855461E-1,-4.5044553E-1,-8.340882E-1,-4.7240454E-1,1.7960896E-1,-1.102623E0,-5.3469443E-1,-1.4071226E-1,-2.1939863E-2,1.5217003E-1,3.242098E-1,-1.1542963E-2,-1.2348584E-2,-1.0760735E-2,-1.166961E-2,-1.0204027E-2,-1.1068091E-2,-9.677602E-3,-1.14490455E-2,-4.9934085E-3,-3.1865342E-3,-7.998838E-3,-1.1278941E-2,-6.200276E-3,-3.6544516E-3,3.990973E-4,2.6922002E-3,-7.6946258E-3,-1.14092E-2,-2.472897E-3,-6.0988856E-3,2.0602322E-3,-1.559329E-3,3.0474676E-4,-5.0597463E-4,1.1271408E-3,1.8952019E-3,2.8002618E-3,3.8383072E-3],"categories":[],"categories_nodes":[],"categories_segments":[],"categories_sizes":[],"default_left":[0,0,0,0,0,0,0,0,0,0,0,0,0,0,0,0,0,0,0,0,0,0,0,0,0,0,0,0,0,0,0,0,0,0,0,0,0,0,0,0,0,0,0,0,0,0,0,0,0,0,0,0,0,0,0,0,0,0,0],"id":25,"left_children":[1,3,5,7,9,11,13,15,17,19,21,23,25,27,29,-1,31,33,35,-1,37,39,41,43,45,47,49,51,53,55,57,-1,-1,-1,-1,-1,-1,-1,-1,-1,-1,-1,-1,-1,-1,-1,-1,-1,-1,-1,-1,-1,-1,-1,-1,-1,-1,-1,-1],"loss_changes":[9.074829E2,7.061328E1,1.26494385E2,9.416992E0,9.34021E0,4.127272E1,1.6750029E1,