{"learner":{"attributes":{"best_iteration":"999","best_score":"0.01882802053058636","scikit_learn":"{\"_estimator_type\": \"regressor\"}"},"feature_names":["anomaly","hour","dayofweek","quarter","month","year","dayofyear","dayofmonth","weekofyear","lag(1)","lag(2)","rolling_mean(2)","rolling_std(2)"],"feature_types":["float","float","float","float","float","float","float","float","float","float","float","float","float"],"gradient_booster":{"model":{"gbtree_model_param":{"num_parallel_tree":"1","num_trees":"1000"},"iteration_indptr":[0,1,2,3,4,5,6,7,8,9,10,11,12,13,14,15,16,17,18,19,20,21,22,23,24,25,26,27,28,29,30,31,32,33,34,35,36,37,38,39,40,41,42,43,44,45,46,47,48,49,50,51,52,53,54,55,56,57,58,59,60,61,62,63,64,65,66,67,68,69,70,71,72,73,74,75,76,77,78,79,80,81,82,83,84,85,86,87,88,89,90,91,92,93,94,95,96,97,98,99,100,101,102,103,104,105,106,107,108,109,110,111,112,113,114,115,116,117,118,119,120,121,122,123,124,125,126,127,128,129,130,131,132,133,134,135,136,137,138,139,140,141,142,143,144,145,146,147,148,149,150,151,152,153,154,155,156,157,158,159,160,161,162,163,164,165,166,167,168,169,170,171,172,173,174,175,176,177,178,179,180,181,182,183,184,185,186,187,188,189,190,191,192,193,194,195,196,197,198,199,200,201,202,203,204,205,206,207,208,209,210,211,212,213,214,215,216,217,218,219,220,221,222,223,224,225,226,227,228,229,230,231,232,233,234,235,236,237,238,239,240,241,242,243,244,245,246,247,248,249,250,251,252,253,254,255,256,257,258,259,260,261,262,263,264,265,266,267,268,269,270,271,272,273,274,275,276,277,278,279,280,281,282,283,284,285,286,287,288,289,290,291,292,293,294,295,296,297,298,299,300,301,302,303,304,305,306,307,308,309,310,311,312,313,314,315,316,317,318,319,320,321,322,323,324,325,326,327,328,329,330,331,332,333,334,335,336,337,338,339,340,341,342,343,344,345,346,347,348,349,350,351,352,353,354,355,356,357,358,359,360,361,362,363,364,365,366,367,368,369,370,371,372,373,374,375,376,377,378,379,380,381,382,383,384,385,386,387,388,389,390,391,392,393,394,395,396,397,398,399,400,401,402,403,404,405,406,407,408,409,410,411,412,413,414,415,416,417,418,419,420,421,422,423,424,425,426,427,428,429,430,431,432,433,434,435,436,437,438,439,440,441,442,443,444,445,446,447,448,449,450,451,452,453,454,455,456,457,458,459,460,461,462,463,464,465,466,467,468,469,470,471,472,473,474,475,476,477,478,479,480,481,482,483,484,485,486,487,488,489,490,491,492,493,494,495,496,497,498,499,500,501,502,503,504,505,506,507,508,509,510,511,512,513,514,515,516,517,518,519,520,521,522,523,524,525,526,527,528,529,530,531,532,533,534,535,536,537,538,539,540,541,542,543,544,545,546,547,548,549,550,551,552,553,554,555,556,557,558,559,560,561,562,563,564,565,566,567,568,569,570,571,572,573,574,575,576,577,578,579,580,581,582,583,584,585,586,587,588,589,590,591,592,593,594,595,596,597,598,599,600,601,602,603,604,605,606,607,608,609,610,611,612,613,614,615,616,617,618,619,620,621,622,623,624,625,626,627,628,629,630,631,632,633,634,635,636,637,638,639,640,641,642,643,644,645,646,647,648,649,650,651,652,653,654,655,656,657,658,659,660,661,662,663,664,665,666,667,668,669,670,671,672,673,674,675,676,677,678,679,680,681,682,683,684,685,686,687,688,689,690,691,692,693,694,695,696,697,698,699,700,701,702,703,704,705,706,707,708,709,710,711,712,713,714,715,716,717,718,719,720,721,722,723,724,725,726,727,728,729,730,731,732,733,734,735,736,737,738,739,740,741,742,743,744,745,746,747,748,749,750,751,752,753,754,755,756,757,758,759,760,761,762,763,764,765,766,767,768,769,770,771,772,773,774,775,776,777,778,779,780,781,782,783,784,785,786,787,788,789,790,791,792,793,794,795,796,797,798,799,800,801,802,803,804,805,806,807,808,809,810,811,812,813,814,815,816,817,818,819,820,821,822,823,824,825,826,827,828,829,830,831,832,833,834,835,836,837,838,839,840,841,842,843,844,845,846,847,848,849,850,851,852,853,854,855,856,857,858,859,860,861,862,863,864,865,866,867,868,869,870,871,872,873,874,875,876,877,878,879,880,881,882,883,884,885,886,887,888,889,890,891,892,893,894,895,896,897,898,899,900,901,902,903,904,905,906,907,908,909,910,911,912,913,914,915,916,917,918,919,920,921,922,923,924,925,926,927,928,929,930,931,932,933,934,935,936,937,938,939,940,941,942,943,944,945,946,947,948,949,950,951,952,953,954,955,956,957,958,959,960,961,962,963,964,965,966,967,968,969,970,971,972,973,974,975,976,977,978,979,980,981,982,983,984,985,986,987,988,989,990,991,992,993,994,995,996,997,998,999,1000],"tree_info":[0,0,0,0,0,0,0,0,0,0,0,0,0,0,0,0,0,0,0,0,0,0,0,0,0,0,0,0,0,0,0,0,0,0,0,0,0,0,0,0,0,0,0,0,0,0,0,0,0,0,0,0,0,0,0,0,0,0,0,0,0,0,0,0,0,0,0,0,0,0,0,0,0,0,0,0,0,0,0,0,0,0,0,0,0,0,0,0,0,0,0,0,0,0,0,0,0,0,0,0,0,0,0,0,0,0,0,0,0,0,0,0,0,0,0,0,0,0,0,0,0,0,0,0,0,0,0,0,0,0,0,0,0,0,0,0,0,0,0,0,0,0,0,0,0,0,0,0,0,0,0,0,0,0,0,0,0,0,0,0,0,0,0,0,0,0,0,0,0,0,0,0,0,0,0,0,0,0,0,0,0,0,0,0,0,0,0,0,0,0,0,0,0,0,0,0,0,0,0,0,0,0,0,0,0,0,0,0,0,0,0,0,0,0,0,0,0,0,0,0,0,0,0,0,0,0,0,0,0,0,0,0,0,0,0,0,0,0,0,0,0,0,0,0,0,0,0,0,0,0,0,0,0,0,0,0,0,0,0,0,0,0,0,0,0,0,0,0,0,0,0,0,0,0,0,0,0,0,0,0,0,0,0,0,0,0,0,0,0,0,0,0,0,0,0,0,0,0,0,0,0,0,0,0,0,0,0,0,0,0,0,0,0,0,0,0,0,0,0,0,0,0,0,0,0,0,0,0,0,0,0,0,0,0,0,0,0,0,0,0,0,0,0,0,0,0,0,0,0,0,0,0,0,0,0,0,0,0,0,0,0,0,0,0,0,0,0,0,0,0,0,0,0,0,0,0,0,0,0,0,0,0,0,0,0,0,0,0,0,0,0,0,0,0,0,0,0,0,0,0,0,0,0,0,0,0,0,0,0,0,0,0,0,0,0,0,0,0,0,0,0,0,0,0,0,0,0,0,0,0,0,0,0,0,0,0,0,0,0,0,0,0,0,0,0,0,0,0,0,0,0,0,0,0,0,0,0,0,0,0,0,0,0,0,0,0,0,0,0,0,0,0,0,0,0,0,0,0,0,0,0,0,0,0,0,0,0,0,0,0,0,0,0,0,0,0,0,0,0,0,0,0,0,0,0,0,0,0,0,0,0,0,0,0,0,0,0,0,0,0,0,0,0,0,0,0,0,0,0,0,0,0,0,0,0,0,0,0,0,0,0,0,0,0,0,0,0,0,0,0,0,0,0,0,0,0,0,0,0,0,0,0,0,0,0,0,0,0,0,0,0,0,0,0,0,0,0,0,0,0,0,0,0,0,0,0,0,0,0,0,0,0,0,0,0,0,0,0,0,0,0,0,0,0,0,0,0,0,0,0,0,0,0,0,0,0,0,0,0,0,0,0,0,0,0,0,0,0,0,0,0,0,0,0,0,0,0,0,0,0,0,0,0,0,0,0,0,0,0,0,0,0,0,0,0,0,0,0,0,0,0,0,0,0,0,0,0,0,0,0,0,0,0,0,0,0,0,0,0,0,0,0,0,0,0,0,0,0,0,0,0,0,0,0,0,0,0,0,0,0,0,0,0,0,0,0,0,0,0,0,0,0,0,0,0,0,0,0,0,0,0,0,0,0,0,0,0,0,0,0,0,0,0,0,0,0,0,0,0,0,0,0,0,0,0,0,0,0,0,0,0,0,0,0,0,0,0,0,0,0,0,0,0,0,0,0,0,0,0,0,0,0,0,0,0,0,0,0,0,0,0,0,0,0,0,0,0,0,0,0,0,0,0,0,0,0,0,0,0,0,0,0,0,0,0,0,0,0,0,0,0,0,0,0,0,0,0,0,0,0,0,0,0,0,0,0,0,0,0,0,0,0,0,0,0,0,0,0,0,0,0,0,0,0,0,0,0,0,0,0,0,0,0,0,0,0,0,0,0,0,0,0,0,0,0,0,0,0,0,0,0,0,0,0,0,0,0,0,0,0,0,0,0,0,0,0,0,0,0,0,0,0,0,0,0,0,0,0,0,0,0,0,0,0,0,0,0,0,0,0,0,0,0,0,0,0,0,0,0,0,0,0,0,0,0,0,0,0,0,0,0,0,0,0,0,0,0,0,0,0,0,0,0,0,0,0,0,0,0,0,0,0,0,0,0,0,0,0,0,0,0,0,0,0,0,0,0,0,0,0,0,0,0,0,0,0,0,0,0,0,0,0,0,0,0,0,0,0,0,0,0,0,0,0,0,0,0,0,0,0],"trees":[{"base_weights":[-9.5965624E-1,-1.380192E0,1.6778E-2,-1.4800093E0,-9.8151517E-1,-3.714505E-1,3.0767646E-1,-1.5336596E0,-1.3982455E0,-3.9701486E-1,-1.0509628E0,-3.1253976E-1,-1.1274924E0,1.3284037E-1,4.2853472E-1,-1.592332E-2,-1.503021E0,-1.4291228E0,-1.3390889E0,-7.85635E-1,-1.9590794E-1,-1.0034953E0,-1.4367834E0,1.7418574E-1,-3.5580546E-1,-1.3922615E-2,-6.868306E-1,2.1541154E-2,1.885742E-1,3.6000976E-1,4.9577424E-1,-1.4318926E-2,-1.5313086E-2,-1.3558831E-2,-1.4614004E-2,-1.2196183E-2,-1.3643329E-2,-8.424071E-3,-5.0836927E-3,-3.1681436E-3,-2.3958307E-4,-1.1482075E-2,-8.394455E-3,-9.663211E-3,-1.4768669E-2,-1.1295251E-3,2.8900984E-3,-5.1221317E-3,-1.4535809E-3,-3.296162E-3,-7.92168E-3,4.01754E-4,-2.5532932E-3,1.4087243E-3,2.3488388E-3,3.8628126E-3,2.9818343E-3,4.5491457E-3,5.4039424E-3],"categories":[],"categories_nodes":[],"categories_segments":[],"categories_sizes":[],"default_left":[0,0,0,0,0,0,0,0,0,0,0,0,0,0,0,0,0,0,0,0,0,0,0,0,0,0,0,0,0,0,0,0,0,0,0,0,0,0,0,0,0,0,0,0,0,0,0,0,0,0,0,0,0,0,0,0,0,0,0],"id":0,"left_children":[1,3,5,7,9,11,13,15,17,19,21,23,25,27,29,-1,31,33,35,37,39,41,43,45,47,-1,49,51,53,55,57,-1,-1,-1,-1,-1,-1,-1,-1,-1,-1,-1,-1,-1,-1,-1,-1,-1,-1,-1,-1,-1,-1,-1,-1,-1,-1,-1,-1],"loss_changes":[3.5383838E3,2.3823145E2,2.9318082E2,1.897754E1,4.8658813E1,4.9174973E1,3.1300568E1,2.8139648E0,1.5915527E0,1.0006132E1,1.8337158E1,2.1815414E1,8.37764E0,3.7674427E0,3.862381E0,0E0,1.671875E0,9.641113E-1,3.6865234E-1,2.6434898E-1,1.8011236E0,2.1945312E1,7.6039124E-1,2.8351278E0,3.116246E1,0E0,9.4298744E-1,1.0627496E0,8.61578E-1,5.9625244E-1,5.563507E-1,0E0,0E0,0E0,0E0,0E0,0E0,0E0,0E0,0E0,0E0,0E0,0E0,0E0,0E0,0E0,0E0,0E0,0E0,0E0,0E0,0E0,0E0,0E0,0E0,0E0,0E0,0E0,0E0],"parents":[2147483647,0,0,1,1,2,2,3,3,4,4,5,5,6,6,7,7,8,8,9,9,10,10,11,11,12,12,13,13,14,14,16,16,17,17,18,18,19,19,20,20,21,21,22,22,23,23,24,24,26,26,27,27,28,28,29,29,30,30],"right_children":[2,4,6,8,10,12,14,16,18,20,22,24,26,28,30,-1,32,34,36,38,40,42,44,46,48,-1,50,52,54,56,58,-1,-1,-1,-1,-1,-1,-1,-1,-1,-1,-1,-1,-1,-1,-1,-1,-1,-1,-1,-1,-1,-1,-1,-1,-1,-1,-1,-1],"split_conditions":[3.8329813E-1,-4.1877076E-1,1.3404086E0,-7.2043383E-1,-5.5585206E-1,1.467746E0,1.7776423E0,-8.42726E-1,-6.136639E-1,2.852491E0,5.159316E-1,2.0944233E-1,8.1868917E-1,1.4852785E0,1.9761035E0,-1.592332E-2,-8.1018144E-1,-7.026177E-1,-6.4199406E-1,-1.4481333E-1,2.0500863E-1,-6.0246285E-2,2.4642413E0,3.7390802E0,9.455459E-1,-1.3922615E-2,2.4642413E0,1.6095558E0,1.6361071E0,1.8985356E0,2.073443E0,-1.4318926E-2,-1.5313086E-2,-1.3558831E-2,-1.4614004E-2,-1.2196183E-2,-1.3643329E-2,-8.424071E-3,-5.0836927E-3,-3.1681436E-3,-2.3958307E-4,-1.1482075E-2,-8.394455E-3,-9.663211E-3,-1.4768669E-2,-1.1295251E-3,2.8900984E-3,-5.1221317E-3,-1.4535809E-3,-3.296162E-3,-7.92168E-3,4.01754E-4,-2.5532932E-3,1.4087243E-3,2.3488388E-3,3.8628126E-3,2.9818343E-3,4.5491457E-3,5.4039424E-3],"split_indices":[11,11,11,11,9,9,11,11,11,12,9,9,11,11,11,0,9,9,9,11,11,11,12,12,11,0,12,9,11,9,11,0,0,0,0,0,0,0,0,0,0,0,0,0,0,0,0,0,0,0,0,0,0,0,0,0,0,0,0],"split_type":[0,0,0,0,0,0,0,0,0,0,0,0,0,0,0,0,0,0,0,0,0,0,0,0,0,0,0,0,0,0,0,0,0,0,0,0,0,0,0,0,0,0,0,0,0,0,0,0,0,0,0,0,0,0,0,0,0,0,0],"sum_hessian":[8.616E3,6.022E3,2.594E3,4.814E3,1.208E3,1.111E3,1.483E3,2.896E3,1.918E3,1.29E2,1.079E3,1.032E3,7.9E1,6.07E2,8.76E2,9.76E2,1.92E3,1.245E3,6.73E2,4.3E1,8.6E1,9.64E2,1.15E2,8.4E1,9.48E2,4.8E1,3.1E1,2.03E2,4.04E2,4.37E2,4.39E2,5.61E2,1.359E3,3.94E2,8.51E2,1.26E2,5.47E2,3.4E1,9E0,5E1,3.6E1,5.09E2,4.55E2,1.1E1,1.04E2,2.4E1,6E1,5.43E2,4.05E2,8E0,2.3E1,1.91E2,1.2E1,2.01E2,2.03E2,3.03E2,1.34E2,2.35E2,2.04E2],"tree_param":{"num_deleted":"0","num_feature":"13","num_nodes":"59","size_leaf_vector":"1"}},{"base_weights":[-9.500797E-1,-1.3664168E0,1.660577E-2,-1.4652299E0,-9.717506E-1,-3.6776295E-1,3.0461213E-1,-1.5183387E0,-1.3842912E0,-3.9317483E-1,-1.0404942E0,-3.0941904E-1,-1.1165317E0,1.3151462E-1,4.242685E-1,-1.574981E-2,-1.4872332E0,-1.4148542E0,-1.3257364E0,-6.9500625E-1,-1.4037997E-1,-9.93481E-1,-1.4226263E0,1.724646E-1,-3.5225433E-1,-1.3786231E-2,-6.803129E-1,2.1315213E-2,1.8669774E-1,3.564253E-1,4.9083912E-1,-1.4208745E-2,-1.5174925E-2,-1.3423587E-2,-1.4468036E-2,-1.2075182E-2,-1.35071445E-2,-8.673682E-3,-5.2247057E-3,-2.314788E-3,2.0024735E-4,-1.136748E-2,-8.310694E-3,-9.574631E-3,-1.4622388E-2,-1.1186816E-3,2.8616711E-3,-5.0710044E-3,-1.4390809E-3,-3.2668628E-3,-7.845764E-3,2.1280968E-3,-5.3996588E-5,1.3947071E-3,2.3254657E-3,3.824312E-3,2.9522367E-3,4.503847E-3,5.350167E-3],"categories":[],"categories_nodes":[],"categories_segments":[],"categories_sizes":[],"default_left":[0,0,0,0,0,0,0,0,0,0,0,0,0,0,0,0,0,0,0,0,0,0,0,0,0,0,0,0,0,0,0,0,0,0,0,0,0,0,0,0,0,0,0,0,0,0,0,0,0,0,0,0,0,0,0,0,0,0,0],"id":1,"left_children":[1,3,5,7,9,11,13,15,17,19,21,23,25,27,29,-1,31,33,35,37,39,41,43,45,47,-1,49,51,53,55,57,-1,-1,-1,-1,-1,-1,-1,-1,-1,-1,-1,-1,-1,-1,-1,-1,-1,-1,-1,-1,-1,-1,-1,-1,-1,-1,-1,-1],"loss_changes":[3.468081E3,2.3346289E2,2.8738016E2,1.8595703E1,4.767688E1,4.823349E1,3.0681137E1,2.7617188E0,1.5585938E0,9.821623E0,1.7989258E1,2.1383553E1,8.208427E0,3.6933575E0,3.785904E0,0E0,1.6352539E0,9.4384766E-1,3.5925293E-1,1.3014011E0,1.0567484E0,2.1509033E1,7.3739624E-1,2.7800086E0,3.0543297E1,0E0,9.23542E-1,1.0447623E0,8.4451485E-1,5.842209E-1,5.453949E-1,0E0,0E0,0E0,0E0,0E0,0E0,0E0,0E0,0E0,0E0,0E0,0E0,0E0,0E0,0E0,0E0,0E0,0E0,0E0,0E0,0E0,0E0,0E0,0E0,0E0,0E0,0E0,0E0],"parents":[2147483647,0,0,1,1,2,2,3,3,4,4,5,5,6,6,7,7,8,8,9,9,10,10,11,11,12,12,13,13,14,14,16,16,17,17,18,18,19,19,20,20,21,21,22,22,23,23,24,24,26,26,27,27,28,28,29,29,30,30],"right_children":[2,4,6,8,10,12,14,16,18,20,22,24,26,28,30,-1,32,34,36,38,40,42,44,46,48,-1,50,52,54,56,58,-1,-1,-1,-1,-1,-1,-1,-1,-1,-1,-1,-1,-1,-1,-1,-1,-1,-1,-1,-1,-1,-1,-1,-1,-1,-1,-1,-1],"split_conditions":[3.8329813E-1,-4.1877076E-1,1.3404086E0,-7.2043383E-1,-5.5585206E-1,1.467746E0,1.7776423E0,-8.3892167E-1,-6.136639E-1,8.536984E-3,5.159316E-1,2.0944233E-1,8.1868917E-1,1.4852785E0,1.9761035E0,-1.574981E-2,-8.0194604E-1,-7.026177E-1,-6.4199406E-1,2.086732E0,2.4893497E-1,-6.0246285E-2,2.4642413E0,3.7390802E0,9.455459E-1,-1.3786231E-2,2.4642413E0,1.2502279E0,1.6361071E0,1.8985356E0,2.073443E0,-1.4208745E-2,-1.5174925E-2,-1.3423587E-2,-1.4468036E-2,-1.2075182E-2,-1.35071445E-2,-8.673682E-3,-5.2247057E-3,-2.314788E-3,2.0024735E-4,-1.136748E-2,-8.310694E-3,-9.574631E-3,-1.4622388E-2,-1.1186816E-3,2.8616711E-3,-5.0710044E-3,-1.4390809E-3,-3.2668628E-3,-7.845764E-3,2.1280968E-3,-5.3996588E-5,1.3947071E-3,2.3254657E-3,3.824312E-3,2.9522367E-3,4.503847E-3,5.350167E-3],"split_indices":[11,11,11,11,9,9,11,11,11,11,9,9,11,11,11,0,9,9,9,12,11,11,12,12,11,0,12,9,11,9,11,0,0,0,0,0,0,0,0,0,0,0,0,0,0,0,0,0,0,0,0,0,0,0,0,0,0,0,0],"split_type":[0,0,0,0,0,0,0,0,0,0,0,0,0,0,0,0,0,0,0,0,0,0,0,0,0,0,0,0,0,0,0,0,0,0,0,0,0,0,0,0,0,0,0,0,0,0,0,0,0,0,0,0,0,0,0,0,0,0,0],"sum_hessian":[8.616E3,6.022E3,2.594E3,4.814E3,1.208E3,1.111E3,1.483E3,2.896E3,1.918E3,1.29E2,1.079E3,1.032E3,7.9E1,6.07E2,8.76E2,1.009E3,1.887E3,1.245E3,6.73E2,5.8E1,7.1E1,9.64E2,1.15E2,8.4E1,9.48E2,4.8E1,3.1E1,2.03E2,4.04E2,4.37E2,4.39E2,6.06E2,1.281E3,3.94E2,8.51E2,1.26E2,5.47E2,2.7E1,3.1E1,4.5E1,2.6E1,5.09E2,4.55E2,1.1E1,1.04E2,2.4E1,6E1,5.43E2,4.05E2,8E0,2.3E1,2.4E1,1.79E2,2.01E2,2.03E2,3.03E2,1.34E2,2.35E2,2.04E2],"tree_param":{"num_deleted":"0","num_feature":"13","num_nodes":"59","size_leaf_vector":"1"}},{"base_weights":[-9.405981E-1,-1.3451772E0,3.4412585E-2,-1.4454097E0,-9.2467636E-1,-3.1557262E-1,3.2439715E-1,-1.5024452E0,-1.3607923E0,-3.586542E-1,-9.996546E-1,-2.6688495E-1,-1.0275587E0,1.7299071E-1,4.309711E-1,-1.5592467E-2,-1.4717509E0,-1.392492E0,-1.2805561E0,-6.689777E-1,-1.281883E-1,-9.4467324E-1,-1.4005347E0,-4.113521E-1,-1.0691165E-1,-5.65832E-1,-1.2862713E-2,1.01440534E-1,2.3686042E-1,3.870063E-1,5.1714814E-1,-1.4025767E-2,-1.50003275E-2,-1.3214479E-2,-1.4201604E-2,-1.1314188E-2,-1.3009622E-2,-8.156303E-3,-5.1020645E-3,-2.3166914E-3,2.1672536E-4,-1.06092105E-2,-8.087434E-3,-4.6029612E-3,-1.4448179E-2,2.3066646E-3,-4.8824055E-3,-1.3108415E-3,3.6824532E-3,-2.825369E-3,-6.6502327E-3,2.1326244E-3,4.8591368E-4,2.5831002E-3,1.4604182E-3,3.445568E-3,4.1896678E-3,4.9342876E-3,5.7943617E-3],"categories":[],"categories_nodes":[],"categories_segments":[],"categories_sizes":[],"default_left":[0,0,0,0,0,0,0,0,0,0,0,0,0,0,0,0,0,0,0,0,0,0,0,0,0,0,0,0,0,0,0,0,0,0,0,0,0,0,0,0,0,0,0,0,0,0,0,0,0,0,0,0,0,0,0,0,0,0,0],"id":2,"left_children":[1,3,5,7,9,11,13,15,17,19,21,23,25,27,29,-1,31,33,35,37,39,41,43,45,47,49,-1,51,53,55,57,-1,-1,-1,-1,-1,-1,-1,-1,-1,-1,-1,-1,-1,-1,-1,-1,-1,-1,-1,-1,-1,-1,-1,-1,-1,-1,-1,-1],"loss_changes":[3.399185E3,2.5534375E2,2.5666986E2,2.1680664E1,4.950763E1,3.9451775E1,2.22415E1,2.8085938E0,3.2783203E0,9.855383E0,2.1533447E1,2.4777122E1,7.9923706E0,2.5945187E0,2.8725586E0,0E0,1.6479492E0,9.0478516E-1,2.810669E-1,9.5763016E-1,1.2611467E0,1.3600403E1,4.4562836E0,2.7953812E1,5.917483E0,5.98917E-1,0E0,1.5970745E0,5.505791E-1,5.8961487E-1,1.14471436E-1,0E0,0E0,0E0,0E0,0E0,0E0,0E0,0E0,0E0,0E0,0E0,0E0,0E0,0E0,0E0,0E0,0E0,0E0,0E0,0E0,0E0,0E0,0E0,0E0,0E0,0E0,0E0,0E0],"parents":[2147483647,0,0,1,1,2,2,3,3,4,4,5,5,6,6,7,7,8,8,9,9,10,10,11,11,12,12,13,13,14,14,16,16,17,17,18,18,19,19,20,20,21,21,22,22,23,23,24,24,25,25,27,27,28,28,29,29,30,30],"right_children":[2,4,6,8,10,12,14,16,18,20,22,24,26,28,30,-1,32,34,36,38,40,42,44,46,48,50,-1,52,54,56,58,-1,-1,-1,-1,-1,-1,-1,-1,-1,-1,-1,-1,-1,-1,-1,-1,-1,-1,-1,-1,-1,-1,-1,-1,-1,-1,-1,-1],"split_conditions":[4.5197746E-1,-3.6010462E-1,1.4022965E0,-7.1829593E-1,-4.9837062E-1,1.5013268E0,1.8114605E0,-8.3892167E-1,-5.7992333E-1,8.536984E-3,8.901046E-1,9.455459E-1,3.9691043E0,1.6172408E0,2.0406215E0,-1.5592467E-2,-8.075631E-1,-7.026177E-1,-6.4199406E-1,-2.0984583E-1,2.4893497E-1,4.3353233E-2,-1.659391E-1,2.3203385E-1,1.4793805E0,2.086732E0,-1.2862713E-2,1.3674897E0,1.7737501E0,1.9230537E0,2.1561122E0,-1.4025767E-2,-1.50003275E-2,-1.3214479E-2,-1.4201604E-2,-1.1314188E-2,-1.3009622E-2,-8.156303E-3,-5.1020645E-3,-2.3166914E-3,2.1672536E-4,-1.06092105E-2,-8.087434E-3,-4.6029612E-3,-1.4448179E-2,2.3066646E-3,-4.8824055E-3,-1.3108415E-3,3.6824532E-3,-2.825369E-3,-6.6502327E-3,2.1326244E-3,4.8591368E-4,2.5831002E-3,1.4604182E-3,3.445568E-3,4.1896678E-3,4.9342876E-3,5.7943617E-3],"split_indices":[11,11,11,11,9,9,11,11,11,11,3,11,12,11,11,0,9,9,9,11,11,11,9,9,12,12,0,9,9,11,11,0,0,0,0,0,0,0,0,0,0,0,0,0,0,0,0,0,0,0,0,0,0,0,0,0,0,0,0],"split_type":[0,0,0,0,0,0,0,0,0,0,0,0,0,0,0,0,0,0,0,0,0,0,0,0,0,0,0,0,0,0,0,0,0,0,0,0,0,0,0,0,0,0,0,0,0,0,0,0,0,0,0,0,0,0,0,0,0,0,0],"sum_hessian":[8.616E3,6.089E3,2.527E3,4.915E3,1.174E3,1.145E3,1.382E3,2.926E3,1.989E3,1.38E2,1.036E3,1.073E3,7.2E1,5.72E2,8.1E2,1.009E3,1.917E3,1.414E3,5.75E2,5.8E1,8E1,9.14E2,1.22E2,5.63E2,5.1E2,2.7E1,4.5E1,2.71E2,3.01E2,5.4E2,2.7E2,5.71E2,1.346E3,4.1E2,1.004E3,7.6E1,4.99E2,2.8E1,3E1,4.7E1,3.3E1,4.89E2,4.25E2,6E0,1.16E2,6E1,5.03E2,4.86E2,2.4E1,8E0,1.9E1,8.6E1,1.85E2,2.42E2,5.9E1,2.37E2,3.03E2,2.02E2,6.8E1],"tree_param":{"num_deleted":"0","num_feature":"13","num_nodes":"59","size_leaf_vector":"1"}},{"base_weights":[-9.3120915E-1,-1.3392899E0,1.6305981E-2,-1.4361316E0,-9.524979E-1,-3.605286E-1,2.9866698E-1,-1.4898185E0,-1.3592347E0,-3.8538262E-1,-1.0198798E0,-3.032678E-1,-1.0954021E0,1.2905264E-1,4.159154E-1,-1.5451147E-2,-1.4597945E0,-1.3888066E0,-1.2993903E0,-7.631435E-1,-1.8990147E-1,-9.736137E-1,-1.3959744E0,1.6992517E-1,-3.4533116E-1,-1.3528445E-2,-6.669621E-1,2.1217152E-2,1.8305112E-1,3.5432136E-1,4.8649788E-1,-1.3929721E-2,-1.4887851E-2,-1.3173135E-2,-1.419977E-2,-1.2114157E-2,-1.3326756E-2,-8.180947E-3,-4.9449983E-3,-3.0743273E-3,-2.2766457E-4,-1.1142694E-2,-8.14166E-3,-9.412729E-3,-1.4346452E-2,-2.3448695E-3,2.4620078E-3,-4.9693272E-3,-1.413494E-3,-3.210941E-3,-7.6887244E-3,3.9557918E-4,-2.5129393E-3,2.1758308E-3,1.2226077E-3,3.7781938E-3,2.9471149E-3,4.672516E-3,5.737258E-3],"categories":[],"categories_nodes":[],"categories_segments":[],"categories_sizes":[],"default_left":[0,0,0,0,0,0,0,0,0,0,0,0,0,0,0,0,0,0,0,0,0,0,0,0,0,0,0,0,0,0,0,0,0,0,0,0,0,0,0,0,0,0,0,0,0,0,0,0,0,0,0,0,0,0,0,0,0,0,0],"id":3,"left_children":[1,3,5,7,9,11,13,15,17,19,21,23,25,27,29,-1,31,33,35,37,39,41,43,45,47,-1,49,51,53,55,57,-1,-1,-1,-1,-1,-1,-1,-1,-1,-1,-1,-1,-1,-1,-1,-1,-1,-1,-1,-1,-1,-1,-1,-1,-1,-1,-1,-1],"loss_changes":[3.331895E3,2.2423926E2,2.762245E2,1.785254E1,4.5806885E1,4.6460144E1,2.9458664E1,2.4345703E0,1.71875E0,9.4549465E0,1.743335E1,2.0619598E1,7.9215927E0,3.5364714E0,3.6403503E0,0E0,1.5080566E0,1.0666504E0,3.5925293E-1,2.449913E-1,1.701993E0,2.0735107E1,6.8933105E-1,2.6797075E0,2.9276611E1,0E0,8.810406E-1,1.0295453E0,8.2357883E-1,5.497894E-1,4.135208E-1,0E0,0E0,0E0,0E0,0E0,0E0,0E0,0E0,0E0,0E0,0E0,0E0,0E0,0E0,0E0,0E0,0E0,0E0,0E0,0E0,0E0,0E0,0E0,0E0,0E0,0E0,0E0,0E0],"parents":[2147483647,0,0,1,1,2,2,3,3,4,4,5,5,6,6,7,7,8,8,9,9,10,10,11,11,12,12,13,13,14,14,16,16,17,17,18,18,19,19,20,20,21,21,22,22,23,23,24,24,26,26,27,27,28,28,29,29,30,30],"right_children":[2,4,6,8,10,12,14,16,18,20,22,24,26,28,30,-1,32,34,36,38,40,42,44,46,48,-1,50,52,54,56,58,-1,-1,-1,-1,-1,-1,-1,-1,-1,-1,-1,-1,-1,-1,-1,-1,-1,-1,-1,-1,-1,-1,-1,-1,-1,-1,-1,-1],"split_conditions":[3.8329813E-1,-4.1877076E-1,1.3404086E0,-7.247231E-1,-5.5585206E-1,1.467746E0,1.7776423E0,-8.42726E-1,-6.136639E-1,2.852491E0,5.159316E-1,2.0944233E-1,8.1868917E-1,1.4852785E0,1.9882528E0,-1.5451147E-2,-8.075631E-1,-7.0459104E-1,-5.966117E-1,-1.4481333E-1,2.0500863E-1,-6.0246285E-2,2.4642413E0,3.041832E0,9.455459E-1,-1.3528445E-2,2.4642413E0,1.6095558E0,-3.6159408E-1,1.9112891E0,2.1561122E0,-1.3929721E-2,-1.4887851E-2,-1.3173135E-2,-1.419977E-2,-1.2114157E-2,-1.3326756E-2,-8.180947E-3,-4.9449983E-3,-3.0743273E-3,-2.2766457E-4,-1.1142694E-2,-8.14166E-3,-9.412729E-3,-1.4346452E-2,-2.3448695E-3,2.4620078E-3,-4.9693272E-3,-1.413494E-3,-3.210941E-3,-7.6887244E-3,3.9557918E-4,-2.5129393E-3,2.1758308E-3,1.2226077E-3,3.7781938E-3,2.9471149E-3,4.672516E-3,5.737258E-3],"split_indices":[11,11,11,11,9,9,11,11,11,12,9,9,11,11,11,0,9,9,9,11,11,11,12,12,11,0,12,9,1,9,11,0,0,0,0,0,0,0,0,0,0,0,0,0,0,0,0,0,0,0,0,0,0,0,0,0,0,0,0],"split_type":[0,0,0,0,0,0,0,0,0,0,0,0,0,0,0,0,0,0,0,0,0,0,0,0,0,0,0,0,0,0,0,0,0,0,0,0,0,0,0,0,0,0,0,0,0,0,0,0,0,0,0,0,0,0,0,0,0,0,0],"sum_hessian":[8.616E3,6.022E3,2.594E3,4.814E3,1.208E3,1.111E3,1.483E3,2.824E3,1.99E3,1.29E2,1.079E3,1.032E3,7.9E1,6.07E2,8.76E2,9.76E2,1.848E3,1.317E3,6.73E2,4.3E1,8.6E1,9.64E2,1.15E2,8.4E1,9.48E2,4.8E1,3.1E1,2.03E2,4.04E2,4.71E2,4.05E2,5.74E2,1.274E3,4.13E2,9.04E2,1.95E2,4.78E2,3.4E1,9E0,5E1,3.6E1,5.09E2,4.55E2,1.1E1,1.04E2,1.3E1,7.1E1,5.43E2,4.05E2,8E0,2.3E1,1.91E2,1.2E1,2.56E2,1.48E2,3.34E2,1.37E2,3.37E2,6.8E1],"tree_param":{"num_deleted":"0","num_feature":"13","num_nodes":"59","size_leaf_vector":"1"}},{"base_weights":[-9.2191666E-1,-1.318481E0,3.3779055E-2,-1.4167045E0,-9.0640825E-1,-3.0924276E-1,3.1799397E-1,-1.473305E0,-1.3348293E0,-3.5157162E-1,-9.799048E-1,-2.6148003E-1,-1.0077075E0,1.6951303E-1,4.2250884E-1,-1.5282684E-2,-1.4431214E0,-1.3656707E0,-1.2551407E0,-6.5596235E-1,-1.2551449E-1,-9.258896E-1,-1.3737584E0,-4.029739E-1,-1.0479895E-1,-5.550316E-1,-1.2613426E-2,9.926235E-2,2.3222387E-1,3.7935722E-1,5.070938E-1,-1.378668E-2,-1.472513E-2,-1.29059E-2,-1.3912482E-2,-1.1086012E-2,-1.2751975E-2,-7.995219E-3,-5.005046E-3,-2.2677237E-3,2.1129391E-4,-1.0398064E-2,-7.926851E-3,-4.508576E-3,-1.4172332E-2,2.2661365E-3,-4.783744E-3,-1.2869239E-3,3.6483728E-3,-2.7763662E-3,-6.521078E-3,2.0983298E-3,4.7010163E-4,2.5353427E-3,1.4204625E-3,3.3755195E-3,4.1083843E-3,4.838693E-3,5.680717E-3],"categories":[],"categories_nodes":[],"categories_segments":[],"categories_sizes":[],"default_left":[0,0,0,0,0,0,0,0,0,0,0,0,0,0,0,0,0,0,0,0,0,0,0,0,0,0,0,0,0,0,0,0,0,0,0,0,0,0,0,0,0,0,0,0,0,0,0,0,0,0,0,0,0,0,0,0,0,0,0],"id":4,"left_children":[1,3,5,7,9,11,13,15,17,19,21,23,25,27,29,-1,31,33,35,37,39,41,43,45,47,49,-1,51,53,55,57,-1,-1,-1,-1,-1,-1,-1,-1,-1,-1,-1,-1,-1,-1,-1,-1,-1,-1,-1,-1,-1,-1,-1,-1,-1,-1,-1,-1],"loss_changes":[3.2658438E3,2.4520996E2,2.4655788E2,2.081543E1,4.7570374E1,3.7967735E1,2.1390427E1,2.600586E0,3.2504883E0,9.482214E0,2.0789246E1,2.3767708E1,7.6813736E0,2.5012894E0,2.7677612E0,0E0,1.5463867E0,9.794922E-1,2.7929688E-1,9.1656494E-1,1.2075484E0,1.3060181E1,4.296158E0,2.688218E1,5.7809978E0,5.729475E-1,0E0,1.5616312E0,5.4434586E-1,5.733185E-1,1.0891724E-1,0E0,0E0,0E0,0E0,0E0,0E0,0E0,0E0,0E0,0E0,0E0,0E0,0E0,0E0,0E0,0E0,0E0,0E0,0E0,0E0,0E0,0E0,0E0,0E0,0E0,0E0,0E0,0E0],"parents":[2147483647,0,0,1,1,2,2,3,3,4,4,5,5,6,6,7,7,8,8,9,9,10,10,11,11,12,12,13,13,14,14,16,16,17,17,18,18,19,19,20,20,21,21,22,22,23,23,24,24,25,25,27,27,28,28,29,29,30,30],"right_children":[2,4,6,8,10,12,14,16,18,20,22,24,26,28,30,-1,32,34,36,38,40,42,44,46,48,50,-1,52,54,56,58,-1,-1,-1,-1,-1,-1,-1,-1,-1,-1,-1,-1,-1,-1,-1,-1,-1,-1,-1,-1,-1,-1,-1,-1,-1,-1,-1,-1],"split_conditions":[4.5197746E-1,-3.6010462E-1,1.4022965E0,-7.2043383E-1,-4.9837062E-1,1.5013268E0,1.8114605E0,-8.3892167E-1,-5.7992333E-1,8.536984E-3,8.901046E-1,9.455459E-1,3.9691043E0,1.6172408E0,2.0406215E0,-1.5282684E-2,-8.0194604E-1,-7.1173626E-1,-6.4199406E-1,-2.0984583E-1,2.4893497E-1,4.3353233E-2,-1.659391E-1,2.3203385E-1,1.4793805E0,2.086732E0,-1.2613426E-2,1.3674897E0,1.7737501E0,1.9230537E0,2.1561122E0,-1.378668E-2,-1.472513E-2,-1.29059E-2,-1.3912482E-2,-1.1086012E-2,-1.2751975E-2,-7.995219E-3,-5.005046E-3,-2.2677237E-3,2.1129391E-4,-1.0398064E-2,-7.926851E-3,-4.508576E-3,-1.4172332E-2,2.2661365E-3,-4.783744E-3,-1.2869239E-3,3.6483728E-3,-2.7763662E-3,-6.521078E-3,2.0983298E-3,4.7010163E-4,2.5353427E-3,1.4204625E-3,3.3755195E-3,4.1083843E-3,4.838693E-3,5.680717E-3],"split_indices":[11,11,11,11,9,9,11,11,11,11,3,11,12,11,11,0,9,9,9,11,11,11,9,9,12,12,0,9,9,11,11,0,0,0,0,0,0,0,0,0,0,0,0,0,0,0,0,0,0,0,0,0,0,0,0,0,0,0,0],"split_type":[0,0,0,0,0,0,0,0,0,0,0,0,0,0,0,0,0,0,0,0,0,0,0,0,0,0,0,0,0,0,0,0,0,0,0,0,0,0,0,0,0,0,0,0,0,0,0,0,0,0,0,0,0,0,0,0,0,0,0],"sum_hessian":[8.616E3,6.089E3,2.527E3,4.915E3,1.174E3,1.145E3,1.382E3,2.896E3,2.019E3,1.38E2,1.036E3,1.073E3,7.2E1,5.72E2,8.1E2,1.009E3,1.887E3,1.444E3,5.75E2,5.8E1,8E1,9.14E2,1.22E2,5.63E2,5.1E2,2.7E1,4.5E1,2.71E2,3.01E2,5.4E2,2.7E2,6.06E2,1.281E3,3.8E2,1.064E3,7.6E1,4.99E2,2.8E1,3E1,4.7E1,3.3E1,4.89E2,4.25E2,6E0,1.16E2,6E1,5.03E2,4.86E2,2.4E1,8E0,1.9E1,8.6E1,1.85E2,2.42E2,5.9E1,2.37E2,3.03E2,2.02E2,6.8E1],"tree_param":{"num_deleted":"0","num_feature":"13","num_nodes":"59","size_leaf_vector":"1"}},{"base_weights":[-9.1271424E-1,-1.3127018E0,1.6009398E-2,-1.4076113E0,-9.336268E-1,-3.5343936E-1,2.9283622E-1,-1.4726092E0,-1.3463796E0,-3.7775055E-1,-9.9967337E-1,-2.9724148E-1,-1.0746766E0,1.266313E-1,4.0772763E-1,-1.5411177E-2,-1.4527047E0,-1.3726321E0,-1.2735704E0,-7.482426E-1,-1.860333E-1,-9.541421E-1,-1.3698283E0,1.6740178E-1,-3.385454E-1,-1.3275561E-2,-6.5387136E-1,2.109852E-2,1.794759E-1,3.3719724E-1,4.6698195E-1,-1.4025729E-2,-1.4893235E-2,-1.3057982E-2,-1.3990475E-2,-1.1868899E-2,-1.3063799E-2,-8.019208E-3,-4.8554484E-3,-3.0133172E-3,-2.2080512E-4,-1.0922361E-2,-7.976024E-3,-9.253783E-3,-1.4075765E-2,-2.2883345E-3,2.421225E-3,-4.8696944E-3,-1.3883797E-3,-3.1560187E-3,-7.5347777E-3,3.916633E-4,-2.473721E-3,2.1346225E-3,1.1965062E-3,3.690676E-3,2.8193148E-3,4.234307E-3,5.080326E-3],"categories":[],"categories_nodes":[],"categories_segments":[],"categories_sizes":[],"default_left":[0,0,0,0,0,0,0,0,0,0,0,0,0,0,0,0,0,0,0,0,0,0,0,0,0,0,0,0,0,0,0,0,0,0,0,0,0,0,0,0,0,0,0,0,0,0,0,0,0,0,0,0,0,0,0,0,0,0,0],"id":5,"left_children":[1,3,5,7,9,11,13,15,17,19,21,23,25,27,29,-1,31,33,35,37,39,41,43,45,47,-1,49,51,53,55,57,-1,-1,-1,-1,-1,-1,-1,-1,-1,-1,-1,-1,-1,-1,-1,-1,-1,-1,-1,-1,-1,-1,-1,-1,-1,-1,-1,-1],"loss_changes":[3.201046E3,2.1537988E2,2.655028E2,1.718164E1,4.4009277E1,4.475215E1,2.8286118E1,9.316406E-1,3.0131836E0,9.094666E0,1.6894897E1,1.9881592E1,7.644989E0,3.3869305E0,3.5077057E0,0E0,1.2502441E0,1.3825684E0,3.66333E-1,2.3108292E-1,1.6379507E0,1.998944E1,6.436157E-1,2.571999E0,2.8062073E1,0E0,8.404026E-1,9.992266E-1,7.9792213E-1,6.075287E-1,6.3230896E-1,0E0,0E0,0E0,0E0,0E0,0E0,0E0,0E0,0E0,0E0,0E0,0E0,0E0,0E0,0E0,0E0,0E0,0E0,0E0,0E0,0E0,0E0,0E0,0E0,0E0,0E0,0E0,0E0],"parents":[2147483647,0,0,1,1,2,2,3,3,4,4,5,5,6,6,7,7,8,8,9,9,10,10,11,11,12,12,13,13,14,14,16,16,17,17,18,18,19,19,20,20,21,21,22,22,23,23,24,24,26,26,27,27,28,28,29,29,30,30],"right_children":[2,4,6,8,10,12,14,16,18,20,22,24,26,28,30,-1,32,34,36,38,40,42,44,46,48,-1,50,52,54,56,58,-1,-1,-1,-1,-1,-1,-1,-1,-1,-1,-1,-1,-1,-1,-1,-1,-1,-1,-1,-1,-1,-1,-1,-1,-1,-1,-1,-1],"split_conditions":[3.8329813E-1,-4.1877076E-1,1.3404086E0,-7.560017E-1,-5.5585206E-1,1.467746E0,1.7776423E0,-8.8680184E-1,-6.136639E-1,2.852491E0,5.159316E-1,2.0944233E-1,8.1868917E-1,1.4852785E0,1.9631985E0,-1.5411177E-2,-8.075631E-1,-7.313168E-1,-5.966117E-1,-1.4481333E-1,2.0500863E-1,-6.0246285E-2,2.4642413E0,3.041832E0,9.455459E-1,-1.3275561E-2,2.4642413E0,1.6095558E0,-3.6159408E-1,1.8690429E0,2.0573215E0,-1.4025729E-2,-1.4893235E-2,-1.3057982E-2,-1.3990475E-2,-1.1868899E-2,-1.3063799E-2,-8.019208E-3,-4.8554484E-3,-3.0133172E-3,-2.2080512E-4,-1.0922361E-2,-7.976024E-3,-9.253783E-3,-1.4075765E-2,-2.2883345E-3,2.421225E-3,-4.8696944E-3,-1.3883797E-3,-3.1560187E-3,-7.5347777E-3,3.916633E-4,-2.473721E-3,2.1346225E-3,1.1965062E-3,3.690676E-3,2.8193148E-3,4.234307E-3,5.080326E-3],"split_indices":[11,11,11,11,9,9,11,11,11,12,9,9,11,11,11,0,9,9,9,11,11,11,12,12,11,0,12,9,1,9,11,0,0,0,0,0,0,0,0,0,0,0,0,0,0,0,0,0,0,0,0,0,0,0,0,0,0,0,0],"split_type":[0,0,0,0,0,0,0,0,0,0,0,0,0,0,0,0,0,0,0,0,0,0,0,0,0,0,0,0,0,0,0,0,0,0,0,0,0,0,0,0,0,0,0,0,0,0,0,0,0,0,0,0,0,0,0,0,0,0,0],"sum_hessian":[8.616E3,6.022E3,2.594E3,4.814E3,1.208E3,1.111E3,1.483E3,2.324E3,2.49E3,1.29E2,1.079E3,1.032E3,7.9E1,6.07E2,8.76E2,5.06E2,1.818E3,1.817E3,6.73E2,4.3E1,8.6E1,9.64E2,1.15E2,8.4E1,9.48E2,4.8E1,3.1E1,2.03E2,4.04E2,4.03E2,4.73E2,7.84E2,1.034E3,5.29E2,1.288E3,1.95E2,4.78E2,3.4E1,9E0,5E1,3.6E1,5.09E2,4.55E2,1.1E1,1.04E2,1.3E1,7.1E1,5.43E2,4.05E2,8E0,2.3E1,1.91E2,1.2E1,2.56E2,1.48E2,2.52E2,1.51E2,2.35E2,2.38E2],"tree_param":{"num_deleted":"0","num_feature":"13","num_nodes":"59","size_leaf_vector":"1"}},{"base_weights":[-9.0360653E-1,-1.292315E0,3.3156984E-2,-1.3885697E0,-8.885017E-1,-3.030387E-1,3.11716E-1,-1.4387661E0,-1.2997161E0,-3.4462965E-1,-9.6054584E-1,-2.5618353E-1,-9.882359E-1,1.6611499E-1,4.1420382E-1,-1.4848867E-2,-1.4015433E0,-1.3317199E0,-1.2302294E0,-6.432013E-1,-1.2289685E-1,-9.074801E-1,-1.3474933E0,-3.9476576E-1,-1.0272648E-1,-5.444385E-1,-1.2368901E-2,9.71277E-2,2.2769919E-1,3.7191352E-1,4.9709997E-1,-1.3264734E-2,-1.4271081E-2,-1.2557048E-2,-1.3570707E-2,-1.0862444E-2,-1.24994265E-2,-7.837318E-3,-4.909889E-3,-2.2197634E-3,2.0594701E-4,-1.0191115E-2,-7.7694766E-3,-4.416126E-3,-1.3901742E-2,2.2262824E-3,-4.6870676E-3,-1.2634434E-3,3.6145856E-3,-2.7281826E-3,-6.3944566E-3,2.0646083E-3,4.5465818E-4,2.4885142E-3,1.3823768E-3,4.0130285E-3,3.2787526E-3,4.7413246E-3,5.574666E-3],"categories":[],"categories_nodes":[],"categories_segments":[],"categories_sizes":[],"default_left":[0,0,0,0,0,0,0,0,0,0,0,0,0,0,0,0,0,0,0,0,0,0,0,0,0,0,0,0,0,0,0,0,0,0,0,0,0,0,0,0,0,0,0,0,0,0,0,0,0,0,0,0,0,0,0,0,0,0,0],"id":6,"left_children":[1,3,5,7,9,11,13,15,17,19,21,23,25,27,29,-1,31,33,35,37,39,41,43,45,47,49,-1,51,53,55,57,-1,-1,-1,-1,-1,-1,-1,-1,-1,-1,-1,-1,-1,-1,-1,-1,-1,-1,-1,-1,-1,-1,-1,-1,-1,-1,-1,-1],"loss_changes":[3.137733E3,2.3547852E2,2.3684248E2,2.0055664E1,4.570868E1,3.6539192E1,2.0568787E1,3.2958984E0,2.3310547E0,9.123186E0,2.0070618E1,2.2799583E1,7.382286E0,2.4122896E0,2.6582336E0,0E0,1.4672852E0,6.2768555E-1,2.7716064E-1,8.772354E-1,1.156154E0,1.2541138E1,4.141739E0,2.5851364E1,5.647792E0,5.4811287E-1,0E0,1.5269656E0,5.3707695E-1,5.686188E-1,1.1141968E-1,0E0,0E0,0E0,0E0,0E0,0E0,0E0,0E0,0E0,0E0,0E0,0E0,0E0,0E0,0E0,0E0,0E0,0E0,0E0,0E0,0E0,0E0,0E0,0E0,0E0,0E0,0E0,0E0],"parents":[2147483647,0,0,1,1,2,2,3,3,4,4,5,5,6,6,7,7,8,8,9,9,10,10,11,11,12,12,13,13,14,14,16,16,17,17,18,18,19,19,20,20,21,21,22,22,23,23,24,24,25,25,27,27,28,28,29,29,30,30],"right_children":[2,4,6,8,10,12,14,16,18,20,22,24,26,28,30,-1,32,34,36,38,40,42,44,46,48,50,-1,52,54,56,58,-1,-1,-1,-1,-1,-1,-1,-1,-1,-1,-1,-1,-1,-1,-1,-1,-1,-1,-1,-1,-1,-1,-1,-1,-1,-1,-1,-1],"split_conditions":[4.5197746E-1,-3.6010462E-1,1.4022965E0,-7.044133E-1,-4.9837062E-1,1.5013268E0,1.8114605E0,-8.124417E-1,-5.7992333E-1,8.536984E-3,8.901046E-1,9.455459E-1,3.9691043E0,1.6172408E0,2.0406215E0,-1.4848867E-2,-8.0194604E-1,-7.026177E-1,-6.4199406E-1,-2.0984583E-1,2.4893497E-1,4.3353233E-2,-1.659391E-1,2.3203385E-1,1.4793805E0,2.086732E0,-1.2368901E-2,1.3674897E0,1.7737501E0,1.9112891E0,2.1561122E0,-1.3264734E-2,-1.4271081E-2,-1.2557048E-2,-1.3570707E-2,-1.0862444E-2,-1.24994265E-2,-7.837318E-3,-4.909889E-3,-2.2197634E-3,2.0594701E-4,-1.0191115E-2,-7.7694766E-3,-4.416126E-3,-1.3901742E-2,2.2262824E-3,-4.6870676E-3,-1.2634434E-3,3.6145856E-3,-2.7281826E-3,-6.3944566E-3,2.0646083E-3,4.5465818E-4,2.4885142E-3,1.3823768E-3,4.0130285E-3,3.2787526E-3,4.7413246E-3,5.574666E-3],"split_indices":[11,11,11,11,9,9,11,11,11,11,3,11,12,11,11,0,9,9,9,11,11,11,9,9,12,12,0,9,9,9,11,0,0,0,0,0,0,0,0,0,0,0,0,0,0,0,0,0,0,0,0,0,0,0,0,0,0,0,0],"split_type":[0,0,0,0,0,0,0,0,0,0,0,0,0,0,0,0,0,0,0,0,0,0,0,0,0,0,0,0,0,0,0,0,0,0,0,0,0,0,0,0,0,0,0,0,0,0,0,0,0,0,0,0,0,0,0,0,0,0,0],"sum_hessian":[8.616E3,6.089E3,2.527E3,4.915E3,1.174E3,1.145E3,1.382E3,3.131E3,1.784E3,1.38E2,1.036E3,1.073E3,7.2E1,5.72E2,8.1E2,1.381E3,1.75E3,1.209E3,5.75E2,5.8E1,8E1,9.14E2,1.22E2,5.63E2,5.1E2,2.7E1,4.5E1,2.71E2,3.01E2,5.4E2,2.7E2,4.58E2,1.292E3,3.15E2,8.94E2,7.6E1,4.99E2,2.8E1,3E1,4.7E1,3.3E1,4.89E2,4.25E2,6E0,1.16E2,6E1,5.03E2,4.86E2,2.4E1,8E0,1.9E1,8.6E1,1.85E2,2.42E2,5.9E1,3.19E2,2.21E2,2.02E2,6.8E1],"tree_param":{"num_deleted":"0","num_feature":"13","num_nodes":"59","size_leaf_vector":"1"}},{"base_weights":[-8.945868E-1,-1.2794154E0,3.282637E-2,-1.3747027E0,-8.796601E-1,-3.283254E-1,2.8711936E-1,-1.4290142E0,-1.2941277E0,-3.4128955E-1,-9.5097536E-1,-2.7928215E-1,-1.0515687E0,1.24257065E-1,3.996999E-1,-1.484697E-2,-1.4003974E0,-1.3242154E0,-1.2179676E0,-6.3698536E-1,-1.2169275E-1,-8.98425E-1,-1.3341674E0,2.5203085E-1,-3.1730115E-1,-1.2774774E-2,-6.993544E-1,2.0980263E-2,1.7597117E-1,3.30323E-1,4.57988E-1,-1.32784685E-2,-1.4249509E-2,-1.2561587E-2,-1.3507299E-2,-1.075523E-2,-1.2374682E-2,-7.761647E-3,-4.8623737E-3,-2.1980281E-3,2.03948E-4,-1.0089411E-2,-7.6919645E-3,-4.378273E-3,-1.3763914E-2,1.5317921E-4,3.0435007E-3,-4.6251365E-3,-1.3731372E-3,-7.6283156E-3,-4.453076E-3,3.8779355E-4,-2.435125E-3,2.0942017E-3,1.170962E-3,3.6176785E-3,2.7581074E-3,4.155116E-3,4.9801497E-3],"categories":[],"categories_nodes":[],"categories_segments":[],"categories_sizes":[],"default_left":[0,0,0,0,0,0,0,0,0,0,0,0,0,0,0,0,0,0,0,0,0,0,0,0,0,0,0,0,0,0,0,0,0,0,0,0,0,0,0,0,0,0,0,0,0,0,0,0,0,0,0,0,0,0,0,0,0,0,0],"id":7,"left_children":[1,3,5,7,9,11,13,15,17,19,21,23,25,27,29,-1,31,33,35,37,39,41,43,45,47,-1,49,51,53,55,57,-1,-1,-1,-1,-1,-1,-1,-1,-1,-1,-1,-1,-1,-1,-1,-1,-1,-1,-1,-1,-1,-1,-1,-1,-1,-1,-1,-1],"loss_changes":[3.0754062E3,2.3076953E2,2.3226164E2,1.9663086E1,4.478833E1,3.6772682E1,2.715966E1,2.5854492E0,2.9472656E0,8.948288E0,1.9683289E1,1.9875954E1,4.358101E0,3.243556E0,3.3951569E0,0E0,1.5830078E0,8.5668945E-1,2.6898193E-1,8.6047935E-1,1.1336406E0,1.229187E1,4.052582E0,8.127241E-1,2.3851318E1,0E0,1.1183834E-1,9.698204E-1,7.7304745E-1,5.9272766E-1,5.989685E-1,0E0,0E0,0E0,0E0,0E0,0E0,0E0,0E0,0E0,0E0,0E0,0E0,0E0,0E0,0E0,0E0,0E0,0E0,0E0,0E0,0E0,0E0,0E0,0E0,0E0,0E0,0E0,0E0],"parents":[2147483647,0,0,1,1,2,2,3,3,4,4,5,5,6,6,7,7,8,8,9,9,10,10,11,11,12,12,13,13,14,14,16,16,17,17,18,18,19,19,20,20,21,21,22,22,23,23,24,24,26,26,27,27,28,28,29,29,30,30],"right_children":[2,4,6,8,10,12,14,16,18,20,22,24,26,28,30,-1,32,34,36,38,40,42,44,46,48,-1,50,52,54,56,58,-1,-1,-1,-1,-1,-1,-1,-1,-1,-1,-1,-1,-1,-1,-1,-1,-1,-1,-1,-1,-1,-1,-1,-1,-1,-1,-1,-1],"split_conditions":[4.5197746E-1,-3.6010462E-1,1.3404086E0,-7.1829593E-1,-4.9837062E-1,1.5013268E0,1.7776423E0,-8.42726E-1,-5.7992333E-1,8.536984E-3,8.901046E-1,2.0944233E-1,8.1868917E-1,1.4852785E0,1.9631985E0,-1.484697E-2,-8.1848264E-1,-7.026177E-1,-6.4199406E-1,-2.0984583E-1,2.4893497E-1,4.3353233E-2,-1.659391E-1,3.7390802E0,9.455459E-1,-1.2774774E-2,1.1628963E0,1.6095558E0,-3.6159408E-1,1.8690429E0,2.0573215E0,-1.32784685E-2,-1.4249509E-2,-1.2561587E-2,-1.3507299E-2,-1.075523E-2,-1.2374682E-2,-7.761647E-3,-4.8623737E-3,-2.1980281E-3,2.03948E-4,-1.0089411E-2,-7.6919645E-3,-4.378273E-3,-1.3763914E-2,1.5317921E-4,3.0435007E-3,-4.6251365E-3,-1.3731372E-3,-7.6283156E-3,-4.453076E-3,3.8779355E-4,-2.435125E-3,2.0942017E-3,1.170962E-3,3.6176785E-3,2.7581074E-3,4.155116E-3,4.9801497E-3],"split_indices":[11,11,11,11,9,9,11,11,11,11,3,9,11,11,11,0,9,9,9,11,11,11,9,12,11,0,11,9,1,9,11,0,0,0,0,0,0,0,0,0,0,0,0,0,0,0,0,0,0,0,0,0,0,0,0,0,0,0,0],"split_type":[0,0,0,0,0,0,0,0,0,0,0,0,0,0,0,0,0,0,0,0,0,0,0,0,0,0,0,0,0,0,0,0,0,0,0,0,0,0,0,0,0,0,0,0,0,0,0,0,0,0,0,0,0,0,0,0,0,0,0],"sum_hessian":[8.616E3,6.089E3,2.527E3,4.915E3,1.174E3,1.044E3,1.483E3,2.926E3,1.989E3,1.38E2,1.036E3,9.79E2,6.5E1,6.07E2,8.76E2,9.76E2,1.95E3,1.414E3,5.75E2,5.8E1,8E1,9.14E2,1.22E2,6.5E1,9.14E2,3.8E1,2.7E1,2.03E2,4.04E2,4.03E2,4.73E2,5.07E2,1.443E3,4.1E2,1.004E3,7.6E1,4.99E2,2.8E1,3E1,4.7E1,3.3E1,4.89E2,4.25E2,6E0,1.16E2,1.2E1,5.3E1,5.05E2,4.09E2,2E1,7E0,1.91E2,1.2E1,2.56E2,1.48E2,2.52E2,1.51E2,2.35E2,2.38E2],"tree_param":{"num_deleted":"0","num_feature":"13","num_nodes":"59","size_leaf_vector":"1"}},{"base_weights":[-8.856587E-1,-1.2738119E0,1.5587084E-2,-1.3658986E0,-9.060113E-1,-3.4297886E-1,2.8425944E-1,-1.429112E0,-1.3063494E0,-3.6647984E-1,-9.7011596E-1,-2.883123E-1,-1.0445743E0,1.2301651E-1,3.957206E-1,-1.4992677E-2,-1.4104806E0,-1.3317859E0,-1.2358005E0,-7.2628754E-1,-1.8029572E-1,-9.2559206E-1,-1.332146E0,1.639854E-1,-3.2851985E-1,-1.29065355E-2,-6.351223E-1,2.076043E-2,1.7421952E-1,3.2703558E-1,4.534274E-1,-1.3482022E-2,-1.438199E-2,-1.2662786E-2,-1.3576874E-2,-1.1563294E-2,-1.27050625E-2,-8.096364E-3,-5.462841E-3,-2.923572E-3,-2.0959733E-4,-1.0600498E-2,-7.7318186E-3,-9.027227E-3,-1.3685359E-2,-2.1919948E-3,2.3621598E-3,-5.3125885E-3,-1.8918335E-3,-3.0726555E-3,-7.3160515E-3,2.0444172E-3,-4.866197E-5,1.29469E-3,2.176773E-3,3.5816445E-3,2.7307079E-3,4.1684764E-3,4.9939374E-3],"categories":[],"categories_nodes":[],"categories_segments":[],"categories_sizes":[],"default_left":[0,0,0,0,0,0,0,0,0,0,0,0,0,0,0,0,0,0,0,0,0,0,0,0,0,0,0,0,0,0,0,0,0,0,0,0,0,0,0,0,0,0,0,0,0,0,0,0,0,0,0,0,0,0,0,0,0,0,0],"id":8,"left_children":[1,3,5,7,9,11,13,15,17,19,21,23,25,27,29,-1,31,33,35,37,39,41,43,45,47,-1,49,51,53,55,57,-1,-1,-1,-1,-1,-1,-1,-1,-1,-1,-1,-1,-1,-1,-1,-1,-1,-1,-1,-1,-1,-1,-1,-1,-1,-1,-1,-1],"loss_changes":[3.0144312E3,2.0275879E2,2.5009138E2,1.6257812E1,4.1459595E1,4.2348297E1,2.6622246E1,9.248047E-1,2.824707E0,8.577816E0,1.6175537E1,1.8839798E1,7.240898E0,3.1797628E0,3.3277893E0,0E0,1.2614746E0,1.3654785E0,3.8989258E-1,2.1784401E-1,1.5472946E0,1.8955872E1,5.7728577E-1,2.4043806E0,2.670774E1,0E0,7.874441E-1,9.612497E-1,7.5944424E-1,5.8086014E-1,5.8882904E-1,0E0,0E0,0E0,0E0,0E0,0E0,0E0,0E0,0E0,0E0,0E0,0E0,0E0,0E0,0E0,0E0,0E0,0E0,0E0,0E0,0E0,0E0,0E0,0E0,0E0,0E0,0E0,0E0],"parents":[2147483647,0,0,1,1,2,2,3,3,4,4,5,5,6,6,7,7,8,8,9,9,10,10,11,11,12,12,13,13,14,14,16,16,17,17,18,18,19,19,20,20,21,21,22,22,23,23,24,24,26,26,27,27,28,28,29,29,30,30],"right_children":[2,4,6,8,10,12,14,16,18,20,22,24,26,28,30,-1,32,34,36,38,40,42,44,46,48,-1,50,52,54,56,58,-1,-1,-1,-1,-1,-1,-1,-1,-1,-1,-1,-1,-1,-1,-1,-1,-1,-1,-1,-1,-1,-1,-1,-1,-1,-1,-1,-1],"split_conditions":[3.8329813E-1,-4.1877076E-1,1.3404086E0,-7.560017E-1,-5.5585206E-1,1.467746E0,1.7776423E0,-8.924159E-1,-6.136639E-1,2.852491E0,5.159316E-1,2.0944233E-1,8.1868917E-1,1.4852785E0,1.9631985E0,-1.4992677E-2,-8.3962005E-1,-7.313168E-1,-5.8223337E-1,2.086732E0,2.0500863E-1,-6.0246285E-2,2.4642413E0,3.041832E0,8.1868917E-1,-1.29065355E-2,2.4642413E0,1.2502279E0,1.6361071E0,1.8690429E0,2.073443E0,-1.3482022E-2,-1.438199E-2,-1.2662786E-2,-1.3576874E-2,-1.1563294E-2,-1.27050625E-2,-8.096364E-3,-5.462841E-3,-2.923572E-3,-2.0959733E-4,-1.0600498E-2,-7.7318186E-3,-9.027227E-3,-1.3685359E-2,-2.1919948E-3,2.3621598E-3,-5.3125885E-3,-1.8918335E-3,-3.0726555E-3,-7.3160515E-3,2.0444172E-3,-4.866197E-5,1.29469E-3,2.176773E-3,3.5816445E-3,2.7307079E-3,4.1684764E-3,4.9939374E-3],"split_indices":[11,11,11,11,9,9,11,11,11,12,9,9,11,11,11,0,9,9,9,12,11,11,12,12,11,0,12,9,11,9,11,0,0,0,0,0,0,0,0,0,0,0,0,0,0,0,0,0,0,0,0,0,0,0,0,0,0,0,0],"split_type":[0,0,0,0,0,0,0,0,0,0,0,0,0,0,0,0,0,0,0,0,0,0,0,0,0,0,0,0,0,0,0,0,0,0,0,0,0,0,0,0,0,0,0,0,0,0,0,0,0,0,0,0,0,0,0,0,0,0,0],"sum_hessian":[8.616E3,6.022E3,2.594E3,4.814E3,1.208E3,1.111E3,1.483E3,2.324E3,2.49E3,1.29E2,1.079E3,1.032E3,7.9E1,6.07E2,8.76E2,4.71E2,1.853E3,1.817E3,6.73E2,4.3E1,8.6E1,9.64E2,1.15E2,8.4E1,9.48E2,4.8E1,3.1E1,2.03E2,4.04E2,4.03E2,4.73E2,5.86E2,1.267E3,5.29E2,1.288E3,2.15E2,4.58E2,2.7E1,1.6E1,5E1,3.6E1,5.09E2,4.55E2,1.1E1,1.04E2,1.3E1,7.1E1,3.85E2,5.63E2,8E0,2.3E1,2.4E1,1.79E2,2.01E2,2.03E2,2.52E2,1.51E2,2.69E2,2.04E2],"tree_param":{"num_deleted":"0","num_feature":"13","num_nodes":"59","size_leaf_vector":"1"}},{"base_weights":[-8.768207E-1,-1.2540209E0,3.2208513E-2,-1.3474013E0,-8.62266E-1,-3.2174203E-1,2.8143096E-1,-1.3961962E0,-1.2610297E0,-3.3457926E-1,-9.321659E-1,-2.7362967E-1,-1.0312629E0,1.05609745E-1,3.816024E-1,-1.4411709E-2,-1.3599019E0,-1.2919983E0,-1.1937848E0,-6.2465733E-1,-1.1915724E-1,-8.8053906E-1,-1.3086411E0,2.4757767E-1,-3.109259E-1,-1.2524545E-2,-6.863438E-1,2.0562598E-2,1.567789E-1,3.1319866E-1,4.489125E-1,-1.321373E-2,-1.4093286E-2,-1.2178997E-2,-1.3167169E-2,-1.0537645E-2,-1.2129603E-2,-7.6105422E-3,-4.7690994E-3,-2.1515298E-3,1.9870771E-4,-9.8886E-3,-7.5387745E-3,-4.28861E-3,-1.3500925E-2,1.4747676E-4,2.9904454E-3,-4.5363368E-3,-1.3404521E-3,-5.0759753E-3,-7.886786E-3,3.8180352E-4,-2.4121976E-3,2.0622178E-3,1.0079384E-3,2.7534408E-3,3.498865E-3,4.0722336E-3,4.8820004E-3],"categories":[],"categories_nodes":[],"categories_segments":[],"categories_sizes":[],"default_left":[0,0,0,0,0,0,0,0,0,0,0,0,0,0,0,0,0,0,0,0,0,0,0,0,0,0,0,0,0,0,0,0,0,0,0,0,0,0,0,0,0,0,0,0,0,0,0,0,0,0,0,0,0,0,0,0,0,0,0],"id":9,"left_children":[1,3,5,7,9,11,13,15,17,19,21,23,25,27,29,-1,31,33,35,37,39,41,43,45,47,-1,49,51,53,55,57,-1,-1,-1,-1,-1,-1,-1,-1,-1,-1,-1,-1,-1,-1,-1,-1,-1,-1,-1,-1,-1,-1,-1,-1,-1,-1,-1,-1],"loss_changes":[2.9546885E3,2.2162305E2,2.2309154E2,1.8958984E1,4.302832E1,3.53907E1,2.6096306E1,3.1523438E0,2.1745605E0,8.611566E0,1.9003052E1,1.9127266E1,4.1757355E0,2.346743E0,4.210434E0,0E0,1.472168E0,6.126709E-1,2.6843262E-1,8.260288E-1,1.0853089E0,1.1808411E1,3.9065704E0,7.864704E-1,2.303585E1,0E0,1.1184406E-1,9.5006126E-1,9.120512E-1,5.591736E-1,5.7754517E-1,0E0,0E0,0E0,0E0,0E0,0E0,0E0,0E0,0E0,0E0,0E0,0E0,0E0,0E0,0E0,0E0,0E0,0E0,0E0,0E0,0E0,0E0,0E0,0E0,0E0,0E0,0E0,0E0],"parents":[2147483647,0,0,1,1,2,2,3,3,4,4,5,5,6,6,7,7,8,8,9,9,10,10,11,11,12,12,13,13,14,14,16,16,17,17,18,18,19,19,20,20,21,21,22,22,23,23,24,24,26,26,27,27,28,28,29,29,30,30],"right_children":[2,4,6,8,10,12,14,16,18,20,22,24,26,28,30,-1,32,34,36,38,40,42,44,46,48,-1,50,52,54,56,58,-1,-1,-1,-1,-1,-1,-1,-1,-1,-1,-1,-1,-1,-1,-1,-1,-1,-1,-1,-1,-1,-1,-1,-1,-1,-1,-1,-1],"split_conditions":[4.5197746E-1,-3.6010462E-1,1.3404086E0,-7.044133E-1,-4.9837062E-1,1.5013268E0,1.7332196E0,-8.124417E-1,-5.7992333E-1,8.536984E-3,8.901046E-1,2.0944233E-1,8.1868917E-1,1.4852785E0,1.9631985E0,-1.4411709E-2,-7.2350717E-1,-7.026177E-1,-6.4199406E-1,-2.0984583E-1,2.4893497E-1,4.3353233E-2,-1.659391E-1,3.7390802E0,9.455459E-1,-1.2524545E-2,3.041832E0,1.6095558E0,1.6095558E0,1.8615842E0,2.0573215E0,-1.321373E-2,-1.4093286E-2,-1.2178997E-2,-1.3167169E-2,-1.0537645E-2,-1.2129603E-2,-7.6105422E-3,-4.7690994E-3,-2.1515298E-3,1.9870771E-4,-9.8886E-3,-7.5387745E-3,-4.28861E-3,-1.3500925E-2,1.4747676E-4,2.9904454E-3,-4.5363368E-3,-1.3404521E-3,-5.0759753E-3,-7.886786E-3,3.8180352E-4,-2.4121976E-3,2.0622178E-3,1.0079384E-3,2.7534408E-3,3.498865E-3,4.0722336E-3,4.8820004E-3],"split_indices":[11,11,11,11,9,9,11,11,11,11,3,9,11,11,11,0,9,9,9,11,11,11,9,12,11,0,12,9,9,11,11,0,0,0,0,0,0,0,0,0,0,0,0,0,0,0,0,0,0,0,0,0,0,0,0,0,0,0,0],"split_type":[0,0,0,0,0,0,0,0,0,0,0,0,0,0,0,0,0,0,0,0,0,0,0,0,0,0,0,0,0,0,0,0,0,0,0,0,0,0,0,0,0,0,0,0,0,0,0,0,0,0,0,0,0,0,0,0,0,0,0],"sum_hessian":[8.616E3,6.089E3,2.527E3,4.915E3,1.174E3,1.044E3,1.483E3,3.131E3,1.784E3,1.38E2,1.036E3,9.79E2,6.5E1,5.39E2,9.44E2,1.381E3,1.75E3,1.209E3,5.75E2,5.8E1,8E1,9.14E2,1.22E2,6.5E1,9.14E2,3.8E1,2.7E1,2.03E2,3.36E2,4.71E2,4.73E2,9.99E2,7.51E2,3.15E2,8.94E2,7.6E1,4.99E2,2.8E1,3E1,4.7E1,3.3E1,4.89E2,4.25E2,6E0,1.16E2,1.2E1,5.3E1,5.05E2,4.09E2,1.2E1,1.5E1,1.91E2,1.2E1,1.77E2,1.59E2,2.36E2,2.35E2,2.35E2,2.38E2],"tree_param":{"num_deleted":"0","num_feature":"13","num_nodes":"59","size_leaf_vector":"1"}},{"base_weights":[-8.6807007E-1,-1.2485241E0,1.5298863E-2,-1.3387734E0,-8.880614E-1,-3.3613563E-1,2.786276E-1,-1.3926696E0,-1.2716011E0,-3.592285E-1,-9.5089495E-1,-2.824733E-1,-1.0248488E0,1.20551124E-1,3.8789997E-1,-1.4437912E-2,-1.3652769E0,-1.2981831E0,-1.2112654E0,-7.121302E-1,-1.7662041E-1,-9.070767E-1,-1.3072199E0,1.6143359E-1,-3.2193547E-1,-1.2661514E-2,-6.2332773E-1,3.132807E-2,1.7707078E-1,3.255653E-1,4.4906974E-1,-1.2963867E-2,-1.3910183E-2,-1.230524E-2,-1.3270544E-2,-1.1329244E-2,-1.2454928E-2,-7.937435E-3,-5.3581833E-3,-2.8655604E-3,-2.0313969E-4,-1.0556557E-2,-7.7355723E-3,-8.875372E-3,-1.3427339E-2,-2.1314102E-3,2.320254E-3,-5.210934E-3,-1.8506151E-3,-3.0168255E-3,-7.179727E-3,2.28335E-3,4.9112965E-5,2.030521E-3,1.043711E-3,3.5069727E-3,2.6656021E-3,4.1199E-3,4.89566E-3],"categories":[],"categories_nodes":[],"categories_segments":[],"categories_sizes":[],"default_left":[0,0,0,0,0,0,0,0,0,0,0,0,0,0,0,0,0,0,0,0,0,0,0,0,0,0,0,0,0,0,0,0,0,0,0,0,0,0,0,0,0,0,0,0,0,0,0,0,0,0,0,0,0,0,0,0,0,0,0],"id":10,"left_children":[1,3,5,7,9,11,13,15,17,19,21,23,25,27,29,-1,31,33,35,37,39,41,43,45,47,-1,49,51,53,55,57,-1,-1,-1,-1,-1,-1,-1,-1,-1,-1,-1,-1,-1,-1,-1,-1,-1,-1,-1,-1,-1,-1,-1,-1,-1,-1,-1,-1],"loss_changes":[2.8960312E3,1.9474805E2,2.4024223E2,1.5661133E1,3.9831665E1,4.0807755E1,2.558693E1,1.7553711E0,1.8840332E0,8.251778E0,1.5676819E1,1.814759E1,6.961815E0,3.0605087E0,3.197815E0,0E0,1.3015137E0,1.2619629E0,3.961792E-1,2.0783043E-1,1.4891565E0,1.8327332E1,5.372162E-1,2.2970164E0,2.5772865E1,0E0,7.575474E-1,1.2322949E0,6.814537E-1,5.560341E-1,4.5899963E-1,0E0,0E0,0E0,0E0,0E0,0E0,0E0,0E0,0E0,0E0,0E0,0E0,0E0,0E0,0E0,0E0,0E0,0E0,0E0,0E0,0E0,0E0,0E0,0E0,0E0,0E0,0E0,0E0],"parents":[2147483647,0,0,1,1,2,2,3,3,4,4,5,5,6,6,7,7,8,8,9,9,10,10,11,11,12,12,13,13,14,14,16,16,17,17,18,18,19,19,20,20,21,21,22,22,23,23,24,24,26,26,27,27,28,28,29,29,30,30],"right_children":[2,4,6,8,10,12,14,16,18,20,22,24,26,28,30,-1,32,34,36,38,40,42,44,46,48,-1,50,52,54,56,58,-1,-1,-1,-1,-1,-1,-1,-1,-1,-1,-1,-1,-1,-1,-1,-1,-1,-1,-1,-1,-1,-1,-1,-1,-1,-1,-1,-1],"split_conditions":[3.8329813E-1,-4.1877076E-1,1.3404086E0,-7.343904E-1,-5.5585206E-1,1.467746E0,1.7776423E0,-8.4889865E-1,-6.136639E-1,2.852491E0,5.159316E-1,2.0944233E-1,8.1868917E-1,1.5137067E0,1.9761035E0,-1.4437912E-2,-8.21053E-1,-7.1173626E-1,-5.8223337E-1,2.086732E0,2.0500863E-1,-9.665227E-2,2.4642413E0,3.041832E0,8.1868917E-1,-1.2661514E-2,2.4642413E0,1.2502279E0,1.6897137E0,1.8985356E0,2.073443E0,-1.2963867E-2,-1.3910183E-2,-1.230524E-2,-1.3270544E-2,-1.1329244E-2,-1.2454928E-2,-7.937435E-3,-5.3581833E-3,-2.8655604E-3,-2.0313969E-4,-1.0556557E-2,-7.7355723E-3,-8.875372E-3,-1.3427339E-2,-2.1314102E-3,2.320254E-3,-5.210934E-3,-1.8506151E-3,-3.0168255E-3,-7.179727E-3,2.28335E-3,4.9112965E-5,2.030521E-3,1.043711E-3,3.5069727E-3,2.6656021E-3,4.1199E-3,4.89566E-3],"split_indices":[11,11,11,11,9,9,11,11,11,12,9,9,11,11,11,0,9,9,9,12,11,11,12,12,11,0,12,9,9,9,11,0,0,0,0,0,0,0,0,0,0,0,0,0,0,0,0,0,0,0,0,0,0,0,0,0,0,0,0],"split_type":[0,0,0,0,0,0,0,0,0,0,0,0,0,0,0,0,0,0,0,0,0,0,0,0,0,0,0,0,0,0,0,0,0,0,0,0,0,0,0,0,0,0,0,0,0,0,0,0,0,0,0,0,0,0,0,0,0,0,0],"sum_hessian":[8.616E3,6.022E3,2.594E3,4.814E3,1.208E3,1.111E3,1.483E3,2.66E3,2.154E3,1.29E2,1.079E3,1.032E3,7.9E1,6.07E2,8.76E2,9.1E2,1.75E3,1.481E3,6.73E2,4.3E1,8.6E1,9.64E2,1.15E2,8.4E1,9.48E2,4.8E1,3.1E1,2.36E2,3.71E2,4.37E2,4.39E2,4.9E2,1.26E3,4.56E2,1.025E3,2.15E2,4.58E2,2.7E1,1.6E1,5E1,3.6E1,4.53E2,5.11E2,1.1E1,1.04E2,1.3E1,7.1E1,3.85E2,5.63E2,8E0,2.3E1,2.7E1,2.09E2,2.72E2,9.9E1,3.03E2,1.34E2,2.35E2,2.04E2],"tree_param":{"num_deleted":"0","num_feature":"13","num_nodes":"59","size_leaf_vector":"1"}},{"base_weights":[-8.5940754E-1,-1.2291304E0,3.1601872E-2,-1.3191439E0,-8.388106E-1,-2.881944E-1,2.965729E-1,-1.3684942E0,-1.2333049E0,-3.0829415E-1,-9.0829664E-1,-2.434982E-1,-9.4183147E-1,1.5786363E-1,3.9421016E-1,-1.4126521E-2,-1.3328602E0,-1.2557127E0,-1.1316048E0,-5.9002E-1,-1.1667082E-1,-8.577878E-1,-1.3020948E0,-3.7594324E-1,-9.6839696E-2,-5.198712E-1,-1.1782022E-2,9.1806784E-2,2.1683581E-1,3.5397807E-1,4.7307122E-1,-1.2948603E-2,-1.3816195E-2,-1.1806879E-2,-1.2740391E-2,-1.08135985E-2,-1.2469995E-2,-7.2653578E-3,-4.6529737E-3,-2.1059217E-3,1.9355534E-4,-9.84388E-3,-6.9810865E-3,-8.750606E-3,-1.32629685E-2,2.126495E-3,-4.464357E-3,-1.200132E-3,3.5845384E-3,-2.6333837E-3,-6.093174E-3,1.9939472E-3,4.09898E-4,2.3789427E-3,1.2793517E-3,3.8309316E-3,3.104159E-3,4.505384E-3,5.325073E-3],"categories":[],"categories_nodes":[],"categories_segments":[],"categories_sizes":[],"default_left":[0,0,0,0,0,0,0,0,0,0,0,0,0,0,0,0,0,0,0,0,0,0,0,0,0,0,0,0,0,0,0,0,0,0,0,0,0,0,0,0,0,0,0,0,0,0,0,0,0,0,0,0,0,0,0,0,0,0,0],"id":11,"left_children":[1,3,5,7,9,11,13,15,17,19,21,23,25,27,29,-1,31,33,35,37,39,41,43,45,47,49,-1,51,53,55,57,-1,-1,-1,-1,-1,-1,-1,-1,-1,-1,-1,-1,-1,-1,-1,-1,-1,-1,-1,-1,-1,-1,-1,-1,-1,-1,-1,-1],"loss_changes":[2.838708E3,2.1285938E2,2.1429994E2,1.9267578E1,4.1891846E1,3.3251167E1,1.8668007E1,3.0454102E0,2.7172852E0,7.165185E0,1.8992188E1,2.0825172E1,6.668434E0,2.212222E0,2.405632E0,0E0,1.4550781E0,5.29541E-1,6.112366E-1,5.8138084E-1,1.0389144E0,1.748645E1,7.2784424E-3,2.3496063E1,5.4344516E0,4.8202753E-1,0E0,1.4789312E0,5.349436E-1,5.672455E-1,1.2302399E-1,0E0,0E0,0E0,0E0,0E0,0E0,0E0,0E0,0E0,0E0,0E0,0E0,0E0,0E0,0E0,0E0,0E0,0E0,0E0,0E0,0E0,0E0,0E0,0E0,0E0,0E0,0E0,0E0],"parents":[2147483647,0,0,1,1,2,2,3,3,4,4,5,5,6,6,7,7,8,8,9,9,10,10,11,11,12,12,13,13,14,14,16,16,17,17,18,18,19,19,20,20,21,21,22,22,23,23,24,24,25,25,27,27,28,28,29,29,30,30],"right_children":[2,4,6,8,10,12,14,16,18,20,22,24,26,28,30,-1,32,34,36,38,40,42,44,46,48,50,-1,52,54,56,58,-1,-1,-1,-1,-1,-1,-1,-1,-1,-1,-1,-1,-1,-1,-1,-1,-1,-1,-1,-1,-1,-1,-1,-1,-1,-1,-1,-1],"split_conditions":[4.5197746E-1,-3.43324E-1,1.4022965E0,-7.044133E-1,-4.9837062E-1,1.5013268E0,1.8114605E0,-8.124417E-1,-5.1081777E-1,8.536984E-3,6.7900205E-1,9.455459E-1,3.9691043E0,1.6172408E0,2.0406215E0,-1.4126521E-2,-7.2350717E-1,-7.1173626E-1,-3.3952734E-1,2.086732E0,2.4893497E-1,4.3353233E-2,2.4642413E0,2.3203385E-1,1.4793805E0,2.086732E0,-1.1782022E-2,1.3674897E0,1.7737501E0,1.9112891E0,2.1561122E0,-1.2948603E-2,-1.3816195E-2,-1.1806879E-2,-1.2740391E-2,-1.08135985E-2,-1.2469995E-2,-7.2653578E-3,-4.6529737E-3,-2.1059217E-3,1.9355534E-4,-9.84388E-3,-6.9810865E-3,-8.750606E-3,-1.32629685E-2,2.126495E-3,-4.464357E-3,-1.200132E-3,3.5845384E-3,-2.6333837E-3,-6.093174E-3,1.9939472E-3,4.09898E-4,2.3789427E-3,1.2793517E-3,3.8309316E-3,3.104159E-3,4.505384E-3,5.325073E-3],"split_indices":[11,11,11,11,9,9,11,11,11,11,9,11,12,11,11,0,9,9,9,12,11,11,12,9,12,12,0,9,9,9,11,0,0,0,0,0,0,0,0,0,0,0,0,0,0,0,0,0,0,0,0,0,0,0,0,0,0,0,0],"split_type":[0,0,0,0,0,0,0,0,0,0,0,0,0,0,0,0,0,0,0,0,0,0,0,0,0,0,0,0,0,0,0,0,0,0,0,0,0,0,0,0,0,0,0,0,0,0,0,0,0,0,0,0,0,0,0,0,0,0,0],"sum_hessian":[8.616E3,6.089E3,2.527E3,4.946E3,1.143E3,1.145E3,1.382E3,3.131E3,1.815E3,1.33E2,1.01E3,1.073E3,7.2E1,5.72E2,8.1E2,1.381E3,1.75E3,1.478E3,3.37E2,5.3E1,8E1,8.98E2,1.12E2,5.63E2,5.1E2,2.7E1,4.5E1,2.71E2,3.01E2,5.4E2,2.7E2,9.99E2,7.51E2,3.03E2,1.175E3,2.42E2,9.5E1,2.3E1,3E1,4.7E1,3.3E1,4.98E2,4E2,8E0,1.04E2,6E1,5.03E2,4.86E2,2.4E1,8E0,1.9E1,8.6E1,1.85E2,2.42E2,5.9E1,3.19E2,2.21E2,2.02E2,6.8E1],"tree_param":{"num_deleted":"0","num_feature":"13","num_nodes":"59","size_leaf_vector":"1"}},{"base_weights":[-8.508296E-1,-1.2237412E0,1.5026716E-2,-1.3121797E0,-8.705109E-1,-3.3894256E-1,2.663863E-1,-1.3731093E0,-1.2547837E0,-3.5213298E-1,-9.321022E-1,-2.8546715E-1,-1.0304158E0,9.458913E-2,3.704553E-1,-1.4414217E-2,-1.3549775E0,-1.2792313E0,-1.1869787E0,-6.503768E-1,-1.449656E-1,-8.890701E-1,-1.2820492E0,1.5904489E-1,-3.263147E-1,-1.2422636E-2,-6.369344E-1,1.2882675E-2,1.5201211E-1,3.0390838E-1,4.359399E-1,-1.2935619E-2,-1.3823401E-2,-1.2157203E-2,-1.3043528E-2,-1.109504E-2,-1.2208514E-2,-7.778164E-3,-4.881196E-3,-2.2832958E-3,2.0956322E-4,-1.0349165E-2,-7.580088E-3,-8.721174E-3,-1.3166884E-2,-2.0793213E-3,2.2819256E-3,-5.111252E-3,-1.918622E-3,-3.0982003E-3,-7.2693354E-3,3.146179E-4,-2.654243E-3,2.008789E-3,9.669773E-4,2.6702187E-3,3.396634E-3,4.0091863E-3,4.7993893E-3],"categories":[],"categories_nodes":[],"categories_segments":[],"categories_sizes":[],"default_left":[0,0,0,0,0,0,0,0,0,0,0,0,0,0,0,0,0,0,0,0,0,0,0,0,0,0,0,0,0,0,0,0,0,0,0,0,0,0,0,0,0,0,0,0,0,0,0,0,0,0,0,0,0,0,0,0,0,0,0],"id":12,"left_children":[1,3,5,7,9,11,13,15,17,19,21,23,25,27,29,-1,31,33,35,37,39,41,43,45,47,-1,49,51,53,55,57,-1,-1,-1,-1,-1,-1,-1,-1,-1,-1,-1,-1,-1,-1,-1,-1,-1,-1,-1,-1,-1,-1,-1,-1,-1,-1,-1,-1],"loss_changes":[2.7823428E3,1.8701074E2,2.3097673E2,1.5116211E1,3.8272278E1,3.956688E1,2.7104912E1,9.267578E-1,2.611084E0,7.937948E0,1.5123779E1,1.8245438E1,5.6273346E0,2.6911511E0,3.9856415E0,0E0,1.3273926E0,1.3146973E0,4.142456E-1,7.1626663E-1,1.0836741E0,1.7661377E1,4.988556E-1,2.2043757E0,2.2712624E1,0E0,6.28541E-1,1.2389767E0,8.914981E-1,5.318146E-1,5.3796387E-1,0E0,0E0,0E0,0E0,0E0,0E0,0E0,0E0,0E0,0E0,0E0,0E0,0E0,0E0,0E0,0E0,0E0,0E0,0E0,0E0,0E0,0E0,0E0,0E0,0E0,0E0,0E0,0E0],"parents":[2147483647,0,0,1,1,2,2,3,3,4,4,5,5,6,6,7,7,8,8,9,9,10,10,11,11,12,12,13,13,14,14,16,16,17,17,18,18,19,19,20,20,21,21,22,22,23,23,24,24,26,26,27,27,28,28,29,29,30,30],"right_children":[2,4,6,8,10,12,14,16,18,20,22,24,26,28,30,-1,32,34,36,38,40,42,44,46,48,-1,50,52,54,56,58,-1,-1,-1,-1,-1,-1,-1,-1,-1,-1,-1,-1,-1,-1,-1,-1,-1,-1,-1,-1,-1,-1,-1,-1,-1,-1,-1,-1],"split_conditions":[3.8329813E-1,-4.1877076E-1,1.2812091E0,-7.560017E-1,-5.5585206E-1,1.467746E0,1.7332196E0,-8.924159E-1,-6.136639E-1,-4.4605494E-2,5.159316E-1,2.0944233E-1,8.1868917E-1,1.4852785E0,1.9631985E0,-1.4414217E-2,-8.3962005E-1,-7.313168E-1,-5.8223337E-1,2.086732E0,4.2284546E0,-9.665227E-2,2.4642413E0,3.041832E0,8.1868917E-1,-1.2422636E-2,2.4642413E0,1.6095558E0,1.6095558E0,1.8615842E0,2.073443E0,-1.2935619E-2,-1.3823401E-2,-1.2157203E-2,-1.3043528E-2,-1.109504E-2,-1.2208514E-2,-7.778164E-3,-4.881196E-3,-2.2832958E-3,2.0956322E-4,-1.0349165E-2,-7.580088E-3,-8.721174E-3,-1.3166884E-2,-2.0793213E-3,2.2819256E-3,-5.111252E-3,-1.918622E-3,-3.0982003E-3,-7.2693354E-3,3.146179E-4,-2.654243E-3,2.008789E-3,9.669773E-4,2.6702187E-3,3.396634E-3,4.0091863E-3,4.7993893E-3],"split_indices":[11,11,11,11,9,9,11,11,11,11,9,9,11,11,11,0,9,9,9,12,12,11,12,12,11,0,12,9,9,11,11,0,0,0,0,0,0,0,0,0,0,0,0,0,0,0,0,0,0,0,0,0,0,0,0,0,0,0,0],"split_type":[0,0,0,0,0,0,0,0,0,0,0,0,0,0,0,0,0,0,0,0,0,0,0,0,0,0,0,0,0,0,0,0,0,0,0,0,0,0,0,0,0,0,0,0,0,0,0,0,0,0,0,0,0,0,0,0,0,0,0],"sum_hessian":[8.616E3,6.022E3,2.594E3,4.814E3,1.208E3,1.077E3,1.517E3,2.324E3,2.49E3,1.29E2,1.079E3,1.001E3,7.6E1,5.73E2,9.44E2,4.71E2,1.853E3,1.817E3,6.73E2,5.2E1,7.7E1,9.64E2,1.15E2,8.4E1,9.17E2,4.8E1,2.8E1,2.37E2,3.36E2,4.71E2,4.73E2,5.86E2,1.267E3,5.29E2,1.288E3,2.15E2,4.58E2,2.7E1,2.5E1,5.1E1,2.6E1,4.53E2,5.11E2,1.1E1,1.04E2,1.3E1,7.1E1,3.85E2,5.32E2,7E0,2.1E1,2.23E2,1.4E1,1.77E2,1.59E2,2.36E2,2.35E2,2.69E2,2.04E2],"tree_param":{"num_deleted":"0","num_feature":"13","num_nodes":"59","size_leaf_vector":"1"}},{"base_weights":[-8.423397E-1,-1.2047348E0,3.1010127E-2,-1.292947E0,-8.222252E-1,-3.0908942E-1,2.704798E-1,-1.340662E0,-1.2074485E0,-3.022297E-1,-8.903332E-1,-2.6279196E-1,-9.9185324E-1,1.0147723E-1,3.6676648E-1,-1.3847677E-2,-1.3057629E0,-1.2296109E0,-1.1091288E0,-5.784726E-1,-1.1433652E-1,-8.4074885E-1,-1.2769348E-2,2.3903576E-1,-2.9870218E-1,-1.2043302E-2,-6.6047984E-1,1.999473E-2,1.5050082E-1,3.0088213E-1,4.3159908E-1,-1.2340474E-2,-1.3298011E-2,-1.1656677E-2,-1.2513318E-2,-1.0594466E-2,-1.2233335E-2,-7.118225E-3,-4.565736E-3,-2.0643724E-3,1.9050865E-4,-9.65039E-3,-6.83987E-3,1.1790065E-4,2.8931648E-3,-4.363629E-3,-1.2808013E-3,-7.21194E-3,-4.1854517E-3,1.9796032E-3,-4.8337974E-5,1.988814E-3,9.5736806E-4,2.643629E-3,3.3628116E-3,3.969243E-3,4.751629E-3],"categories":[],"categories_nodes":[],"categories_segments":[],"categories_sizes":[],"default_left":[0,0,0,0,0,0,0,0,0,0,0,0,0,0,0,0,0,0,0,0,0,0,0,0,0,0,0,0,0,0,0,0,0,0,0,0,0,0,0,0,0,0,0,0,0,0,0,0,0,0,0,0,0,0,0,0,0],"id":13,"left_children":[1,3,5,7,9,11,13,15,17,19,21,23,25,27,29,-1,31,33,35,37,39,41,-1,43,45,-1,47,49,51,53,55,-1,-1,-1,-1,-1,-1,-1,-1,-1,-1,-1,-1,-1,-1,-1,-1,-1,-1,-1,-1,-1,-1,-1,-1,-1,-1],"loss_changes":[2.7272969E3,2.0442676E2,2.0597284E2,1.85625E1,4.0246643E1,3.2772057E1,2.4111465E1,3.0649414E0,2.519043E0,6.889018E0,1.830664E1,1.7731712E1,3.8515701E0,2.154056E0,3.906662E0,0E0,1.4362793E0,5.4833984E-1,6.2176514E-1,5.5278206E-1,9.990238E-1,1.6855957E1,0E0,7.5071E-1,2.1435593E1,0E0,1.0943699E-1,9.0235627E-1,8.738456E-1,5.212784E-1,5.274124E-1,0E0,0E0,0E0,0E0,0E0,0E0,0E0,0E0,0E0,0E0,0E0,0E0,0E0,0E0,0E0,0E0,0E0,0E0,0E0,0E0,0E0,0E0,0E0,0E0,0E0,0E0],"parents":[2147483647,0,0,1,1,2,2,3,3,4,4,5,5,6,6,7,7,8,8,9,9,10,10,11,11,12,12,13,13,14,14,16,16,17,17,18,18,19,19,20,20,21,21,23,23,24,24,26,26,27,27,28,28,29,29,30,30],"right_children":[2,4,6,8,10,12,14,16,18,20,22,24,26,28,30,-1,32,34,36,38,40,42,-1,44,46,-1,48,50,52,54,56,-1,-1,-1,-1,-1,-1,-1,-1,-1,-1,-1,-1,-1,-1,-1,-1,-1,-1,-1,-1,-1,-1,-1,-1,-1,-1],"split_conditions":[4.5197746E-1,-3.43324E-1,1.3404086E0,-7.0233333E-1,-4.9837062E-1,1.5013268E0,1.7332196E0,-8.124417E-1,-5.1081777E-1,8.536984E-3,6.7900205E-1,2.0944233E-1,8.1868917E-1,1.4852785E0,1.9631985E0,-1.3847677E-2,-8.0194604E-1,-6.856003E-1,-3.3952734E-1,2.086732E0,2.4893497E-1,4.3353233E-2,-1.2769348E-2,3.7390802E0,9.455459E-1,-1.2043302E-2,1.1628963E0,1.2502279E0,1.6095558E0,1.8615842E0,2.073443E0,-1.2340474E-2,-1.3298011E-2,-1.1656677E-2,-1.2513318E-2,-1.0594466E-2,-1.2233335E-2,-7.118225E-3,-4.565736E-3,-2.0643724E-3,1.9050865E-4,-9.65039E-3,-6.83987E-3,1.1790065E-4,2.8931648E-3,-4.363629E-3,-1.2808013E-3,-7.21194E-3,-4.1854517E-3,1.9796032E-3,-4.8337974E-5,1.988814E-3,9.5736806E-4,2.643629E-3,3.3628116E-3,3.969243E-3,4.751629E-3],"split_indices":[11,11,11,11,9,9,11,11,11,11,9,9,11,11,11,0,9,9,9,12,11,11,0,12,11,0,11,9,9,11,11,0,0,0,0,0,0,0,0,0,0,0,0,0,0,0,0,0,0,0,0,0,0,0,0,0,0],"split_type":[0,0,0,0,0,0,0,0,0,0,0,0,0,0,0,0,0,0,0,0,0,0,0,0,0,0,0,0,0,0,0,0,0,0,0,0,0,0,0,0,0,0,0,0,0,0,0,0,0,0,0,0,0,0,0,0,0],"sum_hessian":[8.616E3,6.089E3,2.527E3,4.946E3,1.143E3,1.044E3,1.483E3,3.165E3,1.781E3,1.33E2,1.01E3,9.79E2,6.5E1,5.39E2,9.44E2,1.381E3,1.784E3,1.444E3,3.37E2,5.3E1,8E1,8.98E2,1.12E2,6.5E1,9.14E2,3.8E1,2.7E1,2.03E2,3.36E2,4.71E2,4.73E2,4.61E2,1.323E3,3.8E2,1.064E3,2.42E2,9.5E1,2.3E1,3E1,4.7E1,3.3E1,4.98E2,4E2,1.2E1,5.3E1,5.05E2,4.09E2,2E1,7E0,2.4E1,1.79E2,1.77E2,1.59E2,2.36E2,2.35E2,2.69E2,2.04E2],"tree_param":{"num_deleted":"0","num_feature":"13","num_nodes":"57","size_leaf_vector":"1"}},{"base_weights":[-8.3393204E-1,-1.1927086E0,3.0697463E-2,-1.280035E0,-8.140404E-1,-3.0602348E-1,2.677882E-1,-1.3272679E0,-1.1954004E0,-2.9930857E-1,-8.814588E-1,-2.6016673E-1,-9.822899E-1,1.0047148E-1,3.631144E-1,-1.3835504E-2,-1.3002986E0,-1.2173315E0,-1.0981051E0,-5.729042E-1,-1.1321628E-1,-8.3235973E-1,-1.2642785E0,2.3669103E-1,-2.9572132E-1,-1.1925957E-2,-6.542821E-1,1.9804252E-2,1.4900455E-1,2.97886E-1,4.273015E-1,-1.2315825E-2,-1.3224849E-2,-1.1540417E-2,-1.2388302E-2,-1.0488957E-2,-1.2112275E-2,-6.6881794E-3,-4.145502E-3,-2.0441588E-3,1.8865972E-4,-9.345607E-3,-6.4542284E-3,-8.489818E-3,-1.2878346E-2,1.1681235E-4,2.8647687E-3,-4.320079E-3,-1.2680244E-3,-4.8249625E-3,-7.5296545E-3,3.6954647E-4,-2.350173E-3,1.9690373E-3,9.478542E-4,2.6648068E-3,3.385442E-3,3.8775208E-3,4.6456656E-3],"categories":[],"categories_nodes":[],"categories_segments":[],"categories_sizes":[],"default_left":[0,0,0,0,0,0,0,0,0,0,0,0,0,0,0,0,0,0,0,0,0,0,0,0,0,0,0,0,0,0,0,0,0,0,0,0,0,0,0,0,0,0,0,0,0,0,0,0,0,0,0,0,0,0,0,0,0,0,0],"id":14,"left_children":[1,3,5,7,9,11,13,15,17,19,21,23,25,27,29,-1,31,33,35,37,39,41,43,45,47,-1,49,51,53,55,57,-1,-1,-1,-1,-1,-1,-1,-1,-1,-1,-1,-1,-1,-1,-1,-1,-1,-1,-1,-1,-1,-1,-1,-1,-1,-1,-1,-1],"loss_changes":[2.673106E3,2.0034082E2,2.0190083E2,1.8188965E1,3.943567E1,3.215133E1,2.363282E1,3.0063477E0,2.4658203E0,6.75762E0,1.79505E1,1.7382256E1,3.7725182E0,2.1111646E0,3.8292694E0,0E0,1.6599121E0,5.3637695E-1,6.1105347E-1,5.429096E-1,9.7957027E-1,1.6572388E1,1.210022E-2,7.3600554E-1,2.1009773E1,0E0,1.11364365E-1,9.002242E-1,8.5654306E-1,5.1247406E-1,5.184479E-1,0E0,0E0,0E0,0E0,0E0,0E0,0E0,0E0,0E0,0E0,0E0,0E0,0E0,0E0,0E0,0E0,0E0,0E0,0E0,0E0,0E0,0E0,0E0,0E0,0E0,0E0,0E0,0E0],"parents":[2147483647,0,0,1,1,2,2,3,3,4,4,5,5,6,6,7,7,8,8,9,9,10,10,11,11,12,12,13,13,14,14,16,16,17,17,18,18,19,19,20,20,21,21,22,22,23,23,24,24,26,26,27,27,28,28,29,29,30,30],"right_children":[2,4,6,8,10,12,14,16,18,20,22,24,26,28,30,-1,32,34,36,38,40,42,44,46,48,-1,50,52,54,56,58,-1,-1,-1,-1,-1,-1,-1,-1,-1,-1,-1,-1,-1,-1,-1,-1,-1,-1,-1,-1,-1,-1,-1,-1,-1,-1,-1,-1],"split_conditions":[4.5197746E-1,-3.43324E-1,1.3404086E0,-7.0233333E-1,-4.9837062E-1,1.5013268E0,1.7332196E0,-8.3892167E-1,-5.1081777E-1,8.536984E-3,6.7900205E-1,2.0944233E-1,8.1868917E-1,1.4852785E0,1.9631985E0,-1.3835504E-2,-8.1571776E-1,-6.856003E-1,-3.3952734E-1,2.4642413E0,2.4893497E-1,1.0008214E-1,2.4642413E0,3.7390802E0,9.455459E-1,-1.1925957E-2,3.041832E0,1.6095558E0,1.6095558E0,1.8808949E0,2.0573215E0,-1.2315825E-2,-1.3224849E-2,-1.1540417E-2,-1.2388302E-2,-1.0488957E-2,-1.2112275E-2,-6.6881794E-3,-4.145502E-3,-2.0441588E-3,1.8865972E-4,-9.345607E-3,-6.4542284E-3,-8.489818E-3,-1.2878346E-2,1.1681235E-4,2.8647687E-3,-4.320079E-3,-1.2680244E-3,-4.8249625E-3,-7.5296545E-3,3.6954647E-4,-2.350173E-3,1.9690373E-3,9.478542E-4,2.6648068E-3,3.385442E-3,3.8775208E-3,4.6456656E-3],"split_indices":[11,11,11,11,9,9,11,11,11,11,9,9,11,11,11,0,9,9,9,12,11,11,12,12,11,0,12,9,9,11,11,0,0,0,0,0,0,0,0,0,0,0,0,0,0,0,0,0,0,0,0,0,0,0,0,0,0,0,0],"split_type":[0,0,0,0,0,0,0,0,0,0,0,0,0,0,0,0,0,0,0,0,0,0,0,0,0,0,0,0,0,0,0,0,0,0,0,0,0,0,0,0,0,0,0,0,0,0,0,0,0,0,0,0,0,0,0,0,0,0,0],"sum_hessian":[8.616E3,6.089E3,2.527E3,4.946E3,1.143E3,1.044E3,1.483E3,3.165E3,1.781E3,1.33E2,1.01E3,9.79E2,6.5E1,5.39E2,9.44E2,1.009E3,2.156E3,1.444E3,3.37E2,5.3E1,8E1,8.98E2,1.12E2,6.5E1,9.14E2,3.8E1,2.7E1,2.03E2,3.36E2,4.71E2,4.73E2,5.4E2,1.616E3,3.8E2,1.064E3,2.42E2,9.5E1,3.1E1,2.2E1,4.7E1,3.3E1,5.78E2,3.2E2,8E0,1.04E2,1.2E1,5.3E1,5.05E2,4.09E2,1.2E1,1.5E1,1.91E2,1.2E1,1.77E2,1.59E2,2.7E2,2.01E2,2.35E2,2.38E2],"tree_param":{"num_deleted":"0","num_feature":"13","num_nodes":"59","size_leaf_vector":"1"}},{"base_weights":[-8.256098E-1,-1.1874899E0,1.4632616E-2,-1.2732816E0,-8.448308E-1,-3.2886952E-1,2.585593E-1,-1.3325874E0,-1.2174168E0,-3.4162244E-1,-9.0461993E-1,-2.7686363E-1,-1.0013506E0,9.19281E-2,3.5949868E-1,-1.3994134E-2,-1.3148557E0,-1.2412513E0,-1.1513208E0,-6.777473E-1,-1.6770153E-1,-8.6271363E-1,-1.2454383E0,1.5567905E-1,-3.1661227E-1,-1.20696435E-2,-6.194051E-1,1.2821105E-2,1.4752316E-1,2.9492E-1,4.2304647E-1,-1.2543672E-2,-1.3418209E-2,-1.1788108E-2,-1.2659622E-2,-1.0748192E-2,-1.1848132E-2,-7.259749E-3,-4.411761E-3,-2.7299672E-3,-1.8032447E-4,-1.0048338E-2,-7.3500806E-3,-8.479542E-3,-1.2790037E-2,-1.9848854E-3,2.2238276E-3,-4.9671894E-3,-1.8558452E-3,-3.012698E-3,-7.0693586E-3,3.102154E-4,-2.598268E-3,1.9494577E-3,9.384352E-4,2.5907685E-3,3.2966533E-3,3.8900985E-3,4.6581156E-3],"categories":[],"categories_nodes":[],"categories_segments":[],"categories_sizes":[],"default_left":[0,0,0,0,0,0,0,0,0,0,0,0,0,0,0,0,0,0,0,0,0,0,0,0,0,0,0,0,0,0,0,0,0,0,0,0,0,0,0,0,0,0,0,0,0,0,0,0,0,0,0,0,0,0,0,0,0,0,0],"id":15,"left_children":[1,3,5,7,9,11,13,15,17,19,21,23,25,27,29,-1,31,33,35,37,39,41,43,45,47,-1,49,51,53,55,57,-1,-1,-1,-1,-1,-1,-1,-1,-1,-1,-1,-1,-1,-1,-1,-1,-1,-1,-1,-1,-1,-1,-1,-1,-1,-1,-1,-1],"loss_changes":[2.620162E3,1.7598438E2,2.1751836E2,1.4330566E1,3.606537E1,3.7423653E1,2.5499184E1,9.1503906E-1,2.4951172E0,7.4860296E0,1.4350586E1,1.7276665E1,5.299469E0,2.5225372E0,3.7533646E0,0E0,1.3408203E0,1.3127441E0,4.534912E-1,1.8172264E-1,1.366148E0,1.6775757E1,4.631195E-1,2.0522056E0,2.157167E1,0E0,5.94573E-1,1.1890901E0,8.3958244E-1,5.024109E-1,5.0873566E-1,0E0,0E0,0E0,0E0,0E0,0E0,0E0,0E0,0E0,0E0,0E0,0E0,0E0,0E0,0E0,0E0,0E0,0E0,0E0,0E0,0E0,0E0,0E0,0E0,0E0,0E0,0E0,0E0],"parents":[2147483647,0,0,1,1,2,2,3,3,4,4,5,5,6,6,7,7,8,8,9,9,10,10,11,11,12,12,13,13,14,14,16,16,17,17,18,18,19,19,20,20,21,21,22,22,23,23,24,24,26,26,27,27,28,28,29,29,30,30],"right_children":[2,4,6,8,10,12,14,16,18,20,22,24,26,28,30,-1,32,34,36,38,40,42,44,46,48,-1,50,52,54,56,58,-1,-1,-1,-1,-1,-1,-1,-1,-1,-1,-1,-1,-1,-1,-1,-1,-1,-1,-1,-1,-1,-1,-1,-1,-1,-1,-1,-1],"split_conditions":[3.8329813E-1,-4.1877076E-1,1.2812091E0,-7.560017E-1,-5.5585206E-1,1.467746E0,1.7332196E0,-8.924159E-1,-6.136639E-1,2.852491E0,5.159316E-1,2.0944233E-1,8.1868917E-1,1.4852785E0,1.9631985E0,-1.3994134E-2,-8.3962005E-1,-7.313168E-1,-5.8223337E-1,-1.4481333E-1,2.0500863E-1,-9.665227E-2,2.4642413E0,3.041832E0,8.1868917E-1,-1.20696435E-2,2.4642413E0,1.6095558E0,1.6095558E0,1.8615842E0,2.073443E0,-1.2543672E-2,-1.3418209E-2,-1.1788108E-2,-1.2659622E-2,-1.0748192E-2,-1.1848132E-2,-7.259749E-3,-4.411761E-3,-2.7299672E-3,-1.8032447E-4,-1.0048338E-2,-7.3500806E-3,-8.479542E-3,-1.2790037E-2,-1.9848854E-3,2.2238276E-3,-4.9671894E-3,-1.8558452E-3,-3.012698E-3,-7.0693586E-3,3.102154E-4,-2.598268E-3,1.9494577E-3,9.384352E-4,2.5907685E-3,3.2966533E-3,3.8900985E-3,4.6581156E-3],"split_indices":[11,11,11,11,9,9,11,11,11,12,9,9,11,11,11,0,9,9,9,11,11,11,12,12,11,0,12,9,9,11,11,0,0,0,0,0,0,0,0,0,0,0,0,0,0,0,0,0,0,0,0,0,0,0,0,0,0,0,0],"split_type":[0,0,0,0,0,0,0,0,0,0,0,0,0,0,0,0,0,0,0,0,0,0,0,0,0,0,0,0,0,0,0,0,0,0,0,0,0,0,0,0,0,0,0,0,0,0,0,0,0,0,0,0,0,0,0,0,0,0,0],"sum_hessian":[8.616E3,6.022E3,2.594E3,4.814E3,1.208E3,1.077E3,1.517E3,2.324E3,2.49E3,1.29E2,1.079E3,1.001E3,7.6E1,5.73E2,9.44E2,4.71E2,1.853E3,1.817E3,6.73E2,4.3E1,8.6E1,9.64E2,1.15E2,8.4E1,9.17E2,4.8E1,2.8E1,2.37E2,3.36E2,4.71E2,4.73E2,5.86E2,1.267E3,5.29E2,1.288E3,2.15E2,4.58E2,3.4E1,9E0,5E1,3.6E1,4.53E2,5.11E2,1.1E1,1.04E2,1.3E1,7.1E1,3.85E2,5.32E2,7E0,2.1E1,2.23E2,1.4E1,1.77E2,1.59E2,2.36E2,2.35E2,2.69E2,2.04E2],"tree_param":{"num_deleted":"0","num_feature":"13","num_nodes":"59","size_leaf_vector":"1"}},{"base_weights":[-8.173716E-1,-1.1690356E0,3.0116975E-2,-1.2546147E0,-7.9794383E-1,-2.8251374E-1,2.754347E-1,-1.3016636E0,-1.1727799E0,-2.9341763E-1,-8.640255E-1,-2.3914212E-1,-9.2471474E-1,1.4182428E-1,3.7509698E-1,-1.3440079E-2,-1.2674996E0,-1.1940368E0,-1.076295E0,-5.618235E-1,-1.10857956E-1,-8.158259E-1,-1.2398432E-2,-3.579654E-1,-9.902655E-2,-5.243208E-1,-1.1222176E-2,7.702462E-2,2.070126E-1,3.367565E-1,4.5025232E-1,-1.230493E-2,-1.3150247E-2,-1.1218429E-2,-1.2116838E-2,-1.0276375E-2,-1.1882479E-2,-6.9127423E-3,-4.4348026E-3,-2.0007985E-3,1.8362908E-4,-9.162479E-3,-6.321493E-3,2.0309973E-3,-4.2516184E-3,-1.2372964E-3,3.555189E-3,-2.099078E-3,-5.7421336E-3,1.6284416E-3,3.0062115E-4,2.2809E-3,1.1819885E-3,3.661483E-3,2.9287296E-3,4.2817537E-3,5.0867787E-3],"categories":[],"categories_nodes":[],"categories_segments":[],"categories_sizes":[],"default_left":[0,0,0,0,0,0,0,0,0,0,0,0,0,0,0,0,0,0,0,0,0,0,0,0,0,0,0,0,0,0,0,0,0,0,0,0,0,0,0,0,0,0,0,0,0,0,0,0,0,0,0,0,0,0,0,0,0],"id":16,"left_children":[1,3,5,7,9,11,13,15,17,19,21,23,25,27,29,-1,31,33,35,37,39,41,-1,43,45,47,-1,49,51,53,55,-1,-1,-1,-1,-1,-1,-1,-1,-1,-1,-1,-1,-1,-1,-1,-1,-1,-1,-1,-1,-1,-1,-1,-1,-1,-1],"loss_changes":[2.5681704E3,1.9240234E2,1.9395987E2,1.7520996E1,3.788733E1,3.0751724E1,1.881546E1,2.8276367E0,2.4394531E0,6.50373E0,1.7302002E1,1.7329453E1,4.947132E0,2.548133E0,2.185257E0,0E0,1.4616699E0,5.246582E-1,6.201477E-1,5.206928E-1,9.3754995E-1,1.600299E1,0E0,2.1350037E1,5.433754E0,2.716403E-1,0E0,1.2283765E0,5.38373E-1,5.905609E-1,1.317482E-1,0E0,0E0,0E0,0E0,0E0,0E0,0E0,0E0,0E0,0E0,0E0,0E0,0E0,0E0,0E0,0E0,0E0,0E0,0E0,0E0,0E0,0E0,0E0,0E0,0E0,0E0],"parents":[2147483647,0,0,1,1,2,2,3,3,4,4,5,5,6,6,7,7,8,8,9,9,10,10,11,11,12,12,13,13,14,14,16,16,17,17,18,18,19,19,20,20,21,21,23,23,24,24,25,25,27,27,28,28,29,29,30,30],"right_children":[2,4,6,8,10,12,14,16,18,20,22,24,26,28,30,-1,32,34,36,38,40,42,-1,44,46,48,-1,50,52,54,56,-1,-1,-1,-1,-1,-1,-1,-1,-1,-1,-1,-1,-1,-1,-1,-1,-1,-1,-1,-1,-1,-1,-1,-1,-1,-1],"split_conditions":[4.5197746E-1,-3.43324E-1,1.3851048E0,-7.044133E-1,-4.9837062E-1,1.5013268E0,1.8114605E0,-8.124417E-1,-5.1081777E-1,8.536984E-3,6.7900205E-1,9.455459E-1,3.9691043E0,1.6172408E0,2.0406215E0,-1.3440079E-2,-7.2350717E-1,-7.1173626E-1,-3.3952734E-1,2.086732E0,2.4893497E-1,1.0008214E-1,-1.2398432E-2,2.3203385E-1,1.4793805E0,1.4793805E0,-1.1222176E-2,1.3674897E0,1.7737501E0,1.9112891E0,2.1561122E0,-1.230493E-2,-1.3150247E-2,-1.1218429E-2,-1.2116838E-2,-1.0276375E-2,-1.1882479E-2,-6.9127423E-3,-4.4348026E-3,-2.0007985E-3,1.8362908E-4,-9.162479E-3,-6.321493E-3,2.0309973E-3,-4.2516184E-3,-1.2372964E-3,3.555189E-3,-2.099078E-3,-5.7421336E-3,1.6284416E-3,3.0062115E-4,2.2809E-3,1.1819885E-3,3.661483E-3,2.9287296E-3,4.2817537E-3,5.0867787E-3],"split_indices":[11,11,11,11,9,9,11,11,11,11,9,11,12,11,11,0,9,9,9,12,11,11,0,9,12,12,0,9,9,9,11,0,0,0,0,0,0,0,0,0,0,0,0,0,0,0,0,0,0,0,0,0,0,0,0,0,0],"split_type":[0,0,0,0,0,0,0,0,0,0,0,0,0,0,0,0,0,0,0,0,0,0,0,0,0,0,0,0,0,0,0,0,0,0,0,0,0,0,0,0,0,0,0,0,0,0,0,0,0,0,0,0,0,0,0,0,0],"sum_hessian":[8.616E3,6.089E3,2.527E3,4.946E3,1.143E3,1.111E3,1.416E3,3.131E3,1.815E3,1.33E2,1.01E3,1.042E3,6.9E1,6.06E2,8.1E2,1.381E3,1.75E3,1.478E3,3.37E2,5.3E1,8E1,8.98E2,1.12E2,5.63E2,4.79E2,2.4E1,4.5E1,3.05E2,3.01E2,5.4E2,2.7E2,9.99E2,7.51E2,3.03E2,1.175E3,2.42E2,9.5E1,2.3E1,3E1,4.7E1,3.3E1,5.78E2,3.2E2,6E1,5.03E2,4.55E2,2.4E1,4E0,2E1,1.07E2,1.98E2,2.42E2,5.9E1,3.19E2,2.21E2,2.02E2,6.8E1],"tree_param":{"num_deleted":"0","num_feature":"13","num_nodes":"57","size_leaf_vector":"1"}},{"base_weights":[-8.0921215E-1,-1.1639155E0,1.4366993E-2,-1.247989E0,-8.281193E-1,-3.316942E-1,2.4714632E-1,-1.3087088E0,-1.1954086E0,-3.3486557E-1,-8.867256E-1,-2.796154E-1,-1.0205832E0,8.308093E-2,3.524422E-1,-1.3720374E-2,-1.2909107E0,-1.2183803E0,-1.12823E0,-6.644833E-1,-1.6431333E-1,-8.4556776E-1,-1.2214725E0,1.5332375E-1,-3.2074177E-1,-1.1842404E-2,-6.589918E-1,6.493645E-3,1.4464965E-1,2.8896675E-1,4.1490626E-1,-1.2351033E-2,-1.3207374E-2,-1.1600351E-2,-1.243851E-2,-1.0525752E-2,-1.16137415E-2,-7.195623E-3,-4.576424E-3,-2.6764283E-3,-1.7445289E-4,-9.852452E-3,-7.200615E-3,-8.313481E-3,-1.254425E-2,-1.9375852E-3,2.1868248E-3,-4.8723132E-3,-1.9234071E-3,-3.3894195E-3,-7.0381355E-3,2.3623665E-4,-2.6906317E-3,1.9165318E-3,9.145418E-4,3.1822496E-3,2.4687091E-3,3.8167657E-3,4.5664827E-3],"categories":[],"categories_nodes":[],"categories_segments":[],"categories_sizes":[],"default_left":[0,0,0,0,0,0,0,0,0,0,0,0,0,0,0,0,0,0,0,0,0,0,0,0,0,0,0,0,0,0,0,0,0,0,0,0,0,0,0,0,0,0,0,0,0,0,0,0,0,0,0,0,0,0,0,0,0,0,0],"id":17,"left_children":[1,3,5,7,9,11,13,15,17,19,21,23,25,27,29,-1,31,33,35,37,39,41,43,45,47,-1,49,51,53,55,57,-1,-1,-1,-1,-1,-1,-1,-1,-1,-1,-1,-1,-1,-1,-1,-1,-1,-1,-1,-1,-1,-1,-1,-1,-1,-1,-1,-1],"loss_changes":[2.517269E3,1.6900488E2,2.0912453E2,1.3808594E1,3.4652588E1,3.71697E1,2.6782143E1,7.351074E-1,2.6254883E0,7.199032E0,1.3846863E1,1.7355843E1,3.5395126E0,2.8660126E0,3.626976E0,0E0,1.2868652E0,1.4086914E0,4.677124E-1,1.7197037E-1,1.3156254E0,1.6207336E1,4.4836426E-1,1.9705842E0,1.8889458E1,0E0,1.2007904E-1,1.2902763E0,8.25099E-1,5.027771E-1,4.831848E-1,0E0,0E0,0E0,0E0,0E0,0E0,0E0,0E0,0E0,0E0,0E0,0E0,0E0,0E0,0E0,0E0,0E0,0E0,0E0,0E0,0E0,0E0,0E0,0E0,0E0,0E0,0E0,0E0],"parents":[2147483647,0,0,1,1,2,2,3,3,4,4,5,5,6,6,7,7,8,8,9,9,10,10,11,11,12,12,13,13,14,14,16,16,17,17,18,18,19,19,20,20,21,21,22,22,23,23,24,24,26,26,27,27,28,28,29,29,30,30],"right_children":[2,4,6,8,10,12,14,16,18,20,22,24,26,28,30,-1,32,34,36,38,40,42,44,46,48,-1,50,52,54,56,58,-1,-1,-1,-1,-1,-1,-1,-1,-1,-1,-1,-1,-1,-1,-1,-1,-1,-1,-1,-1,-1,-1,-1,-1,-1,-1,-1,-1],"split_conditions":[3.8329813E-1,-4.1877076E-1,1.243862E0,-7.6148796E-1,-5.5585206E-1,1.467746E0,1.7332196E0,-8.924159E-1,-6.136639E-1,2.852491E0,5.159316E-1,2.0944233E-1,8.1868917E-1,1.4852785E0,1.9631985E0,-1.3720374E-2,-8.306028E-1,-7.2950494E-1,-5.8223337E-1,-1.6933629E-1,2.0500863E-1,-9.665227E-2,2.4642413E0,3.041832E0,8.1868917E-1,-1.1842404E-2,2.4642413E0,1.6095558E0,1.6095558E0,1.8369195E0,2.073443E0,-1.2351033E-2,-1.3207374E-2,-1.1600351E-2,-1.243851E-2,-1.0525752E-2,-1.16137415E-2,-7.195623E-3,-4.576424E-3,-2.6764283E-3,-1.7445289E-4,-9.852452E-3,-7.200615E-3,-8.313481E-3,-1.254425E-2,-1.9375852E-3,2.1868248E-3,-4.8723132E-3,-1.9234071E-3,-3.3894195E-3,-7.0381355E-3,2.3623665E-4,-2.6906317E-3,1.9165318E-3,9.145418E-4,3.1822496E-3,2.4687091E-3,3.8167657E-3,4.5664827E-3],"split_indices":[11,11,11,11,9,9,11,11,11,12,9,9,11,11,11,0,9,9,9,11,11,11,12,12,11,0,12,9,9,9,11,0,0,0,0,0,0,0,0,0,0,0,0,0,0,0,0,0,0,0,0,0,0,0,0,0,0,0,0],"split_type":[0,0,0,0,0,0,0,0,0,0,0,0,0,0,0,0,0,0,0,0,0,0,0,0,0,0,0,0,0,0,0,0,0,0,0,0,0,0,0,0,0,0,0,0,0,0,0,0,0,0,0,0,0,0,0,0,0,0,0],"sum_hessian":[8.616E3,6.022E3,2.594E3,4.814E3,1.208E3,1.043E3,1.551E3,2.223E3,2.591E3,1.29E2,1.079E3,9.71E2,7.2E1,6.07E2,9.44E2,4.71E2,1.752E3,1.918E3,6.73E2,4.3E1,8.6E1,9.64E2,1.15E2,8.4E1,8.87E2,4.8E1,2.4E1,2.71E2,3.36E2,4.71E2,4.73E2,6.25E2,1.127E3,5.97E2,1.321E3,2.15E2,4.58E2,3.2E1,1.1E1,5E1,3.6E1,4.53E2,5.11E2,1.1E1,1.04E2,1.3E1,7.1E1,3.85E2,5.02E2,4E0,2E1,2.56E2,1.5E1,1.77E2,1.59E2,2.74E2,1.97E2,2.69E2,2.04E2],"tree_param":{"num_deleted":"0","num_feature":"13","num_nodes":"59","size_leaf_vector":"1"}},{"base_weights":[-8.011377E-1,-1.1458312E0,2.9552398E-2,-1.229699E0,-7.8216004E-1,-2.939813E-1,2.5735778E-1,-1.2751943E0,-1.1481794E0,-2.876578E-1,-8.469287E-1,-2.4985339E-1,-9.4475985E-1,1.11362174E-1,3.5827905E-1,-1.3296624E-2,-1.2490988E0,-1.1692004E0,-1.054915E0,-5.5099404E-1,-1.0854898E-1,-7.996209E-1,-1.215803E0,2.2849488E-1,-2.8408414E-1,-1.1467422E-2,-6.296858E-1,2.8822422E-2,1.6364862E-1,3.046787E-1,4.197103E-1,-1.18195675E-2,-1.2707899E-2,-1.1075975E-2,-1.1901407E-2,-1.0068021E-2,-1.1657119E-2,-6.775301E-3,-4.3525663E-3,-1.9583278E-3,1.7867849E-4,-9.331009E-3,-6.6555296E-3,-8.170326E-3,-1.2384042E-2,8.832312E-5,2.771452E-3,-4.154946E-3,-1.2121149E-3,-4.6406197E-3,-7.2489986E-3,2.1923312E-3,3.2970765E-5,1.8394121E-3,7.502873E-4,3.274659E-3,2.4715415E-3,4.022486E-3,4.9916455E-3],"categories":[],"categories_nodes":[],"categories_segments":[],"categories_sizes":[],"default_left":[0,0,0,0,0,0,0,0,0,0,0,0,0,0,0,0,0,0,0,0,0,0,0,0,0,0,0,0,0,0,0,0,0,0,0,0,0,0,0,0,0,0,0,0,0,0,0,0,0,0,0,0,0,0,0,0,0,0,0],"id":18,"left_children":[1,3,5,7,9,11,13,15,17,19,21,23,25,27,29,-1,31,33,35,37,39,41,43,45,47,-1,49,51,53,55,57,-1,-1,-1,-1,-1,-1,-1,-1,-1,-1,-1,-1,-1,-1,-1,-1,-1,-1,-1,-1,-1,-1,-1,-1,-1,-1,-1,-1],"loss_changes":[2.46737E3,1.8478516E2,1.8639613E2,1.6882324E1,3.6396667E1,2.9773735E1,2.1825447E1,2.8393555E0,2.260254E0,6.260412E0,1.6670471E1,1.6111645E1,3.4781113E0,2.6192346E0,2.7598572E0,0E0,1.6394043E0,5.4577637E-1,6.281738E-1,4.959278E-1,8.9726466E-1,1.5466858E1,6.6070557E-3,7.0287204E-1,1.9533539E1,0E0,1.0515404E-1,1.1511682E0,6.551771E-1,5.3777313E-1,3.6249542E-1,0E0,0E0,0E0,0E0,0E0,0E0,0E0,0E0,0E0,0E0,0E0,0E0,0E0,0E0,0E0,0E0,0E0,0E0,0E0,0E0,0E0,0E0,0E0,0E0,0E0,0E0,0E0,0E0],"parents":[2147483647,0,0,1,1,2,2,3,3,4,4,5,5,6,6,7,7,8,8,9,9,10,10,11,11,12,12,13,13,14,14,16,16,17,17,18,18,19,19,20,20,21,21,22,22,23,23,24,24,26,26,27,27,28,28,29,29,30,30],"right_children":[2,4,6,8,10,12,14,16,18,20,22,24,26,28,30,-1,32,34,36,38,40,42,44,46,48,-1,50,52,54,56,58,-1,-1,-1,-1,-1,-1,-1,-1,-1,-1,-1,-1,-1,-1,-1,-1,-1,-1,-1,-1,-1,-1,-1,-1,-1,-1,-1,-1],"split_conditions":[4.5197746E-1,-3.43324E-1,1.3404086E0,-7.0233333E-1,-4.9837062E-1,1.5013268E0,1.7776423E0,-8.3892167E-1,-5.1081777E-1,8.536984E-3,6.7900205E-1,2.0944233E-1,8.1868917E-1,1.5137067E0,1.9882528E0,-1.3296624E-2,-8.1571776E-1,-6.856003E-1,-3.3952734E-1,2.086732E0,2.4893497E-1,-2.0681113E-2,2.4642413E0,3.7390802E0,9.455459E-1,-1.1467422E-2,3.041832E0,1.2502279E0,1.723113E0,1.9112891E0,2.1561122E0,-1.18195675E-2,-1.2707899E-2,-1.1075975E-2,-1.1901407E-2,-1.0068021E-2,-1.1657119E-2,-6.775301E-3,-4.3525663E-3,-1.9583278E-3,1.7867849E-4,-9.331009E-3,-6.6555296E-3,-8.170326E-3,-1.2384042E-2,8.832312E-5,2.771452E-3,-4.154946E-3,-1.2121149E-3,-4.6406197E-3,-7.2489986E-3,2.1923312E-3,3.2970765E-5,1.8394121E-3,7.502873E-4,3.274659E-3,2.4715415E-3,4.022486E-3,4.9916455E-3],"split_indices":[11,11,11,11,9,9,11,11,11,11,9,9,11,11,11,0,9,9,9,12,11,11,12,12,11,0,12,9,9,9,11,0,0,0,0,0,0,0,0,0,0,0,0,0,0,0,0,0,0,0,0,0,0,0,0,0,0,0,0],"split_type":[0,0,0,0,0,0,0,0,0,0,0,0,0,0,0,0,0,0,0,0,0,0,0,0,0,0,0,0,0,0,0,0,0,0,0,0,0,0,0,0,0,0,0,0,0,0,0,0,0,0,0,0,0,0,0,0,0,0,0],"sum_hessian":[8.616E3,6.089E3,2.527E3,4.946E3,1.143E3,1.044E3,1.483E3,3.165E3,1.781E3,1.33E2,1.01E3,9.79E2,6.5E1,6.07E2,8.76E2,1.009E3,2.156E3,1.444E3,3.37E2,5.3E1,8E1,8.98E2,1.12E2,6.5E1,9.14E2,3.8E1,2.7E1,2.36E2,3.71E2,4.71E2,4.05E2,5.4E2,1.616E3,3.8E2,1.064E3,2.42E2,9.5E1,2.3E1,3E1,4.7E1,3.3E1,4.47E2,4.51E2,8E0,1.04E2,1.2E1,5.3E1,5.05E2,4.09E2,1.2E1,1.5E1,2.7E1,2.09E2,3.01E2,7E1,3.34E2,1.37E2,3.37E2,6.8E1],"tree_param":{"num_deleted":"0","num_feature":"13","num_nodes":"59","size_leaf_vector":"1"}},{"base_weights":[-7.931424E-1,-1.1408135E0,1.410852E-2,-1.2231988E0,-8.117595E-1,-3.2512572E-1,2.4229567E-1,-1.2803699E0,-1.1693466E0,-3.282449E-1,-8.692087E-1,-2.740176E-1,-1.0011804E0,8.145311E-2,3.4552318E-1,-1.3421925E-2,-1.2624346E0,-1.1923381E0,-1.1055958E0,-6.069034E-1,-1.3469179E-1,-8.287864E-1,-1.1979871E0,1.5097779E-1,-3.1438988E-1,-1.161555E-2,-6.4679897E-1,6.545404E-3,1.4167105E-1,2.8326458E-1,4.067901E-1,-1.19056E-2,-1.2847091E-2,-1.1317278E-2,-1.2163342E-2,-1.02547845E-2,-1.1360706E-2,-7.2498177E-3,-4.5639956E-3,-2.142923E-3,2.360147E-4,-9.4423E-3,-6.829571E-3,-8.168691E-3,-1.230134E-2,-1.8818768E-3,2.1482971E-3,-4.779011E-3,-1.8828703E-3,-3.3251795E-3,-6.9082775E-3,2.3468772E-4,-2.656953E-3,1.8814582E-3,8.9082395E-4,3.1213798E-3,2.4173195E-3,3.6921045E-3,4.42196E-3],"categories":[],"categories_nodes":[],"categories_segments":[],"categories_sizes":[],"default_left":[0,0,0,0,0,0,0,0,0,0,0,0,0,0,0,0,0,0,0,0,0,0,0,0,0,0,0,0,0,0,0,0,0,0,0,0,0,0,0,0,0,0,0,0,0,0,0,0,0,0,0,0,0,0,0,0,0,0,0],"id":19,"left_children":[1,3,5,7,9,11,13,15,17,19,21,23,25,27,29,-1,31,33,35,37,39,41,43,45,47,-1,49,51,53,55,57,-1,-1,-1,-1,-1,-1,-1,-1,-1,-1,-1,-1,-1,-1,-1,-1,-1,-1,-1,-1,-1,-1,-1,-1,-1,-1,-1,-1],"loss_changes":[2.4184448E3,1.6228564E2,2.0095486E2,1.3327637E1,3.329773E1,3.5797844E1,2.5740295E1,8.835449E-1,2.3327637E0,6.9298325E0,1.3360291E1,1.6725082E1,3.3975677E0,2.7416306E0,3.4893723E0,0E0,1.3825684E0,1.2675781E0,4.8065186E-1,6.1099434E-1,9.8787487E-1,1.5600952E1,4.1635132E-1,1.8812199E0,1.8219902E1,0E0,1.16223335E-1,1.259402E0,8.0688334E-1,4.9056625E-1,4.6741486E-1,0E0,0E0,0E0,0E0,0E0,0E0,0E0,0E0,0E0,0E0,0E0,0E0,0E0,0E0,0E0,0E0,0E0,0E0,0E0,0E0,0E0,0E0,0E0,0E0,0E0,0E0,0E0,0E0],"parents":[2147483647,0,0,1,1,2,2,3,3,4,4,5,5,6,6,7,7,8,8,9,9,10,10,11,11,12,12,13,13,14,14,16,16,17,17,18,18,19,19,20,20,21,21,22,22,23,23,24,24,26,26,27,27,28,28,29,29,30,30],"right_children":[2,4,6,8,10,12,14,16,18,20,22,24,26,28,30,-1,32,34,36,38,40,42,44,46,48,-1,50,52,54,56,58,-1,-1,-1,-1,-1,-1,-1,-1,-1,-1,-1,-1,-1,-1,-1,-1,-1,-1,-1,-1,-1,-1,-1,-1,-1,-1,-1,-1],"split_conditions":[3.8329813E-1,-4.1877076E-1,1.243862E0,-7.560017E-1,-5.5585206E-1,1.467746E0,1.7332196E0,-8.8680184E-1,-6.136639E-1,-4.4605494E-2,5.159316E-1,2.0944233E-1,8.1868917E-1,1.4852785E0,1.9631985E0,-1.3421925E-2,-8.6269605E-1,-7.313168E-1,-5.966117E-1,2.086732E0,4.2284546E0,-4.4605494E-2,2.4642413E0,3.041832E0,8.1868917E-1,-1.161555E-2,2.4642413E0,1.6095558E0,1.6095558E0,1.8369195E0,2.0573215E0,-1.19056E-2,-1.2847091E-2,-1.1317278E-2,-1.2163342E-2,-1.02547845E-2,-1.1360706E-2,-7.2498177E-3,-4.5639956E-3,-2.142923E-3,2.360147E-4,-9.4423E-3,-6.829571E-3,-8.168691E-3,-1.230134E-2,-1.8818768E-3,2.1482971E-3,-4.779011E-3,-1.8828703E-3,-3.3251795E-3,-6.9082775E-3,2.3468772E-4,-2.656953E-3,1.8814582E-3,8.9082395E-4,3.1213798E-3,2.4173195E-3,3.6921045E-3,4.42196E-3],"split_indices":[11,11,11,11,9,9,11,11,11,11,9,9,11,11,11,0,9,9,9,12,12,11,12,12,11,0,12,9,9,9,11,0,0,0,0,0,0,0,0,0,0,0,0,0,0,0,0,0,0,0,0,0,0,0,0,0,0,0,0],"split_type":[0,0,0,0,0,0,0,0,0,0,0,0,0,0,0,0,0,0,0,0,0,0,0,0,0,0,0,0,0,0,0,0,0,0,0,0,0,0,0,0,0,0,0,0,0,0,0,0,0,0,0,0,0,0,0,0,0,0,0],"sum_hessian":[8.616E3,6.022E3,2.594E3,4.814E3,1.208E3,1.043E3,1.551E3,2.324E3,2.49E3,1.29E2,1.079E3,9.71E2,7.2E1,6.07E2,9.44E2,5.06E2,1.818E3,1.817E3,6.73E2,5.2E1,7.7E1,9.64E2,1.15E2,8.4E1,8.87E2,4.8E1,2.4E1,2.71E2,3.36E2,4.71E2,4.73E2,4.43E2,1.375E3,5.29E2,1.288E3,1.95E2,4.78E2,2.7E1,2.5E1,5.1E1,2.6E1,5.35E2,4.29E2,1.1E1,1.04E2,1.3E1,7.1E1,3.85E2,5.02E2,4E0,2E1,2.56E2,1.5E1,1.77E2,1.59E2,2.74E2,1.97E2,2.35E2,2.38E2],"tree_param":{"num_deleted":"0","num_feature":"13","num_nodes":"59","size_leaf_vector":"1"}},{"base_weights":[-7.8522813E-1,-1.1230887E0,2.899495E-2,-1.2052834E0,-7.666722E-1,-2.8811574E-1,2.5227773E-1,-1.2553923E0,-1.1339178E0,-2.8197756E-1,-8.3015627E-1,-2.4482429E-1,-9.265627E-1,1.21482044E-1,3.606674E-1,-1.3047311E-2,-1.2296456E0,-1.1625782E0,-1.0638218E0,-5.401405E-1,-1.0638772E-1,-7.8371286E-1,-1.1923017E-2,2.2444287E-1,-2.784055E-1,-1.117848E-2,-6.088599E-1,5.845396E-2,1.9892573E-1,3.2384422E-1,4.3284705E-1,-1.16925E-2,-1.2551518E-2,-1.1283616E-2,-1.2086185E-2,-9.268734E-3,-1.0825567E-2,-6.6447183E-3,-4.2646015E-3,-1.9196862E-3,1.7561417E-4,-8.808091E-3,-6.061352E-3,8.317808E-5,2.723166E-3,-4.074556E-3,-1.1845974E-3,-6.653392E-3,-3.915541E-3,3.627364E-3,4.820577E-4,2.1979206E-3,1.1110166E-3,3.5289146E-3,2.8051557E-3,4.113267E-3,4.8988736E-3],"categories":[],"categories_nodes":[],"categories_segments":[],"categories_sizes":[],"default_left":[0,0,0,0,0,0,0,0,0,0,0,0,0,0,0,0,0,0,0,0,0,0,0,0,0,0,0,0,0,0,0,0,0,0,0,0,0,0,0,0,0,0,0,0,0,0,0,0,0,0,0,0,0,0,0,0,0],"id":20,"left_children":[1,3,5,7,9,11,13,15,17,19,21,23,25,27,29,-1,31,33,35,37,39,41,-1,43,45,-1,47,49,51,53,55,-1,-1,-1,-1,-1,-1,-1,-1,-1,-1,-1,-1,-1,-1,-1,-1,-1,-1,-1,-1,-1,-1,-1,-1,-1,-1],"loss_changes":[2.3705166E3,1.7748584E2,1.7906863E2,1.626709E1,3.4967285E1,2.865622E1,2.0994713E1,2.0756836E0,2.883789E0,6.016862E0,1.6069824E1,1.5505878E1,3.33033E0,3.2782516E0,2.0153656E0,0E0,1.4916992E0,9.127197E-1,5.539551E-1,4.7986603E-1,8.625933E-1,1.4966797E1,0E0,6.8061805E-1,1.883825E1,0E0,7.086182E-2,1.1456558E0,5.290165E-1,5.8190155E-1,1.3115692E-1,0E0,0E0,0E0,0E0,0E0,0E0,0E0,0E0,0E0,0E0,0E0,0E0,0E0,0E0,0E0,0E0,0E0,0E0,0E0,0E0,0E0,0E0,0E0,0E0,0E0,0E0],"parents":[2147483647,0,0,1,1,2,2,3,3,4,4,5,5,6,6,7,7,8,8,9,9,10,10,11,11,12,12,13,13,14,14,16,16,17,17,18,18,19,19,20,20,21,21,23,23,24,24,26,26,27,27,28,28,29,29,30,30],"right_children":[2,4,6,8,10,12,14,16,18,20,22,24,26,28,30,-1,32,34,36,38,40,42,-1,44,46,-1,48,50,52,54,56,-1,-1,-1,-1,-1,-1,-1,-1,-1,-1,-1,-1,-1,-1,-1,-1,-1,-1,-1,-1,-1,-1,-1,-1,-1,-1],"split_conditions":[4.5197746E-1,-3.43324E-1,1.3404086E0,-7.2043383E-1,-4.9837062E-1,1.5013268E0,1.8114605E0,-8.42726E-1,-5.7992333E-1,8.536984E-3,6.7900205E-1,2.0944233E-1,8.3241034E-1,1.6172408E0,2.0406215E0,-1.3047311E-2,-8.075631E-1,-6.262761E-1,-6.4199406E-1,-2.0984583E-1,2.4893497E-1,1.0008214E-1,-1.1923017E-2,3.7390802E0,9.455459E-1,-1.117848E-2,1.1628963E0,1.0415987E0,1.7737501E0,1.9112891E0,2.1561122E0,-1.16925E-2,-1.2551518E-2,-1.1283616E-2,-1.2086185E-2,-9.268734E-3,-1.0825567E-2,-6.6447183E-3,-4.2646015E-3,-1.9196862E-3,1.7561417E-4,-8.808091E-3,-6.061352E-3,8.317808E-5,2.723166E-3,-4.074556E-3,-1.1845974E-3,-6.653392E-3,-3.915541E-3,3.627364E-3,4.820577E-4,2.1979206E-3,1.1110166E-3,3.5289146E-3,2.8051557E-3,4.113267E-3,4.8988736E-3],"split_indices":[11,11,11,11,9,9,11,11,11,11,9,9,11,11,11,0,9,9,9,11,11,11,0,12,11,0,11,9,9,9,11,0,0,0,0,0,0,0,0,0,0,0,0,0,0,0,0,0,0,0,0,0,0,0,0,0,0],"split_type":[0,0,0,0,0,0,0,0,0,0,0,0,0,0,0,0,0,0,0,0,0,0,0,0,0,0,0,0,0,0,0,0,0,0,0,0,0,0,0,0,0,0,0,0,0,0,0,0,0,0,0,0,0,0,0,0,0],"sum_hessian":[8.616E3,6.089E3,2.527E3,4.946E3,1.143E3,1.044E3,1.483E3,2.896E3,2.05E3,1.33E2,1.01E3,9.79E2,6.5E1,6.73E2,8.1E2,9.76E2,1.92E3,1.444E3,6.06E2,5.3E1,8E1,8.98E2,1.12E2,6.5E1,9.14E2,3.9E1,2.6E1,3.72E2,3.01E2,5.4E2,2.7E2,5.84E2,1.336E3,8.43E2,6.01E2,7.9E1,5.27E2,2.3E1,3E1,4.7E1,3.3E1,5.78E2,3.2E2,1.2E1,5.3E1,5.05E2,4.09E2,1.9E1,7E0,1.1E1,3.61E2,2.42E2,5.9E1,3.19E2,2.21E2,2.02E2,6.8E1],"tree_param":{"num_deleted":"0","num_feature":"13","num_nodes":"57","size_leaf_vector":"1"}},{"base_weights":[-7.7738994E-1,-1.1181655E0,1.3850225E-2,-1.1989115E0,-7.9565907E-1,-3.1870002E-1,2.3754135E-1,-1.2574539E0,-1.1482182E0,-3.217224E-1,-8.5197026E-1,-2.6854655E-1,-9.821313E-1,7.9859935E-2,3.3874002E-1,-1.3186645E-2,-1.2402555E0,-1.1703032E0,-1.0836341E0,-6.3897187E-1,-1.5757643E-1,-8.1226426E-1,-1.1749383E0,1.4860272E-1,-3.0817395E-1,-1.1393947E-2,-6.3461006E-1,6.3565946E-3,1.389491E-1,2.6283056E-1,3.8734555E-1,-1.1820255E-2,-1.2673851E-2,-1.11337025E-2,-1.1951713E-2,-1.0099191E-2,-1.1159626E-2,-6.8393135E-3,-4.177166E-3,-2.352517E-3,2.3748315E-4,-9.470544E-3,-6.911568E-3,-8.008941E-3,-1.2064964E-2,-1.8300633E-3,2.1101832E-3,-4.687735E-3,-1.8431789E-3,-3.2617776E-3,-6.778268E-3,2.3090669E-4,-2.6283178E-3,1.8510793E-3,8.672895E-4,2.9499673E-3,1.9531532E-3,3.4933817E-3,4.2855185E-3],"categories":[],"categories_nodes":[],"categories_segments":[],"categories_sizes":[],"default_left":[0,0,0,0,0,0,0,0,0,0,0,0,0,0,0,0,0,0,0,0,0,0,0,0,0,0,0,0,0,0,0,0,0,0,0,0,0,0,0,0,0,0,0,0,0,0,0,0,0,0,0,0,0,0,0,0,0,0,0],"id":21,"left_children":[1,3,5,7,9,11,13,15,17,19,21,23,25,27,29,-1,31,33,35,37,39,41,43,45,47,-1,49,51,53,55,57,-1,-1,-1,-1,-1,-1,-1,-1,-1,-1,-1,-1,-1,-1,-1,-1,-1,-1,-1,-1,-1,-1,-1,-1,-1,-1,-1,-1],"loss_changes":[2.323463E3,1.558916E2,1.9311395E2,1.2845703E1,3.1991638E1,3.447367E1,2.4738441E1,7.0581055E-1,2.428711E0,6.669091E0,1.2895264E1,1.6113495E1,3.2665482E0,2.6398134E0,3.3848877E0,0E0,1.2712402E0,1.3864746E0,4.79187E-1,1.5200233E-1,1.2309341E0,1.5098206E1,4.0299988E-1,1.7979121E0,1.7577003E1,0E0,1.1214352E-1,1.2313251E0,7.96258E-1,7.502575E-1,7.492523E-1,0E0,0E0,0E0,0E0,0E0,0E0,0E0,0E0,0E0,0E0,0E0,0E0,0E0,0E0,0E0,0E0,0E0,0E0,0E0,0E0,0E0,0E0,0E0,0E0,0E0,0E0,0E0,0E0],"parents":[2147483647,0,0,1,1,2,2,3,3,4,4,5,5,6,6,7,7,8,8,9,9,10,10,11,11,12,12,13,13,14,14,16,16,17,17,18,18,19,19,20,20,21,21,22,22,23,23,24,24,26,26,27,27,28,28,29,29,30,30],"right_children":[2,4,6,8,10,12,14,16,18,20,22,24,26,28,30,-1,32,34,36,38,40,42,44,46,48,-1,50,52,54,56,58,-1,-1,-1,-1,-1,-1,-1,-1,-1,-1,-1,-1,-1,-1,-1,-1,-1,-1,-1,-1,-1,-1,-1,-1,-1,-1,-1,-1],"split_conditions":[3.8329813E-1,-4.1877076E-1,1.243862E0,-7.6148796E-1,-5.5585206E-1,1.467746E0,1.7332196E0,-8.924159E-1,-6.136639E-1,2.852491E0,5.159316E-1,2.0944233E-1,8.1868917E-1,1.4852785E0,1.9230537E0,-1.3186645E-2,-8.3962005E-1,-7.2950494E-1,-5.8223337E-1,-1.4481333E-1,4.2284546E0,-9.665227E-2,2.4642413E0,3.041832E0,8.1868917E-1,-1.1393947E-2,2.4642413E0,1.6095558E0,1.6095558E0,1.8369195E0,2.0406215E0,-1.1820255E-2,-1.2673851E-2,-1.11337025E-2,-1.1951713E-2,-1.0099191E-2,-1.1159626E-2,-6.8393135E-3,-4.177166E-3,-2.352517E-3,2.3748315E-4,-9.470544E-3,-6.911568E-3,-8.008941E-3,-1.2064964E-2,-1.8300633E-3,2.1101832E-3,-4.687735E-3,-1.8431789E-3,-3.2617776E-3,-6.778268E-3,2.3090669E-4,-2.6283178E-3,1.8510793E-3,8.672895E-4,2.9499673E-3,1.9531532E-3,3.4933817E-3,4.2855185E-3],"split_indices":[11,11,11,11,9,9,11,11,11,12,9,9,11,11,11,0,9,9,9,11,12,11,12,12,11,0,12,9,9,9,11,0,0,0,0,0,0,0,0,0,0,0,0,0,0,0,0,0,0,0,0,0,0,0,0,0,0,0,0],"split_type":[0,0,0,0,0,0,0,0,0,0,0,0,0,0,0,0,0,0,0,0,0,0,0,0,0,0,0,0,0,0,0,0,0,0,0,0,0,0,0,0,0,0,0,0,0,0,0,0,0,0,0,0,0,0,0,0,0,0,0],"sum_hessian":[8.616E3,6.022E3,2.594E3,4.814E3,1.208E3,1.043E3,1.551E3,2.223E3,2.591E3,1.29E2,1.079E3,9.71E2,7.2E1,6.07E2,9.44E2,4.71E2,1.752E3,1.918E3,6.73E2,4.3E1,8.6E1,9.64E2,1.15E2,8.4E1,8.87E2,4.8E1,2.4E1,2.71E2,3.36E2,3.71E2,5.73E2,5.71E2,1.181E3,5.97E2,1.321E3,2.15E2,4.58E2,3.4E1,9E0,6E1,2.6E1,4.53E2,5.11E2,1.1E1,1.04E2,1.3E1,7.1E1,3.85E2,5.02E2,4E0,2E1,2.56E2,1.5E1,1.77E2,1.59E2,2.49E2,1.22E2,3.03E2,2.7E2],"tree_param":{"num_deleted":"0","num_feature":"13","num_nodes":"59","size_leaf_vector":"1"}},{"base_weights":[-7.6963305E-1,-1.1007961E0,2.844961E-2,-1.1826924E0,-7.5721914E-1,-2.5813308E-1,2.6590103E-1,-1.2305198E0,-1.113515E0,-3.0254233E-1,-8.1992865E-1,-2.1605209E-1,-8.237578E-1,1.4130631E-1,3.536037E-1,-1.2790102E-2,-1.2052175E0,-1.1393718E0,-1.0467157E0,-5.6206757E-1,-1.05035E-1,-7.725099E-1,-1.1705568E0,-3.3450598E-1,-8.4322035E-2,-1.0449308E0,-4.06393E-1,8.743235E-2,2.0144105E-1,3.028034E-1,4.0353304E-1,-1.1485863E-2,-1.2317059E-2,-1.1055912E-2,-1.1848391E-2,-9.168655E-3,-1.0646191E-2,-6.8357764E-3,-4.185066E-3,-1.8940053E-3,1.607777E-4,-8.576064E-3,-6.466772E-3,-3.1176978E-3,-1.1972522E-2,1.9238541E-3,-3.9786426E-3,-1.0673413E-3,3.5205253E-3,-1.1066933E-2,-7.1973098E-3,-2.325826E-3,-5.1540136E-3,1.8824158E-3,4.549043E-4,2.2546463E-3,1.1170475E-3,3.3095165E-3,2.4186717E-3,3.8655836E-3,4.808361E-3],"categories":[],"categories_nodes":[],"categories_segments":[],"categories_sizes":[],"default_left":[0,0,0,0,0,0,0,0,0,0,0,0,0,0,0,0,0,0,0,0,0,0,0,0,0,0,0,0,0,0,0,0,0,0,0,0,0,0,0,0,0,0,0,0,0,0,0,0,0,0,0,0,0,0,0,0,0,0,0,0,0],"id":22,"left_children":[1,3,5,7,9,11,13,15,17,19,21,23,25,27,29,-1,31,33,35,37,39,41,43,45,47,49,51,53,55,57,59,-1,-1,-1,-1,-1,-1,-1,-1,-1,-1,-1,-1,-1,-1,-1,-1,-1,-1,-1,-1,-1,-1,-1,-1,-1,-1,-1,-1,-1,-1],"loss_changes":[2.2774653E3,1.7046338E2,1.7209769E2,1.489502E1,3.325421E1,2.7099167E1,1.5062477E1,2.0126953E0,2.2963867E0,7.322137E0,1.625409E1,1.6636795E1,6.8678246E0,1.8387337E0,1.934845E0,0E0,1.467041E0,9.094238E-1,3.6297607E-1,7.954521E-1,8.511181E-1,9.21106E0,2.4007568E0,1.8837765E1,4.996072E0,2.2782135E-1,4.2958403E-1,1.276789E0,5.5687714E-1,6.1634064E-1,3.4688568E-1,0E0,0E0,0E0,0E0,0E0,0E0,0E0,0E0,0E0,0E0,0E0,0E0,0E0,0E0,0E0,0E0,0E0,0E0,0E0,0E0,0E0,0E0,0E0,0E0,0E0,0E0,0E0,0E0,0E0,0E0],"parents":[2147483647,0,0,1,1,2,2,3,3,4,4,5,5,6,6,7,7,8,8,9,9,10,10,11,11,12,12,13,13,14,14,16,16,17,17,18,18,19,19,20,20,21,21,22,22,23,23,24,24,25,25,26,26,27,27,28,28,29,29,30,30],"right_children":[2,4,6,8,10,12,14,16,18,20,22,24,26,28,30,-1,32,34,36,38,40,42,44,46,48,50,52,54,56,58,60,-1,-1,-1,-1,-1,-1,-1,-1,-1,-1,-1,-1,-1,-1,-1,-1,-1,-1,-1,-1,-1,-1,-1,-1,-1,-1,-1,-1,-1,-1],"split_conditions":[4.5197746E-1,-3.6010462E-1,1.4022965E0,-7.2043383E-1,-4.799015E-1,1.467746E0,1.8114605E0,-8.42726E-1,-5.7992333E-1,8.536984E-3,8.901046E-1,9.455459E-1,9.945875E-1,1.6361071E0,1.9882528E0,-1.2790102E-2,-8.0194604E-1,-6.262761E-1,-6.4199406E-1,-2.0984583E-1,2.4893497E-1,8.482125E-2,-1.659391E-1,2.3203385E-1,1.4793805E0,8.1868917E-1,2.086732E0,1.3674897E0,1.7737501E0,1.9112891E0,2.1561122E0,-1.1485863E-2,-1.2317059E-2,-1.1055912E-2,-1.1848391E-2,-9.168655E-3,-1.0646191E-2,-6.8357764E-3,-4.185066E-3,-1.8940053E-3,1.607777E-4,-8.576064E-3,-6.466772E-3,-3.1176978E-3,-1.1972522E-2,1.9238541E-3,-3.9786426E-3,-1.0673413E-3,3.5205253E-3,-1.1066933E-2,-7.1973098E-3,-2.325826E-3,-5.1540136E-3,1.8824158E-3,4.549043E-4,2.2546463E-3,1.1170475E-3,3.3095165E-3,2.4186717E-3,3.8655836E-3,4.808361E-3],"split_indices":[11,11,11,11,9,9,11,11,11,11,3,11,11,11,11,0,9,9,9,11,11,11,9,9,12,11,12,9,9,9,11,0,0,0,0,0,0,0,0,0,0,0,0,0,0,0,0,0,0,0,0,0,0,0,0,0,0,0,0,0,0],"split_type":[0,0,0,0,0,0,0,0,0,0,0,0,0,0,0,0,0,0,0,0,0,0,0,0,0,0,0,0,0,0,0,0,0,0,0,0,0,0,0,0,0,0,0,0,0,0,0,0,0,0,0,0,0,0,0,0,0,0,0,0,0],"sum_hessian":[8.616E3,6.089E3,2.527E3,4.915E3,1.174E3,1.145E3,1.382E3,2.896E3,2.019E3,1.43E2,1.031E3,1.067E3,7.8E1,5.72E2,8.1E2,9.76E2,1.92E3,1.444E3,5.75E2,6.1E1,8.2E1,9.11E2,1.2E2,5.61E2,5.06E2,5E1,2.8E1,3.03E2,2.69E2,4.05E2,4.05E2,6.26E2,1.294E3,8.43E2,6.01E2,7.6E1,4.99E2,3.1E1,3E1,4.8E1,3.4E1,5.4E2,3.71E2,4E0,1.16E2,6E1,5.01E2,4.82E2,2.4E1,4E1,1E1,1.2E1,1.6E1,8.8E1,2.15E2,2.11E2,5.8E1,2.74E2,1.31E2,3.37E2,6.8E1],"tree_param":{"num_deleted":"0","num_feature":"13","num_nodes":"61","size_leaf_vector":"1"}},{"base_weights":[-7.619515E-1,-1.0898082E0,2.816304E-2,-1.1695573E0,-7.439968E-1,-2.7966452E-1,2.4490942E-1,-1.2129908E0,-1.0917345E0,-2.736958E-1,-8.055956E-1,-2.3760206E-1,-8.9999104E-1,9.9135794E-2,3.3648917E-1,-1.2536807E0,-1.1808078E0,-1.1117678E0,-1.00286E0,-5.245317E-1,-1.03092864E-1,-7.6029974E-1,-1.1588286E-2,2.183972E-1,-2.7023414E-1,-1.0852618E-2,-5.921828E-1,2.7261991E-2,1.4923921E-1,2.7653256E-1,3.9118224E-1,-1.2325698E-2,-1.3121789E-2,-1.1456985E-2,-1.2268652E-2,-1.05196815E-2,-1.1321169E-2,-9.554905E-3,-1.1123174E-2,-6.1248154E-3,-3.793611E-3,-1.8611862E-3,1.7152136E-4,-8.549249E-3,-5.872522E-3,6.0327944E-5,2.6547755E-3,-3.9559687E-3,-1.1485902E-3,-4.4175307E-3,-6.8307645E-3,2.1322812E-3,2.3366863E-5,1.9782288E-3,1.0497873E-3,3.0406448E-3,2.2531895E-3,3.757873E-3,4.760974E-3],"categories":[],"categories_nodes":[],"categories_segments":[],"categories_sizes":[],"default_left":[0,0,0,0,0,0,0,0,0,0,0,0,0,0,0,0,0,0,0,0,0,0,0,0,0,0,0,0,0,0,0,0,0,0,0,0,0,0,0,0,0,0,0,0,0,0,0,0,0,0,0,0,0,0,0,0,0,0,0],"id":23,"left_children":[1,3,5,7,9,11,13,15,17,19,21,23,25,27,29,31,33,35,37,39,41,43,-1,45,47,-1,49,51,53,55,57,-1,-1,-1,-1,-1,-1,-1,-1,-1,-1,-1,-1,-1,-1,-1,-1,-1,-1,-1,-1,-1,-1,-1,-1,-1,-1,-1,-1],"loss_changes":[2.2322163E3,1.6708057E2,1.6873795E2,1.5397461E1,3.2921143E1,2.705278E1,1.9777916E1,2.6655273E0,2.0578613E0,5.680234E0,1.5294861E1,1.4641613E1,3.1211624E0,2.062976E0,2.8791885E0,8.959961E-2,1.480957E0,5.675049E-1,6.8969727E-1,4.5710564E-1,8.1185037E-1,1.421875E1,0E0,6.582792E-1,1.7777176E1,0E0,6.742382E-2,1.0980589E0,7.0604706E-1,5.4907227E-1,4.4072723E-1,0E0,0E0,0E0,0E0,0E0,0E0,0E0,0E0,0E0,0E0,0E0,0E0,0E0,0E0,0E0,0E0,0E0,0E0,0E0,0E0,0E0,0E0,0E0,0E0,0E0,0E0,0E0,0E0],"parents":[2147483647,0,0,1,1,2,2,3,3,4,4,5,5,6,6,7,7,8,8,9,9,10,10,11,11,12,12,13,13,14,14,15,15,16,16,17,17,18,18,19,19,20,20,21,21,23,23,24,24,26,26,27,27,28,28,29,29,30,30],"right_children":[2,4,6,8,10,12,14,16,18,20,22,24,26,28,30,32,34,36,38,40,42,44,-1,46,48,-1,50,52,54,56,58,-1,-1,-1,-1,-1,-1,-1,-1,-1,-1,-1,-1,-1,-1,-1,-1,-1,-1,-1,-1,-1,-1,-1,-1,-1,-1,-1,-1],"split_conditions":[4.5197746E-1,-3.43324E-1,1.3404086E0,-7.0233333E-1,-4.9837062E-1,1.5013268E0,1.7562978E0,-8.124417E-1,-5.1081777E-1,8.536984E-3,6.7900205E-1,2.0944233E-1,8.3241034E-1,1.5137067E0,1.9631985E0,-7.83684E-1,-7.204971E-1,-6.856003E-1,-3.3952734E-1,2.4642413E0,2.4893497E-1,1.0008214E-1,-1.1588286E-2,3.7390802E0,9.455459E-1,-1.0852618E-2,3.041832E0,1.2502279E0,1.6095558E0,1.8690429E0,2.1561122E0,-1.2325698E-2,-1.3121789E-2,-1.1456985E-2,-1.2268652E-2,-1.05196815E-2,-1.1321169E-2,-9.554905E-3,-1.1123174E-2,-6.1248154E-3,-3.793611E-3,-1.8611862E-3,1.7152136E-4,-8.549249E-3,-5.872522E-3,6.0327944E-5,2.6547755E-3,-3.9559687E-3,-1.1485902E-3,-4.4175307E-3,-6.8307645E-3,2.1322812E-3,2.3366863E-5,1.9782288E-3,1.0497873E-3,3.0406448E-3,2.2531895E-3,3.757873E-3,4.760974E-3],"split_indices":[11,11,11,11,9,9,11,11,11,11,9,9,11,11,11,9,9,9,9,12,11,11,0,12,11,0,12,9,9,9,11,0,0,0,0,0,0,0,0,0,0,0,0,0,0,0,0,0,0,0,0,0,0,0,0,0,0,0,0],"split_type":[0,0,0,0,0,0,0,0,0,0,0,0,0,0,0,0,0,0,0,0,0,0,0,0,0,0,0,0,0,0,0,0,0,0,0,0,0,0,0,0,0,0,0,0,0,0,0,0,0,0,0,0,0,0,0,0,0,0,0],"sum_hessian":[8.616E3,6.089E3,2.527E3,4.946E3,1.143E3,1.044E3,1.483E3,3.165E3,1.781E3,1.33E2,1.01E3,9.79E2,6.5E1,5.73E2,9.1E2,1.381E3,1.784E3,1.444E3,3.37E2,5.3E1,8E1,8.98E2,1.12E2,6.5E1,9.14E2,3.9E1,2.6E1,2.36E2,3.37E2,4.37E2,4.73E2,1.031E3,3.5E2,1.027E3,7.57E2,3.8E2,1.064E3,2.42E2,9.5E1,3.1E1,2.2E1,4.7E1,3.3E1,5.78E2,3.2E2,1.2E1,5.3E1,5.05E2,4.09E2,1.2E1,1.4E1,2.7E1,2.09E2,1.59E2,1.78E2,2.81E2,1.56E2,4.05E2,6.8E1],"tree_param":{"num_deleted":"0","num_feature":"13","num_nodes":"59","size_leaf_vector":"1"}},{"base_weights":[-7.543476E-1,-1.0850391E0,1.3478781E-2,-1.1633798E0,-7.721398E-1,-3.0939656E-1,2.3066202E-1,-1.220349E0,-1.1140501E0,-3.1207886E-1,-8.2680255E-1,-2.6063284E-1,-9.544505E-1,7.0647486E-2,3.2450423E-1,-1.28034875E-2,-1.2034976E0,-1.1408195E0,-1.0633173E0,-6.199717E-1,-1.5277585E-1,-7.8805757E-1,-1.1419929E0,1.4545074E-1,-2.9920995E-1,-1.1069992E-2,-6.17277E-1,6.691701E-3,1.276387E-1,2.5052246E-1,3.7613857E-1,-1.1461632E-2,-1.230225E-2,-1.07038375E-2,-1.1631012E-2,-9.801229E-3,-1.0870282E-2,-6.898046E-3,-4.684839E-3,-2.2863117E-3,2.4259365E-4,-9.195845E-3,-6.6989106E-3,-7.7938363E-3,-1.1725579E-2,-1.752038E-3,2.0578008E-3,-4.6501183E-3,-1.852825E-3,-3.1704237E-3,-6.593673E-3,2.4834378E-3,-1.1410981E-4,1.7715411E-3,6.177653E-4,2.7725706E-3,1.8770244E-3,3.3918994E-3,4.161985E-3],"categories":[],"categories_nodes":[],"categories_segments":[],"categories_sizes":[],"default_left":[0,0,0,0,0,0,0,0,0,0,0,0,0,0,0,0,0,0,0,0,0,0,0,0,0,0,0,0,0,0,0,0,0,0,0,0,0,0,0,0,0,0,0,0,0,0,0,0,0,0,0,0,0,0,0,0,0,0,0],"id":24,"left_children":[1,3,5,7,9,11,13,15,17,19,21,23,25,27,29,-1,31,33,35,37,39,41,43,45,47,-1,49,51,53,55,57,-1,-1,-1,-1,-1,-1,-1,-1,-1,-1,-1,-1,-1,-1,-1,-1,-1,-1,-1,-1,-1,-1,-1,-1,-1,-1,-1,-1],"loss_changes":[2.1879888E3,1.4674219E2,1.8204083E2,1.2171875E1,3.014624E1,3.2590508E1,2.3282097E1,7.077637E-1,2.307129E0,6.281558E0,1.2289001E1,1.5270416E1,3.071457E0,2.0949736E0,3.641716E0,0E0,1.276123E0,1.3964844E0,7.2961426E-1,1.4230728E-1,1.1738749E0,1.438208E1,3.717804E-1,1.6803681E0,1.6687614E1,0E0,1.0687733E-1,1.1927117E0,9.8045826E-1,6.281414E-1,7.084427E-1,0E0,0E0,0E0,0E0,0E0,0E0,0E0,0E0,0E0,0E0,0E0,0E0,0E0,0E0,0E0,0E0,0E0,0E0,0E0,0E0,0E0,0E0,0E0,0E0,0E0,0E0,0E0,0E0],"parents":[2147483647,0,0,1,1,2,2,3,3,4,4,5,5,6,6,7,7,8,8,9,9,10,10,11,11,12,12,13,13,14,14,16,16,17,17,18,18,19,19,20,20,21,21,22,22,23,23,24,24,26,26,27,27,28,28,29,29,30,30],"right_children":[2,4,6,8,10,12,14,16,18,20,22,24,26,28,30,-1,32,34,36,38,40,42,44,46,48,-1,50,52,54,56,58,-1,-1,-1,-1,-1,-1,-1,-1,-1,-1,-1,-1,-1,-1,-1,-1,-1,-1,-1,-1,-1,-1,-1,-1,-1,-1,-1,-1],"split_conditions":[3.8329813E-1,-4.1877076E-1,1.243862E0,-7.6148796E-1,-5.5585206E-1,1.467746E0,1.7161137E0,-8.924159E-1,-6.4353055E-1,2.852491E0,5.159316E-1,2.0944233E-1,8.1868917E-1,1.4852785E0,1.9230537E0,-1.28034875E-2,-8.3962005E-1,-7.553979E-1,-6.3691276E-1,2.086732E0,4.2284546E0,-9.665227E-2,2.4642413E0,3.041832E0,7.5060195E-1,-1.1069992E-2,2.4642413E0,1.0415987E0,1.6095558E0,1.8369195E0,2.0406215E0,-1.1461632E-2,-1.230225E-2,-1.07038375E-2,-1.1631012E-2,-9.801229E-3,-1.0870282E-2,-6.898046E-3,-4.684839E-3,-2.2863117E-3,2.4259365E-4,-9.195845E-3,-6.6989106E-3,-7.7938363E-3,-1.1725579E-2,-1.752038E-3,2.0578008E-3,-4.6501183E-3,-1.852825E-3,-3.1704237E-3,-6.593673E-3,2.4834378E-3,-1.1410981E-4,1.7715411E-3,6.177653E-4,2.7725706E-3,1.8770244E-3,3.3918994E-3,4.161985E-3],"split_indices":[11,11,11,11,9,9,11,11,11,12,9,9,11,11,11,0,9,9,9,12,12,11,12,12,11,0,12,9,9,9,11,0,0,0,0,0,0,0,0,0,0,0,0,0,0,0,0,0,0,0,0,0,0,0,0,0,0,0,0],"split_type":[0,0,0,0,0,0,0,0,0,0,0,0,0,0,0,0,0,0,0,0,0,0,0,0,0,0,0,0,0,0,0,0,0,0,0,0,0,0,0,0,0,0,0,0,0,0,0,0,0,0,0,0,0,0,0,0,0,0,0],"sum_hessian":[8.616E3,6.022E3,2.594E3,4.814E3,1.208E3,1.043E3,1.551E3,2.223E3,2.591E3,1.29E2,1.079E3,9.71E2,7.2E1,5.74E2,9.77E2,4.71E2,1.752E3,1.682E3,9.09E2,4.3E1,8.6E1,9.64E2,1.15E2,8.4E1,8.87E2,4.8E1,2.4E1,2.71E2,3.03E2,4.04E2,5.73E2,5.71E2,1.181E3,4.16E2,1.266E3,2.11E2,6.98E2,2.7E1,1.6E1,6E1,2.6E1,4.53E2,5.11E2,1.1E1,1.04E2,1.3E1,7.1E1,3.6E2,5.27E2,4E0,2E1,1.8E1,2.53E2,1.72E2,1.31E2,2.81E2,1.23E2,3.03E2,2.7E2],"tree_param":{"num_deleted":"0","num_feature":"13","num_nodes":"59","size_leaf_vector":"1"}},{"base_weights":[-7.468203E-1,-1.0590357E0,5.0370358E-2,-1.1463331E0,-7.115879E-1,-2.2484128E-1,2.580859E-1,-1.1895803E0,-1.0711149E0,-2.4985072E-1,-7.693401E-1,-1.8399574E-1,-7.9934E-1,1.3699315E-1,3.4332395E-1,-1.2289318E0,-1.1578422E0,-1.0976942E0,-1.0057654E0,-5.1447904E-1,-8.272682E-2,-7.2343946E-1,-1.1408441E0,-2.6556665E-1,-3.6029924E-2,-4.575496E-1,-1.0081684E-2,7.835404E-2,1.8935359E-1,3.0826184E-1,4.1205186E-1,-1.2065108E-2,-1.2824783E-2,-1.1231577E-2,-1.2042588E-2,-1.0626287E-2,-1.14074135E-2,-8.836222E-3,-1.0293594E-2,-6.330388E-3,-4.060947E-3,-1.6600859E-3,6.5601483E-4,-8.381801E-3,-5.596387E-3,-7.640049E-3,-1.1609397E-2,2.085257E-3,-3.1317468E-3,-5.9265684E-4,3.286062E-3,-2.37519E-3,-5.3368583E-3,1.6729998E-3,2.1428146E-4,2.0983468E-3,1.0324918E-3,3.3695032E-3,2.6552049E-3,4.5937467E-3,3.8717978E-3],"categories":[],"categories_nodes":[],"categories_segments":[],"categories_sizes":[],"default_left":[0,0,0,0,0,0,0,0,0,0,0,0,0,0,0,0,0,0,0,0,0,0,0,0,0,0,0,0,0,0,0,0,0,0,0,0,0,0,0,0,0,0,0,0,0,0,0,0,0,0,0,0,0,0,0,0,0,0,0,0,0],"id":25,"left_children":[1,3,5,7,9,11,13,15,17,19,21,23,25,27,29,31,33,35,37,39,41,43,45,47,49,51,-1,53,55,57,59,-1,-1,-1,-1,-1,-1,-1,-1,-1,-1,-1,-1,-1,-1,-1,-1,-1,-1,-1,-1,-1,-1,-1,-1,-1,-1,-1,-1,-1,-1],"loss_changes":[2.1447832E3,1.869956E2,1.387421E2,1.4818359E1,3.3033997E1,2.4351135E1,1.422789E1,2.4887695E0,2.050293E0,6.1490393E0,1.8051575E1,1.1770466E1,4.463627E0,1.7444849E0,1.8272858E0,1.11816406E-1,1.4663086E0,7.1984863E-1,6.380005E-1,4.368267E-1,1.0856051E0,1.8099976E1,2.1759033E-2,1.4262211E1,2.9679391E0,3.4230423E-1,0E0,1.3736403E0,5.1091576E-1,5.738983E-1,1.4110947E-1,0E0,0E0,0E0,0E0,0E0,0E0,0E0,0E0,0E0,0E0,0E0,0E0,0E0,0E0,0E0,0E0,0E0,0E0,0E0,0E0,0E0,0E0,0E0,0E0,0E0,0E0,0E0,0E0,0E0,0E0],"parents":[2147483647,0,0,1,1,2,2,3,3,4,4,5,5,6,6,7,7,8,8,9,9,10,10,11,11,12,12,13,13,14,14,15,15,16,16,17,17,18,18,19,19,20,20,21,21,22,22,23,23,24,24,25,25,27,27,28,28,29,29,30,30],"right_children":[2,4,6,8,10,12,14,16,18,20,22,24,26,28,30,32,34,36,38,40,42,44,46,48,50,52,-1,54,56,58,60,-1,-1,-1,-1,-1,-1,-1,-1,-1,-1,-1,-1,-1,-1,-1,-1,-1,-1,-1,-1,-1,-1,-1,-1,-1,-1,-1,-1,-1,-1],"split_conditions":[4.810907E-1,-3.43324E-1,1.4022965E0,-7.044133E-1,-4.9837062E-1,1.5013268E0,1.8114605E0,-8.124417E-1,-5.6701297E-1,8.536984E-3,6.7900205E-1,1.0628488E0,3.9691043E0,1.6172408E0,2.0406215E0,-7.911201E-1,-7.204971E-1,-6.193874E-1,-5.865552E-1,-2.0984583E-1,2.756325E-1,