{"learner":{"attributes":{"best_iteration":"365","best_score":"0.06539527151748364","scikit_learn":"{\"_estimator_type\": \"regressor\"}"},"feature_names":["hour","dayofweek","quarter","month","year","dayofyear","dayofmonth","weekofyear","lag(1)","rolling_mean(2)","rolling_std(2)","rolling_mean(3)","rolling_std(3)","rolling_mean(4)","rolling_std(4)","rolling_mean(5)","rolling_std(5)","rolling_mean(6)","rolling_std(6)"],"feature_types":["float","float","float","float","float","float","float","float","float","float","float","float","float","float","float","float","float","float","float"],"gradient_booster":{"model":{"gbtree_model_param":{"num_parallel_tree":"1","num_trees":"416"},"iteration_indptr":[0,1,2,3,4,5,6,7,8,9,10,11,12,13,14,15,16,17,18,19,20,21,22,23,24,25,26,27,28,29,30,31,32,33,34,35,36,37,38,39,40,41,42,43,44,45,46,47,48,49,50,51,52,53,54,55,56,57,58,59,60,61,62,63,64,65,66,67,68,69,70,71,72,73,74,75,76,77,78,79,80,81,82,83,84,85,86,87,88,89,90,91,92,93,94,95,96,97,98,99,100,101,102,103,104,105,106,107,108,109,110,111,112,113,114,115,116,117,118,119,120,121,122,123,124,125,126,127,128,129,130,131,132,133,134,135,136,137,138,139,140,141,142,143,144,145,146,147,148,149,150,151,152,153,154,155,156,157,158,159,160,161,162,163,164,165,166,167,168,169,170,171,172,173,174,175,176,177,178,179,180,181,182,183,184,185,186,187,188,189,190,191,192,193,194,195,196,197,198,199,200,201,202,203,204,205,206,207,208,209,210,211,212,213,214,215,216,217,218,219,220,221,222,223,224,225,226,227,228,229,230,231,232,233,234,235,236,237,238,239,240,241,242,243,244,245,246,247,248,249,250,251,252,253,254,255,256,257,258,259,260,261,262,263,264,265,266,267,268,269,270,271,272,273,274,275,276,277,278,279,280,281,282,283,284,285,286,287,288,289,290,291,292,293,294,295,296,297,298,299,300,301,302,303,304,305,306,307,308,309,310,311,312,313,314,315,316,317,318,319,320,321,322,323,324,325,326,327,328,329,330,331,332,333,334,335,336,337,338,339,340,341,342,343,344,345,346,347,348,349,350,351,352,353,354,355,356,357,358,359,360,361,362,363,364,365,366,367,368,369,370,371,372,373,374,375,376,377,378,379,380,381,382,383,384,385,386,387,388,389,390,391,392,393,394,395,396,397,398,399,400,401,402,403,404,405,406,407,408,409,410,411,412,413,414,415,416],"tree_info":[0,0,0,0,0,0,0,0,0,0,0,0,0,0,0,0,0,0,0,0,0,0,0,0,0,0,0,0,0,0,0,0,0,0,0,0,0,0,0,0,0,0,0,0,0,0,0,0,0,0,0,0,0,0,0,0,0,0,0,0,0,0,0,0,0,0,0,0,0,0,0,0,0,0,0,0,0,0,0,0,0,0,0,0,0,0,0,0,0,0,0,0,0,0,0,0,0,0,0,0,0,0,0,0,0,0,0,0,0,0,0,0,0,0,0,0,0,0,0,0,0,0,0,0,0,0,0,0,0,0,0,0,0,0,0,0,0,0,0,0,0,0,0,0,0,0,0,0,0,0,0,0,0,0,0,0,0,0,0,0,0,0,0,0,0,0,0,0,0,0,0,0,0,0,0,0,0,0,0,0,0,0,0,0,0,0,0,0,0,0,0,0,0,0,0,0,0,0,0,0,0,0,0,0,0,0,0,0,0,0,0,0,0,0,0,0,0,0,0,0,0,0,0,0,0,0,0,0,0,0,0,0,0,0,0,0,0,0,0,0,0,0,0,0,0,0,0,0,0,0,0,0,0,0,0,0,0,0,0,0,0,0,0,0,0,0,0,0,0,0,0,0,0,0,0,0,0,0,0,0,0,0,0,0,0,0,0,0,0,0,0,0,0,0,0,0,0,0,0,0,0,0,0,0,0,0,0,0,0,0,0,0,0,0,0,0,0,0,0,0,0,0,0,0,0,0,0,0,0,0,0,0,0,0,0,0,0,0,0,0,0,0,0,0,0,0,0,0,0,0,0,0,0,0,0,0,0,0,0,0,0,0,0,0,0,0,0,0,0,0,0,0,0,0,0,0,0,0,0,0,0,0,0,0,0,0,0,0,0,0,0,0,0,0,0,0,0,0,0,0,0,0,0,0,0,0,0,0,0,0,0,0,0,0,0,0],"trees":[{"base_weights":[-6.17562E-1,-9.364727E-1,4.5653477E-1,-1.1778024E-2,-7.0579934E-1,4.886338E-3,1.4980683E-1,-3.0511796E-2,-7.5014043E-3,2.8115718E-4,1.8099862E-3,1.574318E-1,-2.971713E-3,2.1444848E-3,2.169922E-4],"categories":[],"categories_nodes":[],"categories_segments":[],"categories_sizes":[],"default_left":[0,0,0,0,0,0,0,0,0,0,0,0,0,0,0],"id":0,"left_children":[1,3,5,-1,7,-1,9,11,-1,-1,-1,13,-1,-1,-1],"loss_changes":[3.9819736E1,4.1231995E0,1.9263268E-1,0E0,1.4143753E0,0E0,1.0094151E-2,2.47252E-1,0E0,0E0,0E0,1.8563695E-2,0E0,0E0,0E0],"parents":[2147483647,0,0,1,1,2,2,4,4,6,6,7,7,11,11],"right_children":[2,4,6,-1,8,-1,10,12,-1,-1,-1,14,-1,-1,-1],"split_conditions":[8.215398E-1,-5.5261165E-1,1.7628088E0,-1.1778024E-2,-8.849138E-1,4.886338E-3,5.140319E-1,1.0156275E0,-7.5014043E-3,2.8115718E-4,1.8099862E-3,-4.8915935E-1,-2.971713E-3,2.1444848E-3,2.169922E-4],"split_indices":[9,9,8,0,8,0,1,1,0,0,0,1,0,0,0],"split_type":[0,0,0,0,0,0,0,0,0,0,0,0,0,0,0],"sum_hessian":[1.14E2,8.8E1,2.6E1,4.1E1,4.7E1,2.3E1,3E0,3E0,4.4E1,1E0,2E0,2E0,1E0,1E0,1E0],"tree_param":{"num_deleted":"0","num_feature":"19","num_nodes":"15","size_leaf_vector":"1"}},{"base_weights":[-6.1149865E-1,-9.2733145E-1,4.5222786E-1,-1.14009185E-2,-6.732135E-1,4.8395107E-3,1.4883153E-1,-3.0359238E-2,-7.2066854E-3,2.797514E-4,1.7979194E-3,1.5664464E-1,-2.9568544E-3,2.1337625E-3,2.1590709E-4],"categories":[],"categories_nodes":[],"categories_segments":[],"categories_sizes":[],"default_left":[0,0,0,0,0,0,0,0,0,0,0,0,0,0,0],"id":1,"left_children":[1,3,5,-1,7,-1,9,11,-1,-1,-1,13,-1,-1,-1],"loss_changes":[3.905474E1,4.044365E0,1.8784046E-1,0E0,1.2899094E0,0E0,9.937361E-3,2.4478567E-1,0E0,0E0,0E0,1.837854E-2,0E0,0E0,0E0],"parents":[2147483647,0,0,1,1,2,2,4,4,6,6,7,7,11,11],"right_children":[2,4,6,-1,8,-1,10,12,-1,-1,-1,14,-1,-1,-1],"split_conditions":[8.215398E-1,-5.2251726E-1,1.7628088E0,-1.14009185E-2,-8.849138E-1,4.8395107E-3,5.140319E-1,1.0156275E0,-7.2066854E-3,2.797514E-4,1.7979194E-3,-4.8915935E-1,-2.9568544E-3,2.1337625E-3,2.1590709E-4],"split_indices":[9,9,8,0,8,0,1,1,0,0,0,1,0,0,0],"split_type":[0,0,0,0,0,0,0,0,0,0,0,0,0,0,0],"sum_hessian":[1.14E2,8.8E1,2.6E1,4.6E1,4.2E1,2.3E1,3E0,3E0,3.9E1,1E0,2E0,2E0,1E0,1E0,1E0],"tree_param":{"num_deleted":"0","num_feature":"19","num_nodes":"15","size_leaf_vector":"1"}},{"base_weights":[-6.054906E-1,-9.1827404E-1,4.4796175E-1,-1.1551755E-2,-6.9185466E-1,4.7931317E-3,1.4786264E-1,-3.020744E-2,-7.352932E-3,2.783528E-4,1.7859334E-3,1.5586142E-1,-2.94207E-3,2.1230935E-3,2.1482765E-4],"categories":[],"categories_nodes":[],"categories_segments":[],"categories_sizes":[],"default_left":[0,0,0,0,0,0,0,0,0,0,0,0,0,0,0],"id":2,"left_children":[1,3,5,-1,7,-1,9,11,-1,-1,-1,13,-1,-1,-1],"loss_changes":[3.8304127E1,3.9746628E0,1.831584E-1,0E0,1.3573551E0,0E0,9.782903E-3,2.423439E-1,0E0,0E0,0E0,1.8195197E-2,0E0,0E0,0E0],"parents":[2147483647,0,0,1,1,2,2,4,4,6,6,7,7,11,11],"right_children":[2,4,6,-1,8,-1,10,12,-1,-1,-1,14,-1,-1,-1],"split_conditions":[8.215398E-1,-5.5261165E-1,1.7628088E0,-1.1551755E-2,-8.849138E-1,4.7931317E-3,5.140319E-1,1.0156275E0,-7.352932E-3,2.783528E-4,1.7859334E-3,-4.8915935E-1,-2.94207E-3,2.1230935E-3,2.1482765E-4],"split_indices":[9,9,8,0,8,0,1,1,0,0,0,1,0,0,0],"split_type":[0,0,0,0,0,0,0,0,0,0,0,0,0,0,0],"sum_hessian":[1.14E2,8.8E1,2.6E1,4.1E1,4.7E1,2.3E1,3E0,3E0,4.4E1,1E0,2E0,2E0,1E0,1E0,1E0],"tree_param":{"num_deleted":"0","num_feature":"19","num_nodes":"15","size_leaf_vector":"1"}},{"base_weights":[-5.995457E-1,-9.093105E-1,4.4373614E-1,-1.1385097E-2,-6.8027055E-1,4.747198E-3,1.4690009E-1,-3.0056417E-2,-7.239202E-3,2.7696101E-4,1.7740271E-3,1.550821E-1,-2.92736E-3,2.112478E-3,2.1375358E-4],"categories":[],"categories_nodes":[],"categories_segments":[],"categories_sizes":[],"default_left":[0,0,0,0,0,0,0,0,0,0,0,0,0,0,0],"id":3,"left_children":[1,3,5,-1,7,-1,9,11,-1,-1,-1,13,-1,-1,-1],"loss_changes":[3.7568268E1,3.8976364E0,1.785841E-1,0E0,1.3121796E0,0E0,9.6307695E-3,2.3992656E-1,0E0,0E0,0E0,1.80137E-2,0E0,0E0,0E0],"parents":[2147483647,0,0,1,1,2,2,4,4,6,6,7,7,11,11],"right_children":[2,4,6,-1,8,-1,10,12,-1,-1,-1,14,-1,-1,-1],"split_conditions":[8.215398E-1,-5.4707426E-1,1.7628088E0,-1.1385097E-2,-8.849138E-1,4.747198E-3,5.140319E-1,1.0156275E0,-7.239202E-3,2.7696101E-4,1.7740271E-3,-4.8915935E-1,-2.92736E-3,2.112478E-3,2.1375358E-4],"split_indices":[9,9,8,0,8,0,1,1,0,0,0,1,0,0,0],"split_type":[0,0,0,0,0,0,0,0,0,0,0,0,0,0,0],"sum_hessian":[1.14E2,8.8E1,2.6E1,4.2E1,4.6E1,2.3E1,3E0,3E0,4.3E1,1E0,2E0,2E0,1E0,1E0,1E0],"tree_param":{"num_deleted":"0","num_feature":"19","num_nodes":"15","size_leaf_vector":"1"}},{"base_weights":[-5.936583E-1,-9.004334E-1,4.3955055E-1,-1.1072842E-2,-6.5340036E-1,4.701704E-3,1.4594384E-1,-2.9906109E-2,-6.994148E-3,2.755761E-4,1.7622004E-3,1.5430671E-1,-2.9127228E-3,2.1019157E-3,2.1268487E-4],"categories":[],"categories_nodes":[],"categories_segments":[],"categories_sizes":[],"default_left":[0,0,0,0,0,0,0,0,0,0,0,0,0,0,0],"id":4,"left_children":[1,3,5,-1,7,-1,9,11,-1,-1,-1,13,-1,-1,-1],"loss_changes":[3.6846504E1,3.8243103E0,1.7411661E-1,0E0,1.2127438E0,0E0,9.480946E-3,2.3753327E-1,0E0,0E0,0E0,1.7834008E-2,0E0,0E0,0E0],"parents":[2147483647,0,0,1,1,2,2,4,4,6,6,7,7,11,11],"right_children":[2,4,6,-1,8,-1,10,12,-1,-1,-1,14,-1,-1,-1],"split_conditions":[8.215398E-1,-5.2251726E-1,1.7628088E0,-1.1072842E-2,-8.849138E-1,4.701704E-3,5.140319E-1,1.0156275E0,-6.994148E-3,2.755761E-4,1.7622004E-3,-4.8915935E-1,-2.9127228E-3,2.1019157E-3,2.1268487E-4],"split_indices":[9,9,8,0,8,0,1,1,0,0,0,1,0,0,0],"split_type":[0,0,0,0,0,0,0,0,0,0,0,0,0,0,0],"sum_hessian":[1.14E2,8.8E1,2.6E1,4.6E1,4.2E1,2.3E1,3E0,3E0,3.9E1,1E0,2E0,2E0,1E0,1E0,1E0],"tree_param":{"num_deleted":"0","num_feature":"19","num_nodes":"15","size_leaf_vector":"1"}},{"base_weights":[-5.878255E-1,-8.916388E-1,4.354047E-1,-1.1219754E-2,-6.7151845E-1,4.656646E-3,1.4499384E-1,-2.9756576E-2,-7.136413E-3,2.7419833E-4,1.7504523E-3,1.5353519E-1,-2.8981592E-3,2.0914061E-3,2.1162152E-4],"categories":[],"categories_nodes":[],"categories_segments":[],"categories_sizes":[],"default_left":[0,0,0,0,0,0,0,0,0,0,0,0,0,0,0],"id":5,"left_children":[1,3,5,-1,7,-1,9,11,-1,-1,-1,13,-1,-1,-1],"loss_changes":[3.6138382E1,3.7590332E0,1.697526E-1,0E0,1.2763424E0,0E0,9.333335E-3,2.3516391E-1,0E0,0E0,0E0,1.7656118E-2,0E0,0E0,0E0],"parents":[2147483647,0,0,1,1,2,2,4,4,6,6,7,7,11,11],"right_children":[2,4,6,-1,8,-1,10,12,-1,-1,-1,14,-1,-1,-1],"split_conditions":[8.215398E-1,-5.5261165E-1,1.7628088E0,-1.1219754E-2,-8.849138E-1,4.656646E-3,5.140319E-1,1.0156275E0,-7.136413E-3,2.7419833E-4,1.7504523E-3,-4.8915935E-1,-2.8981592E-3,2.0914061E-3,2.1162152E-4],"split_indices":[9,9,8,0,8,0,1,1,0,0,0,1,0,0,0],"split_type":[0,0,0,0,0,0,0,0,0,0,0,0,0,0,0],"sum_hessian":[1.14E2,8.8E1,2.6E1,4.1E1,4.7E1,2.3E1,3E0,3E0,4.4E1,1E0,2E0,2E0,1E0,1E0,1E0],"tree_param":{"num_deleted":"0","num_feature":"19","num_nodes":"15","size_leaf_vector":"1"}},{"base_weights":[-5.820539E-1,-8.8293535E-1,4.3129808E-1,-1.11102285E-2,-6.649643E-1,4.6120198E-3,1.4405006E-1,-2.9607788E-2,-7.066635E-3,2.7282743E-4,1.7387825E-3,1.5276752E-1,-2.8836685E-3,2.0809493E-3,2.1056354E-4],"categories":[],"categories_nodes":[],"categories_segments":[],"categories_sizes":[],"default_left":[0,0,0,0,0,0,0,0,0,0,0,0,0,0,0],"id":6,"left_children":[1,3,5,-1,7,-1,9,11,-1,-1,-1,13,-1,-1,-1],"loss_changes":[3.5444168E1,3.6859741E0,1.6548967E-1,0E0,1.2507801E0,0E0,9.187959E-3,2.3281816E-1,0E0,0E0,0E0,1.7479986E-2,0E0,0E0,0E0],"parents":[2147483647,0,0,1,1,2,2,4,4,6,6,7,7,11,11],"right_children":[2,4,6,-1,8,-1,10,12,-1,-1,-1,14,-1,-1,-1],"split_conditions":[8.215398E-1,-5.5261165E-1,1.7628088E0,-1.11102285E-2,-8.849138E-1,4.6120198E-3,5.140319E-1,1.0156275E0,-7.066635E-3,2.7282743E-4,1.7387825E-3,-4.8915935E-1,-2.8836685E-3,2.0809493E-3,2.1056354E-4],"split_indices":[9,9,8,0,8,0,1,1,0,0,0,1,0,0,0],"split_type":[0,0,0,0,0,0,0,0,0,0,0,0,0,0,0],"sum_hessian":[1.14E2,8.8E1,2.6E1,4.1E1,4.7E1,2.3E1,3E0,3E0,4.4E1,1E0,2E0,2E0,1E0,1E0,1E0],"tree_param":{"num_deleted":"0","num_feature":"19","num_nodes":"15","size_leaf_vector":"1"}},{"base_weights":[-5.76339E-1,-8.7431693E-1,4.272304E-1,-1.0754568E-2,-6.3413346E-1,4.567821E-3,1.4311247E-1,-2.945976E-2,-6.7874747E-3,2.714634E-4,1.7271906E-3,1.5200366E-1,-2.86925E-3,2.0705443E-3,2.0951062E-4],"categories":[],"categories_nodes":[],"categories_segments":[],"categories_sizes":[],"default_left":[0,0,0,0,0,0,0,0,0,0,0,0,0,0,0],"id":7,"left_children":[1,3,5,-1,7,-1,9,11,-1,-1,-1,13,-1,-1,-1],"loss_changes":[3.4763313E1,3.6176453E0,1.6132593E-1,0E0,1.1400127E0,0E0,9.0447515E-3,2.3049577E-1,0E0,0E0,0E0,1.7305627E-2,0E0,0E0,0E0],"parents":[2147483647,0,0,1,1,2,2,4,4,6,6,7,7,11,11],"right_children":[2,4,6,-1,8,-1,10,12,-1,-1,-1,14,-1,-1,-1],"split_conditions":[8.215398E-1,-5.2251726E-1,1.7628088E0,-1.0754568E-2,-8.849138E-1,4.567821E-3,5.140319E-1,1.0156275E0,-6.7874747E-3,2.714634E-4,1.7271906E-3,-4.8915935E-1,-2.86925E-3,2.0705443E-3,2.0951062E-4],"split_indices":[9,9,8,0,8,0,1,1,0,0,0,1,0,0,0],"split_type":[0,0,0,0,0,0,0,0,0,0,0,0,0,0,0],"sum_hessian":[1.14E2,8.8E1,2.6E1,4.6E1,4.2E1,2.3E1,3E0,3E0,3.9E1,1E0,2E0,2E0,1E0,1E0,1E0],"tree_param":{"num_deleted":"0","num_feature":"19","num_nodes":"15","size_leaf_vector":"1"}},{"base_weights":[-5.7067615E-1,-8.657775E-1,4.2320132E-1,-1.0896786E-2,-6.5182686E-1,4.5240466E-3,1.4218102E-1,-2.9312462E-2,-6.9267643E-3,2.701062E-4,1.7156762E-3,1.5124364E-1,-2.854904E-3,2.0601915E-3,2.0846307E-4],"categories":[],"categories_nodes":[],"categories_segments":[],"categories_sizes":[],"default_left":[0,0,0,0,0,0,0,0,0,0,0,0,0,0,0],"id":8,"left_children":[1,3,5,-1,7,-1,9,11,-1,-1,-1,13,-1,-1,-1],"loss_changes":[3.4095272E1,3.553154E0,1.5725803E-1,0E0,1.2003117E0,0E0,8.903712E-3,2.2819658E-1,0E0,0E0,0E0,1.7133005E-2,0E0,0E0,0E0],"parents":[2147483647,0,0,1,1,2,2,4,4,6,6,7,7,11,11],"right_children":[2,4,6,-1,8,-1,10,12,-1,-1,-1,14,-1,-1,-1],"split_conditions":[8.215398E-1,-5.5261165E-1,1.7628088E0,-1.0896786E-2,-8.849138E-1,4.5240466E-3,5.140319E-1,1.0156275E0,-6.9267643E-3,2.701062E-4,1.7156762E-3,-4.8915935E-1,-2.854904E-3,2.0601915E-3,2.0846307E-4],"split_indices":[9,9,8,0,8,0,1,1,0,0,0,1,0,0,0],"split_type":[0,0,0,0,0,0,0,0,0,0,0,0,0,0,0],"sum_hessian":[1.14E2,8.8E1,2.6E1,4.1E1,4.7E1,2.3E1,3E0,3E0,4.4E1,1E0,2E0,2E0,1E0,1E0,1E0],"tree_param":{"num_deleted":"0","num_feature":"19","num_nodes":"15","size_leaf_vector":"1"}},{"base_weights":[-5.650729E-1,-8.5732657E-1,4.192104E-1,-1.0790413E-2,-6.4546514E-1,4.4806907E-3,1.4125566E-1,-2.9165879E-2,-6.859036E-3,2.6875554E-4,1.7042385E-3,1.5048744E-1,-2.840629E-3,2.0498908E-3,2.0742088E-4],"categories":[],"categories_nodes":[],"categories_segments":[],"categories_sizes":[],"default_left":[0,0,0,0,0,0,0,0,0,0,0,0,0,0,0],"id":9,"left_children":[1,3,5,-1,7,-1,9,11,-1,-1,-1,13,-1,-1,-1],"loss_changes":[3.344035E1,3.4841003E0,1.532855E-1,0E0,1.17626E0,0E0,8.764811E-3,2.2592032E-1,0E0,0E0,0E0,1.6962104E-2,0E0,0E0,0E0],"parents":[2147483647,0,0,1,1,2,2,4,4,6,6,7,7,11,11],"right_children":[2,4,6,-1,8,-1,10,12,-1,-1,-1,14,-1,-1,-1],"split_conditions":[8.215398E-1,-5.5261165E-1,1.7628088E0,-1.0790413E-2,-8.849138E-1,4.4806907E-3,5.140319E-1,1.0156275E0,-6.859036E-3,2.6875554E-4,1.7042385E-3,-4.8915935E-1,-2.840629E-3,2.0498908E-3,2.0742088E-4],"split_indices":[9,9,8,0,8,0,1,1,0,0,0,1,0,0,0],"split_type":[0,0,0,0,0,0,0,0,0,0,0,0,0,0,0],"sum_hessian":[1.14E2,8.8E1,2.6E1,4.1E1,4.7E1,2.3E1,3E0,3E0,4.4E1,1E0,2E0,2E0,1E0,1E0,1E0],"tree_param":{"num_deleted":"0","num_feature":"19","num_nodes":"15","size_leaf_vector":"1"}},{"base_weights":[-5.595246E-1,-8.4895813E-1,4.152573E-1,-1.0445458E-2,-6.1543304E-1,4.4377507E-3,1.4033636E-1,-2.9020041E-2,-6.586885E-3,2.6741176E-4,1.6928769E-3,1.4973502E-1,-2.826426E-3,2.0396414E-3,2.0638376E-4],"categories":[],"categories_nodes":[],"categories_segments":[],"categories_sizes":[],"default_left":[0,0,0,0,0,0,0,0,0,0,0,0,0,0,0],"id":10,"left_children":[1,3,5,-1,7,-1,9,11,-1,-1,-1,13,-1,-1,-1],"loss_changes":[3.279802E1,3.4221954E0,1.4940596E-1,0E0,1.0716038E0,0E0,8.627988E-3,2.2366676E-1,0E0,0E0,0E0,1.6792908E-2,0E0,0E0,0E0],"parents":[2147483647,0,0,1,1,2,2,4,4,6,6,7,7,11,11],"right_children":[2,4,6,-1,8,-1,10,12,-1,-1,-1,14,-1,-1,-1],"split_conditions":[8.215398E-1,-5.2251726E-1,1.7628088E0,-1.0445458E-2,-8.849138E-1,4.4377507E-3,5.140319E-1,1.0156275E0,-6.586885E-3,2.6741176E-4,1.6928769E-3,-4.8915935E-1,-2.826426E-3,2.0396414E-3,2.0638376E-4],"split_indices":[9,9,8,0,8,0,1,1,0,0,0,1,0,0,0],"split_type":[0,0,0,0,0,0,0,0,0,0,0,0,0,0,0],"sum_hessian":[1.14E2,8.8E1,2.6E1,4.6E1,4.2E1,2.3E1,3E0,3E0,3.9E1,1E0,2E0,2E0,1E0,1E0,1E0],"tree_param":{"num_deleted":"0","num_feature":"19","num_nodes":"15","size_leaf_vector":"1"}},{"base_weights":[-5.540269E-1,-8.406665E-1,4.113417E-1,-1.0583111E-2,-6.327135E-1,4.3952223E-3,1.3942307E-1,-2.8874964E-2,-6.7232773E-3,2.6607484E-4,1.681591E-3,1.4898632E-1,-2.812294E-3,2.029443E-3,2.0535171E-4],"categories":[],"categories_nodes":[],"categories_segments":[],"categories_sizes":[],"default_left":[0,0,0,0,0,0,0,0,0,0,0,0,0,0,0],"id":11,"left_children":[1,3,5,-1,7,-1,9,11,-1,-1,-1,13,-1,-1,-1],"loss_changes":[3.216778E1,3.3585167E0,1.4561605E-1,0E0,1.1287785E0,0E0,8.4932E-3,2.2143567E-1,0E0,0E0,0E0,1.6625397E-2,0E0,0E0,0E0],"parents":[2147483647,0,0,1,1,2,2,4,4,6,6,7,7,11,11],"right_children":[2,4,6,-1,8,-1,10,12,-1,-1,-1,14,-1,-1,-1],"split_conditions":[8.215398E-1,-5.5261165E-1,1.7628088E0,-1.0583111E-2,-8.849138E-1,4.3952223E-3,5.140319E-1,1.0156275E0,-6.7232773E-3,2.6607484E-4,1.681591E-3,-4.8915935E-1,-2.812294E-3,2.029443E-3,2.0535171E-4],"split_indices":[9,9,8,0,8,0,1,1,0,0,0,1,0,0,0],"split_type":[0,0,0,0,0,0,0,0,0,0,0,0,0,0,0],"sum_hessian":[1.14E2,8.8E1,2.6E1,4.1E1,4.7E1,2.3E1,3E0,3E0,4.4E1,1E0,2E0,2E0,1E0,1E0,1E0],"tree_param":{"num_deleted":"0","num_feature":"19","num_nodes":"15","size_leaf_vector":"1"}},{"base_weights":[-5.4858696E-1,-8.3246076E-1,4.074632E-1,-1.0243753E-2,-6.033341E-1,4.3531014E-3,1.3851577E-1,-2.8730571E-2,-6.457111E-3,2.6474445E-4,1.6703806E-3,1.482414E-1,-2.7982325E-3,2.019296E-3,2.0432501E-4],"categories":[],"categories_nodes":[],"categories_segments":[],"categories_sizes":[],"default_left":[0,0,0,0,0,0,0,0,0,0,0,0,0,0,0],"id":12,"left_children":[1,3,5,-1,7,-1,9,11,-1,-1,-1,13,-1,-1,-1],"loss_changes":[3.1549927E1,3.2955322E0,1.419158E-1,0E0,1.0284967E0,0E0,8.360468E-3,2.1922685E-1,0E0,0E0,0E0,1.6459562E-2,0E0,0E0,0E0],"parents":[2147483647,0,0,1,1,2,2,4,4,6,6,7,7,11,11],"right_children":[2,4,6,-1,8,-1,10,12,-1,-1,-1,14,-1,-1,-1],"split_conditions":[8.215398E-1,-5.2251726E-1,1.7628088E0,-1.0243753E-2,-8.849138E-1,4.3531014E-3,5.140319E-1,1.0156275E0,-6.457111E-3,2.6474445E-4,1.6703806E-3,-4.8915935E-1,-2.7982325E-3,2.019296E-3,2.0432501E-4],"split_indices":[9,9,8,0,8,0,1,1,0,0,0,1,0,0,0],"split_type":[0,0,0,0,0,0,0,0,0,0,0,0,0,0,0],"sum_hessian":[1.14E2,8.8E1,2.6E1,4.6E1,4.2E1,2.3E1,3E0,3E0,3.9E1,1E0,2E0,2E0,1E0,1E0,1E0],"tree_param":{"num_deleted":"0","num_feature":"19","num_nodes":"15","size_leaf_vector":"1"}},{"base_weights":[-5.431966E-1,-8.243303E-1,4.0362144E-1,-1.03798015E-2,-6.2021303E-1,4.3113837E-3,1.376144E-1,-2.8586924E-2,-6.590195E-3,2.6342063E-4,1.6592449E-3,1.475002E-1,-2.7842415E-3,2.0091995E-3,2.033034E-4],"categories":[],"categories_nodes":[],"categories_segments":[],"categories_sizes":[],"default_left":[0,0,0,0,0,0,0,0,0,0,0,0,0,0,0],"id":13,"left_children":[1,3,5,-1,7,-1,9,11,-1,-1,-1,13,-1,-1,-1],"loss_changes":[3.0943695E1,3.2374878E0,1.3830137E-1,0E0,1.083189E0,0E0,8.229725E-3,2.1704008E-1,0E0,0E0,0E0,1.6295373E-2,0E0,0E0,0E0],"parents":[2147483647,0,0,1,1,2,2,4,4,6,6,7,7,11,11],"right_children":[2,4,6,-1,8,-1,10,12,-1,-1,-1,14,-1,-1,-1],"split_conditions":[8.215398E-1,-5.5261165E-1,1.7628088E0,-1.03798015E-2,-8.849138E-1,4.3113837E-3,5.140319E-1,1.0156275E0,-6.590195E-3,2.6342063E-4,1.6592449E-3,-4.8915935E-1,-2.7842415E-3,2.0091995E-3,2.033034E-4],"split_indices":[9,9,8,0,8,0,1,1,0,0,0,1,0,0,0],"split_type":[0,0,0,0,0,0,0,0,0,0,0,0,0,0,0],"sum_hessian":[1.14E2,8.8E1,2.6E1,4.1E1,4.7E1,2.3E1,3E0,3E0,4.4E1,1E0,2E0,2E0,1E0,1E0,1E0],"tree_param":{"num_deleted":"0","num_feature":"19","num_nodes":"15","size_leaf_vector":"1"}},{"base_weights":[-5.37863E-1,-8.1628406E-1,3.9981613E-1,-1.02784755E-2,-6.141601E-1,4.2700665E-3,1.3671891E-1,-2.8443992E-2,-6.5257577E-3,2.6210368E-4,1.648183E-3,1.4676268E-1,-2.77032E-3,1.9991535E-3,2.0228683E-4],"categories":[],"categories_nodes":[],"categories_segments":[],"categories_sizes":[],"default_left":[0,0,0,0,0,0,0,0,0,0,0,0,0,0,0],"id":14,"left_children":[1,3,5,-1,7,-1,9,11,-1,-1,-1,13,-1,-1,-1],"loss_changes":[3.0349365E1,3.1745567E0,1.3477135E-1,0E0,1.06147E0,0E0,8.100942E-3,2.1487509E-1,0E0,0E0,0E0,1.6132832E-2,0E0,0E0,0E0],"parents":[2147483647,0,0,1,1,2,2,4,4,6,6,7,7,11,11],"right_children":[2,4,6,-1,8,-1,10,12,-1,-1,-1,14,-1,-1,-1],"split_conditions":[8.215398E-1,-5.5261165E-1,1.7628088E0,-1.02784755E-2,-8.849138E-1,4.2700665E-3,5.140319E-1,1.0156275E0,-6.5257577E-3,2.6210368E-4,1.648183E-3,-4.8915935E-1,-2.77032E-3,1.9991535E-3,2.0228683E-4],"split_indices":[9,9,8,0,8,0,1,1,0,0,0,1,0,0,0],"split_type":[0,0,0,0,0,0,0,0,0,0,0,0,0,0,0],"sum_hessian":[1.14E2,8.8E1,2.6E1,4.1E1,4.7E1,2.3E1,3E0,3E0,4.4E1,1E0,2E0,2E0,1E0,1E0,1E0],"tree_param":{"num_deleted":"0","num_feature":"19","num_nodes":"15","size_leaf_vector":"1"}},{"base_weights":[-5.325817E-1,-8.083164E-1,3.9604685E-1,-9.949332E-3,-5.855419E-1,4.229145E-3,1.358293E-1,-2.8301775E-2,-6.2662736E-3,2.6079325E-4,1.6371951E-3,1.4602888E-1,-2.7564685E-3,1.9891576E-3,2.0127534E-4],"categories":[],"categories_nodes":[],"categories_segments":[],"categories_sizes":[],"default_left":[0,0,0,0,0,0,0,0,0,0,0,0,0,0,0],"id":15,"left_children":[1,3,5,-1,7,-1,9,11,-1,-1,-1,13,-1,-1,-1],"loss_changes":[2.9766472E1,3.1174622E0,1.3132429E-1,0E0,9.667282E-1,0E0,7.974103E-3,2.1273172E-1,0E0,0E0,0E0,1.5971914E-2,0E0,0E0,0E0],"parents":[2147483647,0,0,1,1,2,2,4,4,6,6,7,7,11,11],"right_children":[2,4,6,-1,8,-1,10,12,-1,-1,-1,14,-1,-1,-1],"split_conditions":[8.215398E-1,-5.2251726E-1,1.7628088E0,-9.949332E-3,-8.849138E-1,4.229145E-3,5.140319E-1,1.0156275E0,-6.2662736E-3,2.6079325E-4,1.6371951E-3,-4.8915935E-1,-2.7564685E-3,1.9891576E-3,2.0127534E-4],"split_indices":[9,9,8,0,8,0,1,1,0,0,0,1,0,0,0],"split_type":[0,0,0,0,0,0,0,0,0,0,0,0,0,0,0],"sum_hessian":[1.14E2,8.8E1,2.6E1,4.6E1,4.2E1,2.3E1,3E0,3E0,3.9E1,1E0,2E0,2E0,1E0,1E0,1E0],"tree_param":{"num_deleted":"0","num_feature":"19","num_nodes":"15","size_leaf_vector":"1"}},{"base_weights":[-5.273485E-1,-8.0042183E-1,3.9231333E-1,-1.0081014E-2,-6.020268E-1,4.1886154E-3,1.349455E-1,-2.8160274E-2,-6.396588E-3,2.594894E-4,1.6262804E-3,1.4529872E-1,-2.7426863E-3,1.9792118E-3,2.0026891E-4],"categories":[],"categories_nodes":[],"categories_segments":[],"categories_sizes":[],"default_left":[0,0,0,0,0,0,0,0,0,0,0,0,0,0,0],"id":16,"left_children":[1,3,5,-1,7,-1,9,11,-1,-1,-1,13,-1,-1,-1],"loss_changes":[2.9194553E1,3.0601234E0,1.2795877E-1,0E0,1.0185833E0,0E0,7.849179E-3,2.106097E-1,0E0,0E0,0E0,1.5812583E-2,0E0,0E0,0E0],"parents":[2147483647,0,0,1,1,2,2,4,4,6,6,7,7,11,11],"right_children":[2,4,6,-1,8,-1,10,12,-1,-1,-1,14,-1,-1,-1],"split_conditions":[8.215398E-1,-5.5261165E-1,1.7628088E0,-1.0081014E-2,-8.849138E-1,4.1886154E-3,5.140319E-1,1.0156275E0,-6.396588E-3,2.594894E-4,1.6262804E-3,-4.8915935E-1,-2.7426863E-3,1.9792118E-3,2.0026891E-4],"split_indices":[9,9,8,0,8,0,1,1,0,0,0,1,0,0,0],"split_type":[0,0,0,0,0,0,0,0,0,0,0,0,0,0,0],"sum_hessian":[1.14E2,8.8E1,2.6E1,4.1E1,4.7E1,2.3E1,3E0,3E0,4.4E1,1E0,2E0,2E0,1E0,1E0,1E0],"tree_param":{"num_deleted":"0","num_feature":"19","num_nodes":"15","size_leaf_vector":"1"}},{"base_weights":[-5.221704E-1,-7.926091E-1,3.886152E-1,-9.75721E-3,-5.7403076E-1,4.148475E-3,1.3406749E-1,-2.8019473E-2,-6.142811E-3,2.581918E-4,1.6154386E-3,1.4457221E-1,-2.7289726E-3,1.9693156E-3,1.9926757E-4],"categories":[],"categories_nodes":[],"categories_segments":[],"categories_sizes":[],"default_left":[0,0,0,0,0,0,0,0,0,0,0,0,0,0,0],"id":17,"left_children":[1,3,5,-1,7,-1,9,11,-1,-1,-1,13,-1,-1,-1],"loss_changes":[2.863386E1,3.0020676E0,1.24671936E-1,0E0,9.2780495E-1,0E0,7.726155E-3,2.0850885E-1,0E0,0E0,0E0,1.5654862E-2,0E0,0E0,0E0],"parents":[2147483647,0,0,1,1,2,2,4,4,6,6,7,7,11,11],"right_children":[2,4,6,-1,8,-1,10,12,-1,-1,-1,14,-1,-1,-1],"split_conditions":[8.215398E-1,-5.2251726E-1,1.7628088E0,-9.75721E-3,-8.849138E-1,4.148475E-3,5.140319E-1,1.0156275E0,-6.142811E-3,2.581918E-4,1.6154386E-3,-4.8915935E-1,-2.7289726E-3,1.9693156E-3,1.9926757E-4],"split_indices":[9,9,8,0,8,0,1,1,0,0,0,1,0,0,0],"split_type":[0,0,0,0,0,0,0,0,0,0,0,0,0,0,0],"sum_hessian":[1.14E2,8.8E1,2.6E1,4.6E1,4.2E1,2.3E1,3E0,3E0,3.9E1,1E0,2E0,2E0,1E0,1E0,1E0],"tree_param":{"num_deleted":"0","num_feature":"19","num_nodes":"15","size_leaf_vector":"1"}},{"base_weights":[-5.170395E-1,-7.8486794E-1,3.8495207E-1,-9.887354E-3,-5.901324E-1,4.1087186E-3,1.331952E-1,-2.7879372E-2,-6.269964E-1,2.569008E-4,1.6046689E-3,1.4384936E-1,-2.7153278E-3,-4.67475E-3,-6.7083826E-3,1.959469E-3,1.9827127E-4],"categories":[],"categories_nodes":[],"categories_segments":[],"categories_sizes":[],"default_left":[0,0,0,0,0,0,0,0,0,0,0,0,0,0,0,0,0],"id":18,"left_children":[1,3,5,-1,7,-1,9,11,13,-1,-1,15,-1,-1,-1,-1,-1],"loss_changes":[2.8083721E1,2.9498367E0,1.2146187E-1,0E0,9.7741127E-1,0E0,7.6049715E-3,2.0642896E-1,1.1177063E-3,0E0,0E0,1.5498698E-2,0E0,0E0,0E0,0E0,0E0],"parents":[2147483647,0,0,1,1,2,2,4,4,6,6,7,7,8,8,11,11],"right_children":[2,4,6,-1,8,-1,10,12,14,-1,-1,16,-1,-1,-1,-1,-1],"split_conditions":[8.215398E-1,-5.5261165E-1,1.7628088E0,-9.887354E-3,-8.849138E-1,4.1087186E-3,5.140319E-1,1.0156275E0,-5.697604E-1,2.569008E-4,1.6046689E-3,-4.8915935E-1,-2.7153278E-3,-4.67475E-3,-6.7083826E-3,1.959469E-3,1.9827127E-4],"split_indices":[9,9,8,0,8,0,1,1,14,0,0,1,0,0,0,0,0],"split_type":[0,0,0,0,0,0,0,0,0,0,0,0,0,0,0,0,0],"sum_hessian":[1.14E2,8.8E1,2.6E1,4.1E1,4.7E1,2.3E1,3E0,3E0,4.4E1,1E0,2E0,2E0,1E0,1.2E1,3.2E1,1E0,1E0],"tree_param":{"num_deleted":"0","num_feature":"19","num_nodes":"17","size_leaf_vector":"1"}},{"base_weights":[-5.1200694E-1,-7.772645E-1,3.8132367E-1,-9.790835E-3,-5.8447987E-1,4.069343E-3,1.3232864E-1,-2.7739972E-2,-6.209794E-1,2.556163E-4,1.593971E-3,1.4313012E-1,-2.7017512E-3,-4.631598E-3,-6.643332E-3,1.9496718E-3,1.9728004E-4],"categories":[],"categories_nodes":[],"categories_segments":[],"categories_sizes":[],"default_left":[0,0,0,0,0,0,0,0,0,0,0,0,0,0,0,0,0],"id":19,"left_children":[1,3,5,-1,7,-1,9,11,13,-1,-1,15,-1,-1,-1,-1,-1],"loss_changes":[2.7547096E1,2.890522E0,1.18328094E-1,0E0,9.5817184E-1,0E0,7.4856207E-3,2.0436986E-1,2.002716E-4,0E0,0E0,1.5344102E-2,0E0,0E0,0E0,0E0,0E0],"parents":[2147483647,0,0,1,1,2,2,4,4,6,6,7,7,8,8,11,11],"right_children":[2,4,6,-1,8,-1,10,12,14,-1,-1,16,-1,-1,-1,-1,-1],"split_conditions":[8.215398E-1,-5.5261165E-1,1.7628088E0,-9.790835E-3,-8.849138E-1,4.069343E-3,5.140319E-1,1.0156275E0,-5.697604E-1,2.556163E-4,1.593971E-3,-4.8915935E-1,-2.7017512E-3,-4.631598E-3,-6.643332E-3,1.9496718E-3,1.9728004E-4],"split_indices":[9,9,8,0,8,0,1,1,14,0,0,1,0,0,0,0,0],"split_type":[0,0,0,0,0,0,0,0,0,0,0,0,0,0,0,0,0],"sum_hessian":[1.14E2,8.8E1,2.6E1,4.1E1,4.7E1,2.3E1,3E0,3E0,4.4E1,1E0,2E0,2E0,1E0,1.2E1,3.2E1,1E0,1E0],"tree_param":{"num_deleted":"0","num_feature":"19","num_nodes":"17","size_leaf_vector":"1"}},{"base_weights":[-5.070234E-1,-7.6973474E-1,3.7772965E-1,-9.695257E-3,-5.788815E-1,4.0303457E-1,1.3146776E-1,-2.7601272E-2,-6.1502014E-3,1.7257745E-3,4.1614077E-3,2.5433808E-4,1.5833448E-3,1.4241447E-1,-2.6882424E-3,1.9399234E-3,1.962936E-4],"categories":[],"categories_nodes":[],"categories_segments":[],"categories_sizes":[],"default_left":[0,0,0,0,0,0,0,0,0,0,0,0,0,0,0,0,0],"id":20,"left_children":[1,3,5,-1,7,9,11,13,-1,-1,-1,-1,-1,15,-1,-1,-1],"loss_changes":[2.702074E1,2.8323975E0,1.1526847E-1,0E0,9.3930626E-1,6.737709E-4,7.368088E-3,2.0233127E-1,0E0,0E0,0E0,0E0,0E0,1.5191041E-2,0E0,0E0,0E0],"parents":[2147483647,0,0,1,1,2,2,4,4,5,5,6,6,7,7,13,13],"right_children":[2,4,6,-1,8,10,12,14,-1,-1,-1,-1,-1,16,-1,-1,-1],"split_conditions":[8.215398E-1,-5.5261165E-1,1.7628088E0,-9.695257E-3,-8.849138E-1,-4.684394E-1,5.140319E-1,1.0156275E0,-6.1502014E-3,1.7257745E-3,4.1614077E-3,2.5433808E-4,1.5833448E-3,-4.8915935E-1,-2.6882424E-3,1.9399234E-3,1.962936E-4],"split_indices":[9,9,8,0,8,10,1,1,0,0,0,0,0,1,0,0,0],"split_type":[0,0,0,0,0,0,0,0,0,0,0,0,0,0,0,0,0],"sum_hessian":[1.14E2,8.8E1,2.6E1,4.1E1,4.7E1,2.3E1,3E0,3E0,4.4E1,2E0,2.1E1,1E0,2E0,2E0,1E0,1E0,1E0],"tree_param":{"num_deleted":"0","num_feature":"19","num_nodes":"17","size_leaf_vector":"1"}},{"base_weights":[-5.020286E-1,-7.6222163E-1,3.7423846E-1,-9.38473E-3,-5.5184877E-1,3.992495E-3,1.3061251E-1,-2.7463272E-2,-5.9049106E-3,2.5306642E-4,1.572789E-3,1.417024E-1,-2.6748013E-3,1.9302237E-3,1.953122E-4],"categories":[],"categories_nodes":[],"categories_segments":[],"categories_sizes":[],"default_left":[0,0,0,0,0,0,0,0,0,0,0,0,0,0,0],"id":21,"left_children":[1,3,5,-1,7,-1,9,11,-1,-1,-1,13,-1,-1,-1],"loss_changes":[2.6505093E1,2.782093E0,1.1237311E-1,0E0,8.551111E-1,0E0,7.252313E-3,2.0031303E-1,0E0,0E0,0E0,1.5039504E-2,0E0,0E0,0E0],"parents":[2147483647,0,0,1,1,2,2,4,4,6,6,7,7,11,11],"right_children":[2,4,6,-1,8,-1,10,12,-1,-1,-1,14,-1,-1,-1],"split_conditions":[8.215398E-1,-5.2251726E-1,1.7628088E0,-9.38473E-3,-8.849138E-1,3.992495E-3,5.140319E-1,1.0156275E0,-5.9049106E-3,2.5306642E-4,1.572789E-3,-4.8915935E-1,-2.6748013E-3,1.9302237E-3,1.953122E-4],"split_indices":[9,9,8,0,8,0,1,1,0,0,0,1,0,0,0],"split_type":[0,0,0,0,0,0,0,0,0,0,0,0,0,0,0],"sum_hessian":[1.14E2,8.8E1,2.6E1,4.6E1,4.2E1,2.3E1,3E0,3E0,3.9E1,1E0,2E0,2E0,1E0,1E0,1E0],"tree_param":{"num_deleted":"0","num_feature":"19","num_nodes":"15","size_leaf_vector":"1"}},{"base_weights":[-4.9709547E-1,-7.5477743E-1,3.7071157E-1,-9.509001E-3,-5.674456E-1,3.9542338E-1,1.2976284E-1,-2.7325958E-2,-6.0284626E-1,1.6876525E-3,4.0835747E-3,2.5180102E-4,1.5623039E-3,1.4099388E-1,-2.6614273E-3,-4.4775666E-3,-6.456741E-3,1.9205725E-3,1.9433557E-4],"categories":[],"categories_nodes":[],"categories_segments":[],"categories_sizes":[],"default_left":[0,0,0,0,0,0,0,0,0,0,0,0,0,0,0,0,0,0,0],"id":22,"left_children":[1,3,5,-1,7,9,11,13,15,-1,-1,-1,-1,17,-1,-1,-1,-1,-1],"loss_changes":[2.5995893E1,2.7302818E0,1.0945392E-1,0E0,9.013176E-1,1.4424324E-3,7.138297E-3,1.9831488E-1,9.792328E-3,0E0,0E0,0E0,0E0,1.4889486E-2,0E0,0E0,0E0,0E0,0E0],"parents":[2147483647,0,0,1,1,2,2,4,4,5,5,6,6,7,7,8,8,13,13],"right_children":[2,4,6,-1,8,10,12,14,16,-1,-1,-1,-1,18,-1,-1,-1,-1,-1],"split_conditions":[8.215398E-1,-5.5261165E-1,1.7628088E0,-9.509001E-3,-8.849138E-1,-4.684394E-1,5.140319E-1,1.0156275E0,-5.697604E-1,1.6876525E-3,4.0835747E-3,2.5180102E-4,1.5623039E-3,-4.8915935E-1,-2.6614273E-3,-4.4775666E-3,-6.456741E-3,1.9205725E-3,1.9433557E-4],"split_indices":[9,9,8,0,8,10,1,1,14,0,0,0,0,1,0,0,0,0,0],"split_type":[0,0,0,0,0,0,0,0,0,0,0,0,0,0,0,0,0,0,0],"sum_hessian":[1.14E2,8.8E1,2.6E1,4.1E1,4.7E1,2.3E1,3E0,3E0,4.4E1,2E0,2.1E1,1E0,2E0,2E0,1E0,1.2E1,3.2E1,1E0,1E0],"tree_param":{"num_deleted":"0","num_feature":"19","num_nodes":"19","size_leaf_vector":"1"}},{"base_weights":[-4.9224105E-1,-7.474655E-1,3.672854E-1,-9.20306E-3,-5.4116386E-1,3.917096E-1,1.2891874E-1,-2.718933E-2,-5.790322E-3,1.6764016E-3,4.044595E-3,2.5054187E-4,1.5518885E-3,1.402889E-1,-2.6481203E-3,1.9109696E-3,1.9336402E-4],"categories":[],"categories_nodes":[],"categories_segments":[],"categories_sizes":[],"default_left":[0,0,0,0,0,0,0,0,0,0,0,0,0,0,0,0,0],"id":23,"left_children":[1,3,5,-1,7,9,11,13,-1,-1,-1,-1,-1,15,-1,-1,-1],"loss_changes":[2.5502329E1,2.6754608E0,1.0669327E-1,0E0,8.2118225E-1,7.610321E-4,7.0260093E-3,1.9633672E-1,0E0,0E0,0E0,0E0,0E0,1.4740955E-2,0E0,0E0,0E0],"parents":[2147483647,0,0,1,1,2,2,4,4,5,5,6,6,7,7,13,13],"right_children":[2,4,6,-1,8,10,12,14,-1,-1,-1,-1,-1,16,-1,-1,-1],"split_conditions":[8.215398E-1,-5.2251726E-1,1.7628088E0,-9.20306E-3,-8.849138E-1,-4.684394E-1,5.140319E-1,1.0156275E0,-5.790322E-3,1.6764016E-3,4.044595E-3,2.5054187E-4,1.5518885E-3,-4.8915935E-1,-2.6481203E-3,1.9109696E-3,1.9336402E-4],"split_indices":[9,9,8,0,8,10,1,1,0,0,0,0,0,1,0,0,0],"split_type":[0,0,0,0,0,0,0,0,0,0,0,0,0,0,0,0,0],"sum_hessian":[1.14E2,8.8E1,2.6E1,4.6E1,4.2E1,2.3E1,3E0,3E0,3.9E1,2E0,2.1E1,1E0,2E0,2E0,1E0,1E0,1E0],"tree_param":{"num_deleted":"0","num_feature":"19","num_nodes":"17","size_leaf_vector":"1"}},{"base_weights":[-4.8738834E-1,-7.401654E-1,3.6389118E-1,-9.326335E-3,-5.563357E-1,3.880309E-1,1.2808017E-1,-2.7053386E-2,-5.9102E-1,1.6652257E-3,4.0059877E-3,2.4928927E-4,1.5415428E-3,1.3958746E-1,-2.6348797E-3,-4.3827863E-3,-6.332811E-3,1.9014146E-3,1.9239723E-4],"categories":[],"categories_nodes":[],"categories_segments":[],"categories_sizes":[],"default_left":[0,0,0,0,0,0,0,0,0,0,0,0,0,0,0,0,0,0,0],"id":24,"left_children":[1,3,5,-1,7,9,11,13,15,-1,-1,-1,-1,17,-1,-1,-1,-1,-1],"loss_changes":[2.5015493E1,2.630085E0,1.039958E-1,0E0,8.6518383E-1,1.04665756E-4,6.9154054E-3,1.9437826E-1,1.2922287E-2,0E0,0E0,0E0,0E0,1.4593914E-2,0E0,0E0,0E0,0E0,0E0],"parents":[2147483647,0,0,1,1,2,2,4,4,5,5,6,6,7,7,8,8,13,13],"right_children":[2,4,6,-1,8,10,12,14,16,-1,-1,-1,-1,18,-1,-1,-1,-1,-1],"split_conditions":[8.215398E-1,-5.5261165E-1,1.7628088E0,-9.326335E-3,-8.849138E-1,-4.684394E-1,5.140319E-1,1.0156275E0,-5.697604E-1,1.6652257E-3,4.0059877E-3,2.4928927E-4,1.5415428E-3,-4.8915935E-1,-2.6348797E-3,-4.3827863E-3,-6.332811E-3,1.9014146E-3,1.9239723E-4],"split_indices":[9,9,8,0,8,10,1,1,14,0,0,0,0,1,0,0,0,0,0],"split_type":[0,0,0,0,0,0,0,0,0,0,0,0,0,0,0,0,0,0,0],"sum_hessian":[1.14E2,8.8E1,2.6E1,4.1E1,4.7E1,2.3E1,3E0,3E0,4.4E1,2E0,2.1E1,1E0,2E0,2E0,1E0,1.2E1,3.2E1,1E0,1E0],"tree_param":{"num_deleted":"0","num_feature":"19","num_nodes":"19","size_leaf_vector":"1"}},{"base_weights":[-4.8262852E-1,-7.3299503E-1,3.6052868E-1,-9.235292E-3,-5.5100685E-1,3.8438688E-3,1.2724708E-1,-2.6918113E-2,-5.853479E-1,2.4804292E-4,1.5312658E-3,1.3888954E-1,-2.6217052E-3,-4.34233E-3,-6.271402E-3,1.8919077E-3,1.9143522E-4],"categories":[],"categories_nodes":[],"categories_segments":[],"categories_sizes":[],"default_left":[0,0,0,0,0,0,0,0,0,0,0,0,0,0,0,0,0],"id":25,"left_children":[1,3,5,-1,7,-1,9,11,13,-1,-1,15,-1,-1,-1,-1,-1],"loss_changes":[2.4540567E1,2.5772018E0,1.0136151E-1,0E0,8.481369E-1,0E0,6.806478E-3,1.9243935E-1,1.1869431E-2,0E0,0E0,1.4448341E-2,0E0,0E0,0E0,0E0,0E0],"parents":[2147483647,0,0,1,1,2,2,4,4,6,6,7,7,8,8,11,11],"right_children":[2,4,6,-1,8,-1,10,12,14,-1,-1,16,-1,-1,-1,-1,-1],"split_conditions":[8.215398E-1,-5.5261165E-1,1.7628088E0,-9.235292E-3,-8.849138E-1,3.8438688E-3,5.140319E-1,1.0156275E0,-5.697604E-1,2.4804292E-4,1.5312658E-3,-4.8915935E-1,-2.6217052E-3,-4.34233E-3,-6.271402E-3,1.8919077E-3,1.9143522E-4],"split_indices":[9,9,8,0,8,0,1,1,14,0,0,1,0,0,0,0,0],"split_type":[0,0,0,0,0,0,0,0,0,0,0,0,0,0,0,0,0],"sum_hessian":[1.14E2,8.8E1,2.6E1,4.1E1,4.7E1,2.3E1,3E0,3E0,4.4E1,1E0,2E0,2E0,1E0,1.2E1,3.2E1,1E0,1E0],"tree_param":{"num_deleted":"0","num_feature":"19","num_nodes":"17","size_leaf_vector":"1"}},{"base_weights":[-4.7793064E-1,-7.2589415E-1,3.5713166E-1,-9.145138E-3,-5.457291E-1,3.807032E-1,1.2641945E-1,-2.6783526E-2,-5.797303E-1,1.6284985E-3,3.931058E-3,2.4680287E-4,1.5210574E-3,1.3819508E-1,-2.6085966E-3,-4.302247E-3,-6.210589E-3,1.8824482E-3,1.9047796E-4],"categories":[],"categories_nodes":[],"categories_segments":[],"categories_sizes":[],"default_left":[0,0,0,0,0,0,0,0,0,0,0,0,0,0,0,0,0,0,0],"id":26,"left_children":[1,3,5,-1,7,9,11,13,15,-1,-1,-1,-1,17,-1,-1,-1,-1,-1],"loss_changes":[2.407171E1,2.5253792E0,9.87041E-2,0E0,8.314209E-1,8.2969666E-4,6.6991895E-3,1.9051975E-1,1.0853767E-2,0E0,0E0,0E0,0E0,1.4304221E-2,0E0,0E0,0E0,0E0,0E0],"parents":[2147483647,0,0,1,1,2,2,4,4,5,5,6,6,7,7,8,8,13,13],"right_children":[2,4,6,-1,8,10,12,14,16,-1,-1,-1,-1,18,-1,-1,-1,-1,-1],"split_conditions":[8.215398E-1,-5.5261165E-1,1.7628088E0,-9.145138E-3,-8.849138E-1,-4.684394E-1,5.140319E-1,1.0156275E0,-5.697604E-1,1.6284985E-3,3.931058E-3,2.4680287E-4,1.5210574E-3,-4.8915935E-1,-2.6085966E-3,-4.302247E-3,-6.210589E-3,1.8824482E-3,1.9047796E-4],"split_indices":[9,9,8,0,8,10,1,1,14,0,0,0,0,1,0,0,0,0,0],"split_type":[0,0,0,0,0,0,0,0,0,0,0,0,0,0,0,0,0,0,0],"sum_hessian":[1.14E2,8.8E1,2.6E1,4.1E1,4.7E1,2.3E1,3E0,3E0,4.4E1,2E0,2.1E1,1E0,2E0,2E0,1E0,1.2E1,3.2E1,1E0,1E0],"tree_param":{"num_deleted":"0","num_feature":"19","num_nodes":"19","size_leaf_vector":"1"}},{"base_weights":[-4.732632E-1,-7.188621E-1,3.5383174E-1,-8.851274E-1,-5.204125E-1,3.7712783E-1,1.2559722E-1,-9.78741E-3,-7.226182E-3,-2.664961E-2,-5.567785E-1,1.6176419E-3,3.8935342E-3,2.4556875E-4,1.5109171E-3,1.375041E-1,-2.5955536E-3,-1.6038585E-3,-5.628299E-3,1.873036E-3,1.8952548E-4],"categories":[],"categories_nodes":[],"categories_segments":[],"categories_sizes":[],"default_left":[0,0,0,0,0,0,0,0,0,0,0,0,0,0,0,0,0,0,0,0,0],"id":27,"left_children":[1,3,5,7,9,11,13,-1,-1,15,17,-1,-1,-1,-1,19,-1,-1,-1,-1,-1],"loss_changes":[2.361472E1,2.4759521E0,9.619236E-2,7.7552795E-3,7.5727844E-1,2.0718575E-4,6.5935478E-3,0E0,0E0,1.8861932E-1,5.6791306E-3,0E0,0E0,0E0,0E0,1.4161542E-2,0E0,0E0,0E0,0E0,0E0],"parents":[2147483647,0,0,1,1,2,2,3,3,4,4,5,5,6,6,9,9,10,10,15,15],"right_children":[2,4,6,8,10,12,14,-1,-1,16,18,-1,-1,-1,-1,20,-1,-1,-1,-1,-1],"split_conditions":[8.215398E-1,-5.2251726E-1,1.7628088E0,-8.246388E-1,-8.849138E-1,-4.684394E-1,5.140319E-1,-9.78741E-3,-7.226182E-3,1.0156275E0,-5.313218E-1,1.6176419E-3,3.8935342E-3,2.4556875E-4,1.5109171E-3,-4.8915935E-1,-2.5955536E-3,-1.6038585E-3,-5.628299E-3,1.873036E-3,1.8952548E-4],"split_indices":[9,9,8,9,8,10,1,0,0,1,8,0,0,0,0,1,0,0,0,0,0],"split_type":[0,0,0,0,0,0,0,0,0,0,0,0,0,0,0,0,0,0,0,0,0],"sum_hessian":[1.14E2,8.8E1,2.6E1,4.6E1,4.2E1,2.3E1,3E0,2.6E1,2E1,3E0,3.9E1,2E0,2.1E1,1E0,2E0,2E0,1E0,1E0,3.8E1,1E0,1E0],"tree_param":{"num_deleted":"0","num_feature":"19","num_nodes":"21","size_leaf_vector":"1"}},{"base_weights":[-4.6868286E-1,-7.119519E-1,3.5056257E-1,-8.969468E-3,-5.35249E-1,3.7358617E-3,1.2478037E-1,-2.6516363E-2,-5.6857526E-1,2.443409E-4,1.5008444E-3,1.3681658E-1,-2.582576E-3,-4.2105806E-3,-6.0945856E-3,1.8636709E-3,1.8857776E-4],"categories":[],"categories_nodes":[],"categories_segments":[],"categories_sizes":[],"default_left":[0,0,0,0,0,0,0,0,0,0,0,0,0,0,0,0,0],"id":28,"left_children":[1,3,5,-1,7,-1,9,11,13,-1,-1,15,-1,-1,-1,-1,-1],"loss_changes":[2.3168745E1,2.429245E0,9.3738556E-2,0E0,7.987213E-1,0E0,6.4895004E-3,1.8673784E-1,1.4778137E-2,0E0,0E0,1.402029E-2,0E0,0E0,0E0,0E0,0E0],"parents":[2147483647,0,0,1,1,2,2,4,4,6,6,7,7,8,8,11,11],"right_children":[2,4,6,-1,8,-1,10,12,14,-1,-1,16,-1,-1,-1,-1,-1],"split_conditions":[8.215398E-1,-5.5261165E-1,1.7628088E0,-8.969468E-3,-8.849138E-1,3.7358617E-3,5.140319E-1,1.0156275E0,-5.697604E-1,2.443409E-4,1.5008444E-3,-4.8915935E-1,-2.582576E-3,-4.2105806E-3,-6.0945856E-3,1.8636709E-3,1.8857776E-4],"split_indices":[9,9,8,0,8,0,1,1,14,0,0,1,0,0,0,0,0],"split_type":[0,0,0,0,0,0,0,0,0,0,0,0,0,0,0,0,0],"sum_hessian":[1.14E2,8.8E1,2.6E1,4.1E1,4.7E1,2.3E1,3E0,3E0,4.4E1,1E0,2E0,2E0,1E0,1.2E1,3.2E1,1E0,1E0],"tree_param":{"num_deleted":"0","num_feature":"19","num_nodes":"17","size_leaf_vector":"1"}},{"base_weights":[-4.6412057E-1,-7.050549E-1,3.4725997E-1,-8.681654E-1,-5.103747E-1,3.70006E-1,1.2396887E-1,-9.65476E-3,-7.1369964E-3,-2.6383772E-2,-5.460145E-1,1.5819517E-3,3.8207083E-3,2.431193E-4,1.4908386E-3,1.361325E-1,-2.5696629E-3,-1.5653664E-3,-5.5198735E-3,1.8543527E-3,1.8763483E-4],"categories":[],"categories_nodes":[],"categories_segments":[],"categories_sizes":[],"default_left":[0,0,0,0,0,0,0,0,0,0,0,0,0,0,0,0,0,0,0,0,0],"id":29,"left_children":[1,3,5,7,9,11,13,-1,-1,15,17,-1,-1,-1,-1,19,-1,-1,-1,-1,-1],"loss_changes":[2.2726122E1,2.3830452E0,9.126353E-2,1.7406464E-2,7.27314E-1,8.893013E-4,6.3870177E-3,0E0,0E0,1.848751E-1,6.6461563E-3,0E0,0E0,0E0,0E0,1.3880439E-2,0E0,0E0,0E0,0E0,0E0],"parents":[2147483647,0,0,1,1,2,2,3,3,4,4,5,5,6,6,9,9,10,10,15,15],"right_children":[2,4,6,8,10,12,14,-1,-1,16,18,-1,-1,-1,-1,20,-1,-1,-1,-1,-1],"split_conditions":[8.215398E-1,-5.2251726E-1,1.7628088E0,-9.4478726E-1,-8.849138E-1,-4.684394E-1,5.140319E-1,-9.65476E-3,-7.1369964E-3,1.0156275E0,-5.313218E-1,1.5819517E-3,3.8207083E-3,2.431193E-4,1.4908386E-3,-4.8915935E-1,-2.5696629E-3,-1.5653664E-3,-5.5198735E-3,1.8543527E-3,1.8763483E-4],"split_indices":[9,9,8,5,8,10,1,0,0,1,8,0,0,0,0,1,0,0,0,0,0],"split_type":[0,0,0,0,0,0,0,0,0,0,0,0,0,0,0,0,0,0,0,0,0],"sum_hessian":[1.14E2,8.8E1,2.6E1,4.6E1,4.2E1,2.3E1,3E0,2.5E1,2.1E1,3E0,3.9E1,2E0,2.1E1,1E0,2E0,2E0,1E0,1E0,3.8E1,1E0,1E0],"tree_param":{"num_deleted":"0","num_feature":"19","num_nodes":"21","size_leaf_vector":"1"}},{"base_weights":[-4.5962954E-1,-6.9827855E-1,3.440517E-1,-8.59841E-1,-5.0544804E-1,3.6653104E-1,1.2316267E-1,-9.561926E-3,-7.0688706E-3,-5.262686E-1,1.8450808E-3,1.5714053E-3,3.7842377E-3,2.4190366E-4,1.4808999E-3,1.8669665E-4,-5.4001515E-3],"categories":[],"categories_nodes":[],"categories_segments":[],"categories_sizes":[],"default_left":[0,0,0,0,0,0,0,0,0,0,0,0,0,0,0,0,0],"id":30,"left_children":[1,3,5,7,9,11,13,-1,-1,15,-1,-1,-1,-1,-1,-1,-1],"loss_changes":[2.2296984E1,2.3381157E0,8.892393E-2,1.6735077E-2,7.1480846E-1,2.9969215E-4,6.286096E-3,0E0,0E0,3.2470417E-1,0E0,0E0,0E0,0E0,0E0,0E0,0E0],"parents":[2147483647,0,0,1,1,2,2,3,3,4,4,5,5,6,6,9,9],"right_children":[2,4,6,8,10,12,14,-1,-1,16,-1,-1,-1,-1,-1,-1,-1],"split_conditions":[8.215398E-1,-5.2251726E-1,1.7628088E0,-9.4478726E-1,8.875274E-1,-4.684394E-1,5.140319E-1,-9.561926E-3,-7.0688706E-3,-1.0020471E0,1.8450808E-3,1.5714053E-3,3.7842377E-3,2.4190366E-4,1.4808999E-3,1.8669665E-4,-5.4001515E-3],"split_indices":[9,9,8,5,5,10,1,0,0,5,0,0,0,0,0,0,0],"split_type":[0,0,0,0,0,0,0,0,0,0,0,0,0,0,0,0,0],"sum_hessian":[1.14E2,8.8E1,2.6E1,4.6E1,4.2E1,2.3E1,3E0,2.5E1,2.1E1,4.1E1,1E0,2E0,2.1E1,1E0,2E0,1E0,4E1],"tree_param":{"num_deleted":"0","num_feature":"19","num_nodes":"17","size_leaf_vector":"1"}},{"base_weights":[-4.551456E-1,-6.915205E-1,3.4087333E-1,-8.7134065E-3,-5.197712E-1,3.6308886E-3,1.22361764E-1,-2.5409758E-2,-5.5216396E-1,2.4069428E-4,1.4710273E-3,1.3477458E-1,-2.529814E-3,-4.0709134E-3,-5.9258156E-3,1.8358555E-3,1.8576323E-4],"categories":[],"categories_nodes":[],"categories_segments":[],"categories_sizes":[],"default_left":[0,0,0,0,0,0,0,0,0,0,0,0,0,0,0,0,0],"id":31,"left_children":[1,3,5,-1,7,-1,9,11,13,-1,-1,15,-1,-1,-1,-1,-1],"loss_changes":[2.1873995E1,2.2957764E0,8.6639166E-2,0E0,7.546282E-1,0E0,6.1867163E-3,1.7990911E-1,2.2623062E-2,0E0,0E0,1.3604905E-2,0E0,0E0,0E0,0E0,0E0],"parents":[2147483647,0,0,1,1,2,2,4,4,6,6,7,7,8,8,11,11],"right_children":[2,4,6,-1,8,-1,10,12,14,-1,-1,16,-1,-1,-1,-1,-1],"split_conditions":[8.215398E-1,-5.5261165E-1,1.7628088E0,-8.7134065E-3,-8.849138E-1,3.6308886E-3,5.140319E-1,1.0156275E0,-5.697604E-1,2.4069428E-4,1.4710273E-3,-4.8915935E-1,-2.529814E-3,-4.0709134E-3,-5.9258156E-3,1.8358555E-3,1.8576323E-4],"split_indices":[9,9,8,0,8,0,1,1,14,0,0,1,0,0,0,0,0],"split_type":[0,0,0,0,0,0,0,0,0,0,0,0,0,0,0,0,0],"sum_hessian":[1.14E2,8.8E1,2.6E1,4.1E1,4.7E1,2.3E1,3E0,3E0,4.4E1,1E0,2E0,2E0,1E0,1.2E1,3.2E1,1E0,1E0],"tree_param":{"num_deleted":"0","num_feature":"19","num_nodes":"17","size_leaf_vector":"1"}},{"base_weights":[-4.507148E-1,-6.848212E-1,3.376625E-1,-8.4336495E-1,-4.9560317E-1,3.5960928E-1,1.2156607E-1,-9.339687E-3,-6.867141E-3,-5.161017E-1,1.8266761E-3,1.5367233E-3,3.7134571E-3,2.3949087E-4,1.4612203E-3,1.848343E-4,-5.295912E-3],"categories":[],"categories_nodes":[],"categories_segments":[],"categories_sizes":[],"default_left":[0,0,0,0,0,0,0,0,0,0,0,0,0,0,0,0,0],"id":32,"left_children":[1,3,5,7,9,11,13,-1,-1,15,-1,-1,-1,-1,-1,-1,-1],"loss_changes":[2.1456118E1,2.2519684E0,8.433461E-2,2.5707245E-2,6.921282E-1,9.419918E-4,6.0888343E-3,0E0,0E0,3.1266212E-1,0E0,0E0,0E0,0E0,0E0,0E0,0E0],"parents":[2147483647,0,0,1,1,2,2,3,3,4,4,5,5,6,6,9,9],"right_children":[2,4,6,8,10,12,14,-1,-1,16,-1,-1,-1,-1,-1,-1,-1],"split_conditions":[8.215398E-1,-5.2251726E-1,1.7628088E0,-8.246388E-1,8.875274E-1,-4.684394E-1,5.140319E-1,-9.339687E-3,-6.867141E-3,-1.0020471E0,1.8266761E-3,1.5367233E-3,3.7134571E-3,2.3949087E-4,1.4612203E-3,1.848343E-4,-5.295912E-3],"split_indices":[9,9,8,9,5,10,1,0,0,5,0,0,0,0,0,0,0],"split_type":[0,0,0,0,0,0,0,0,0,0,0,0,0,0,0,0,0],"sum_hessian":[1.14E2,8.8E1,2.6E1,4.6E1,4.2E1,2.3E1,3E0,2.6E1,2E1,4.1E1,1E0,2E0,2.1E1,1E0,2E0,1E0,4E1],"tree_param":{"num_deleted":"0","num_feature":"19","num_nodes":"17","size_leaf_vector":"1"}},{"base_weights":[-4.463167E-1,-6.78192E-1,3.3454332E-1,-8.352761E-1,-4.9072352E-1,3.56232E-1,1.20775595E-1,-9.296398E-3,-6.857883E-3,-5.110624E-1,1.8175426E-3,1.5264784E-3,3.6780105E-3,2.382934E-4,1.451479E-3,1.8391013E-4,-5.2442444E-3],"categories":[],"categories_nodes":[],"categories_segments":[],"categories_sizes":[],"default_left":[0,0,0,0,0,0,0,0,0,0,0,0,0,0,0,0,0],"id":33,"left_children":[1,3,5,7,9,11,13,-1,-1,15,-1,-1,-1,-1,-1,-1,-1],"loss_changes":[2.1049036E1,2.21101E0,8.215666E-2,2.5455475E-2,6.810169E-1,3.8266182E-4,5.992435E-3,0E0,0E0,3.06777E-1,0E0,0E0,0E0,0E0,0E0,0E0,0E0],"parents":[2147483647,0,0,1,1,2,2,3,3,4,4,5,5,6,6,9,9],"right_children":[2,4,6,8,10,12,14,-1,-1,16,-1,-1,-1,-1,-1,-1,-1],"split_conditions":[8.215398E-1,-5.2251726E-1,1.7628088E0,-9.4478726E-1,8.875274E-1,-4.684394E-1,5.140319E-1,-9.296398E-3,-6.857883E-3,-1.0020471E0,1.8175426E-3,1.5264784E-3,3.6780105E-3,2.382934E-4,1.451479E-3,1.8391013E-4,-5.2442444E-3],"split_indices":[9,9,8,5,5,10,1,0,0,5,0,0,0,0,0,0,0],"split_type":[0,0,0,0,0,0,0,0,0,0,0,0,0,0,0,0,0],"sum_hessian":[1.14E2,8.8E1,2.6E1,4.6E1,4.2E1,2.3E1,3E0,2.5E1,2.1E1,4.1E1,1E0,2E0,2.1E1,1E0,2E0,1E0,4E1],"tree_param":{"num_deleted":"0","num_feature":"19","num_nodes":"17","size_leaf_vector":"1"}},{"base_weights":[-4.4196224E-1,-6.7162806E-1,3.3145323E-1,-8.424391E-3,-5.0106406E-1,3.5288648E-3,1.19990274E-1,-2.3650922E-2,-5.330775E-1,2.371019E-4,1.4418024E-3,1.3276304E-1,-2.4644642E-3,-3.936042E-3,-5.7307975E-3,1.808455E-3,1.8299073E-4],"categories":[],"categories_nodes":[],"categories_segments":[],"categories_sizes":[],"default_left":[0,0,0,0,0,0,0,0,0,0,0,0,0,0,0,0,0],"id":34,"left_children":[1,3,5,-1,7,-1,9,11,13,-1,-1,15,-1,-1,-1,-1,-1],"loss_changes":[2.0649729E1,2.1708298E0,8.003044E-2,0E0,7.057209E-1,0E0,5.897507E-3,1.7211229E-1,1.992035E-2,0E0,0E0,1.3201818E-2,0E0,0E0,0E0,0E0,0E0],"parents":[2147483647,0,0,1,1,2,2,4,4,6,6,7,7,8,8,11,11],"right_children":[2,4,6,-1,8,-1,10,12,14,-1,-1,16,-1,-1,-1,-1,-1],"split_conditions":[8.215398E-1,-5.4707426E-1,1.7628088E0,-8.424391E-3,-8.849138E-1,3.5288648E-3,5.140319E-1,1.0156275E0,-5.697604E-1,2.371019E-4,1.4418024E-3,-4.8915935E-1,-2.4644642E-3,-3.936042E-3,-5.7307975E-3,1.808455E-3,1.8299073E-4],"split_indices":[9,9,8,0,8,0,1,1,14,0,0,1,0,0,0,0,0],"split_type":[0,0,0,0,0,0,0,0,0,0,0,0,0,0,0,0,0],"sum_hessian":[1.14E2,8.8E1,2.6E1,4.2E1,4.6E1,2.3E1,3E0,3E0,4.3E1,1E0,2E0,2E0,1E0,1.2E1,3.1E1,1E0,1E0],"tree_param":{"num_deleted":"0","num_feature":"19","num_nodes":"17","size_leaf_vector":"1"}},{"base_weights":[-4.3765876E-1,-6.6512036E-1,3.2833156E-1,-8.192512E-1,-4.8118386E-1,3.4950465E-1,1.1921011E-1,-9.126006E-3,-6.7169047E-3,-5.0120926E-1,1.7994127E-3,1.4927761E-3,3.6092172E-3,2.3591638E-4,1.4321905E-3,1.8207579E-4,-5.1432205E-3],"categories":[],"categories_nodes":[],"categories_segments":[],"categories_sizes":[],"default_left":[0,0,0,0,0,0,0,0,0,0,0,0,0,0,0,0,0],"id":35,"left_children":[1,3,5,7,9,11,13,-1,-1,15,-1,-1,-1,-1,-1,-1,-1],"loss_changes":[2.0255215E1,2.1289673E0,7.7884674E-2,3.4425735E-2,6.5947723E-1,9.868145E-4,5.804021E-3,0E0,0E0,2.9542637E-1,0E0,0E0,0E0,0E0,0E0,0E0,0E0],"parents":[2147483647,0,0,1,1,2,2,3,3,4,4,5,5,6,6,9,9],"right_children":[2,4,6,8,10,12,14,-1,-1,16,-1,-1,-1,-1,-1,-1,-1],"split_conditions":[8.215398E-1,-5.2251726E-1,1.7628088E0,-9.4478726E-1,8.875274E-1,-4.684394E-1,5.140319E-1,-9.126006E-3,-6.7169047E-3,-1.0020471E0,1.7994127E-3,1.4927761E-3,3.6092172E-3,2.3591638E-4,1.4321905E-3,1.8207579E-4,-5.1432205E-3],"split_indices":[9,9,8,5,5,10,1,0,0,5,0,0,0,0,0,0,0],"split_type":[0,0,0,0,0,0,0,0,0,0,0,0,0,0,0,0,0],"sum_hessian":[1.14E2,8.8E1,2.6E1,4.6E1,4.2E1,2.3E1,3E0,2.5E1,2.1E1,4.1E1,1E0,2E0,2.1E1,1E0,2E0,1E0,4E1],"tree_param":{"num_deleted":"0","num_feature":"19","num_nodes":"17","size_leaf_vector":"1"}},{"base_weights":[-4.3338856E-1,-6.5868264E-1,3.2529896E-1,-8.302395E-3,-4.9484786E-1,3.4622216E-1,1.1843504E-1,-2.2742234E-2,-5.258162E-1,2.811126E-3,4.2350334E-3,2.347368E-4,1.4226426E-3,1.3143873E-1,-2.4264257E-3,-6.039618E-3,-4.3914124E-1,1.7904156E-3,1.8116533E-4,-4.5343367E-3,-1.8318553E-3],"categories":[],"categories_nodes":[],"categories_segments":[],"categories_sizes":[],"default_left":[0,0,0,0,0,0,0,0,0,0,0,0,0,0,0,0,0,0,0,0,0],"id":36,"left_children":[1,3,5,-1,7,9,11,13,15,-1,-1,-1,-1,17,-1,-1,19,-1,-1,-1,-1],"loss_changes":[1.9870968E1,2.0906792E0,7.5858355E-2,0E0,6.898174E-1,1.7094612E-3,5.711954E-3,1.6751042E-1,3.9572716E-2,0E0,0E0,0E0,0E0,1.2939762E-2,0E0,0E0,8.393288E-3,0E0,0E0,0E0,0E0],"parents":[2147483647,0,0,1,1,2,2,4,4,5,5,6,6,7,7,8,8,13,13,16,16],"right_children":[2,4,6,-1,8,10,12,14,16,-1,-1,-1,-1,18,-1,-1,20,-1,-1,-1,-1],"split_conditions":[8.215398E-1,-5.5261165E-1,1.7628088E0,-8.302395E-3,-8.849138E-1,1.6079345E0,5.140319E-1,1.0156275E0,2.8629916E-2,2.811126E-3,4.2350334E-3,2.347368E-4,1.4226426E-3,-4.8915935E-1,-2.4264257E-3,-6.039618E-3,1.3518573E0,1.7904156E-3,1.8116533E-4,-4.5343367E-3,-1.8318553E-3],"split_indices":[9,9,8,0,8,9,1,1,5,0,0,0,0,1,0,0,6,0,0,0,0],"split_type":[0,0,0,0,0,0,0,0,0,0,0,0,0,0,0,0,0,0,0,0,0],"sum_hessian":[1.14E2,8.8E1,2.6E1,4.1E1,4.7E1,2.3E1,3E0,3E0,4.4E1,1.5E1,8E0,1E0,2E0,2E0,1E0,2E1,2.4E1,1E0,1E0,2.2E1,2E0],"tree_param":{"num_deleted":"0","num_feature":"19","num_nodes":"21","size_leaf_vector":"1"}},{"base_weights":[-4.2916304E-1,-6.523336E-1,3.2236832E-1,-8.035107E-1,-4.7192302E-1,3.4305352E-1,1.1766504E-1,-8.958424E-3,-6.5786806E-3,-4.9164245E-1,1.7814636E-3,2.7847716E-3,4.1973884E-3,2.3356317E-4,1.4131583E-3,1.8025964E-4,-5.04513E-3],"categories":[],"categories_nodes":[],"categories_segments":[],"categories_sizes":[],"default_left":[0,0,0,0,0,0,0,0,0,0,0,0,0,0,0,0,0],"id":37,"left_children":[1,3,5,7,9,11,13,-1,-1,15,-1,-1,-1,-1,-1,-1,-1],"loss_changes":[1.949806E1,2.0481873E0,7.39615E-2,4.2684555E-2,6.388006E-1,1.961708E-3,5.621288E-3,0E0,0E0,2.8460312E-1,0E0,0E0,0E0,0E0,0E0,0E0,0E0],"parents":[2147483647,0,0,1,1,2,2,3,3,4,4,5,5,6,6,9,9],"right_children":[2,4,6,8,10,12,14,-1,-1,16,-1,-1,-1,-1,-1,-1,-1],"split_conditions":[8.215398E-1,-5.2251726E-1,1.7628088E0,-9.4478726E-1,8.875274E-1,1.6079345E0,5.140319E-1,-8.958424E-3,-6.5786806E-3,-1.0020471E0,1.7814636E-3,2.7847716E-3,4.1973884E-3,2.3356317E-4,1.4131583E-3,1.8025964E-4,-5.04513E-3],"split_indices":[9,9,8,5,5,9,1,0,0,5,0,0,0,0,0,0,0],"split_type":[0,0,0,0,0,0,0,0,0,0,0,0,0,0,0,0,0],"sum_hessian":[1.14E2,8.8E1,2.6E1,4.6E1,4.2E1,2.3E1,3E0,2.5E1,2.1E1,4.1E1,1E0,1.5E1,8E0,1E0,2E0,1E0,4E1],"tree_param":{"num_deleted":"0","num_feature":"19","num_nodes":"17","size_leaf_vector":"1"}},{"base_weights":[-4.249583E-1,-6.460195E-1,3.1946424E-1,-8.142962E-3,-4.8531863E-1,3.399139E-1,1.1690006E-1,-2.1857664E-2,-5.157303E-1,2.7586643E-3,4.1600787E-3,2.3239522E-4,1.4037372E-3,1.3012765E-1,-2.389068E-3,-5.930397E-3,-4.3016115E-1,1.7725562E-3,1.7935842E-4,-4.4427067E-3,-1.7860088E-3],"categories":[],"categories_nodes":[],"categories_segments":[],"categories_sizes":[],"default_left":[0,0,0,0,0,0,0,0,0,0,0,0,0,0,0,0,0,0,0,0,0],"id":38,"left_children":[1,3,5,-1,7,9,11,13,15,-1,-1,-1,-1,17,-1,-1,19,-1,-1,-1,-1],"loss_changes":[1.913112E1,2.0115662E0,7.210803E-2,0E0,6.6526985E-1,2.2041798E-3,5.5320114E-3,1.630415E-1,4.2585373E-2,0E0,0E0,0E0,0E0,1.2682896E-2,0E0,0E0,9.38797E-3,0E0,0E0,0E0,0E0],"parents":[2147483647,0,0,1,1,2,2,4,4,5,5,6,6,7,7,8,8,13,13,16,16],"right_children":[2,4,6,-1,8,10,12,14,16,-1,-1,-1,-1,18,-1,-1,20,-1,-1,-1,-1],"split_conditions":[8.215398E-1,-5.5261165E-1,1.7628088E0,-8.142962E-3,-8.849138E-1,1.6079345E0,5.140319E-1,1.0156275E0,2.8629916E-2,2.7586643E-3,4.1600787E-3,2.3239522E-4,1.4037372E-3,-4.8915935E-1,-2.389068E-3,-5.930397E-3,1.3518573E0,1.7725562E-3,1.7935842E-4,-4.4427067E-3,-1.7860088E-3],"split_indices":[9,9,8,0,8,9,1,1,5,0,0,0,0,1,0,0,6,0,0,0,0],"split_type":[0,0,0,0,0,0,0,0,0,0,0,0,0,0,0,0,0,0,0,0,0],"sum_hessian":[1.14E2,8.8E1,2.6E1,4.1E1,4.7E1,2.3E1,3E0,3E0,4.4E1,1.5E1,8E0,1E0,2E0,2E0,1E0,2E1,2.4E1,1E0,1E0,2.2E1,2E0],"tree_param":{"num_deleted":"0","num_feature":"19","num_nodes":"21","size_leaf_vector":"1"}},{"base_weights":[-4.2081466E-1,-6.397923E-1,3.165864E-1,-8.31824E-3,-4.9992323E-1,3.3680302E-1,1.1614008E-1,-2.1748379E-2,-5.276247E-1,2.7328017E-3,4.1231E-3,2.3123324E-4,1.394379E-3,1.2947701E-1,-2.3771226E-3,-6.020794E-3,-4.261087E-1,1.7636934E-3,1.7846166E-4,-4.4002114E-3,-1.774102E-3],"categories":[],"categories_nodes":[],"categories_segments":[],"categories_sizes":[],"default_left":[0,0,0,0,0,0,0,0,0,0,0,0,0,0,0,0,0,0,0,0,0],"id":39,"left_children":[1,3,5,-1,7,9,11,13,15,-1,-1,-1,-1,17,-1,-1,19,-1,-1,-1,-1],"loss_changes":[1.8772104E1,1.9746284E0,7.029724E-2,0E0,7.038183E-1,2.4375916E-3,5.444076E-3,1.6141516E-1,1.2892342E-1,0E0,0E0,0E0,0E0,1.2556378E-2,0E0,0E0,8.436203E-3,0E0,0E0,0E0,0E0],"parents":[2147483647,0,0,1,1,2,2,4,4,5,5,6,6,7,7,8,8,13,13,16,16],"right_children":[2,4,6,-1,8,10,12,14,16,-1,-1,-1,-1,18,-1,-1,20,-1,-1,-1,-1],"split_conditions":[8.215398E-1,-6.801376E-1,1.7628088E0,-8.31824E-3,-8.849138E-1,1.6079345E0,5.140319E-1,1.0156275E0,-3.0461842E-1,2.7328017E-3,4.1231E-3,2.3123324E-4,1.394379E-3,-4.8915935E-1,-2.3771226E-3,-6.020794E-3,1.3518573E0,1.7636934E-3,1.7846166E-4,-4.4002114E-3,-1.774102E-3],"split_indices":[9,9,8,0,8,9,1,1,13,0,0,0,0,1,0,0,6,0,0,0,0],"split_type":[0,0,0,0,0,0,0,0,0,0,0,0,0,0,0,0,0,0,0,0,0],"sum_hessian":[1.14E2,8.8E1,2.6E1,3.5E1,5.3E1,2.3E1,3E0,3E0,5E1,1.5E1,8E0,1E0,2E0,2E0,1E0,2.6E1,2.4E1,1E0,1E0,2.2E1,2E0],"tree_param":{"num_deleted":"0","num_feature":"19","num_nodes":"21","size_leaf_vector":"1"}},{"base_weights":[-4.167149E-1,-6.336298E-1,3.1373468E-1,-8.2373675E-3,-4.951579E-1,3.3372065E-1,1.15385085E-1,-2.1639638E-2,-5.225876E-1,1.4089079E-3,3.4484651E-3,2.300772E-4,1.3850831E-3,1.2882961E-1,-2.3652369E-3,-5.9628165E-3,-4.2209455E-1,1.7548748E-3,1.7756938E-4,-4.358122E-3,-1.7622747E-3],"categories":[],"categories_nodes":[],"categories_segments":[],"categories_sizes":[],"default_left":[0,0,0,0,0,0,0,0,0,0,0,0,0,0,0,0,0,0,0,0,0],"id":40,"left_children":[1,3,5,-1,7,9,11,13,15,-1,-1,-1,-1,17,-1,-1,19,-1,-1,-1,-1],"loss_changes":[1.8420015E1,1.9349976E0,6.852746E-2,0E0,6.9006824E-1,2.9039383E-3,5.3574853E-3,1.5980504E-1,1.2600517E-1,0E0,0E0,0E0,0E0,1.2431122E-2,0E0,0E0,7.5159073E-3,0E0,0E0,0E0,0E0],"parents":[2147483647,0,0,1,1,2,2,4,4,5,5,6,6,7,7,8,8,13,13,16,16],"right_children":[2,4,6,-1,8,10,12,14,16,-1,-1,-1,-1,18,-1,-1,20,-1,-1,-1,-1],"split_conditions":[8.215398E-1,-6.801376E-1,1.7628088E0,-8.2373675E-3,-8.849138E-1,-4.684394E-1,5.140319E-1,1.0156275E0,-3.0461842E-1,1.4089079E-3,3.4484651E-3,2.300772E-4,1.3850831E-3,-4.8915935E-1,-2.3652369E-3,-5.9628165E-3,1.3518573E0,1.7548748E-3,1.7756938E-4,-4.358122E-3,-1.7622747E-3],"split_indices":[9,9,8,0,8,10,1,1,13,0,0,0,0,1,0,0,6,0,0,0,0],"split_type":[0,0,0,0,0,0,0,0,0,0,0,0,0,0,0,0,0,0,0,0,0],"sum_hessian":[1.14E2,8.8E1,2.6E1,3.5E1,5.3E1,2.3E1,3E0,3E0,5E1,2E0,2.1E1,1E0,2E0,2E0,1E0,2.6E1,2.4E1,1E0,1E0,2.2E1,2E0],"tree_param":{"num_deleted":"0","num_feature":"19","num_nodes":"21","size_leaf_vector":"1"}},{"base_weights":[-4.1267195E-1,-6.275267E-1,3.1083703E-1,-8.157282E-3,-4.904381E-1,3.3058584E-1,1.1463502E-1,-2.153144E-2,-5.175986E-1,2.6774013E-3,4.055797E-3,2.2892683E-4,1.375849E-3,1.2818547E-1,-2.3534107E-3,-5.9053963E-3,-4.1811842E-1,1.7461005E-3,1.7668157E-4,-4.316436E-3,-1.7505263E-3],"categories":[],"categories_nodes":[],"categories_segments":[],"categories_sizes":[],"default_left":[0,0,0,0,0,0,0,0,0,0,0,0,0,0,0,0,0,0,0,0,0],"id":41,"left_children":[1,3,5,-1,7,9,11,13,15,-1,-1,-1,-1,17,-1,-1,19,-1,-1,-1,-1],"loss_changes":[1.8071732E1,1.8961601E0,6.672168E-2,0E0,6.7658615E-1,4.523039E-3,5.272217E-3,1.58211E-1,1.2314987E-1,0E0,0E0,0E0,0E0,1.2307122E-2,0E0,0E0,6.6275597E-3,0E0,0E0,0E0,0E0],"parents":[2147483647,0,0,1,1,2,2,4,4,5,5,6,6,7,7,8,8,13,13,16,16],"right_children":[2,4,6,-1,8,10,12,14,16,-1,-1,-1,-1,18,-1,-1,20,-1,-1,-1,-1],"split_conditions":[8.215398E-1,-6.801376E-1,1.7628088E0,-8.157282E-3,-8.849138E-1,1.6079345E0,5.140319E-1,1.0156275E0,-3.0461842E-1,2.6774013E-3,4.055797E-3,2.2892683E-4,1.375849E-3,-4.8915935E-1,-2.3534107E-3,-5.9053963E-3,1.3518573E0,1.7461005E-3,1.7668157E-4,-4.316436E-3,-1.7505263E-3],"split_indices":[9,9,8,0,8,9,1,1,13,0,0,0,0,1,0,0,6,0,0,0,0],"split_type":[0,0,0,0,0,0,0,0,0,0,0,0,0,0,0,0,0,0,0,0,0],"sum_hessian":[1.14E2,8.8E1,2.6E1,3.5E1,5.3E1,2.3E1,3E0,3E0,5E1,1.5E1,8E0,1E0,2E0,2E0,1E0,2.6E1,2.4E1,1E0,1E0,2.2E1,2E0],"tree_param":{"num_deleted":"0","num_feature":"19","num_nodes":"21","size_leaf_vector":"1"}},{"base_weights":[-4.086515E-1,-6.2148243E-1,3.080375E-1,-7.46479E-1,-4.2563647E-1,3.275605E-1,1.1388986E-1,-8.556365E-3,-6.184585E-3,1.2754454E-1,-4.6089095E-1,2.6523008E-3,4.0197456E-3,2.2778212E-4,1.3666766E-3,1.7373698E-3,1.7579824E-4,-3.8775247E-1,-5.5483663E-1,-4.320031E-3,-2.7091785E-3,-1.3240892E-3,-5.7900487E-3],"categories":[],"categories_nodes":[],"categories_segments":[],"categories_sizes":[],"default_left":[0,0,0,0,0,0,0,0,0,0,0,0,0,0,0,0,0,0,0,0,0,0,0],"id":42,"left_children":[1,3,5,7,9,11,13,-1,-1,15,17,-1,-1,-1,-1,-1,-1,19,21,-1,-1,-1,-1],"loss_changes":[1.77328E1,1.8609962E0,6.5033674E-2,2.1146774E-1,7.803626E-1,4.7023296E-3,5.1882453E-3,0E0,0E0,1.2184348E-2,2.5347233E-2,0E0,0E0,0E0,0E0,0E0,0E0,1.8727779E-3,5.6055546E-2,0E0,0E0,0E0,0E0],"parents":[2147483647,0,0,1,1,2,2,3,3,4,4,5,5,6,6,9,9,10,10,17,17,18,18],"right_children":[2,4,6,8,10,12,14,-1,-1,16,18,-1,-1,-1,-1,-1,-1,20,22,-1,-1,-1,-1],"split_conditions":[8.215398E-1,-4.2308134E-1,1.7628088E0,-9.4478726E-1,-8.849138E-1,1.6079345E0,5.140319E-1,-8.556365E-3,-6.184585E-3,-4.8915935E-1,-3.7159795E-1,2.6523008E-3,4.0197456E-3,2.2778212E-4,1.3666766E-3,1.7373698E-3,1.7579824E-4,4.0081882E-1,-5.313218E-1,-4.320031E-3,-2.7091785E-3,-1.3240892E-3,-5.7900487E-3],"split_indices":[9,9,8,5,8,9,1,0,0,1,10,0,0,0,0,0,0,5,8,0,0,0,0],"split_type":[0,0,0,0,0,0,0,0,0,0,0,0,0,0,0,0,0,0,0,0,0,0,0],"sum_hessian":[1.14E2,8.8E1,2.6E1,5.2E1,3.6E1,2.3E1,3E0,2.5E1,2.7E1,2E0,3.4E1,1.5E1,8E0,1E0,2E0,1E0,1E0,2.2E1,1.2E1,1.4E1,8E0,1E0,1.1E1],"tree_param":{"num_deleted":"0","num_feature":"19","num_nodes":"23","size_leaf_vector":"1"}},{"base_weights":[-4.0472764E-1,-6.1557066E-1,3.0526328E-1,-8.001377E-3,-4.811265E-1,3.2456294E-1,1.1314957E-1,-2.0355925E-2,-5.078315E-1,2.6274358E-3,3.9840145E-3,2.2664308E-4,1.3575655E-3,1.2690683E-1,-2.310721E-3,-5.792069E-3,-4.104328E-1,1.7286831E-3,1.7491936E-4,-4.2361724E-3,-1.7254119E-3],"categories":[],"categories_nodes":[],"categories_segments":[],"categories_sizes":[],"default_left":[0,0,0,0,0,0,0,0,0,0,0,0,0,0,0,0,0,0,0,0,0],"id":43,"left_children":[1,3,5,-1,7,9,11,13,15,-1,-1,-1,-1,17,-1,-1,19,-1,-1,-1,-1],"loss_changes":[1.7403025E1,1.8234749E0,6.338453E-2,0E0,6.5412617E-1,4.8742294E-3,5.10557E-3,1.5344721E-1,1.1681938E-1,0E0,0E0,0E0,0E0,1.206281E-2,0E0,0E0,5.320072E-3,0E0,0E0,0E0,0E0],"parents":[2147483647,0,0,1,1,2,2,4,4,5,5,6,6,7,7,8,8,13,13,16,16],"right_children":[2,4,6,-1,8,10,12,14,16,-1,-1,-1,-1,18,-1,-1,20,-1,-1,-1,-1],"split_conditions":[8.215398E-1,-6.801376E-1,1.7628088E0,-8.001377E-3,-8.849138E-1,1.6079345E0,5.140319E-1,1.0156275E0,-3.0461842E-1,2.6274358E-3,3.9840145E-3,2.2664308E-4,1.3575655E-3,-4.8915935E-1,-2.310721E-3,-5.792069E-3,1.3518573E0,1.7286831E-3,1.7491936E-4,-4.2361724E-3,-1.7254119E-3],"split_indices":[9,9,8,0,8,9,1,1,13,0,0,0,0,1,0,0,6,0,0,0,0],"split_type":[0,0,0,0,0,0,0,0,0,0,0,0,0,0,0,0,0,0,0,0,0],"sum_hessian":[1.14E2,8.8E1,2.6E1,3.5E1,5.3E1,2.3E1,3E0,3E0,5E1,1.5E1,8E0,1E0,2E0,2E0,1E0,2.6E1,2.4E1,1E0,1E0,2.2E1,2E0],"tree_param":{"num_deleted":"0","num_feature":"19","num_nodes":"21","size_leaf_vector":"1"}},{"base_weights":[-4.0078443E-1,-6.096415E-1,3.025142E-1,-7.3221624E-1,-4.1758463E-1,3.2159278E-1,1.1241414E-1,-8.397155E-3,-6.062449E-3,1.262723E-1,-4.5226994E-1,2.6028038E-3,3.948601E-3,2.2551E-4,1.3485152E-3,1.7200398E-3,1.7404466E-4,-3.800348E-1,-5.452805E-1,-4.2370614E-3,-2.650232E-3,-1.3088419E-3,-5.6890654E-3],"categories":[],"categories_nodes":[],"categories_segments":[],"categories_sizes":[],"default_left":[0,0,0,0,0,0,0,0,0,0,0,0,0,0,0,0,0,0,0,0,0,0,0],"id":44,"left_children":[1,3,5,7,9,11,13,-1,-1,15,17,-1,-1,-1,-1,-1,-1,19,21,-1,-1,-1,-1],"loss_changes":[1.7076647E1,1.7894135E0,6.17733E-2,2.0864677E-1,7.5507116E-1,5.0382614E-3,5.024135E-3,0E0,0E0,1.1942491E-2,2.7926922E-2,0E0,0E0,0E0,0E0,0E0,0E0,3.2303333E-3,5.2815676E-2,0E0,0E0,0E0,0E0],"parents":[2147483647,0,0,1,1,2,2,3,3,4,4,5,5,6,6,9,9,10,10,17,17,18,18],"right_children":[2,4,6,8,10,12,14,-1,-1,16,18,-1,-1,-1,-1,-1,-1,20,22,-1,-1,-1,-1],"split_conditions":[8.215398E-1,-4.2308134E-1,1.7628088E0,-9.4478726E-1,-8.849138E-1,1.6079345E0,5.140319E-1,-8.397155E-3,-6.062449E-3,-4.8915935E-1,-3.7159795E-1,2.6028038E-3,3.948601E-3,2.2551E-4,1.3485152E-3,1.7200398E-3,1.7404466E-4,4.0081882E-1,-5.313218E-1,-4.2370614E-3,-2.650232E-3,-1.3088419E-3,-5.6890654E-3],"split_indices":[9,9,8,5,8,9,1,0,0,1,10,0,0,0,0,0,0,5,8,0,0,0,0],"split_type":[0,0,0,0,0,0,0,0,0,0,0,0,0,0,0,0,0,0,0,0,0,0,0],"sum_hessian":[1.14E2,8.8E1,2.6E1,5.2E1,3.6E1,2.3E1,3E0,2.5E1,2.7E1,2E0,3.4E1,1.5E1,8E0,1E0,2E0,1E0,1E0,2.2E1,1.2E1,1.4E1,8E0,1E0,1.1E1],"tree_param":{"num_deleted":"0","num_feature":"19","num_nodes":"23","size_leaf_vector":"1"}},{"base_weights":[-3.9693594E-1,-6.0384226E-1,2.9979E-1,-7.848432E-3,-4.719927E-1,3.186498E-1,1.1168352E-1,-1.9212045E-2,-4.9825016E-1,2.5784022E-3,3.913502E-3,2.2438257E-4,1.3395251E-3,1.2564094E-1,-2.268855E-3,-5.680911E-3,-4.0289196E-1,1.7114398E-3,1.7317444E-4,-4.157428E-3,-1.7007123E-3],"categories":[],"categories_nodes":[],"categories_segments":[],"categories_sizes":[],"default_left":[0,0,0,0,0,0,0,0,0,0,0,0,0,0,0,0,0,0,0,0,0],"id":45,"left_children":[1,3,5,-1,7,9,11,13,15,-1,-1,-1,-1,17,-1,-1,19,-1,-1,-1,-1],"loss_changes":[1.675908E1,1.7535362E0,6.0198545E-2,0E0,6.3242626E-1,5.1953793E-3,4.943952E-3,1.4883462E-1,1.107769E-1,0E0,0E0,0E0,0E0,1.1823364E-2,0E0,0E0,4.0926933E-3,0E0,0E0,0E0,0E0],"parents":[2147483647,0,0,1,1,2,2,4,4,5,5,6,6,7,7,8,8,13,13,16,16],"right_children":[2,4,6,-1,8,10,12,14,16,-1,-1,-1,-1,18,-1,-1,20,-1,-1,-1,-1],"split_conditions":[8.215398E-1,-6.801376E-1,1.7628088E0,-7.848432E-3,-8.849138E-1,1.6079345E0,5.140319E-1,1.0156275E0,-3.0461842E-1,2.5784022E-3,3.913502E-3,2.2438257E-4,1.3395251E-3,-4.8915935E-1,-2.268855E-3,-5.680911E-3,1.3518573E0,1.7114398E-3,1.7317444E-4,-4.157428E-3,-1.7007123E-3],"split_indices":[9,9,8,0,8,9,1,1,13,0,0,0,0,1,0,0,6,0,0,0,0],"split_type":[0,0,0,0,0,0,0,0,0,0,0,0,0,0,0,0,0,0,0,0,0],"sum_hessian":[1.14E2,8.8E1,2.6E1,3.5E1,5.3E1,2.3E1,3E0,3E0,5E1,1.5E1,8E0,1E0,2E0,2E0,1E0,2.6E1,2.4E1,1E0,1E0,2.2E1,2E0],"tree_param":{"num_deleted":"0","num_feature":"19","num_nodes":"21","size_leaf_vector":"1"}},{"base_weights":[-3.9306846E-1,-5.98026E-1,2.9709044E-1,-7.182262E-1,-4.096845E-1,3.1573382E-1,1.1095764E-1,-8.2409475E-3,-5.9426865E-3,1.2501276E-1,-4.4381043E-1,2.55423E-3,3.878715E-3,2.2326052E-4,1.3305949E-3,1.7028826E-3,1.7230868E-4,-3.7246534E-1,-5.35897E-1,-4.1556656E-3,-2.592449E-3,-1.2937941E-3,-5.589919E-3],"categories":[],"categories_nodes":[],"categories_segments":[],"categories_sizes":[],"default_left":[0,0,0,0,0,0,0,0,0,0,0,0,0,0,0,0,0,0,0,0,0,0,0],"id":46,"left_children":[1,3,5,7,9,11,13,-1,-1,15,17,-1,-1,-1,-1,-1,-1,19,21,-1,-1,-1,-1],"loss_changes":[1.6444794E1,1.7205982E0,5.8660746E-2,2.0579529E-1,7.306223E-1,5.345106E-3,4.8649944E-3,0E0,0E0,1.1705425E-2,3.0344486E-2,0E0,0E0,0E0,0E0,0E0,0E0,4.5051575E-3,4.9727917E-2,0E0,0E0,0E0,0E0],"parents":[2147483647,0,0,1,1,2,2,3,3,4,4,5,5,6,6,9,9,10,10,17,17,18,18],"right_children":[2,4,6,8,10,12,14,-1,-1,16,18,-1,-1,-1,-1,-1,-1,20,22,-1,-1,-1,-1],"split_conditions":[8.215398E-1,-4.2308134E-1,1.7628088E0,-9.4478726E-1,-8.849138E-1,1.6079345E0,5.140319E-1,-8.2409475E-3,-5.9426865E-3,-4.8915935E-1,-3.7159795E-1,2.55423E-3,3.878715E-3,2.2326052E-4,1.3305949E-3,1.7028826E-3,1.7230868E-4,4.0081882E-1,-5.313218E-1,-4.1556656E-3,-2.592449E-3,-1.2937941E-3,-5.589919E-3],"split_indices":[9,9,8,5,8,9,1,0,0,1,10,0,0,0,0,0,0,5,8,0,0,0,0],"split_type":[0,0,0,0,0,0,0,0,0,0,0,0,0,0,0,0,0,0,0,0,0,0,0],"sum_hessian":[1.14E2,8.8E1,2.6E1,5.2E1,3.6E1,2.3E1,3E0,2.5E1,2.7E1,2E0,3.4E1,1.5E1,8E0,1E0,2E0,1E0,1E0,2.2E1,1.2E1,1.4E1,8E0,1E0,1.1E1],"tree_param":{"num_deleted":"0","num_feature":"19","num_nodes":"23","size_leaf_vector":"1"}},{"base_weights":[-3.8929388E-1,-5.923372E-1,2.9441535E-1,-7.6983916E-3,-4.6303335E-1,3.128445E-1,1.1023651E-1,-1.8099114E-2,-4.8885107E-1,1.2948982E-3,3.2362724E-3,2.2214412E-4,1.321724E-3,1.2438768E-1,-2.2277974E-3,-5.5718794E-3,-3.9549315E-1,1.6943681E-3,1.714471E-4,-4.080175E-3,-1.67642E-3],"categories":[],"categories_nodes":[],"categories_segments":[],"categories_sizes":[],"default_left":[0,0,0,0,0,0,0,0,0,0,0,0,0,0,0,0,0,0,0,0,0],"id":47,"left_children":[1,3,5,-1,7,9,11,13,15,-1,-1,-1,-1,17,-1,-1,19,-1,-1,-1,-1],"loss_changes":[1.6138992E1,1.6862392E0,5.715823E-2,0E0,6.114607E-1,5.5429935E-3,4.787244E-3,1.443682E-1,1.05005264E-1,0E0,0E0,0E0,0E0,1.1588667E-2,0E0,0E0,2.94137E-3,0E0,0E0,0E0,0E0],"parents":[2147483647,0,0,1,1,2,2,4,4,5,5,6,6,7,7,8,8,13,13,16,16],"right_children":[2,4,6,-1,8,10,12,14,16,-1,-1,-1,-1,18,-1,-1,20,-1,-1,-1,-1],"split_conditions":[8.215398E-1,-6.801376E-1,1.7628088E0,-7.6983916E-3,-8.849138E-1,-4.684394E-1,5.140319E-1,1.0156275E0,-3.0461842E-1,1.2948982E-3,3.2362724E-3,2.2214412E-4,1.321724E-3,-4.8915935E-1,-2.2277974E-3,-5.5718794E-3,1.3518573E0,1.6943681E-3,1.714471E-4,-4.080175E-3,-1.67642E-3],"split_indices":[9,9,8,0,8,10,1,1,13,0,0,0,0,1,0,0,6,0,0,0,0],"split_type":[0,0,0,0,0,0,0,0,0,0,0,0,0,0,0,0,0,0,0,0,0],"sum_hessian":[1.14E2,8.8E1,2.6E1,3.5E1,5.3E1,2.3E1,3E0,3E0,5E1,2E0,2.1E1,1E0,2E0,2E0,1E0,2.6E1,2.4E1,1E0,1E0,2.2E1,2E0],"tree_param":{"num_deleted":"0","num_feature":"19","num_nodes":"21","size_leaf_vector":"1"}},{"base_weights":[-3.8551673E-1,-5.8663166E-1,2.9169616E-1,-7.045036E-1,-4.0193325E-1,3.0990484E-1,1.0952011E-1,-8.087685E-3,-5.825253E-3,1.23765744E-1,-4.3550935E-1,2.5023704E-3,3.8154705E-3,2.2103339E-4,1.3129126E-3,1.6858962E-3,1.7058998E-4,-3.6504126E-1,-5.26683E-1,-4.0758145E-3,-2.5358077E-3,-1.2789431E-3,-5.4925745E-3],"categories":[],"categories_nodes":[],"categories_segments":[],"categories_sizes":[],"default_left":[0,0,0,0,0,0,0,0,0,0,0,0,0,0,0,0,0,0,0,0,0,0,0],"id":48,"left_children":[1,3,5,7,9,11,13,-1,-1,15,17,-1,-1,-1,-1,-1,-1,19,21,-1,-1,-1,-1],"loss_changes":[1.5833845E1,1.6544361E0,5.5623055E-2,2.0292664E-1,7.06985E-1,7.1163177E-3,4.7106706E-3,0E0,0E0,1.1473056E-2,3.2608032E-2,0E0,0E0,0E0,0E0,0E0,0E0,5.701065E-3,4.6784878E-2,0E0,0E0,0E0,0E0],"parents":[2147483647,0,0,1,1,2,2,3,3,4,4,5,5,6,6,9,9,10,10,17,17,18,18],"right_children":[2,4,6,8,10,12,14,-1,-1,16,18,-1,-1,-1,-1,-1,-1,20,22,-1,-1,-1,-1],"split_conditions":[8.215398E-1,-4.2308134E-1,1.7628088E0,-9.4478726E-1,-8.849138E-1,1.6079345E0,5.140319E-1,-8.087685E-3,-5.825253E-3,-4.8915935E-1,-3.7159795E-1,2.5023704E-3,3.8154705E-3,2.2103339E-4,1.3129126E-3,1.6858962E-3,1.7058998E-4,4.0081882E-1,-5.313218E-1,-4.0758145E-3,-2.5358077E-3,-1.2789431E-3,-5.4925745E-3],"split_indices":[9,9,8,5,8,9,1,0,0,1,10,0,0,0,0,0,0,5,8,0,0,0,0],"split_type":[0,0,0,0,0,0,0,0,0,0,0,0,0,0,0,0,0,0,0,0,0,0,0],"sum_hessian":[1.14E2,8.8E1,2.6E1,5.2E1,3.6E1,2.3E1,3E0,2.5E1,2.7E1,2E0,3.4E1,1.5E1,8E0,1E0,2E0,1E0,1E0,2.2E1,1.2E1,1.4E1,8E0,1E0,1.1E1],"tree_param":{"num_deleted":"0","num_feature":"19","num_nodes":"23","size_leaf_vector":"1"}},{"base_weights":[-3.818145E-1,-5.8105123E-1,2.8907E-1,-7.3217964E-3,-4.3670857E-1,3.0706903E-1,1.088084E-1,-4.531384E-1,1.6774666E-3,2.4789106E-3,3.7815552E-3,2.1992832E-4,1.3041598E-3,1.6973703E-4,-4.6372724E-1,-3.3562281E-3,-4.9906927E-3],"categories":[],"categories_nodes":[],"categories_segments":[],"categories_sizes":[],"default_left":[0,0,0,0,0,0,0,0,0,0,0,0,0,0,0,0,0],"id":49,"left_children":[1,3,5,-1,7,9,11,13,-1,-1,-1,-1,-1,-1,15,-1,-1],"loss_changes":[1.5539421E1,1.6217232E0,5.4190636E-2,0E0,5.5270576E-1,7.220745E-3,4.6352744E-3,2.4183369E-1,0E0,0E0,0E0,0E0,0E0,0E0,4.076481E-2,0E0,0E0],"parents":[2147483647,0,0,1,1,2,2,4,4,5,5,6,6,7,7,14,14],"right_children":[2,4,6,-1,8,10,12,14,-1,-1,-1,-1,-1,-1,16,-1,-1],"split_conditions":[8.215398E-1,-5.5261165E-1,1.7628088E0,-7.3217964E-3,8.875274E-1,1.6079345E0,5.140319E-1,-1.0020471E0,1.6774666E-3,2.4789106E-3,3.7815552E-3,2.1992832E-4,1.3041598E-3,1.6973703E-4,-5.697604E-1,-3.3562281E-3,-4.9906927E-3],"split_indices":[9,9,8,0,5,9,1,5,0,0,0,0,0,0,14,0,0],"split_type":[0,0,0,0,0,0,0,0,0,0,0,0,0,0,0,0,0],"sum_hessian":[1.14E2,8.8E1,2.6E1,4.1E1,4.7E1,2.3E1,3E0,4.6E1,1E0,1.5E1,8E0,1E0,2E0,1E0,4.5E1,1.2E1,3.3E1],"tree_param":{"num_deleted":"0","num_feature":"19","num_nodes":"17","size_leaf_vector":"1"}},{"base_weights":[-3.7804884E-1,-5.75396E-1,2.8646764E-1,-7.480016E-3,-4.4967008E-1,3.042592E-1,1.0810134E-1,-1.623056E-2,-4.7484827E-1,2.4556709E-3,3.7479415E-3,2.1882862E-4,1.2954654E-3,1.22531176E-1,-2.1625787E-3,-5.4116976E-3,-3.842272E-1,1.6690793E-3,1.6888826E-4,-3.965175E-3,-1.6192567E-3],"categories":[],"categories_nodes":[],"categories_segments":[],"categories_sizes":[],"default_left":[0,0,0,0,0,0,0,0,0,0,0,0,0,0,0,0,0,0,0,0,0],"id":50,"left_children":[1,3,5,-1,7,9,11,13,15,-1,-1,-1,-1,17,-1,-1,19,-1,-1,-1,-1],"loss_changes":[1.5245981E1,1.5950356E0,5.2791357E-2,0E0,5.8160686E-1,7.319212E-3,4.5610443E-3,1.3752289E-1,9.8584175E-2,0E0,0E0,0E0,0E0,1.1245318E-2,0E0,0E0,4.0974617E-3,0E0,0E0,0E0,0E0],"parents":[2147483647,0,0,1,1,2,2,4,4,5,5,6,6,7,7,8,8,13,13,16,16],"right_children":[2,4,6,-1,8,10,12,14,16,-1,-1,-1,-1,18,-1,-1,20,-1,-1,-1,-1],"split_conditions":[8.215398E-1,-6.801376E-1,1.7628088E0,-7.480016E-3,-8.849138E-1,1.6079345E0,5.140319E-1,1.0156275E0,-3.0461842E-1,2.4556709E-3,3.7479415E-3,2.1882862E-4,1.2954654E-3,-4.8915935E-1,-2.1625787E-3,-5.4116976E-3,1.3518573E0,1.6690793E-3,1.6888826E-4,-3.965175E-3,-1.6192567E-3],"split_indices":[9,9,8,0,8,9,1,1,13,0,0,0,0,1,0,0,6,0,0,0,0],"split_type":[0,0,0,0,0,0,0,0,0,0,0,0,0,0,0,0,0,0,0,0,0],"sum_hessian":[1.14E2,8.8E1,2.6E1,3.5E1,5.3E1,2.3E1,3E0,3E0,5E1,1.5E1,8E0,1E0,2E0,2E0,1E0,2.6E1,2.4E1,1E0,1E0,2.2E1,2E0],"tree_param":{"num_deleted":"0","num_feature":"19","num_nodes":"21","size_leaf_vector":"1"}},{"base_weights":[-3.7436473E-1,-5.6985325E-1,2.8388882E-1,-7.4072937E-3,-4.45383E-1,3.014751E-1,1.0739891E-1,-1.614941E-2,-4.703154E-1,2.432649E-3,3.7146264E-3,2.1773457E-4,1.2868291E-3,1.2191852E-1,-2.1517659E-3,-5.3595845E-3,-3.806083E-1,1.6607338E-3,1.6804397E-4,-4.6833055E-3,-3.1177832E-3],"categories":[],"categories_nodes":[],"categories_segments":[],"categories_sizes":[],"default_left":[0,0,0,0,0,0,0,0,0,0,0,0,0,0,0,0,0,0,0,0,0],"id":51,"left_children":[1,3,5,-1,7,9,11,13,15,-1,-1,-1,-1,17,-1,-1,19,-1,-1,-1,-1],"loss_changes":[1.4960096E1,1.5630283E0,5.1424503E-2,0E0,5.70302E-1,7.411957E-3,4.487939E-3,1.3615109E-1,9.63316E-2,0E0,0E0,0E0,0E0,1.1133134E-2,0E0,0E0,4.932642E-3,0E0,0E0,0E0,0E0],"parents":[2147483647,0,0,1,1,2,2,4,4,5,5,6,6,7,7,8,8,13,13,16,16],"right_children":[2,4,6,-1,8,10,12,14,16,-1,-1,-1,-1,18,-1,-1,20,-1,-1,-1,-1],"split_conditions":[8.215398E-1,-6.801376E-1,1.7628088E0,-7.4072937E-3,-8.849138E-1,1.6079345E0,5.140319E-1,1.0156275E0,-3.0461842E-1,2.432649E-3,3.7146264E-3,2.1773457E-4,1.2868291E-3,-4.8915935E-1,-2.1517659E-3,-5.3595845E-3,-4.606051E-1,1.6607338E-3,1.6804397E-4,-4.6833055E-3,-3.1177832E-3],"split_indices":[9,9,8,0,8,9,1,1,13,0,0,0,0,1,0,0,6,0,0,0,0],"split_type":[0,0,0,0,0,0,0,0,0,0,0,0,0,0,0,0,0,0,0,0,0],"sum_hessian":[1.14E2,8.8E1,2.6E1,3.5E1,5.3E1,2.3E1,3E0,3E0,5E1,1.5E1,8E0,1E0,2E0,2E0,1E0,2.6E1,2.4E1,1E0,1E0,8E0,1.6E1],"tree_param":{"num_deleted":"0","num_feature":"19","num_nodes":"21","size_leaf_vector":"1"}},{"base_weights":[-3.707362E-1,-5.6438947E-1,2.8133336E-1,-6.7785686E-1,-3.8660133E-1,2.987165E-1,1.06701076E-1,-7.7963695E-3,-5.5913758E-3,1.21308945E-1,-4.1909075E-1,1.7804027E-1,3.2110284E-3,2.1664589E-4,1.2782504E-3,1.6524303E-3,1.6720383E-4,-3.5019487E-1,-5.087457E-1,4.0295778E-4,1.9753E-3,-3.9190752E-3,-2.4176328E-3,-1.2239098E-3,-5.307426E-3],"categories":[],"categories_nodes":[],"categories_segments":[],"categories_sizes":[],"default_left":[0,0,0,0,0,0,0,0,0,0,0,0,0,0,0,0,0,0,0,0,0,0,0,0,0],"id":52,"left_children":[1,3,5,7,9,11,13,-1,-1,15,17,19,-1,-1,-1,-1,-1,21,23,-1,-1,-1,-1,-1,-1],"loss_changes":[1.4680455E1,1.5333519E0,5.008936E-2,2.0448875E-1,6.614027E-1,7.6670647E-3,4.4159554E-3,0E0,0E0,1.102208E-2,3.8030148E-2,8.148E-3,0E0,0E0,0E0,0E0,0E0,9.279013E-3,4.5523882E-2,0E0,0E0,0E0,0E0,0E0,0E0],"parents":[2147483647,0,0,1,1,2,2,3,3,4,4,5,5,6,6,9,9,10,10,11,11,17,17,18,18],"right_children":[2,4,6,8,10,12,14,-1,-1,16,18,20,-1,-1,-1,-1,-1,22,24,-1,-1,-1,-1,-1,-1],"split_conditions":[8.215398E-1,-4.2308134E-1,1.7628088E0,-9.4478726E-1,-8.849138E-1,1.4362234E0,5.140319E-1,-7.7963695E-3,-5.5913758E-3,-4.8915935E-1,-3.7159795E-1,-4.684394E-1,3.2110284E-3,2.1664589E-4,1.2782504E-3,1.6524303E-3,1.6720383E-4,4.0081882E-1,-5.313218E-1,4.0295778E-4,1.9753E-3,-3.9190752E-3,-2.4176328E-3,-1.2239098E-3,-5.307426E-3],"split_indices":[9,9,8,5,8,11,1,0,0,1,10,10,0,0,0,0,0,5,8,0,0,0,0,0,0],"split_type":[0,0,0,0,0,0,0,0,0,0,0,0,0,0,0,0,0,0,0,0,0,0,0,0,0],"sum_hessian":[1.14E2,8.8E1,2.6E1,5.2E1,3.6E1,2.3E1,3E0,2.5E1,2.7E1,2E0,3.4E1,5E0,1.8E1,1E0,2E0,1E0,1E0,2.2E1,1.2E1,1E0,4E0,1.4E1,8E0,1E0,1.1E1],"tree_param":{"num_deleted":"0","num_feature":"19","num_nodes":"25","size_leaf_vector":"1"}},{"base_weights":[-3.6717972E-1,-5.5902016E-1,2.787824E-1,-7.265605E-3,-4.3697432E-1,2.959622E-1,1.060078E-1,-1.5125714E-2,-4.6149236E-1,2.3845842E-3,3.653065E-3,2.1556258E-4,1.269729E-3,1.2070241E-1,-2.1130503E-3,-5.2567255E-3,-3.7371805E-1,1.6441682E-3,1.6636788E-4,-4.6037547E-3,-3.0585718E-3],"categories":[],"categories_nodes":[],"categories_segments":[],"categories_sizes":[],"default_left":[0,0,0,0,0,0,0,0,0,0,0,0,0,0,0,0,0,0,0,0,0],"id":53,"left_children":[1,3,5,-1,7,9,11,13,15,-1,-1,-1,-1,17,-1,-1,19,-1,-1,-1,-1],"loss_changes":[1.4406836E1,1.5023499E0,4.876852E-2,0E0,5.515375E-1,8.590937E-3,4.345078E-3,1.3209169E-1,9.084797E-2,0E0,0E0,0E0,0E0,1.0912139E-2,0E0,0E0,6.2069893E-3,0E0,0E0,0E0,0E0],"parents":[2147483647,0,0,1,1,2,2,4,4,5,5,6,6,7,7,8,8,13,13,16,16],"right_children":[2,4,6,-1,8,10,12,14,16,-1,-1,-1,-1,18,-1,-1,20,-1,-1,-1,-1],"split_conditions":[8.215398E-1,-6.801376E-1,1.7628088E0,-7.265605E-3,-8.849138E-1,1.6079345E0,5.140319E-1,1.0156275E0,-3.0461842E-1,2.3845842E-3,3.653065E-3,2.1556258E-4,1.269729E-3,-4.8915935E-1,-2.1130503E-3,-5.2567255E-3,-4.606051E-1,1.6441682E-3,1.6636788E-4,-4.6037547E-3,-3.0585718E-3],"split_indices":[9,9,8,0,8,9,1,1,13,0,0,0,0,1,0,0,6,0,0,0,0],"split_type":[0,0,0,0,0,0,0,0,0,0,0,0,0,0,0,0,0,0,0,0,0],"sum_hessian":[1.14E2,8.8E1,2.6E1,3.5E1,5.3E1,2.3E1,3E0,3E0,5E1,1.5E1,8E0,1E0,2E0,2E0,1E0,2.6E1,2.4E1,1E0,1E0,8E0,1.6E1],"tree_param":{"num_deleted":"0","num_feature":"19","num_nodes":"21","size_leaf_vector":"1"}},{"base_weights":[-3.6362067E-1,-5.5366015E-1,2.762732E-1,-6.649061E-1,-3.7934408E-1,2.2109693E-1,3.6205936E-3,-7.6515432E-3,-5.4807174E-3,1.2009889E-1,-4.1131508E-1,2.3622285E-3,1.0531902E-1,1.6359471E-3,1.655361E-4,-3.4335303E-1,-4.9991602E-1,2.1448462E-4,1.2612639E-3,-3.8433734E-3,-2.3689554E-3,-1.2024974E-3,-5.2153403E-3],"categories":[],"categories_nodes":[],"categories_segments":[],"categories_sizes":[],"default_left":[0,0,0,0,0,0,0,0,0,0,0,0,0,0,0,0,0,0,0,0,0,0,0],"id":54,"left_children":[1,3,5,7,9,11,-1,-1,-1,13,15,-1,17,-1,-1,19,21,-1,-1,-1,-1,-1,-1],"loss_changes":[1.4137547E1,1.4736557E0,4.7750473E-2,2.0139885E-1,6.402025E-1,8.394897E-3,0E0,0E0,0E0,1.0803279E-2,3.910494E-2,0E0,4.275281E-3,0E0,0E0,9.303093E-3,4.398513E-2,0E0,0E0,0E0,0E0,0E0,0E0],"parents":[2147483647,0,0,1,1,2,2,3,3,4,4,5,5,9,9,10,10,12,12,15,15,16,16],"right_children":[2,4,6,8,10,12,-1,-1,-1,14,16,-1,18,-1,-1,20,22,-1,-1,-1,-1,-1,-1],"split_conditions":[8.215398E-1,-4.2308134E-1,1.6079345E0,-9.4478726E-1,-8.849138E-1,1.7421645E0,3.6205936E-3,-7.6515432E-3,-5.4807174E-3,-4.8915935E-1,-3.7159795E-1,2.3622285E-3,5.140319E-1,1.6359471E-3,1.655361E-4,4.0081882E-1,-5.313218E-1,2.1448462E-4,1.2612639E-3,-3.8433734E-3,-2.3689554E-3,-1.2024974E-3,-5.2153403E-3],"split_indices":[9,9,9,5,8,8,0,0,0,1,10,0,1,0,0,5,8,0,0,0,0,0,0],"split_type":[0,0,0,0,0,0,0,0,0,0,0,0,0,0,0,0,0,0,0,0,0,0,0],"sum_hessian":[1.14E2,8.8E1,2.6E1,5.2E1,3.6E1,1.8E1,8E0,2.5E1,2.7E1,2E0,3.4E1,1.5E1,3E0,1E0,1E0,2.2E1,1.2E1,1E0,2E0,1.4E1,8E0,1E0,1.1E1],"tree_param":{"num_deleted":"0","num_feature":"19","num_nodes":"23","size_leaf_vector":"1"}},{"base_weights":[-3.6012796E-1,-5.483928E-1,2.737867E-1,-7.4409544E-3,-4.4636375E-1,2.1908794E-1,3.5884108E-3,-1.4130287E-2,-4.68477E-1,2.3400823E-3,1.0463479E-1,1.19498394E-1,-2.0750815E-3,-5.2934634E-3,-3.6695567E-1,2.1341234E-4,1.2528556E-3,1.6277673E-3,1.6470849E-4,-4.5256205E-3,-3.00049E-3],"categories":[],"categories_nodes":[],"categories_segments":[],"categories_sizes":[],"default_left":[0,0,0,0,0,0,0,0,0,0,0,0,0,0,0,0,0,0,0,0,0],"id":55,"left_children":[1,3,5,-1,7,9,-1,11,13,-1,15,17,-1,-1,19,-1,-1,-1,-1,-1,-1],"loss_changes":[1.3874681E1,1.4449558E0,4.6996117E-2,0E0,5.764246E-1,7.960439E-3,0E0,1.2816021E-1,1.641674E-1,0E0,4.206553E-3,1.0695513E-2,0E0,0E0,7.400036E-3,0E0,0E0,0E0,0E0,0E0,0E0],"parents":[2147483647,0,0,1,1,2,2,4,4,5,5,7,7,8,8,10,10,11,11,14,14],"right_children":[2,4,6,-1,8,10,-1,12,14,-1,16,18,-1,-1,20,-1,-1,-1,-1,-1,-1],"split_conditions":[8.215398E-1,-7.8845286E-1,1.6079345E0,-7.4409544E-3,-8.849138E-1,1.7421645E0,3.5884108E-3,1.0156275E0,-3.0461842E-1,2.3400823E-3,5.140319E-1,-4.8915935E-1,-2.0750815E-3,-5.2934634E-3,-4.606051E-1,2.1341234E-4,1.2528556E-3,1.6277673E-3,1.6470849E-4,-4.5256205E-3,-3.00049E-3],"split_indices":[9,9,9,0,8,8,0,1,13,0,1,1,0,0,6,0,0,0,0,0,0],"split_type":[0,0,0,0,0,0,0,0,0,0,0,0,0,0,0,0,0,0,0,0,0],"sum_hessian":[1.14E2,8.8E1,2.6E1,2.8E1,6E1,1.8E1,8E0,3E0,5.7E1,1.5E1,3E0,2E0,1E0,3.3E1,2.4E1,1E0,2E0,1E0,1E0,8E0,1.6E1],"tree_param":{"num_deleted":"0","num_feature":"19","num_nodes":"21","size_leaf_vector":"1"}},{"base_weights":[-3.56641E-1,-5.4313964E-1,2.713227E-1,-6.5223736E-1,-3.7218508E-1,2.1709742E-1,3.5565137E-3,-7.5064222E-3,-5.3756717E-3,1.1890092E-1,-4.036443E-1,2.318144E-3,1.0395503E-1,1.6196286E-3,1.6388505E-4,-3.6987075E-1,-6.406054E-3,2.1234542E-4,1.2445034E-3,-4.012894E-3,-2.2152623E-3],"categories":[],"categories_nodes":[],"categories_segments":[],"categories_sizes":[],"default_left":[0,0,0,0,0,0,0,0,0,0,0,0,0,0,0,0,0,0,0,0,0],"id":56,"left_children":[1,3,5,7,9,11,-1,-1,-1,13,15,-1,17,-1,-1,19,-1,-1,-1,-1,-1],"loss_changes":[1.36155205E1,1.4171638E0,4.6253204E-2,1.9453812E-1,6.196141E-1,7.5389147E-3,0E0,0E0,0E0,1.0588825E-2,4.3164253E-2,0E0,4.138883E-3,0E0,0E0,6.4909935E-2,0E0,0E0,0E0,0E0,0E0],"parents":[2147483647,0,0,1,1,2,2,3,3,4,4,5,5,9,9,10,10,12,12,15,15],"right_children":[2,4,6,8,10,12,-1,-1,-1,14,16,-1,18,-1,-1,20,-1,-1,-1,-1,-1],"split_conditions":[8.215398E-1,-4.2308134E-1,1.6079345E0,-9.4478726E-1,-8.849138E-1,1.7421645E0,3.5565137E-3,-7.5064222E-3,-5.3756717E-3,-4.8915935E-1,8.879503E-1,2.318144E-3,5.140319E-1,1.6196286E-3,1.6388505E-4,-7.62535E-2,-6.406054E-3,2.1234542E-4,1.2445034E-3,-4.012894E-3,-2.2152623E-3],"split_indices":[9,9,9,5,8,8,0,0,0,1,8,0,1,0,0,13,0,0,0,0,0],"split_type":[0,0,0,0,0,0,0,0,0,0,0,0,0,0,0,0,0,0,0,0,0],"sum_hessian":[1.14E2,8.8E1,2.6E1,5.2E1,3.6E1,1.8E1,8E0,2.5E1,2.7E1,2E0,3.4E1,1.5E1,3E0,1E0,1E0,3.2E1,2E0,1E0,2E0,2.5E1,7E0],"tree_param":{"num_deleted":"0","num_feature":"19","num_nodes":"21","size_leaf_vector":"1"}},{"base_weights":[-3.532172E-1,-5.379749E-1,2.6888102E-1,-6.9913804E-3,-4.2057034E-1,2.1512513E-1,3.5249004E-3,-1.3161592E-2,-4.4427747E-1,2.2964114E-3,1.03279695E-1,1.183064E-1,-2.0378279E-3,-5.057256E-3,-3.6014238E-1,2.1128356E-4,1.2362069E-3,1.6115304E-3,1.6306549E-4,-4.447064E-3,-2.9418836E-3],"categories":[],"categories_nodes":[],"categories_segments":[],"categories_sizes":[],"default_left":[0,0,0,0,0,0,0,0,0,0,0,0,0,0,0,0,0,0,0,0,0],"id":57,"left_children":[1,3,5,-1,7,9,-1,11,13,-1,15,17,-1,-1,19,-1,-1,-1,-1,-1,-1],"loss_changes":[1.3362456E1,1.3899574E0,4.5521498E-2,0E0,5.157118E-1,7.1302056E-3,0E0,1.2435115E-1,8.1534386E-2,0E0,4.0722564E-3,1.0483205E-2,0E0,0E0,8.605957E-3,0E0,0E0,0E0,0E0,0E0,0E0],"parents":[2147483647,0,0,1,1,2,2,4,4,5,5,7,7,8,8,10,10,11,11,14,14],"right_children":[2,4,6,-1,8,10,-1,12,14,-1,16,18,-1,-1,20,-1,-1,-1,-1,-1,-1],"split_conditions":[8.215398E-1,-6.801376E-1,1.6079345E0,-6.9913804E-3,-8.849138E-1,1.7421645E0,3.5249004E-3,1.0156275E0,-3.0461842E-1,2.2964114E-3,5.140319E-1,-4.8915935E-1,-2.0378279E-3,-5.057256E-3,-4.606051E-1,2.1128356E-4,1.2362069E-3,1.6115304E-3,1.6306549E-4,-4.447064E-3,-2.9418836E-3],"split_indices":[9,9,9,0,8,8,0,1,13,0,1,1,0,0,6,0,0,0,0,0,0],"split_type":[0,0,0,0,0,0,0,0,0,0,0,0,0,0,0,0,0,0,0,0,0],"sum_hessian":[1.14E2,8.8E1,2.6E1,3.5E1,5.3E1,1.8E1,8E0,3E0,5E1,1.5E1,3E0,2E0,1E0,2.6E1,2.4E1,1E0,2E0,1E0,1E0,8E0,1.6E1],"tree_param":{"num_deleted":"0","num_feature":"19","num_nodes":"21","size_leaf_vector":"1"}},{"base_weights":[-3.4979314E-1,-5.328165E-1,2.6646143E-1,-7.231336E-3,-4.3360323E-1,2.1317093E-1,3.493568E-3,-1.3095789E-2,-4.551278E-1,2.274883E-3,1.0260877E-1,1.1771486E-1,-2.0276387E-3,-5.140147E-3,-3.5683653E-1,2.1022707E-4,1.2279656E-3,1.6034727E-3,1.622501E-4,-4.4075344E-3,-2.9141956E-3],"categories":[],"categories_nodes":[],"categories_segments":[],"categories_sizes":[],"default_left":[0,0,0,0,0,0,0,0,0,0,0,0,0,0,0,0,0,0,0,0,0],"id":58,"left_children":[1,3,5,-1,7,9,-1,11,13,-1,15,17,-1,-1,19,-1,-1,-1,-1,-1,-1],"loss_changes":[1.3112707E1,1.3669453E0,4.480076E-2,0E0,5.461664E-1,6.733954E-3,0E0,1.2311074E-1,1.5228844E-1,0E0,4.0066466E-3,1.037864E-2,0E0,0E0,8.7955E-3,0E0,0E0,0E0,0E0,0E0,0E0],"parents":[2147483647,0,0,1,1,2,2,4,4,5,5,7,7,8,8,10,10,11,11,14,14],"right_children":[2,4,6,-1,8,10,-1,12,14,-1,16,18,-1,-1,20,-1,-1,-1,-1,-1,-1],"split_conditions":[8.215398E-1,-7.8845286E-1,1.6079345E0,-7.231336E-3,-8.849138E-1,1.7421645E0,3.493568E-3,1.0156275E0,-3.0461842E-1,2.274883E-3,5.140319E-1,-4.8915935E-1,-2.0276387E-3,-5.140147E-3,-4.606051E-1,2.1022707E-4,1.2279656E-3,1.6034727E-3,1.622501E-4,-4.4075344E-3,-2.9141956E-3],"split_indices":[9,9,9,0,8,8,0,1,13,0,1,1,0,0,6,0,0,0,0,0,0],"split_type":[0,0,0,0,0,0,0,0,0,0,0,0,0,0,0,0,0,0,0,0,0],"sum_hessian":[1.14E2,8.8E1,2.6E1,2.8E1,6E1,1.8E1,8E0,3E0,5.7E1,1.5E1,3E0,2E0,1E0,3.3E1,2.4E1,1E0,2E0,1E0,1E0,8E0,1.6E1],"tree_param":{"num_deleted":"0","num_feature":"19","num_nodes":"21","size_leaf_vector":"1"}},{"base_weights":[-3.4640607E-1,-5.277126E-1,2.6406375E-1,-7.1615158E-3,-4.2947578E-1,2.1123466E-1,3.4625141E-3,-1.3030313E-2,-4.5079142E-1,2.253556E-3,1.0194223E-1,1.17126286E-1,-2.0175006E-3,-5.0902576E-3,-3.5356104E-1,2.0917594E-4,1.219779E-3,1.5954553E-3,1.6143887E-4,-4.368356E-3,-2.886768E-3],"categories":[],"categories_nodes":[],"categories_segments":[],"categories_sizes":[],"default_left":[0,0,0,0,0,0,0,0,0,0,0,0,0,0,0,0,0,0,0,0,0],"id":59,"left_children":[1,3,5,-1,7,9,-1,11,13,-1,15,17,-1,-1,19,-1,-1,-1,-1,-1,-1],"loss_changes":[1.2867797E1,1.3399677E0,4.4090986E-2,0E0,5.3560925E-1,6.349683E-3,0E0,1.21882714E-1,1.4843369E-1,0E0,3.94205E-3,1.0275111E-2,0E0,0E0,8.975744E-3,0E0,0E0,0E0,0E0,0E0,0E0],"parents":[2147483647,0,0,1,1,2,2,4,4,5,5,7,7,8,8,10,10,11,11,14,14],"right_children":[2,4,6,-1,8,10,-1,12,14,-1,16,18,-1,-1,20,-1,-1,-1,-1,-1,-1],"split_conditions":[8.215398E-1,-7.8845286E-1,1.6079345E0,-7.1615158E-3,-8.849138E-1,1.7421645E0,3.4625141E-3,1.0156275E0,-3.0461842E-1,2.253556E-3,5.140319E-1,-4.8915935E-1,-2.0175006E-3,-5.0902576E-3,-4.606051E-1,2.0917594E-4,1.219779E-3,1.5954553E-3,1.6143887E-4,-4.368356E-3,-2.886768E-3],"split_indices":[9,9,9,0,8,8,0,1,13,0,1,1,0,0,6,0,0,0,0,0,0],"split_type":[0,0,0,0,0,0,0,0,0,0,0,0,0,0,0,0,0,0,0,0,0],"sum_hessian":[1.14E2,8.8E1,2.6E1,2.8E1,6E1,1.8E1,8E0,3E0,5.7E1,1.5E1,3E0,2E0,1E0,3.3E1,2.4E1,1E0,2E0,1E0,1E0,8E0,1.6E1],"tree_param":{"num_deleted":"0","num_feature":"19","num_nodes":"21","size_leaf_vector":"1"}},{"base_weights":[-3.4305176E-1,-5.226576E-1,2.6168776E-1,-7.1427296E-3,-4.276916E-1,2.0931615E-1,3.4317365E-3,-1.296515E-2,-4.4855964E-1,2.232429E-3,1.0128006E-1,1.1654067E-1,-2.007413E-3,-5.0591794E-3,-3.5031563E-1,2.0813018E-4,1.2116474E-3,1.5874782E-3,1.6063183E-4,-4.3295263E-3,-2.8595983E-3],"categories":[],"categories_nodes":[],"categories_segments":[],"categories_sizes":[],"default_left":[0,0,0,0,0,0,0,0,0,0,0,0,0,0,0,0,0,0,0,0,0],"id":60,"left_children":[1,3,5,-1,7,9,-1,11,13,-1,15,17,-1,-1,19,-1,-1,-1,-1,-1,-1],"loss_changes":[1.2627465E1,1.3140392E0,4.3392062E-2,0E0,5.3076553E-1,5.9772134E-3,0E0,1.2066695E-1,1.5524101E-1,0E0,3.8784407E-3,1.0172613E-2,0E0,0E0,9.147167E-3,0E0,0E0,0E0,0E0,0E0,0E0],"parents":[2147483647,0,0,1,1,2,2,4,4,5,5,7,7,8,8,10,10,11,11,14,14],"right_children":[2,4,6,-1,8,10,-1,12,14,-1,16,18,-1,-1,20,-1,-1,-1,-1,-1,-1],"split_conditions":[8.215398E-1,-7.8874576E-1,1.6079345E0,-7.1427296E-3,-8.849138E-1,1.7421645E0,3.4317365E-3,1.0156275E0,-3.0461842E-1,2.232429E-3,5.140319E-1,-4.8915935E-1,-2.007413E-3,-5.0591794E-3,-4.606051E-1,2.0813018E-4,1.2116474E-3,1.5874782E-3,1.6063183E-4,-4.3295263E-3,-2.8595983E-3],"split_indices":[9,9,9,0,8,8,0,1,13,0,1,1,0,0,6,0,0,0,0,0,0],"split_type":[0,0,0,0,0,0,0,0,0,0,0,0,0,0,0,0,0,0,0,0,0],"sum_hessian":[1.14E2,8.8E1,2.6E1,2.7E1,6.1E1,1.8E1,8E0,3E0,5.8E1,1.5E1,3E0,2E0,1E0,3.4E1,2.4E1,1E0,2E0,1E0,1E0,8E0,1.6E1],"tree_param":{"num_deleted":"0","num_feature":"19","num_nodes":"21","size_leaf_vector":"1"}},{"base_weights":[-3.3973053E-1,-5.176518E-1,2.5933325E-1,-6.2168866E-1,-3.5463536E-1,2.0741521E-1,3.401232E-3,-7.1599483E-3,-5.119155E-3,1.15957975E-1,-3.848395E-1,2.2115E-3,1.0062221E-1,1.5795409E-3,1.5982866E-4,-3.5146296E-1,-6.2370156E-3,2.0708948E-4,1.2035697E-3,-3.8164582E-3,-2.0943573E-3],"categories":[],"categories_nodes":[],"categories_segments":[],"categories_sizes":[],"default_left":[0,0,0,0,0,0,0,0,0,0,0,0,0,0,0,0,0,0,0,0,0],"id":61,"left_children":[1,3,5,7,9,11,-1,-1,-1,13,15,-1,17,-1,-1,19,-1,-1,-1,-1,-1],"loss_changes":[1.2391655E1,1.2889423E0,4.270363E-2,1.8214226E-1,5.705385E-1,5.6162477E-3,0E0,0E0,0E0,1.007114E-2,5.9824944E-2,0E0,3.8158111E-3,0E0,0E0,6.1533928E-2,0E0,0E0,0E0,0E0,0E0],"parents":[2147483647,0,0,1,1,2,2,3,3,4,4,5,5,9,9,10,10,12,12,15,15],"right_children":[2,4,6,8,10,12,-1,-1,-1,14,16,-1,18,-1,-1,20,-1,-1,-1,-1,-1],"split_conditions":[8.215398E-1,-4.2308134E-1,1.6079345E0,-9.4478726E-1,-8.849138E-1,1.7421645E0,3.401232E-3,-7.1599483E-3,-5.119155E-3,-4.8915935E-1,8.879503E-1,2.2115E-3,5.140319E-1,1.5795409E-3,1.5982866E-4,-7.62535E-2,-6.2370156E-3,2.0708948E-4,1.2035697E-3,-3.8164582E-3,-2.0943573E-3],"split_indices":[9,9,9,5,8,8,0,0,0,1,8,0,1,0,0,13,0,0,0,0,0],"split_type":[0,0,0,0,0,0,0,0,0,0,0,0,0,0,0,0,0,0,0,0,0],"sum_hessian":[1.14E2,8.8E1,2.6E1,5.2E1,3.6E1,1.8E1,8E0,2.5E1,2.7E1,2E0,3.4E1,1.5E1,3E0,1E0,1E0,3.2E1,2E0,1E0,2E0,2.5E1,7E0],"tree_param":{"num_deleted":"0","num_feature":"19","num_nodes":"21","size_leaf_vector":"1"}},{"base_weights":[-3.364694E-1,-5.127302E-1,2.5700006E-1,-7.0062685E-3,-4.1960377E-1,2.0553169E-1,3.3709991E-3,-1.205536E-2,-4.4012222E-1,2.190767E-3,9.996864E-2,1.153782E-1,-1.97178E-3,-4.963334E-3,-3.4382161E-1,2.0605414E-4,1.1955458E-3,1.5716433E-3,1.5902966E-4,-4.254428E-3,-2.8038558E-3],"categories":[],"categories_nodes":[],"categories_segments":[],"categories_sizes":[],"default_left":[0,0,0,0,0,0,0,0,0,0,0,0,0,0,0,0,0,0,0,0,0],"id":62,"left_children":[1,3,5,-1,7,9,-1,11,13,-1,15,17,-1,-1,19,-1,-1,-1,-1,-1,-1],"loss_changes":[1.216139E1,1.2633476E0,4.2025685E-2,0E0,5.1315594E-1,5.266428E-3,0E0,1.1711341E-1,1.4872742E-1,0E0,3.7541427E-3,9.970676E-3,0E0,0E0,1.0154724E-2,0E0,0E0,0E0,0E0,0E0,0E0],"parents":[2147483647,0,0,1,1,2,2,4,4,5,5,7,7,8,8,10,10,11,11,14,14],"right_children":[2,4,6,-1,8,10,-1,12,14,-1,16,18,-1,-1,20,-1,-1,-1,-1,-1,-1],"split_conditions":[8.215398E-1,-7.8874576E-1,1.6079345E0,-7.0062685E-3,-8.849138E-1,1.7421645E0,3.3709991E-3,1.0156275E0,-3.0461842E-1,2.190767E-3,5.140319E-1,-4.8915935E-1,-1.97178E-3,-4.963334E-3,-4.606051E-1,2.0605414E-4,1.1955458E-3,1.5716433E-3,1.5902966E-4,-4.254428E-3,-2.8038558E-3],"split_indices":[9,9,9,0,8,8,0,1,13,0,1,1,0,0,6,0,0,0,0,0,0],"split_type":[0,0,0,0,0,0,0,0,0,0,0,0,0,0,0,0,0,0,0,0,0],"sum_hessian":[1.14E2,8.8E1,2.6E1,2.7E1,6.1E1,1.8E1,8E0,3E0,5.8E1,1.5E1,3E0,2E0,1E0,3.4E1,2.4E1,1E0,2E0,1E0,1E0,8E0,1.6E1],"tree_param":{"num_deleted":"0","num_feature":"19","num_nodes":"21","size_leaf_vector":"1"}},{"base_weights":[-3.3321175E-1,-5.0781935E-1,2.5468794E-1,-6.0984945E-1,-3.4794328E-1,2.0366544E-1,3.3410345E-3,-7.0237345E-3,-5.0215404E-3,1.1480131E-1,-3.7766588E-1,2.1702286E-3,9.931935E-2,1.563785E-3,1.5823453E-4,-3.445119E-1,-6.164709E-3,2.0502388E-4,1.1875754E-3,-3.774622E-3,-2.1470417E-3],"categories":[],"categories_nodes":[],"categories_segments":[],"categories_sizes":[],"default_left":[0,0,0,0,0,0,0,0,0,0,0,0,0,0,0,0,0,0,0,0,0],"id":63,"left_children":[1,3,5,7,9,11,-1,-1,-1,13,15,-1,17,-1,-1,19,-1,-1,-1,-1,-1],"loss_changes":[1.1934288E1,1.2395916E0,4.1358113E-2,1.7541313E-1,5.522537E-1,4.927516E-3,0E0,0E0,0E0,9.871218E-3,6.47254E-2,0E0,3.6934242E-3,0E0,0E0,6.0104847E-2,0E0,0E0,0E0,0E0,0E0],"parents":[2147483647,0,0,1,1,2,2,3,3,4,4,5,5,9,9,10,10,12,12,15,15],"right_children":[2,4,6,8,10,12,-1,-1,-1,14,16,-1,18,-1,-1,20,-1,-1,-1,-1,-1],"split_conditions":[8.215398E-1,-4.2308134E-1,1.6079345E0,-9.4478726E-1,-8.849138E-1,1.7421645E0,3.3410345E-3,-7.0237345E-3,-5.0215404E-3,-4.8915935E-1,8.879503E-1,2.1702286E-3,5.140319E-1,1.563785E-3,1.5823453E-4,-2.8813398E-2,-6.164709E-3,2.0502388E-4,1.1875754E-3,-3.774622E-3,-2.1470417E-3],"split_indices":[9,9,9,5,8,8,0,0,0,1,8,0,1,0,0,9,0,0,0,0,0],"split_type":[0,0,0,0,0,0,0,0,0,0,0,0,0,0,0,0,0,0,0,0,0],"sum_hessian":[1.14E2,8.8E1,2.6E1,5.2E1,3.6E1,1.8E1,8E0,2.5E1,2.7E1,2E0,3.4E1,1.5E1,3E0,1E0,1E0,3.2E1,2E0,1E0,2E0,2.4E1,8E0],"tree_param":{"num_deleted":"0","num_feature":"19","num_nodes":"21","size_leaf_vector":"1"}},{"base_weights":[-3.3001444E-1,-5.02993E-1,2.523968E-1,-6.824419E-3,-4.0943542E-1,2.0181632E-1,3.3113365E-3,-1.1170208E-2,-4.2984274E-1,2.149883E-3,9.867431E-2,1.14227295E-1,-1.9368136E-3,-4.851234E-3,-3.374673E-1,2.0399869E-4,1.1796583E-3,1.5559661E-3,1.5744328E-4,-4.180403E-3,-2.7495997E-3],"categories":[],"categories_nodes":[],"categories_segments":[],"categories_sizes":[],"default_left":[0,0,0,0,0,0,0,0,0,0,0,0,0,0,0,0,0,0,0,0,0],"id":64,"left_children":[1,3,5,-1,7,9,-1,11,13,-1,15,17,-1,-1,19,-1,-1,-1,-1,-1,-1],"loss_changes":[1.1712586E1,1.2147884E0,4.0700674E-2,0E0,4.909773E-1,4.5992136E-3,0E0,1.1366948E-1,1.3246822E-1,0E0,3.6336482E-3,9.772755E-3,0E0,0E0,1.0965586E-2,0E0,0E0,0E0,0E0,0E0,0E0],"parents":[2147483647,0,0,1,1,2,2,4,4,5,5,7,7,8,8,10,10,11,11,14,14],"right_children":[2,4,6,-1,8,10,-1,12,14,-1,16,18,-1,-1,20,-1,-1,-1,-1,-1,-1],"split_conditions":[8.215398E-1,-7.8845286E-1,1.6079345E0,-6.824419E-3,-8.849138E-1,1.7421645E0,3.3113365E-3,1.0156275E0,-3.0461842E-1,2.149883E-3,5.140319E-1,-4.8915935E-1,-1.9368136E-3,-4.851234E-3,-4.606051E-1,2.0399869E-4,1.1796583E-3,1.5559661E-3,1.5744328E-4,-4.180403E-3,-2.7495997E-3],"split_indices":[9,9,9,0,8,8,0,1,13,0,1,1,0,0,6,0,0,0,0,0,0],"split_type":[0,0,0,0,0,0,0,0,0,0,0,0,0,0,0,0,0,0,0,0,0],"sum_hessian":[1.14E2,8.8E1,2.6E1,2.8E1,6E1,1.8E1,8E0,3E0,5.7E1,1.5E1,3E0,2E0,1E0,3.3E1,2.4E1,1E0,2E0,1E0,1E0,8E0,1.6E1],"tree_param":{"num_deleted":"0","num_feature":"19","num_nodes":"21","size_leaf_vector":"1"}},{"base_weights":[-3.268185E-1,-4.981746E-1,2.5012633E-1,-5.982311E-1,-3.4138623E-1,1.9998413E-1,3.2819025E-3,-6.8905787E-3,-4.925265E-3,1.1365616E-1,-3.70636E-1,2.1297277E-3,9.803349E-2,1.5481862E-3,1.566562E-4,-3.3770326E-1,-6.0935062E-3,2.0297855E-4,1.1717941E-3,-3.6688128E-3,-2.0066176E-3],"categories":[],"categories_nodes":[],"categories_segments":[],"categories_sizes":[],"default_left":[0,0,0,0,0,0,0,0,0,0,0,0,0,0,0,0,0,0,0,0,0],"id":65,"left_children":[1,3,5,7,9,11,-1,-1,-1,13,15,-1,17,-1,-1,19,-1,-1,-1,-1,-1],"loss_changes":[1.1493853E1,1.1919785E0,4.005325E-2,1.694622E-1,5.3458977E-1,4.281342E-3,0E0,0E0,0E0,9.675264E-3,6.937361E-2,0E0,3.5747923E-3,0E0,0E0,5.8334827E-2,0E0,0E0,0E0,0E0,0E0],"parents":[2147483647,0,0,1,1,2,2,3,3,4,4,5,5,9,9,10,10,12,12,15,15],"right_children":[2,4,6,8,10,12,-1,-1,-1,14,16,-1,18,-1,-1,20,-1,-1,-1,-1,-1],"split_conditions":[8.215398E-1,-4.2308134E-1,1.6079345E0,-9.4478726E-1,-8.849138E-1,1.7421645E0,3.2819025E-3,-6.8905787E-3,-4.925265E-3,-4.8915935E-1,8.879503E-1,2.1297277E-3,5.140319E-1,1.5481862E-3,1.566562E-4,-7.62535E-2,-6.0935062E-3,2.0297855E-4,1.1717941E-3,-3.6688128E-3,-2.0066176E-3],"split_indices":[9,9,9,5,8,8,0,0,0,1,8,0,1,0,0,13,0,0,0,0,0],"split_type":[0,0,0,0,0,0,0,0,0,0,0,0,0,0,0,0,0,0,0,0,0],"sum_hessian":[1.14E2,8.8E1,2.6E1,5.2E1,3.6E1,1.8E1,8E0,2.5E1,2.7E1,2E0,3.4E1,1.5E1,3E0,1E0,1E0,3.2E1,2E0,1E0,2E0,2.5E1,7E0],"tree_param":{"num_deleted":"0","num_feature":"19","num_nodes":"21","size_leaf_vector":"1"}},{"base_weights":[-3.2368156E-1,-4.934387E-1,2.4787642E-1,-6.412471E-3,-3.8576198E-1,1.9816874E-1,3.2527302E-3,-3.988535E-1,1.5404454E-3,2.1097616E-3,9.7396865E-2,1.55873E-4,-4.0712327E-1,2.0196378E-4,1.1639823E-3,-2.8291398E-3,-4.3731323E-3],"categories":[],"categories_nodes":[],"categories_segments":[],"categories_sizes":[],"default_left":[0,0,0,0,0,0,0,0,0,0,0,0,0,0,0,0,0],"id":66,"left_children":[1,3,5,-1,7,9,-1,11,-1,-1,13,-1,15,-1,-1,-1,-1],"loss_changes":[1.1280307E1,1.1691132E0,3.941548E-2,0E0,4.4305325E-1,3.973484E-3,0E0,1.8799496E-1,0E0,0E0,3.516838E-3,0E0,7.127094E-2,0E0,0E0,0E0,0E0],"parents":[2147483647,0,0,1,1,2,2,4,4,5,5,7,7,10,10,12,12],"right_children":[2,4,6,-1,8,10,-1,12,-1,-1,14,-1,16,-1,-1,-1,-1],"split_conditions":[8.215398E-1,-6.801376E-1,1.6079345E0,-6.412471E-3,8.875274E-1,1.7421645E0,3.2527302E-3,-1.0020471E0,1.5404454E-3,2.1097616E-3,5.140319E-1,1.55873E-4,-5.697604E-1,2.0196378E-4,1.1639823E-3,-2.8291398E-3,-4.3731323E-3],"split_indices":[9,9,9,0,5,8,0,5,0,0,1,0,14,0,0,0,0],"split_type":[0,0,0,0,0,0,0,0,0,0,0,0,0,0,0,0,0],"sum_hessian":[1.14E2,8.8E1,2.6E1,3.5E1,5.3E1,1.8E1,8E0,5.2E1,1E0,1.5E1,3E0,1E0,5.1E1,1E0,2E0,1.2E1,3.9E1],"tree_param":{"num_deleted":"0","num_feature":"19","num_nodes":"17","size_leaf_vector":"1"}},{"base_weights":[-3.2048988E-1,-4.8863822E-1,2.4564685E-1,-6.6797268E-3,-3.997672E-1,1.9636999E-1,3.2238169E-3,-9.640031E-3,-4.1944078E-1,2.0899826E-3,9.67644E-2,1.1252246E-1,-1.8806375E-3,-4.7294367E-3,-3.277591E-1,2.0095408E-4,1.1562225E-3,1.5327432E-3,1.5509367E-4,-4.075928E-3,-2.6621425E-3],"categories":[],"categories_nodes":[],"categories_segments":[],"categories_sizes":[],"default_left":[0,0,0,0,0,0,0,0,0,0,0,0,0,0,0,0,0,0,0,0,0],"id":67,"left_children":[1,3,5,-1,7,9,-1,11,13,-1,15,17,-1,-1,19,-1,-1,-1,-1,-1,-1],"loss_changes":[1.1067451E1,1.1514168E0,3.8787723E-2,0E0,4.7181892E-1,3.6754608E-3,0E0,1.08348146E-1,1.343975E-1,0E0,3.459774E-3,9.483207E-3,0E0,0E0,1.4326811E-2,0E0,0E0,0E0,0E0,0E0,0E0],"parents":[2147483647,0,0,1,1,2,2,4,4,5,5,7,7,8,8,10,10,11,11,14,14],"right_children":[2,4,6,-1,8,10,-1,12,14,-1,16,18,-1,-1,20,-1,-1,-1,-1,-1,-1],"split_conditions":[8.215398E-1,-7.8874576E-1,1.6079345E0,-6.6797268E-3,-8.849138E-1,1.7421645E0,3.2238169E-3,1.0156275E0,-3.0461842E-1,2.0899826E-3,5.140319E-1,-4.8915935E-1,-1.8806375E-3,-4.7294367E-3,-4.606051E-1,2.0095408E-4,1.1562225E-3,1.5327432E-3,1.5509367E-4,-4.075928E-3,-2.6621425E-3],"split_indices":[9,9,9,0,8,8,0,1,13,0,1,1,0,0,6,0,0,0,0,0,0],"split_type":[0,0,0,0,0,0,0,0,0,0,0,0,0,0,0,0,0,0,0,0,0],"sum_hessian":[1.14E2,8.8E1,2.6E1,2.7E1,6.1E1,1.8E1,8E0,3E0,5.8E1,1.5E1,3E0,2E0,1E0,3.4E1,2.4E1,1E0,2E0,1E0,1E0,8E0,1.6E1],"tree_param":{"num_deleted":"0","num_feature":"19","num_nodes":"21","size_leaf_vector":"1"}},{"base_weights":[-3.1738645E-1,-4.8395792E-1,2.4343745E-1,-6.615315E-3,-3.959576E-1,1.9458772E-1,3.1951605E-3,-9.591825E-3,-4.1544074E-1,2.070389E-3,9.613606E-2,1.1195985E-1,-1.8712343E-3,-4.6834936E-3,-3.2475102E-1,1.9994944E-4,1.1485144E-3,1.5250796E-3,1.5431822E-4,-2.8365394E-3,-4.695973E-3],"categories":[],"categories_nodes":[],"categories_segments":[],"categories_sizes":[],"default_left":[0,0,0,0,0,0,0,0,0,0,0,0,0,0,0,0,0,0,0,0,0],"id":68,"left_children":[1,3,5,-1,7,9,-1,11,13,-1,15,17,-1,-1,19,-1,-1,-1,-1,-1,-1],"loss_changes":[1.0860798E1,1.1288223E0,3.8169384E-2,0E0,4.6272755E-1,3.387034E-3,0E0,1.0726738E-1,1.3100052E-1,0E0,3.4035966E-3,9.388611E-3,0E0,0E0,1.56161785E-2,0E0,0E0,0E0,0E0,0E0,0E0],"parents":[2147483647,0,0,1,1,2,2,4,4,5,5,7,7,8,8,10,10,11,11,14,14],"right_children":[2,4,6,-1,8,10,-1,12,14,-1,16,18,-1,-1,20,-1,-1,-1,-1,-1,-1],"split_conditions":[8.215398E-1,-7.8874576E-1,1.6079345E0,-6.615315E-3,-8.849138E-1,1.7421645E0,3.1951605E-3,1.0156275E0,-3.0461842E-1,2.070389E-3,5.140319E-1,-4.8915935E-1,-1.8712343E-3,-4.6834936E-3,-2.0519967E-1,1.9994944E-4,1.1485144E-3,1.5250796E-3,1.5431822E-4,-2.8365394E-3,-4.695973E-3],"split_indices":[9,9,9,0,8,8,0,1,13,0,1,1,0,0,10,0,0,0,0,0,0],"split_type":[0,0,0,0,0,0,0,0,0,0,0,0,0,0,0,0,0,0,0,0,0],"sum_hessian":[1.14E2,8.8E1,2.6E1,2.7E1,6.1E1,1.8E1,8E0,3E0,5.8E1,1.5E1,3E0,2E0,1E0,3.4E1,2.4E1,1E0,2E0,1E0,1E0,2.1E1,3E0],"tree_param":{"num_deleted":"0","num_feature":"19","num_nodes":"21","size_leaf_vector":"1"}},{"base_weights":[-3.1432047E-1,-4.7933206E-1,2.4124806E-1,-5.757282E-1,-3.2829624E-1,1.928218E-1,3.166759E-3,-6.672686E-3,-4.7696126E-3,1.11400045E-1,-3.566046E-1,2.1192692E-3,1.1610619E-1,1.517454E-3,1.5354663E-4,-3.240069E-1,-5.9631127E-3,1.9894956E-4,1.3136944E-3,-3.5558778E-3,-2.0028139E-3],"categories":[],"categories_nodes":[],"categories_segments":[],"categories_sizes":[],"default_left":[0,0,0,0,0,0,0,0,0,0,0,0,0,0,0,0,0,0,0,0,0],"id":69,"left_children":[1,3,5,7,9,11,-1,-1,-1,13,15,-1,17,-1,-1,19,-1,-1,-1,-1,-1],"loss_changes":[1.0658292E1,1.1067638E0,3.7560463E-2,1.609211E-1,5.002675E-1,3.2414794E-3,0E0,0E0,0E0,9.294957E-3,8.027744E-2,0E0,6.197393E-3,0E0,0E0,5.772543E-2,0E0,0E0,0E0,0E0,0E0],"parents":[2147483647,0,0,1,1,2,2,3,3,4,4,5,5,9,9,10,10,12,12,15,15],"right_children":[2,4,6,8,10,12,-1,-1,-1,14,16,-1,18,-1,-1,20,-1,-1,-1,-1,-1],"split_conditions":[8.215398E-1,-4.2308134E-1,1.6079345E0,-5.3816354E-1,-8.849138E-1,1.5955853E0,3.166759E-3,-6.672686E-3,-4.7696126E-3,-4.8915935E-1,8.879503E-1,2.1192692E-3,1.3893248E0,1.517454E-3,1.5354663E-4,-2.8813398E-2,-5.9631127E-3,1.9894956E-4,1.3136944E-3,-3.5558778E-3,-2.0028139E-3],"split_indices":[9,9,9,3,8,8,0,0,0,1,8,0,9,0,0,9,0,0,0,0,0],"split_type":[0,0,0,0,0,0,0,0,0,0,0,0,0,0,0,0,0,0,0,0,0],"sum_hessian":[1.14E2,8.8E1,2.6E1,5.2E1,3.6E1,1.8E1,8E0,2.4E1,2.8E1,2E0,3.4E1,1.3E1,5E0,1E0,1E0,3.2E1,2E0,1E0,4E0,2.4E1,8E0],"tree_param":{"num_deleted":"0","num_feature":"19","num_nodes":"21","size_leaf_vector":"1"}},{"base_weights":[-3.1130332E-1,-4.74778E-1,2.390874E-1,-6.4892196E-3,-3.884746E-1,1.9108476E-1,3.1386104E-3,-8.769222E-3,-4.0763304E-1,2.0995906E-3,1.1519724E-1,1.1084304E-1,-1.8380301E-3,-4.594444E-3,-3.1879187E-1,1.9795477E-4,1.3031849E-3,1.5098667E-3,1.5277891E-4,-2.781168E-3,-4.6280664E-3],"categories":[],"categories_nodes":[],"categories_segments":[],"categories_sizes":[],"default_left":[0,0,0,0,0,0,0,0,0,0,0,0,0,0,0,0,0,0,0,0,0],"id":70,"left_children":[1,3,5,-1,7,9,-1,11,13,-1,15,17,-1,-1,19,-1,-1,-1,-1,-1,-1],"loss_changes":[1.0460632E1,1.0855103E0,3.6937952E-2,0E0,4.4744873E-1,3.0274987E-3,0E0,1.0411803E-1,1.2510777E-1,0E0,6.075844E-3,9.202238E-3,0E0,0E0,1.7730951E-2,0E0,0E0,0E0,0E0,0E0,0E0],"parents":[2147483647,0,0,1,1,2,2,4,4,5,5,7,7,8,8,10,10,11,11,14,14],"right_children":[2,4,6,-1,8,10,-1,12,14,-1,16,18,-1,-1,20,-1,-1,-1,-1,-1,-1],"split_conditions":[8.215398E-1,-7.8874576E-1,1.6079345E0,-6.4892196E-3,-8.849138E-1,1.5955853E0,3.1386104E-3,1.0156275E0,-3.0461842E-1,2.0995906E-3,1.3893248E0,-4.8915935E-1,-1.8380301E-3,-4.594444E-3,-2.0519967E-1,1.9795477E-4,1.3031849E-3,1.5098667E-3,1.5277891E-4,-2.781168E-3,-4.6280664E-3],"split_indices":[9,9,9,0,8,8,0,1,13,0,9,1,0,0,10,0,0,0,0,0,0],"split_type":[0,0,0,0,0,0,0,0,0,0,0,0,0,0,0,0,0,0,0,0,0],"sum_hessian":[1.14E2,8.8E1,2.6E1,2.7E1,6.1E1,1.8E1,8E0,3E0,5.8E1,1.3E1,5E0,2E0,1E0,3.4E1,2.4E1,1E0,4E0,1E0,1E0,2.1E1,3E0],"tree_param":{"num_deleted":"0","num_feature":"19","num_nodes":"21","size_leaf_vector":"1"}},{"base_weights":[-3.0829403E-1,-4.7023997E-1,2.3694614E-1,-5.647658E-1,-3.2212895E-1,1.8936343E-1,3.1107115E-3,-6.546332E-3,-4.6781916E-3,1.10288836E-1,-3.4998965E-1,2.0800945E-3,1.1429545E-1,1.5023175E-3,1.5201508E-4,-3.176319E-1,-5.892617E-3,1.9696503E-4,1.2927594E-3,-3.457975E-3,-1.8638972E-3],"categories":[],"categories_nodes":[],"categories_segments":[],"categories_sizes":[],"default_left":[0,0,0,0,0,0,0,0,0,0,0,0,0,0,0,0,0,0,0,0,0],"id":71,"left_children":[1,3,5,7,9,11,-1,-1,-1,13,15,-1,17,-1,-1,19,-1,-1,-1,-1,-1],"loss_changes":[1.0265857E1,1.0641003E0,3.6325336E-2,1.5550613E-1,4.8435616E-1,2.8201342E-3,0E0,0E0,0E0,9.110443E-3,8.381224E-2,0E0,5.9565455E-3,0E0,0E0,5.7532072E-2,0E0,0E0,0E0,0E0,0E0],"parents":[2147483647,0,0,1,1,2,2,3,3,4,4,5,5,9,9,10,10,12,12,15,15],