{"learner":{"attributes":{"best_iteration":"528","best_score":"0.2742144167892089","scikit_learn":"{\"_estimator_type\": \"regressor\"}"},"feature_names":["hour","dayofweek","quarter","month","year","dayofyear","dayofmonth","weekofyear","lag(1)","lag(2)","lag(3)","rolling_mean(2)","rolling_std(2)","rolling_mean(3)","rolling_std(3)","rolling_mean(4)","rolling_std(4)"],"feature_types":["float","float","float","float","float","float","float","float","float","float","float","float","float","float","float","float","float"],"gradient_booster":{"model":{"gbtree_model_param":{"num_parallel_tree":"1","num_trees":"579"},"iteration_indptr":[0,1,2,3,4,5,6,7,8,9,10,11,12,13,14,15,16,17,18,19,20,21,22,23,24,25,26,27,28,29,30,31,32,33,34,35,36,37,38,39,40,41,42,43,44,45,46,47,48,49,50,51,52,53,54,55,56,57,58,59,60,61,62,63,64,65,66,67,68,69,70,71,72,73,74,75,76,77,78,79,80,81,82,83,84,85,86,87,88,89,90,91,92,93,94,95,96,97,98,99,100,101,102,103,104,105,106,107,108,109,110,111,112,113,114,115,116,117,118,119,120,121,122,123,124,125,126,127,128,129,130,131,132,133,134,135,136,137,138,139,140,141,142,143,144,145,146,147,148,149,150,151,152,153,154,155,156,157,158,159,160,161,162,163,164,165,166,167,168,169,170,171,172,173,174,175,176,177,178,179,180,181,182,183,184,185,186,187,188,189,190,191,192,193,194,195,196,197,198,199,200,201,202,203,204,205,206,207,208,209,210,211,212,213,214,215,216,217,218,219,220,221,222,223,224,225,226,227,228,229,230,231,232,233,234,235,236,237,238,239,240,241,242,243,244,245,246,247,248,249,250,251,252,253,254,255,256,257,258,259,260,261,262,263,264,265,266,267,268,269,270,271,272,273,274,275,276,277,278,279,280,281,282,283,284,285,286,287,288,289,290,291,292,293,294,295,296,297,298,299,300,301,302,303,304,305,306,307,308,309,310,311,312,313,314,315,316,317,318,319,320,321,322,323,324,325,326,327,328,329,330,331,332,333,334,335,336,337,338,339,340,341,342,343,344,345,346,347,348,349,350,351,352,353,354,355,356,357,358,359,360,361,362,363,364,365,366,367,368,369,370,371,372,373,374,375,376,377,378,379,380,381,382,383,384,385,386,387,388,389,390,391,392,393,394,395,396,397,398,399,400,401,402,403,404,405,406,407,408,409,410,411,412,413,414,415,416,417,418,419,420,421,422,423,424,425,426,427,428,429,430,431,432,433,434,435,436,437,438,439,440,441,442,443,444,445,446,447,448,449,450,451,452,453,454,455,456,457,458,459,460,461,462,463,464,465,466,467,468,469,470,471,472,473,474,475,476,477,478,479,480,481,482,483,484,485,486,487,488,489,490,491,492,493,494,495,496,497,498,499,500,501,502,503,504,505,506,507,508,509,510,511,512,513,514,515,516,517,518,519,520,521,522,523,524,525,526,527,528,529,530,531,532,533,534,535,536,537,538,539,540,541,542,543,544,545,546,547,548,549,550,551,552,553,554,555,556,557,558,559,560,561,562,563,564,565,566,567,568,569,570,571,572,573,574,575,576,577,578,579],"tree_info":[0,0,0,0,0,0,0,0,0,0,0,0,0,0,0,0,0,0,0,0,0,0,0,0,0,0,0,0,0,0,0,0,0,0,0,0,0,0,0,0,0,0,0,0,0,0,0,0,0,0,0,0,0,0,0,0,0,0,0,0,0,0,0,0,0,0,0,0,0,0,0,0,0,0,0,0,0,0,0,0,0,0,0,0,0,0,0,0,0,0,0,0,0,0,0,0,0,0,0,0,0,0,0,0,0,0,0,0,0,0,0,0,0,0,0,0,0,0,0,0,0,0,0,0,0,0,0,0,0,0,0,0,0,0,0,0,0,0,0,0,0,0,0,0,0,0,0,0,0,0,0,0,0,0,0,0,0,0,0,0,0,0,0,0,0,0,0,0,0,0,0,0,0,0,0,0,0,0,0,0,0,0,0,0,0,0,0,0,0,0,0,0,0,0,0,0,0,0,0,0,0,0,0,0,0,0,0,0,0,0,0,0,0,0,0,0,0,0,0,0,0,0,0,0,0,0,0,0,0,0,0,0,0,0,0,0,0,0,0,0,0,0,0,0,0,0,0,0,0,0,0,0,0,0,0,0,0,0,0,0,0,0,0,0,0,0,0,0,0,0,0,0,0,0,0,0,0,0,0,0,0,0,0,0,0,0,0,0,0,0,0,0,0,0,0,0,0,0,0,0,0,0,0,0,0,0,0,0,0,0,0,0,0,0,0,0,0,0,0,0,0,0,0,0,0,0,0,0,0,0,0,0,0,0,0,0,0,0,0,0,0,0,0,0,0,0,0,0,0,0,0,0,0,0,0,0,0,0,0,0,0,0,0,0,0,0,0,0,0,0,0,0,0,0,0,0,0,0,0,0,0,0,0,0,0,0,0,0,0,0,0,0,0,0,0,0,0,0,0,0,0,0,0,0,0,0,0,0,0,0,0,0,0,0,0,0,0,0,0,0,0,0,0,0,0,0,0,0,0,0,0,0,0,0,0,0,0,0,0,0,0,0,0,0,0,0,0,0,0,0,0,0,0,0,0,0,0,0,0,0,0,0,0,0,0,0,0,0,0,0,0,0,0,0,0,0,0,0,0,0,0,0,0,0,0,0,0,0,0,0,0,0,0,0,0,0,0,0,0,0,0,0,0,0,0,0,0,0,0,0,0,0,0,0,0,0,0,0,0,0,0,0,0,0,0,0,0,0,0,0,0,0,0,0,0,0,0,0,0,0,0,0,0,0,0,0,0,0,0,0,0,0,0,0,0,0,0,0,0,0,0,0,0,0,0,0,0,0,0,0,0,0,0,0,0,0,0,0,0],"trees":[{"base_weights":[7.0234574E-3,-1.4092174E0,4.725092E-1,-1.4636931E-2,-1.483859E-1,4.882358E-1,-3.8806185E-1,3.3369313E-3,-7.41696E-3,4.14162E-1,5.5032014E-3,3.4749678E-3,-7.5178468E-3,-8.050767E-2,4.2072546E-1,-3.479798E-3,2.2721828E-3,4.2812084E-3,1.9475392E-3],"categories":[],"categories_nodes":[],"categories_segments":[],"categories_sizes":[],"default_left":[0,0,0,0,0,0,0,0,0,0,0,0,0,0,0,0,0,0,0],"id":0,"left_children":[1,3,5,-1,7,9,11,-1,-1,13,-1,-1,-1,15,17,-1,-1,-1,-1],"loss_changes":[3.1446408E2,7.887619E0,5.0481186E0,0E0,1.963633E0,1.395462E0,2.134019E0,0E0,0E0,5.695839E-1,0E0,0E0,0E0,3.2599175E-1,1.8902016E-1,0E0,0E0,0E0,0E0],"parents":[2147483647,0,0,1,1,2,2,4,4,5,5,6,6,9,9,13,13,14,14],"right_children":[2,4,6,-1,8,10,12,-1,-1,14,-1,-1,-1,16,18,-1,-1,-1,-1],"split_conditions":[-2.439181E-1,1.14653215E-1,3.7502358E0,-1.4636931E-2,-4.4953436E-1,6.3527054E-1,-7.522277E-1,3.3369313E-3,-7.41696E-3,-5.540207E-2,5.5032014E-3,3.4749678E-3,-7.5178468E-3,-4.4953436E-1,7.460376E-1,-3.479798E-3,2.2721828E-3,4.2812084E-3,1.9475392E-3],"split_indices":[11,15,12,0,0,11,8,0,0,11,0,0,0,0,8,0,0,0,0],"split_type":[0,0,0,0,0,0,0,0,0,0,0,0,0,0,0,0,0,0,0],"sum_hessian":[4.75E2,1.17E2,3.58E2,1.12E2,5E0,3.52E2,6E0,3E0,2E0,1.64E2,1.88E2,2E0,4E0,2E0,1.62E2,1E0,1E0,1.56E2,6E0],"tree_param":{"num_deleted":"0","num_feature":"17","num_nodes":"19","size_leaf_vector":"1"}},{"base_weights":[6.9275256E-3,-1.3952837E0,4.678022E-1,-1.4491857E-2,-1.4758204E-1,4.8338327E-1,-3.847588E-1,3.3119046E-3,-7.3675136E-3,4.100508E-1,5.448461E-3,3.4518011E-3,-7.457704E-3,-8.010515E-2,4.1655642E-1,-3.4623991E-3,2.260822E-3,4.238669E-3,1.9308461E-3],"categories":[],"categories_nodes":[],"categories_segments":[],"categories_sizes":[],"default_left":[0,0,0,0,0,0,0,0,0,0,0,0,0,0,0,0,0,0,0],"id":1,"left_children":[1,3,5,-1,7,9,11,-1,-1,13,-1,-1,-1,15,17,-1,-1,-1,-1],"loss_changes":[3.0826468E2,7.722046E0,4.9548874E0,0E0,1.9364734E0,1.36763E0,2.1020398E0,0E0,0E0,5.59515E-1,0E0,0E0,0E0,3.2274E-1,1.8444824E-1,0E0,0E0,0E0,0E0],"parents":[2147483647,0,0,1,1,2,2,4,4,5,5,6,6,9,9,13,13,14,14],"right_children":[2,4,6,-1,8,10,12,-1,-1,14,-1,-1,-1,16,18,-1,-1,-1,-1],"split_conditions":[-2.439181E-1,1.14653215E-1,3.7502358E0,-1.4491857E-2,-4.4953436E-1,6.3527054E-1,-7.522277E-1,3.3119046E-3,-7.3675136E-3,-5.540207E-2,5.448461E-3,3.4518011E-3,-7.457704E-3,-4.4953436E-1,7.460376E-1,-3.4623991E-3,2.260822E-3,4.238669E-3,1.9308461E-3],"split_indices":[11,15,12,0,0,11,8,0,0,11,0,0,0,0,8,0,0,0,0],"split_type":[0,0,0,0,0,0,0,0,0,0,0,0,0,0,0,0,0,0,0],"sum_hessian":[4.75E2,1.17E2,3.58E2,1.12E2,5E0,3.52E2,6E0,3E0,2E0,1.64E2,1.88E2,2E0,4E0,2E0,1.62E2,1E0,1E0,1.56E2,6E0],"tree_param":{"num_deleted":"0","num_feature":"17","num_nodes":"19","size_leaf_vector":"1"}},{"base_weights":[6.8327514E-3,-1.3814881E0,4.6314204E-1,-1.4348222E-2,-1.4678217E-1,4.7857895E-1,-3.814835E-1,3.2870648E-3,-7.318397E-3,4.059804E-1,5.394265E-3,3.428789E-3,-7.398042E-3,-7.9704605E-2,4.124287E-1,-3.445087E-3,2.249518E-3,4.196552E-3,1.914296E-3],"categories":[],"categories_nodes":[],"categories_segments":[],"categories_sizes":[],"default_left":[0,0,0,0,0,0,0,0,0,0,0,0,0,0,0,0,0,0,0],"id":2,"left_children":[1,3,5,-1,7,9,11,-1,-1,13,-1,-1,-1,15,17,-1,-1,-1,-1],"loss_changes":[3.0218756E2,7.5599213E0,4.863365E0,0E0,1.9096899E0,1.3403625E0,2.0705419E0,0E0,0E0,5.496235E-1,0E0,0E0,0E0,3.1952065E-1,1.7998695E-1,0E0,0E0,0E0,0E0],"parents":[2147483647,0,0,1,1,2,2,4,4,5,5,6,6,9,9,13,13,14,14],"right_children":[2,4,6,-1,8,10,12,-1,-1,14,-1,-1,-1,16,18,-1,-1,-1,-1],"split_conditions":[-2.439181E-1,1.14653215E-1,3.7502358E0,-1.4348222E-2,-4.4953436E-1,6.3527054E-1,-7.522277E-1,3.2870648E-3,-7.318397E-3,-5.540207E-2,5.394265E-3,3.428789E-3,-7.398042E-3,-4.4953436E-1,7.460376E-1,-3.445087E-3,2.249518E-3,4.196552E-3,1.914296E-3],"split_indices":[11,15,12,0,0,11,8,0,0,11,0,0,0,0,8,0,0,0,0],"split_type":[0,0,0,0,0,0,0,0,0,0,0,0,0,0,0,0,0,0,0],"sum_hessian":[4.75E2,1.17E2,3.58E2,1.12E2,5E0,3.52E2,6E0,3E0,2E0,1.64E2,1.88E2,2E0,4E0,2E0,1.62E2,1E0,1E0,1.56E2,6E0],"tree_param":{"num_deleted":"0","num_feature":"17","num_nodes":"19","size_leaf_vector":"1"}},{"base_weights":[6.739133E-3,-1.367829E0,4.5852828E-1,-1.4206009E-2,-1.4598623E-1,4.7382239E-1,-3.782357E-1,3.2624118E-3,-7.269607E-3,4.0195042E-1,5.340607E-3,3.4059302E-3,-7.338858E-3,-7.930609E-2,4.0834194E-1,-3.4278615E-3,2.2382704E-3,4.1548545E-3,1.8978876E-3],"categories":[],"categories_nodes":[],"categories_segments":[],"categories_sizes":[],"default_left":[0,0,0,0,0,0,0,0,0,0,0,0,0,0,0,0,0,0,0],"id":3,"left_children":[1,3,5,-1,7,9,11,-1,-1,13,-1,-1,-1,15,17,-1,-1,-1,-1],"loss_changes":[2.9623032E2,7.401123E0,4.7735367E0,0E0,1.883277E0,1.3136292E0,2.039517E0,0E0,0E0,5.399189E-1,0E0,0E0,0E0,3.1633344E-1,1.7562485E-1,0E0,0E0,0E0,0E0],"parents":[2147483647,0,0,1,1,2,2,4,4,5,5,6,6,9,9,13,13,14,14],"right_children":[2,4,6,-1,8,10,12,-1,-1,14,-1,-1,-1,16,18,-1,-1,-1,-1],"split_conditions":[-2.439181E-1,1.14653215E-1,3.7502358E0,-1.4206009E-2,-4.4953436E-1,6.3527054E-1,-7.522277E-1,3.2624118E-3,-7.269607E-3,-5.540207E-2,5.340607E-3,3.4059302E-3,-7.338858E-3,-4.4953436E-1,7.460376E-1,-3.4278615E-3,2.2382704E-3,4.1548545E-3,1.8978876E-3],"split_indices":[11,15,12,0,0,11,8,0,0,11,0,0,0,0,8,0,0,0,0],"split_type":[0,0,0,0,0,0,0,0,0,0,0,0,0,0,0,0,0,0,0],"sum_hessian":[4.75E2,1.17E2,3.58E2,1.12E2,5E0,3.52E2,6E0,3E0,2E0,1.64E2,1.88E2,2E0,4E0,2E0,1.62E2,1E0,1E0,1.56E2,6E0],"tree_param":{"num_deleted":"0","num_feature":"17","num_nodes":"19","size_leaf_vector":"1"}},{"base_weights":[6.646639E-3,-1.354305E0,4.5396045E-1,-1.4065206E-2,-1.4519422E-1,4.6911305E-1,-3.750152E-1,3.237944E-3,-7.221143E-3,3.9796036E-1,5.2874833E-3,3.3832241E-3,-7.2801467E-3,-7.890955E-2,4.0429565E-1,-3.4107221E-3,2.227079E-3,4.1135703E-3,1.8816201E-3],"categories":[],"categories_nodes":[],"categories_segments":[],"categories_sizes":[],"default_left":[0,0,0,0,0,0,0,0,0,0,0,0,0,0,0,0,0,0,0],"id":4,"left_children":[1,3,5,-1,7,9,11,-1,-1,13,-1,-1,-1,15,17,-1,-1,-1,-1],"loss_changes":[2.903905E2,7.2456512E0,4.685364E0,0E0,1.8572303E0,1.2874374E0,2.0089583E0,0E0,0E0,5.3038406E-1,0E0,0E0,0E0,3.13178E-1,1.7137146E-1,0E0,0E0,0E0,0E0],"parents":[2147483647,0,0,1,1,2,2,4,4,5,5,6,6,9,9,13,13,14,14],"right_children":[2,4,6,-1,8,10,12,-1,-1,14,-1,-1,-1,16,18,-1,-1,-1,-1],"split_conditions":[-2.439181E-1,1.14653215E-1,3.7502358E0,-1.4065206E-2,-4.4953436E-1,6.3527054E-1,-7.522277E-1,3.237944E-3,-7.221143E-3,-5.540207E-2,5.2874833E-3,3.3832241E-3,-7.2801467E-3,-4.4953436E-1,7.460376E-1,-3.4107221E-3,2.227079E-3,4.1135703E-3,1.8816201E-3],"split_indices":[11,15,12,0,0,11,8,0,0,11,0,0,0,0,8,0,0,0,0],"split_type":[0,0,0,0,0,0,0,0,0,0,0,0,0,0,0,0,0,0,0],"sum_hessian":[4.75E2,1.17E2,3.58E2,1.12E2,5E0,3.52E2,6E0,3E0,2E0,1.64E2,1.88E2,2E0,4E0,2E0,1.62E2,1E0,1E0,1.56E2,6E0],"tree_param":{"num_deleted":"0","num_feature":"17","num_nodes":"19","size_leaf_vector":"1"}},{"base_weights":[6.5553016E-3,-1.340915E0,4.4943812E-1,-1.3925799E-2,-1.4440615E-1,4.6445054E-1,-3.7182173E-1,3.2136594E-3,-7.173002E-3,3.9400995E-1,5.2348888E-3,3.3606691E-3,-7.221906E-3,-7.851499E-2,4.0028948E-1,-3.3936684E-3,2.2159435E-3,4.072697E-3,1.8654921E-3],"categories":[],"categories_nodes":[],"categories_segments":[],"categories_sizes":[],"default_left":[0,0,0,0,0,0,0,0,0,0,0,0,0,0,0,0,0,0,0],"id":5,"left_children":[1,3,5,-1,7,9,11,-1,-1,13,-1,-1,-1,15,17,-1,-1,-1,-1],"loss_changes":[2.8466586E2,7.093384E0,4.598839E0,0E0,1.8315442E0,1.2617569E0,1.9788592E0,0E0,0E0,5.210228E-1,0E0,0E0,0E0,3.1005403E-1,1.6721344E-1,0E0,0E0,0E0,0E0],"parents":[2147483647,0,0,1,1,2,2,4,4,5,5,6,6,9,9,13,13,14,14],"right_children":[2,4,6,-1,8,10,12,-1,-1,14,-1,-1,-1,16,18,-1,-1,-1,-1],"split_conditions":[-2.439181E-1,1.14653215E-1,3.7502358E0,-1.3925799E-2,-4.4953436E-1,6.3527054E-1,-7.522277E-1,3.2136594E-3,-7.173002E-3,-5.540207E-2,5.2348888E-3,3.3606691E-3,-7.221906E-3,-4.4953436E-1,7.460376E-1,-3.3936684E-3,2.2159435E-3,4.072697E-3,1.8654921E-3],"split_indices":[11,15,12,0,0,11,8,0,0,11,0,0,0,0,8,0,0,0,0],"split_type":[0,0,0,0,0,0,0,0,0,0,0,0,0,0,0,0,0,0,0],"sum_hessian":[4.75E2,1.17E2,3.58E2,1.12E2,5E0,3.52E2,6E0,3E0,2E0,1.64E2,1.88E2,2E0,4E0,2E0,1.62E2,1E0,1E0,1.56E2,6E0],"tree_param":{"num_deleted":"0","num_feature":"17","num_nodes":"19","size_leaf_vector":"1"}},{"base_weights":[6.4650467E-3,-1.3276573E0,4.449608E-1,-1.37877725E-2,-1.43622E-1,4.5983434E-1,-3.6865515E-1,3.1895572E-3,-7.1251825E-3,3.9009866E-1,5.182816E-3,3.3382648E-3,-7.1641305E-3,-7.8122415E-2,3.96323E-1,-3.3767002E-3,2.204864E-3,4.032229E-3,1.849502E-3],"categories":[],"categories_nodes":[],"categories_segments":[],"categories_sizes":[],"default_left":[0,0,0,0,0,0,0,0,0,0,0,0,0,0,0,0,0,0,0],"id":6,"left_children":[1,3,5,-1,7,9,11,-1,-1,13,-1,-1,-1,15,17,-1,-1,-1,-1],"loss_changes":[2.790541E2,6.9442596E0,4.5139008E0,0E0,1.8062141E0,1.2366028E0,1.9492127E0,0E0,0E0,5.118313E-1,0E0,0E0,0E0,3.0696127E-1,1.631527E-1,0E0,0E0,0E0,0E0],"parents":[2147483647,0,0,1,1,2,2,4,4,5,5,6,6,9,9,13,13,14,14],"right_children":[2,4,6,-1,8,10,12,-1,-1,14,-1,-1,-1,16,18,-1,-1,-1,-1],"split_conditions":[-2.439181E-1,1.14653215E-1,3.7502358E0,-1.37877725E-2,-4.4953436E-1,6.3527054E-1,-7.522277E-1,3.1895572E-3,-7.1251825E-3,-5.540207E-2,5.182816E-3,3.3382648E-3,-7.1641305E-3,-4.4953436E-1,7.460376E-1,-3.3767002E-3,2.204864E-3,4.032229E-3,1.849502E-3],"split_indices":[11,15,12,0,0,11,8,0,0,11,0,0,0,0,8,0,0,0,0],"split_type":[0,0,0,0,0,0,0,0,0,0,0,0,0,0,0,0,0,0,0],"sum_hessian":[4.75E2,1.17E2,3.58E2,1.12E2,5E0,3.52E2,6E0,3E0,2E0,1.64E2,1.88E2,2E0,4E0,2E0,1.62E2,1E0,1E0,1.56E2,6E0],"tree_param":{"num_deleted":"0","num_feature":"17","num_nodes":"19","size_leaf_vector":"1"}},{"base_weights":[6.375903E-3,-1.314531E0,4.405281E-1,-1.3651116E-2,-1.4284171E-1,4.55264E-1,-3.6551517E-1,3.1656353E-3,-7.0776814E-3,3.862262E-1,5.131263E-3,3.3160097E-3,-7.106818E-3,-7.773179E-2,3.9239582E-1,-3.3598165E-3,2.1938398E-3,3.9921636E-3,1.8336494E-3],"categories":[],"categories_nodes":[],"categories_segments":[],"categories_sizes":[],"default_left":[0,0,0,0,0,0,0,0,0,0,0,0,0,0,0,0,0,0,0],"id":7,"left_children":[1,3,5,-1,7,9,11,-1,-1,13,-1,-1,-1,15,17,-1,-1,-1,-1],"loss_changes":[2.73553E2,6.7982635E0,4.4305344E0,0E0,1.7812345E0,1.2119446E0,1.9200115E0,0E0,0E0,5.028057E-1,0E0,0E0,0E0,3.0389932E-1,1.5918732E-1,0E0,0E0,0E0,0E0],"parents":[2147483647,0,0,1,1,2,2,4,4,5,5,6,6,9,9,13,13,14,14],"right_children":[2,4,6,-1,8,10,12,-1,-1,14,-1,-1,-1,16,18,-1,-1,-1,-1],"split_conditions":[-2.439181E-1,1.14653215E-1,3.7502358E0,-1.3651116E-2,-4.4953436E-1,6.3527054E-1,-7.522277E-1,3.1656353E-3,-7.0776814E-3,-5.540207E-2,5.131263E-3,3.3160097E-3,-7.106818E-3,-4.4953436E-1,7.460376E-1,-3.3598165E-3,2.1938398E-3,3.9921636E-3,1.8336494E-3],"split_indices":[11,15,12,0,0,11,8,0,0,11,0,0,0,0,8,0,0,0,0],"split_type":[0,0,0,0,0,0,0,0,0,0,0,0,0,0,0,0,0,0,0],"sum_hessian":[4.75E2,1.17E2,3.58E2,1.12E2,5E0,3.52E2,6E0,3E0,2E0,1.64E2,1.88E2,2E0,4E0,2E0,1.62E2,1E0,1E0,1.56E2,6E0],"tree_param":{"num_deleted":"0","num_feature":"17","num_nodes":"19","size_leaf_vector":"1"}},{"base_weights":[6.2878663E-3,-1.3015345E0,4.3613955E-1,-1.3515811E-2,-1.420653E-1,4.5073912E-1,-3.6240155E-1,3.1418928E-3,-7.0304964E-3,3.823922E-1,5.0802217E-3,3.293903E-3,-7.0499633E-3,-7.734314E-2,3.8850763E-1,-3.3430175E-3,2.1828704E-3,3.952496E-3,1.8179322E-3],"categories":[],"categories_nodes":[],"categories_segments":[],"categories_sizes":[],"default_left":[0,0,0,0,0,0,0,0,0,0,0,0,0,0,0,0,0,0,0],"id":8,"left_children":[1,3,5,-1,7,9,11,-1,-1,13,-1,-1,-1,15,17,-1,-1,-1,-1],"loss_changes":[2.681604E2,6.655258E0,4.3487015E0,0E0,1.7566007E0,1.187767E0,1.8912491E0,0E0,0E0,4.9394226E-1,0E0,0E0,0E0,3.0086794E-1,1.5531349E-1,0E0,0E0,0E0,0E0],"parents":[2147483647,0,0,1,1,2,2,4,4,5,5,6,6,9,9,13,13,14,14],"right_children":[2,4,6,-1,8,10,12,-1,-1,14,-1,-1,-1,16,18,-1,-1,-1,-1],"split_conditions":[-2.439181E-1,1.14653215E-1,3.7502358E0,-1.3515811E-2,-4.4953436E-1,6.3527054E-1,-7.522277E-1,3.1418928E-3,-7.0304964E-3,-5.540207E-2,5.0802217E-3,3.293903E-3,-7.0499633E-3,-4.4953436E-1,7.460376E-1,-3.3430175E-3,2.1828704E-3,3.952496E-3,1.8179322E-3],"split_indices":[11,15,12,0,0,11,8,0,0,11,0,0,0,0,8,0,0,0,0],"split_type":[0,0,0,0,0,0,0,0,0,0,0,0,0,0,0,0,0,0,0],"sum_hessian":[4.75E2,1.17E2,3.58E2,1.12E2,5E0,3.52E2,6E0,3E0,2E0,1.64E2,1.88E2,2E0,4E0,2E0,1.62E2,1E0,1E0,1.56E2,6E0],"tree_param":{"num_deleted":"0","num_feature":"17","num_nodes":"19","size_leaf_vector":"1"}},{"base_weights":[6.200881E-3,-1.2886667E0,4.3179467E-1,-1.338185E-2,-1.4129275E-1,4.4625917E-1,-3.593141E-1,3.1183288E-3,-6.983626E-3,3.7859622E-1,5.0296886E-3,3.2719437E-3,-6.993564E-3,-7.695643E-2,3.8465795E-1,-3.3263026E-3,2.1719562E-3,3.913223E-3,1.8023498E-3],"categories":[],"categories_nodes":[],"categories_segments":[],"categories_sizes":[],"default_left":[0,0,0,0,0,0,0,0,0,0,0,0,0,0,0,0,0,0,0],"id":9,"left_children":[1,3,5,-1,7,9,11,-1,-1,13,-1,-1,-1,15,17,-1,-1,-1,-1],"loss_changes":[2.6287415E2,6.515213E0,4.268387E0,0E0,1.7323084E0,1.164093E0,1.8629187E0,0E0,0E0,4.8523903E-1,0E0,0E0,0E0,2.9786682E-1,1.5153313E-1,0E0,0E0,0E0,0E0],"parents":[2147483647,0,0,1,1,2,2,4,4,5,5,6,6,9,9,13,13,14,14],"right_children":[2,4,6,-1,8,10,12,-1,-1,14,-1,-1,-1,16,18,-1,-1,-1,-1],"split_conditions":[-2.439181E-1,1.14653215E-1,3.7502358E0,-1.338185E-2,-4.4953436E-1,6.3527054E-1,-7.522277E-1,3.1183288E-3,-6.983626E-3,-5.540207E-2,5.0296886E-3,3.2719437E-3,-6.993564E-3,-4.4953436E-1,7.460376E-1,-3.3263026E-3,2.1719562E-3,3.913223E-3,1.8023498E-3],"split_indices":[11,15,12,0,0,11,8,0,0,11,0,0,0,0,8,0,0,0,0],"split_type":[0,0,0,0,0,0,0,0,0,0,0,0,0,0,0,0,0,0,0],"sum_hessian":[4.75E2,1.17E2,3.58E2,1.12E2,5E0,3.52E2,6E0,3E0,2E0,1.64E2,1.88E2,2E0,4E0,2E0,1.62E2,1E0,1E0,1.56E2,6E0],"tree_param":{"num_deleted":"0","num_feature":"17","num_nodes":"19","size_leaf_vector":"1"}},{"base_weights":[6.1149737E-3,-1.2759262E0,4.274931E-1,-1.3249216E-2,-1.4052404E-1,4.4182375E-1,-3.5625264E-1,3.0949414E-3,-6.9370694E-3,3.748379E-1,4.979658E-3,3.2501307E-3,-6.937615E-3,-7.657164E-2,3.8084644E-1,-3.3096713E-3,2.1610965E-3,3.9380365E-3,2.6191773E-3],"categories":[],"categories_nodes":[],"categories_segments":[],"categories_sizes":[],"default_left":[0,0,0,0,0,0,0,0,0,0,0,0,0,0,0,0,0,0,0],"id":10,"left_children":[1,3,5,-1,7,9,11,-1,-1,13,-1,-1,-1,15,17,-1,-1,-1,-1],"loss_changes":[2.576921E2,6.3780975E0,4.1895447E0,0E0,1.7083522E0,1.1408768E0,1.8350141E0,0E0,0E0,4.766941E-1,0E0,0E0,0E0,2.948956E-1,1.4803696E-1,0E0,0E0,0E0,0E0],"parents":[2147483647,0,0,1,1,2,2,4,4,5,5,6,6,9,9,13,13,14,14],"right_children":[2,4,6,-1,8,10,12,-1,-1,14,-1,-1,-1,16,18,-1,-1,-1,-1],"split_conditions":[-2.439181E-1,1.14653215E-1,3.7502358E0,-1.3249216E-2,-4.4953436E-1,6.3527054E-1,-7.522277E-1,3.0949414E-3,-6.9370694E-3,-5.540207E-2,4.979658E-3,3.2501307E-3,-6.937615E-3,-4.4953436E-1,6.898929E-1,-3.3096713E-3,2.1610965E-3,3.9380365E-3,2.6191773E-3],"split_indices":[11,15,12,0,0,11,8,0,0,11,0,0,0,0,8,0,0,0,0],"split_type":[0,0,0,0,0,0,0,0,0,0,0,0,0,0,0,0,0,0,0],"sum_hessian":[4.75E2,1.17E2,3.58E2,1.12E2,5E0,3.52E2,6E0,3E0,2E0,1.64E2,1.88E2,2E0,4E0,2E0,1.62E2,1E0,1E0,1.44E2,1.8E1],"tree_param":{"num_deleted":"0","num_feature":"17","num_nodes":"19","size_leaf_vector":"1"}},{"base_weights":[6.0319933E-3,-1.2633117E0,4.2323682E-1,-1.3117897E-2,-1.3975917E-1,4.3743494E-1,-3.5321686E-1,3.0717289E-3,-6.8908217E-3,3.7112233E-1,4.9301246E-3,3.2284632E-3,-6.882114E-3,-7.6188765E-2,3.770782E-1,-3.2931226E-3,2.150291E-3,3.8362187E-3,1.7644509E-3],"categories":[],"categories_nodes":[],"categories_segments":[],"categories_sizes":[],"default_left":[0,0,0,0,0,0,0,0,0,0,0,0,0,0,0,0,0,0,0],"id":11,"left_children":[1,3,5,-1,7,9,11,-1,-1,13,-1,-1,-1,15,17,-1,-1,-1,-1],"loss_changes":[2.5261302E2,6.2438354E0,4.112198E0,0E0,1.6847279E0,1.1180038E0,1.807529E0,0E0,0E0,4.6831322E-1,0E0,0E0,0E0,2.91954E-1,1.463089E-1,0E0,0E0,0E0,0E0],"parents":[2147483647,0,0,1,1,2,2,4,4,5,5,6,6,9,9,13,13,14,14],"right_children":[2,4,6,-1,8,10,12,-1,-1,14,-1,-1,-1,16,18,-1,-1,-1,-1],"split_conditions":[-2.439181E-1,1.14653215E-1,3.7502358E0,-1.3117897E-2,-4.4953436E-1,6.3527054E-1,-7.522277E-1,3.0717289E-3,-6.8908217E-3,-5.540207E-2,4.9301246E-3,3.2284632E-3,-6.882114E-3,-4.4953436E-1,7.460376E-1,-3.2931226E-3,2.150291E-3,3.8362187E-3,1.7644509E-3],"split_indices":[11,15,12,0,0,11,8,0,0,11,0,0,0,0,8,0,0,0,0],"split_type":[0,0,0,0,0,0,0,0,0,0,0,0,0,0,0,0,0,0,0],"sum_hessian":[4.75E2,1.17E2,3.58E2,1.12E2,5E0,3.52E2,6E0,3E0,2E0,1.64E2,1.88E2,2E0,4E0,2E0,1.62E2,1E0,1E0,1.56E2,6E0],"tree_param":{"num_deleted":"0","num_feature":"17","num_nodes":"19","size_leaf_vector":"1"}},{"base_weights":[5.948137E-3,-1.2508222E0,4.190204E-1,-1.2987878E-2,-1.389981E-1,4.330872E-1,-3.5020667E-1,3.0486912E-3,-6.8448833E-3,3.674381E-1,4.881084E-3,3.20694E-3,-6.827057E-3,-7.580783E-2,3.733418E-1,-3.276657E-3,2.1395397E-3,2.9617946E-3,3.944297E-3],"categories":[],"categories_nodes":[],"categories_segments":[],"categories_sizes":[],"default_left":[0,0,0,0,0,0,0,0,0,0,0,0,0,0,0,0,0,0,0],"id":12,"left_children":[1,3,5,-1,7,9,11,-1,-1,13,-1,-1,-1,15,17,-1,-1,-1,-1],"loss_changes":[2.4763332E2,6.1123505E0,4.0362434E0,0E0,1.6614307E0,1.0957184E0,1.7804565E0,0E0,0E0,4.6006966E-1,0E0,0E0,0E0,2.8904176E-1,1.484127E-1,0E0,0E0,0E0,0E0],"parents":[2147483647,0,0,1,1,2,2,4,4,5,5,6,6,9,9,13,13,14,14],"right_children":[2,4,6,-1,8,10,12,-1,-1,14,-1,-1,-1,16,18,-1,-1,-1,-1],"split_conditions":[-2.439181E-1,1.14653215E-1,3.7502358E0,-1.2987878E-2,-4.4953436E-1,6.3527054E-1,-7.522277E-1,3.0486912E-3,-6.8448833E-3,-5.540207E-2,4.881084E-3,3.20694E-3,-6.827057E-3,-4.4953436E-1,5.3314984E-1,-3.276657E-3,2.1395397E-3,2.9617946E-3,3.944297E-3],"split_indices":[11,15,12,0,0,11,8,0,0,11,0,0,0,0,11,0,0,0,0],"split_type":[0,0,0,0,0,0,0,0,0,0,0,0,0,0,0,0,0,0,0],"sum_hessian":[4.75E2,1.17E2,3.58E2,1.12E2,5E0,3.52E2,6E0,3E0,2E0,1.64E2,1.88E2,2E0,4E0,2E0,1.62E2,1E0,1E0,3.8E1,1.24E2],"tree_param":{"num_deleted":"0","num_feature":"17","num_nodes":"19","size_leaf_vector":"1"}},{"base_weights":[5.8681644E-3,-1.2384562E0,4.148498E-1,-1.2859149E-2,-1.3824083E-1,4.287865E-1,-3.472218E-1,3.0258256E-3,-6.799251E-3,3.637987E-1,4.8325313E-3,3.18556E-3,-6.7724413E-3,-7.5428806E-2,3.6965075E-1,-3.260274E-3,2.1288418E-3,3.824099E-3,2.5282302E-3],"categories":[],"categories_nodes":[],"categories_segments":[],"categories_sizes":[],"default_left":[0,0,0,0,0,0,0,0,0,0,0,0,0,0,0,0,0,0,0],"id":13,"left_children":[1,3,5,-1,7,9,11,-1,-1,13,-1,-1,-1,15,17,-1,-1,-1,-1],"loss_changes":[2.4275294E2,5.9835815E0,3.9617348E0,0E0,1.6384561E0,1.0736923E0,1.7537911E0,0E0,0E0,4.5199585E-1,0E0,0E0,0E0,2.8615856E-1,1.4628792E-1,0E0,0E0,0E0,0E0],"parents":[2147483647,0,0,1,1,2,2,4,4,5,5,6,6,9,9,13,13,14,14],"right_children":[2,4,6,-1,8,10,12,-1,-1,14,-1,-1,-1,16,18,-1,-1,-1,-1],"split_conditions":[-2.439181E-1,1.14653215E-1,3.7502358E0,-1.2859149E-2,-4.4953436E-1,6.3527054E-1,-7.522277E-1,3.0258256E-3,-6.799251E-3,-5.540207E-2,4.8325313E-3,3.18556E-3,-6.7724413E-3,-4.4953436E-1,6.898929E-1,-3.260274E-3,2.1288418E-3,3.824099E-3,2.5282302E-3],"split_indices":[11,15,12,0,0,11,8,0,0,11,0,0,0,0,8,0,0,0,0],"split_type":[0,0,0,0,0,0,0,0,0,0,0,0,0,0,0,0,0,0,0],"sum_hessian":[4.75E2,1.17E2,3.58E2,1.12E2,5E0,3.52E2,6E0,3E0,2E0,1.64E2,1.88E2,2E0,4E0,2E0,1.62E2,1E0,1E0,1.44E2,1.8E1],"tree_param":{"num_deleted":"0","num_feature":"17","num_nodes":"19","size_leaf_vector":"1"}},{"base_weights":[5.788131E-3,-1.2262126E0,4.1071934E-1,-1.27316965E-2,-1.3748732E-1,4.245271E-1,-3.4426197E-1,3.0031316E-3,-6.753922E-3,3.6019236E-1,4.784462E-3,3.1643228E-3,-6.718261E-3,-7.5051665E-2,3.659932E-1,-3.2439725E-3,2.1181977E-3,2.8963399E-3,3.8688933E-3],"categories":[],"categories_nodes":[],"categories_segments":[],"categories_sizes":[],"default_left":[0,0,0,0,0,0,0,0,0,0,0,0,0,0,0,0,0,0,0],"id":14,"left_children":[1,3,5,-1,7,9,11,-1,-1,13,-1,-1,-1,15,17,-1,-1,-1,-1],"loss_changes":[2.3796838E2,5.8575134E0,3.8885841E0,0E0,1.6157995E0,1.0521774E0,1.7275257E0,0E0,0E0,4.4405937E-1,0E0,0E0,0E0,2.8330415E-1,1.4802933E-1,0E0,0E0,0E0,0E0],"parents":[2147483647,0,0,1,1,2,2,4,4,5,5,6,6,9,9,13,13,14,14],"right_children":[2,4,6,-1,8,10,12,-1,-1,14,-1,-1,-1,16,18,-1,-1,-1,-1],"split_conditions":[-2.439181E-1,1.14653215E-1,3.7502358E0,-1.27316965E-2,-4.4953436E-1,6.3527054E-1,-7.522277E-1,3.0031316E-3,-6.753922E-3,-5.540207E-2,4.784462E-3,3.1643228E-3,-6.718261E-3,-4.4953436E-1,5.3314984E-1,-3.2439725E-3,2.1181977E-3,2.8963399E-3,3.8688933E-3],"split_indices":[11,15,12,0,0,11,8,0,0,11,0,0,0,0,11,0,0,0,0],"split_type":[0,0,0,0,0,0,0,0,0,0,0,0,0,0,0,0,0,0,0],"sum_hessian":[4.75E2,1.17E2,3.58E2,1.12E2,5E0,3.52E2,6E0,3E0,2E0,1.64E2,1.88E2,2E0,4E0,2E0,1.62E2,1E0,1E0,3.8E1,1.24E2],"tree_param":{"num_deleted":"0","num_feature":"17","num_nodes":"19","size_leaf_vector":"1"}},{"base_weights":[5.710058E-3,-1.2140901E0,4.0663126E-1,-1.2605505E-2,-1.3673757E-1,4.2031136E-1,-3.413271E-1,2.9806083E-3,-6.708896E-3,3.566246E-1,4.7368705E-3,3.1432274E-3,-6.6645155E-3,-7.467637E-2,3.6237478E-1,-3.2277524E-3,2.1076067E-3,3.750114E-3,2.4686495E-3],"categories":[],"categories_nodes":[],"categories_segments":[],"categories_sizes":[],"default_left":[0,0,0,0,0,0,0,0,0,0,0,0,0,0,0,0,0,0,0],"id":15,"left_children":[1,3,5,-1,7,9,11,-1,-1,13,-1,-1,-1,15,17,-1,-1,-1,-1],"loss_changes":[2.3327852E2,5.734024E0,3.8168068E0,0E0,1.5934569E0,1.0310326E0,1.7016554E0,0E0,0E0,4.3626976E-1,0E0,0E0,0E0,2.8047818E-1,1.453476E-1,0E0,0E0,0E0,0E0],"parents":[2147483647,0,0,1,1,2,2,4,4,5,5,6,6,9,9,13,13,14,14],"right_children":[2,4,6,-1,8,10,12,-1,-1,14,-1,-1,-1,16,18,-1,-1,-1,-1],"split_conditions":[-2.439181E-1,1.14653215E-1,3.7502358E0,-1.2605505E-2,-4.4953436E-1,6.3527054E-1,-7.522277E-1,2.9806083E-3,-6.708896E-3,-5.540207E-2,4.7368705E-3,3.1432274E-3,-6.6645155E-3,-4.4953436E-1,6.898929E-1,-3.2277524E-3,2.1076067E-3,3.750114E-3,2.4686495E-3],"split_indices":[11,15,12,0,0,11,8,0,0,11,0,0,0,0,8,0,0,0,0],"split_type":[0,0,0,0,0,0,0,0,0,0,0,0,0,0,0,0,0,0,0],"sum_hessian":[4.75E2,1.17E2,3.58E2,1.12E2,5E0,3.52E2,6E0,3E0,2E0,1.64E2,1.88E2,2E0,4E0,2E0,1.62E2,1E0,1E0,1.44E2,1.8E1],"tree_param":{"num_deleted":"0","num_feature":"17","num_nodes":"19","size_leaf_vector":"1"}},{"base_weights":[5.63193E-3,-1.2020876E0,4.0258256E-1,-1.2480565E-2,-1.3599156E-1,4.1613615E-1,-3.3841687E-1,2.9582542E-3,-6.66417E-3,3.5308927E-1,4.6897526E-3,3.1222722E-3,-6.611199E-3,-7.430301E-2,3.587892E-1,-3.2116137E-3,2.0970686E-3,2.8322365E-3,3.7949535E-3],"categories":[],"categories_nodes":[],"categories_segments":[],"categories_sizes":[],"default_left":[0,0,0,0,0,0,0,0,0,0,0,0,0,0,0,0,0,0,0],"id":16,"left_children":[1,3,5,-1,7,9,11,-1,-1,13,-1,-1,-1,15,17,-1,-1,-1,-1],"loss_changes":[2.2868076E2,5.613144E0,3.746334E0,0E0,1.5714233E0,1.010376E0,1.6761738E0,0E0,0E0,4.2861748E-1,0E0,0E0,0E0,2.776804E-1,1.4756012E-1,0E0,0E0,0E0,0E0],"parents":[2147483647,0,0,1,1,2,2,4,4,5,5,6,6,9,9,13,13,14,14],"right_children":[2,4,6,-1,8,10,12,-1,-1,14,-1,-1,-1,16,18,-1,-1,-1,-1],"split_conditions":[-2.439181E-1,1.14653215E-1,3.7502358E0,-1.2480565E-2,-4.4953436E-1,6.3527054E-1,-7.522277E-1,2.9582542E-3,-6.66417E-3,-5.540207E-2,4.6897526E-3,3.1222722E-3,-6.611199E-3,-4.4953436E-1,5.3314984E-1,-3.2116137E-3,2.0970686E-3,2.8322365E-3,3.7949535E-3],"split_indices":[11,15,12,0,0,11,8,0,0,11,0,0,0,0,11,0,0,0,0],"split_type":[0,0,0,0,0,0,0,0,0,0,0,0,0,0,0,0,0,0,0],"sum_hessian":[4.75E2,1.17E2,3.58E2,1.12E2,5E0,3.52E2,6E0,3E0,2E0,1.64E2,1.88E2,2E0,4E0,2E0,1.62E2,1E0,1E0,3.8E1,1.24E2],"tree_param":{"num_deleted":"0","num_feature":"17","num_nodes":"19","size_leaf_vector":"1"}},{"base_weights":[5.5557024E-3,-1.190204E0,3.9857543E-1,-1.2356865E-2,-1.352493E-1,4.120037E-1,-3.3553112E-1,2.9360673E-3,-6.619742E-3,3.1485552E-1,4.4504115E-1,3.101457E-3,-6.55831E-3,-7.393149E-2,3.2421273E-1,4.0750656E-1,4.8510176E-3,-3.1955556E-3,2.0865833E-3,3.3729966E-3,3.1657348E-4,4.424039E-3,3.3067618E-3],"categories":[],"categories_nodes":[],"categories_segments":[],"categories_sizes":[],"default_left":[0,0,0,0,0,0,0,0,0,0,0,0,0,0,0,0,0,0,0,0,0,0,0],"id":17,"left_children":[1,3,5,-1,7,9,11,-1,-1,13,15,-1,-1,17,19,21,-1,-1,-1,-1,-1,-1,-1],"loss_changes":[2.24174E2,5.494751E0,3.6771774E0,0E0,1.5496951E0,9.928398E-1,1.6510746E0,0E0,0E0,3.6229897E-1,1.9477463E-1,0E0,0E0,2.7491057E-1,3.377304E-1,2.317524E-1,0E0,0E0,0E0,0E0,0E0,0E0,0E0],"parents":[2147483647,0,0,1,1,2,2,4,4,5,5,6,6,9,9,10,10,13,13,14,14,15,15],"right_children":[2,4,6,-1,8,10,12,-1,-1,14,16,-1,-1,18,20,22,-1,-1,-1,-1,-1,-1,-1],"split_conditions":[-2.439181E-1,1.14653215E-1,3.7502358E0,-1.2356865E-2,-4.4953436E-1,5.898922E-1,-7.522277E-1,2.9360673E-3,-6.619742E-3,-5.540207E-2,6.7436224E-1,3.101457E-3,-6.55831E-3,-4.4953436E-1,6.611608E-1,6.5580213E-1,4.8510176E-3,-3.1955556E-3,2.0865833E-3,3.3729966E-3,3.1657348E-4,4.424039E-3,3.3067618E-3],"split_indices":[11,15,12,0,0,11,8,0,0,11,11,0,0,0,8,8,0,0,0,0,0,0,0],"split_type":[0,0,0,0,0,0,0,0,0,0,0,0,0,0,0,0,0,0,0,0,0,0,0],"sum_hessian":[4.75E2,1.17E2,3.58E2,1.12E2,5E0,3.52E2,6E0,3E0,2E0,9.2E1,2.6E2,2E0,4E0,2E0,9E1,1.4E2,1.2E2,1E0,1E0,8.6E1,4E0,9.3E1,4.7E1],"tree_param":{"num_deleted":"0","num_feature":"17","num_nodes":"23","size_leaf_vector":"1"}},{"base_weights":[5.491043E-3,-1.1784378E0,3.946223E-1,-1.223439E-2,-1.3451077E-1,4.079266E-1,-3.3266965E-1,2.9140466E-3,-6.575611E-3,3.1173474E-1,4.4063893E-1,3.0807809E-3,-6.5058433E-3,-7.356185E-2,3.210112E-1,4.034863E-1,4.802908E-3,-3.179578E-3,2.0761504E-3,3.3396548E-3,3.1404098E-4,4.4353E-3,3.3669334E-3],"categories":[],"categories_nodes":[],"categories_segments":[],"categories_sizes":[],"default_left":[0,0,0,0,0,0,0,0,0,0,0,0,0,0,0,0,0,0,0,0,0,0,0],"id":18,"left_children":[1,3,5,-1,7,9,11,-1,-1,13,15,-1,-1,17,19,21,-1,-1,-1,-1,-1,-1,-1],"loss_changes":[2.1976001E2,5.3788147E0,3.6094322E0,0E0,1.5282676E0,9.7341156E-1,1.6263529E0,0E0,0E0,3.560133E-1,1.9070435E-1,0E0,0E0,2.7216834E-1,3.309126E-1,2.2779083E-1,0E0,0E0,0E0,0E0,0E0,0E0,0E0],"parents":[2147483647,0,0,1,1,2,2,4,4,5,5,6,6,9,9,10,10,13,13,14,14,15,15],"right_children":[2,4,6,-1,8,10,12,-1,-1,14,16,-1,-1,18,20,22,-1,-1,-1,-1,-1,-1,-1],"split_conditions":[-2.439181E-1,1.14653215E-1,3.7502358E0,-1.223439E-2,-4.4953436E-1,5.898922E-1,-7.522277E-1,2.9140466E-3,-6.575611E-3,-5.540207E-2,6.7436224E-1,3.0807809E-3,-6.5058433E-3,-4.4953436E-1,6.611608E-1,6.381645E-1,4.802908E-3,-3.179578E-3,2.0761504E-3,3.3396548E-3,3.1404098E-4,4.4353E-3,3.3669334E-3],"split_indices":[11,15,12,0,0,11,8,0,0,11,11,0,0,0,8,8,0,0,0,0,0,0,0],"split_type":[0,0,0,0,0,0,0,0,0,0,0,0,0,0,0,0,0,0,0,0,0,0,0],"sum_hessian":[4.75E2,1.17E2,3.58E2,1.12E2,5E0,3.52E2,6E0,3E0,2E0,9.2E1,2.6E2,2E0,4E0,2E0,9E1,1.4E2,1.2E2,1E0,1E0,8.6E1,4E0,8.4E1,5.6E1],"tree_param":{"num_deleted":"0","num_feature":"17","num_nodes":"23","size_leaf_vector":"1"}},{"base_weights":[5.427385E-3,-1.1667882E0,3.9070874E-1,-1.2113129E-2,-1.3377592E-1,4.0389028E-1,-3.2983223E-1,2.8921913E-3,-6.531773E-3,2.9240766E-1,4.3141463E-1,3.0602422E-3,-6.4537963E-3,3.0461046E-1,-9.3861304E-2,3.9558178E-1,4.7552763E-3,-7.3194026E-4,3.166221E-3,-1.8009692E-4,-1.2278226E-3,4.258261E-3,3.1992283E-3],"categories":[],"categories_nodes":[],"categories_segments":[],"categories_sizes":[],"default_left":[0,0,0,0,0,0,0,0,0,0,0,0,0,0,0,0,0,0,0,0,0,0,0],"id":19,"left_children":[1,3,5,-1,7,9,11,-1,-1,13,15,-1,-1,17,19,21,-1,-1,-1,-1,-1,-1,-1],"loss_changes":[2.1543309E2,5.26532E0,3.5429382E0,0E0,1.5071367E0,9.570236E-1,1.6020017E0,0E0,0E0,3.7268066E-1,2.5606537E-1,0E0,0E0,3.4537697E-1,4.3698326E-3,2.3217583E-1,0E0,0E0,0E0,0E0,0E0,0E0,0E0],"parents":[2147483647,0,0,1,1,2,2,4,4,5,5,6,6,9,9,10,10,13,13,14,14,15,15],"right_children":[2,4,6,-1,8,10,12,-1,-1,14,16,-1,-1,18,20,22,-1,-1,-1,-1,-1,-1,-1],"split_conditions":[-2.439181E-1,1.14653215E-1,3.7502358E0,-1.2113129E-2,-4.4953436E-1,5.707123E-1,-7.522277E-1,2.8921913E-3,-6.531773E-3,6.611608E-1,6.7436224E-1,3.0602422E-3,-6.4537963E-3,-5.540207E-2,-4.4953436E-1,6.5580213E-1,4.7552763E-3,-7.3194026E-4,3.166221E-3,-1.8009692E-4,-1.2278226E-3,4.258261E-3,3.1992283E-3],"split_indices":[11,15,12,0,0,11,8,0,0,8,11,0,0,11,0,8,0,0,0,0,0,0,0],"split_type":[0,0,0,0,0,0,0,0,0,0,0,0,0,0,0,0,0,0,0,0,0,0,0],"sum_hessian":[4.75E2,1.17E2,3.58E2,1.12E2,5E0,3.52E2,6E0,3E0,2E0,7.2E1,2.8E2,2E0,4E0,7E1,2E0,1.6E2,1.2E2,2E0,6.8E1,1E0,1E0,1.11E2,4.9E1],"tree_param":{"num_deleted":"0","num_feature":"17","num_nodes":"23","size_leaf_vector":"1"}},{"base_weights":[5.360709E-3,-1.1552538E0,3.868291E-1,-1.1993068E-2,-1.3304476E-1,3.9988887E-1,-3.2701874E-1,2.8704996E-3,-6.488228E-3,3.3907425E-1,4.508652E-1,3.0398406E-3,-6.4021666E-3,-7.2706066E-2,3.445728E-1,4.688742E-3,3.9580673E-1,-3.1600203E-3,2.0694295E-3,2.713489E-3,3.646621E-3,9.809572E-4,3.9964546E-3],"categories":[],"categories_nodes":[],"categories_segments":[],"categories_sizes":[],"default_left":[0,0,0,0,0,0,0,0,0,0,0,0,0,0,0,0,0,0,0,0,0,0,0],"id":20,"left_children":[1,3,5,-1,7,9,11,-1,-1,13,15,-1,-1,17,19,-1,21,-1,-1,-1,-1,-1,-1],"loss_changes":[2.1119006E2,5.154129E0,3.477623E0,0E0,1.4862984E0,9.4145966E-1,1.578017E0,0E0,0E0,3.986454E-1,1.8196106E-3,0E0,0E0,2.6950684E-1,1.4082527E-1,0E0,2.136612E-2,0E0,0E0,0E0,0E0,0E0,0E0],"parents":[2147483647,0,0,1,1,2,2,4,4,5,5,6,6,9,9,10,10,13,13,14,14,16,16],"right_children":[2,4,6,-1,8,10,12,-1,-1,14,16,-1,-1,18,20,-1,22,-1,-1,-1,-1,-1,-1],"split_conditions":[-2.439181E-1,1.14653215E-1,3.7502358E0,-1.1993068E-2,-4.4953436E-1,6.3527054E-1,-7.522277E-1,2.8704996E-3,-6.488228E-3,-5.540207E-2,7.325277E-1,3.0398406E-3,-6.4021666E-3,-4.4953436E-1,5.3314984E-1,4.688742E-3,6.4142835E-1,-3.1600203E-3,2.0694295E-3,2.713489E-3,3.646621E-3,9.809572E-4,3.9964546E-3],"split_indices":[11,15,12,0,0,11,8,0,0,11,8,0,0,0,11,0,11,0,0,0,0,0,0],"split_type":[0,0,0,0,0,0,0,0,0,0,0,0,0,0,0,0,0,0,0,0,0,0,0],"sum_hessian":[4.75E2,1.17E2,3.58E2,1.12E2,5E0,3.52E2,6E0,3E0,2E0,1.64E2,1.88E2,2E0,4E0,2E0,1.62E2,1.36E2,5.2E1,1E0,1E0,3.8E1,1.24E2,1E0,5.1E1],"tree_param":{"num_deleted":"0","num_feature":"17","num_nodes":"23","size_leaf_vector":"1"}},{"base_weights":[5.2986206E-3,-1.1438335E0,3.8299304E-1,-1.18742E-2,-1.3231727E-1,3.9593232E-1,-3.2422885E-1,2.848971E-3,-6.4449734E-3,3.3571544E-1,4.464077E-1,3.019575E-3,-6.3509494E-3,-7.2342515E-2,3.411661E-1,5.1384E-3,4.2884934E-1,-3.14422E-3,2.0590823E-3,3.4742632E-3,1.520208E-3,3.8746165E-3,4.6428465E-3],"categories":[],"categories_nodes":[],"categories_segments":[],"categories_sizes":[],"default_left":[0,0,0,0,0,0,0,0,0,0,0,0,0,0,0,0,0,0,0,0,0,0,0],"id":21,"left_children":[1,3,5,-1,7,9,11,-1,-1,13,15,-1,-1,17,19,-1,21,-1,-1,-1,-1,-1,-1],"loss_changes":[2.07032E2,5.0453033E0,3.413559E0,0E0,1.4657488E0,9.230652E-1,1.5543925E0,0E0,0E0,3.9167213E-1,3.4179688E-3,0E0,0E0,2.668185E-1,1.4018822E-1,0E0,4.8892975E-2,0E0,0E0,0E0,0E0,0E0,0E0],"parents":[2147483647,0,0,1,1,2,2,4,4,5,5,6,6,9,9,10,10,13,13,14,14,16,16],"right_children":[2,4,6,-1,8,10,12,-1,-1,14,16,-1,-1,18,20,-1,22,-1,-1,-1,-1,-1,-1],"split_conditions":[-2.439181E-1,1.14653215E-1,3.7502358E0,-1.18742E-2,-4.4953436E-1,6.3527054E-1,-7.522277E-1,2.848971E-3,-6.4449734E-3,-5.540207E-2,5.9183925E-1,3.019575E-3,-6.3509494E-3,-4.4953436E-1,7.460376E-1,5.1384E-3,6.999564E-1,-3.14422E-3,2.0590823E-3,3.4742632E-3,1.520208E-3,3.8746165E-3,4.6428465E-3],"split_indices":[11,15,12,0,0,11,8,0,0,11,8,0,0,0,8,0,11,0,0,0,0,0,0],"split_type":[0,0,0,0,0,0,0,0,0,0,0,0,0,0,0,0,0,0,0,0,0,0,0],"sum_hessian":[4.75E2,1.17E2,3.58E2,1.12E2,5E0,3.52E2,6E0,3E0,2E0,1.64E2,1.88E2,2E0,4E0,2E0,1.62E2,3.3E1,1.55E2,1E0,1E0,1.56E2,6E0,7.7E1,7.8E1],"tree_param":{"num_deleted":"0","num_feature":"17","num_nodes":"23","size_leaf_vector":"1"}},{"base_weights":[5.243049E-3,-1.1325264E0,3.7920278E-1,-1.1756508E-2,-1.3159344E-1,3.9202276E-1,-3.2146248E-1,2.8276038E-3,-6.4020064E-3,2.8321174E-1,4.188953E-1,2.9994445E-3,-6.3001416E-3,2.9528245E-1,-9.686581E-2,3.8396752E-1,4.619075E-3,-7.198081E-4,3.0697098E-3,-2.1013498E-4,-1.2428522E-3,4.137659E-3,3.095398E-3],"categories":[],"categories_nodes":[],"categories_segments":[],"categories_sizes":[],"default_left":[0,0,0,0,0,0,0,0,0,0,0,0,0,0,0,0,0,0,0,0,0,0,0],"id":22,"left_children":[1,3,5,-1,7,9,11,-1,-1,13,15,-1,-1,17,19,21,-1,-1,-1,-1,-1,-1,-1],"loss_changes":[2.029579E2,4.9387207E0,3.3507385E0,0E0,1.4454834E0,9.135475E-1,1.5311222E0,0E0,0E0,3.63513E-1,2.4479294E-1,0E0,0E0,3.2688236E-1,3.6278106E-3,2.2899246E-1,0E0,0E0,0E0,0E0,0E0,0E0,0E0],"parents":[2147483647,0,0,1,1,2,2,4,4,5,5,6,6,9,9,10,10,13,13,14,14,15,15],"right_children":[2,4,6,-1,8,10,12,-1,-1,14,16,-1,-1,18,20,22,-1,-1,-1,-1,-1,-1,-1],"split_conditions":[-2.439181E-1,1.14653215E-1,3.7502358E0,-1.1756508E-2,-4.4953436E-1,5.707123E-1,-7.522277E-1,2.8276038E-3,-6.4020064E-3,6.611608E-1,6.7436224E-1,2.9994445E-3,-6.3001416E-3,-5.540207E-2,-4.4953436E-1,6.5580213E-1,4.619075E-3,-7.198081E-4,3.0697098E-3,-2.1013498E-4,-1.2428522E-3,4.137659E-3,3.095398E-3],"split_indices":[11,15,12,0,0,11,8,0,0,8,11,0,0,11,0,8,0,0,0,0,0,0,0],"split_type":[0,0,0,0,0,0,0,0,0,0,0,0,0,0,0,0,0,0,0,0,0,0,0],"sum_hessian":[4.75E2,1.17E2,3.58E2,1.12E2,5E0,3.52E2,6E0,3E0,2E0,7.2E1,2.8E2,2E0,4E0,7E1,2E0,1.6E2,1.2E2,2E0,6.8E1,1E0,1E0,1.11E2,4.9E1],"tree_param":{"num_deleted":"0","num_feature":"17","num_nodes":"23","size_leaf_vector":"1"}},{"base_weights":[5.178279E-3,-1.121331E0,3.7543708E-1,-1.1639983E-2,-1.3087322E-1,3.8813868E-1,-3.1871936E-1,2.8063967E-3,-6.3593267E-3,2.959424E-1,4.195031E-1,2.9794483E-3,-6.24974E-3,-7.1500935E-2,3.048038E-1,3.840694E-1,4.573266E-3,-3.1248997E-3,2.0523858E-3,3.174002E-3,2.4665365E-4,4.2286622E-3,3.1947647E-3],"categories":[],"categories_nodes":[],"categories_segments":[],"categories_sizes":[],"default_left":[0,0,0,0,0,0,0,0,0,0,0,0,0,0,0,0,0,0,0,0,0,0,0],"id":23,"left_children":[1,3,5,-1,7,9,11,-1,-1,13,15,-1,-1,17,19,21,-1,-1,-1,-1,-1,-1,-1],"loss_changes":[1.9896059E2,4.834381E0,3.288971E0,0E0,1.425499E0,8.966217E-1,1.5082016E0,0E0,0E0,3.246069E-1,1.7414856E-1,0E0,0E0,2.6420859E-1,3.1328678E-1,2.1825027E-1,0E0,0E0,0E0,0E0,0E0,0E0,0E0],"parents":[2147483647,0,0,1,1,2,2,4,4,5,5,6,6,9,9,10,10,13,13,14,14,15,15],"right_children":[2,4,6,-1,8,10,12,-1,-1,14,16,-1,-1,18,20,22,-1,-1,-1,-1,-1,-1,-1],"split_conditions":[-2.439181E-1,1.14653215E-1,3.7502358E0,-1.1639983E-2,-4.4953436E-1,5.898922E-1,-7.522277E-1,2.8063967E-3,-6.3593267E-3,-5.540207E-2,6.7436224E-1,2.9794483E-3,-6.24974E-3,-4.4953436E-1,6.611608E-1,6.381645E-1,4.573266E-3,-3.1248997E-3,2.0523858E-3,3.174002E-3,2.4665365E-4,4.2286622E-3,3.1947647E-3],"split_indices":[11,15,12,0,0,11,8,0,0,11,11,0,0,0,8,8,0,0,0,0,0,0,0],"split_type":[0,0,0,0,0,0,0,0,0,0,0,0,0,0,0,0,0,0,0,0,0,0,0],"sum_hessian":[4.75E2,1.17E2,3.58E2,1.12E2,5E0,3.52E2,6E0,3E0,2E0,9.2E1,2.6E2,2E0,4E0,2E0,9E1,1.4E2,1.2E2,1E0,1E0,8.6E1,4E0,8.4E1,5.6E1],"tree_param":{"num_deleted":"0","num_feature":"17","num_nodes":"23","size_leaf_vector":"1"}},{"base_weights":[5.1178345E-3,-1.1102464E0,3.7171355E-1,-1.1524614E-2,-1.3015665E-1,3.842979E-1,-3.159994E-1,2.7853486E-3,-6.316931E-3,2.7744326E-1,4.106897E-1,2.9595855E-3,-6.199742E-3,2.8933796E-1,-9.654591E-2,3.7649742E-1,4.527911E-3,-7.1143446E-4,3.0081775E-3,-2.1031767E-4,-1.237871E-3,4.0304274E-3,2.9675078E-3],"categories":[],"categories_nodes":[],"categories_segments":[],"categories_sizes":[],"default_left":[0,0,0,0,0,0,0,0,0,0,0,0,0,0,0,0,0,0,0,0,0,0,0],"id":24,"left_children":[1,3,5,-1,7,9,11,-1,-1,13,15,-1,-1,17,19,21,-1,-1,-1,-1,-1,-1,-1],"loss_changes":[1.9504327E2,4.732193E0,3.2283783E0,0E0,1.4057908E0,8.81546E-1,1.4856256E0,0E0,0E0,3.52674E-1,2.3403549E-1,0E0,0E0,3.152175E-1,3.567826E-3,2.2122002E-1,0E0,0E0,0E0,0E0,0E0,0E0,0E0],"parents":[2147483647,0,0,1,1,2,2,4,4,5,5,6,6,9,9,10,10,13,13,14,14,15,15],"right_children":[2,4,6,-1,8,10,12,-1,-1,14,16,-1,-1,18,20,22,-1,-1,-1,-1,-1,-1,-1],"split_conditions":[-2.439181E-1,1.14653215E-1,3.7502358E0,-1.1524614E-2,-4.4953436E-1,5.707123E-1,-7.522277E-1,2.7853486E-3,-6.316931E-3,6.611608E-1,6.7436224E-1,2.9595855E-3,-6.199742E-3,-5.540207E-2,-4.4953436E-1,6.705939E-1,4.527911E-3,-7.1143446E-4,3.0081775E-3,-2.1031767E-4,-1.237871E-3,4.0304274E-3,2.9675078E-3],"split_indices":[11,15,12,0,0,11,8,0,0,8,11,0,0,11,0,8,0,0,0,0,0,0,0],"split_type":[0,0,0,0,0,0,0,0,0,0,0,0,0,0,0,0,0,0,0,0,0,0,0],"sum_hessian":[4.75E2,1.17E2,3.58E2,1.12E2,5E0,3.52E2,6E0,3E0,2E0,7.2E1,2.8E2,2E0,4E0,7E1,2E0,1.6E2,1.2E2,2E0,6.8E1,1E0,1E0,1.17E2,4.3E1],"tree_param":{"num_deleted":"0","num_feature":"17","num_nodes":"23","size_leaf_vector":"1"}},{"base_weights":[5.054209E-3,-1.0992715E0,3.6802188E-1,-1.1410387E-2,-1.2944366E-1,3.8049E-1,-3.1330228E-1,2.7644585E-3,-6.274818E-3,2.7468044E-1,4.066238E-1,2.9398545E-3,-6.1501446E-3,2.864769E-1,-9.6063174E-2,3.727759E-1,4.483006E-3,-7.066915E-4,2.9785316E-3,-2.0926594E-4,-1.2316817E-3,3.990465E-3,2.9385071E-3],"categories":[],"categories_nodes":[],"categories_segments":[],"categories_sizes":[],"default_left":[0,0,0,0,0,0,0,0,0,0,0,0,0,0,0,0,0,0,0,0,0,0,0],"id":25,"left_children":[1,3,5,-1,7,9,11,-1,-1,13,15,-1,-1,17,19,21,-1,-1,-1,-1,-1,-1,-1],"loss_changes":[1.912018E2,4.632126E0,3.1688538E0,0E0,1.3863556E0,8.6442566E-1,1.4633882E0,0E0,0E0,3.4678316E-1,2.292862E-1,0E0,0E0,3.0952072E-1,3.5322383E-3,2.1655846E-1,0E0,0E0,0E0,0E0,0E0,0E0,0E0],"parents":[2147483647,0,0,1,1,2,2,4,4,5,5,6,6,9,9,10,10,13,13,14,14,15,15],"right_children":[2,4,6,-1,8,10,12,-1,-1,14,16,-1,-1,18,20,22,-1,-1,-1,-1,-1,-1,-1],"split_conditions":[-2.439181E-1,1.14653215E-1,3.7502358E0,-1.1410387E-2,-4.4953436E-1,5.707123E-1,-7.522277E-1,2.7644585E-3,-6.274818E-3,6.611608E-1,6.7436224E-1,2.9398545E-3,-6.1501446E-3,-5.540207E-2,-4.4953436E-1,6.705939E-1,4.483006E-3,-7.066915E-4,2.9785316E-3,-2.0926594E-4,-1.2316817E-3,3.990465E-3,2.9385071E-3],"split_indices":[11,15,12,0,0,11,8,0,0,8,11,0,0,11,0,8,0,0,0,0,0,0,0],"split_type":[0,0,0,0,0,0,0,0,0,0,0,0,0,0,0,0,0,0,0,0,0,0,0],"sum_hessian":[4.75E2,1.17E2,3.58E2,1.12E2,5E0,3.52E2,6E0,3E0,2E0,7.2E1,2.8E2,2E0,4E0,7E1,2E0,1.6E2,1.2E2,2E0,6.8E1,1E0,1E0,1.17E2,4.3E1],"tree_param":{"num_deleted":"0","num_feature":"17","num_nodes":"23","size_leaf_vector":"1"}},{"base_weights":[4.991315E-3,-1.0884053E0,3.6436683E-1,-1.1297294E-2,-1.2873429E-1,3.7671977E-1,-3.1062788E-1,2.7437252E-3,-6.2329858E-3,2.8701296E-1,4.072409E-1,2.9202553E-3,-6.100944E-3,-7.019802E-2,2.9563516E-1,3.7293234E-1,4.438547E-3,-3.1021847E-3,2.0492144E-3,3.0792393E-3,2.2683466E-4,4.107608E-3,3.099788E-3],"categories":[],"categories_nodes":[],"categories_segments":[],"categories_sizes":[],"default_left":[0,0,0,0,0,0,0,0,0,0,0,0,0,0,0,0,0,0,0,0,0,0,0],"id":26,"left_children":[1,3,5,-1,7,9,11,-1,-1,13,15,-1,-1,17,19,21,-1,-1,-1,-1,-1,-1,-1],"loss_changes":[1.8743599E2,4.5341644E0,3.1104279E0,0E0,1.3671894E0,8.49617E-1,1.4414847E0,0E0,0E0,3.0718756E-1,1.6233444E-1,0E0,0E0,2.6167333E-1,2.9825163E-1,2.0845413E-1,0E0,0E0,0E0,0E0,0E0,0E0,0E0],"parents":[2147483647,0,0,1,1,2,2,4,4,5,5,6,6,9,9,10,10,13,13,14,14,15,15],"right_children":[2,4,6,-1,8,10,12,-1,-1,14,16,-1,-1,18,20,22,-1,-1,-1,-1,-1,-1,-1],"split_conditions":[-2.439181E-1,1.14653215E-1,3.7502358E0,-1.1297294E-2,-4.4953436E-1,5.898922E-1,-7.522277E-1,2.7437252E-3,-6.2329858E-3,-5.540207E-2,6.7436224E-1,2.9202553E-3,-6.100944E-3,-4.4953436E-1,6.611608E-1,6.381645E-1,4.438547E-3,-3.1021847E-3,2.0492144E-3,3.0792393E-3,2.2683466E-4,4.107608E-3,3.099788E-3],"split_indices":[11,15,12,0,0,11,8,0,0,11,11,0,0,0,8,8,0,0,0,0,0,0,0],"split_type":[0,0,0,0,0,0,0,0,0,0,0,0,0,0,0,0,0,0,0,0,0,0,0],"sum_hessian":[4.75E2,1.17E2,3.58E2,1.12E2,5E0,3.52E2,6E0,3E0,2E0,9.2E1,2.6E2,2E0,4E0,2E0,9E1,1.4E2,1.2E2,1E0,1E0,8.6E1,4E0,8.4E1,5.6E1],"tree_param":{"num_deleted":"0","num_feature":"17","num_nodes":"23","size_leaf_vector":"1"}},{"base_weights":[4.9328576E-3,-1.0776466E0,3.6075303E-1,-1.118532E-2,-1.280285E-1,3.7299198E-1,-3.0797598E-1,2.7231472E-3,-6.191433E-3,2.6908493E-1,3.9865825E-1,2.900787E-3,-6.0521355E-3,2.807099E-1,-9.57341E-2,3.655228E-1,4.394528E-3,-6.984702E-4,2.9188322E-3,-2.0935386E-4,-1.2266577E-3,3.994586E-3,3.0489215E-3],"categories":[],"categories_nodes":[],"categories_segments":[],"categories_sizes":[],"default_left":[0,0,0,0,0,0,0,0,0,0,0,0,0,0,0,0,0,0,0,0,0,0,0],"id":27,"left_children":[1,3,5,-1,7,9,11,-1,-1,13,15,-1,-1,17,19,21,-1,-1,-1,-1,-1,-1,-1],"loss_changes":[1.8374567E2,4.438217E0,3.0531235E0,0E0,1.3482887E0,8.341484E-1,1.4199098E0,0E0,0E0,3.364668E-1,2.1921158E-1,0E0,0E0,2.984867E-1,3.4753047E-3,2.0947266E-1,0E0,0E0,0E0,0E0,0E0,0E0,0E0],"parents":[2147483647,0,0,1,1,2,2,4,4,5,5,6,6,9,9,10,10,13,13,14,14,15,15],"right_children":[2,4,6,-1,8,10,12,-1,-1,14,16,-1,-1,18,20,22,-1,-1,-1,-1,-1,-1,-1],"split_conditions":[-2.439181E-1,1.14653215E-1,3.7502358E0,-1.118532E-2,-4.4953436E-1,5.707123E-1,-7.522277E-1,2.7231472E-3,-6.191433E-3,6.611608E-1,6.7436224E-1,2.900787E-3,-6.0521355E-3,-5.540207E-2,-4.4953436E-1,6.345194E-1,4.394528E-3,-6.984702E-4,2.9188322E-3,-2.0935386E-4,-1.2266577E-3,3.994586E-3,3.0489215E-3],"split_indices":[11,15,12,0,0,11,8,0,0,8,11,0,0,11,0,8,0,0,0,0,0,0,0],"split_type":[0,0,0,0,0,0,0,0,0,0,0,0,0,0,0,0,0,0,0,0,0,0,0],"sum_hessian":[4.75E2,1.17E2,3.58E2,1.12E2,5E0,3.52E2,6E0,3E0,2E0,7.2E1,2.8E2,2E0,4E0,7E1,2E0,1.6E2,1.2E2,2E0,6.8E1,1E0,1E0,9.9E1,6.1E1],"tree_param":{"num_deleted":"0","num_feature":"17","num_nodes":"23","size_leaf_vector":"1"}},{"base_weights":[4.871803E-3,-1.0669943E0,3.5717076E-1,-1.1074457E-2,-1.2732628E-1,3.6929667E-1,-3.053464E-1,2.7027237E-3,-6.1501567E-3,3.1259727E-1,4.1684222E-1,2.8814485E-3,-6.0037184E-3,-6.938138E-2,3.1770977E-1,4.8396E-3,3.995419E-1,-3.0831813E-3,2.0424607E-3,2.4866753E-3,3.3670925E-3,3.6052596E-3,4.3300646E-3],"categories":[],"categories_nodes":[],"categories_segments":[],"categories_sizes":[],"default_left":[0,0,0,0,0,0,0,0,0,0,0,0,0,0,0,0,0,0,0,0,0,0,0],"id":28,"left_children":[1,3,5,-1,7,9,11,-1,-1,13,15,-1,-1,17,19,-1,21,-1,-1,-1,-1,-1,-1],"loss_changes":[1.8012694E2,4.344284E0,2.9968338E0,0E0,1.3296497E0,8.2131577E-1,1.3986592E0,0E0,0E0,3.4426498E-1,2.6096344E-2,0E0,0E0,2.5911176E-1,1.300888E-1,0E0,4.757309E-2,0E0,0E0,0E0,0E0,0E0,0E0],"parents":[2147483647,0,0,1,1,2,2,4,4,5,5,6,6,9,9,10,10,13,13,14,14,16,16],"right_children":[2,4,6,-1,8,10,12,-1,-1,14,16,-1,-1,18,20,-1,22,-1,-1,-1,-1,-1,-1],"split_conditions":[-2.439181E-1,1.14653215E-1,3.7502358E0,-1.1074457E-2,-4.4953436E-1,6.3527054E-1,-7.522277E-1,2.7027237E-3,-6.1501567E-3,-5.540207E-2,5.9183925E-1,2.8814485E-3,-6.0037184E-3,-4.4953436E-1,5.3314984E-1,4.8396E-3,6.999564E-1,-3.0831813E-3,2.0424607E-3,2.4866753E-3,3.3670925E-3,3.6052596E-3,4.3300646E-3],"split_indices":[11,15,12,0,0,11,8,0,0,11,8,0,0,0,11,0,11,0,0,0,0,0,0],"split_type":[0,0,0,0,0,0,0,0,0,0,0,0,0,0,0,0,0,0,0,0,0,0,0],"sum_hessian":[4.75E2,1.17E2,3.58E2,1.12E2,5E0,3.52E2,6E0,3E0,2E0,1.64E2,1.88E2,2E0,4E0,2E0,1.62E2,3.3E1,1.55E2,1E0,1E0,3.8E1,1.24E2,7.7E1,7.8E1],"tree_param":{"num_deleted":"0","num_feature":"17","num_nodes":"23","size_leaf_vector":"1"}},{"base_weights":[4.8229853E-3,-1.0564474E0,3.5363936E-1,-1.0964693E-2,-1.2662758E-1,3.6565354E-1,-3.0273896E-1,2.6824533E-3,-6.1091557E-3,3.095005E-1,4.127414E-1,2.8622386E-3,-5.9556887E-3,-6.9034494E-2,3.145686E-1,4.306121E-1,3.587598E-1,-3.0677659E-3,2.0322483E-3,3.2614674E-3,2.096529E-3,4.05431E-3,4.9497155E-3,8.469286E-4,3.624016E-3],"categories":[],"categories_nodes":[],"categories_segments":[],"categories_sizes":[],"default_left":[0,0,0,0,0,0,0,0,0,0,0,0,0,0,0,0,0,0,0,0,0,0,0,0,0],"id":29,"left_children":[1,3,5,-1,7,9,11,-1,-1,13,15,-1,-1,17,19,21,23,-1,-1,-1,-1,-1,-1,-1,-1],"loss_changes":[1.7658331E2,4.252304E0,2.9417152E0,0E0,1.3112686E0,8.0563736E-1,1.3777275E0,0E0,0E0,3.3826256E-1,2.7843475E-2,0E0,0E0,2.5652716E-1,1.2962341E-1,2.135086E-2,2.220583E-2,0E0,0E0,0E0,0E0,0E0,0E0,0E0,0E0],"parents":[2147483647,0,0,1,1,2,2,4,4,5,5,6,6,9,9,10,10,13,13,14,14,15,15,16,16],"right_children":[2,4,6,-1,8,10,12,-1,-1,14,16,-1,-1,18,20,22,24,-1,-1,-1,-1,-1,-1,-1,-1],"split_conditions":[-2.439181E-1,1.14653215E-1,3.7502358E0,-1.0964693E-2,-4.4953436E-1,6.3527054E-1,-7.522277E-1,2.6824533E-3,-6.1091557E-3,-5.540207E-2,7.325277E-1,2.8622386E-3,-5.9556887E-3,-4.4953436E-1,6.898929E-1,-6.6544235E-2,6.4142835E-1,-3.0677659E-3,2.0322483E-3,3.2614674E-3,2.096529E-3,4.05431E-3,4.9497155E-3,8.469286E-4,3.624016E-3],"split_indices":[11,15,12,0,0,11,8,0,0,11,8,0,0,0,8,12,11,0,0,0,0,0,0,0,0],"split_type":[0,0,0,0,0,0,0,0,0,0,0,0,0,0,0,0,0,0,0,0,0,0,0,0,0],"sum_hessian":[4.75E2,1.17E2,3.58E2,1.12E2,5E0,3.52E2,6E0,3E0,2E0,1.64E2,1.88E2,2E0,4E0,2E0,1.62E2,1.36E2,5.2E1,1E0,1E0,1.44E2,1.8E1,1.03E2,3.3E1,1E0,5.1E1],"tree_param":{"num_deleted":"0","num_feature":"17","num_nodes":"25","size_leaf_vector":"1"}},{"base_weights":[4.775415E-3,-1.0460049E0,3.5014394E-1,-1.0856016E-2,-1.2593241E-1,3.6204746E-1,-3.001535E-1,2.662335E-3,-6.068428E-3,2.6056737E-1,3.8712218E-1,2.8431574E-3,-5.908043E-3,2.7206126E-1,-9.831089E-2,3.5483798E-1,4.268795E-3,-6.8689306E-4,2.8293359E-3,-2.3122311E-4,-1.2434402E-3,3.882203E-3,2.952723E-3],"categories":[],"categories_nodes":[],"categories_segments":[],"categories_sizes":[],"default_left":[0,0,0,0,0,0,0,0,0,0,0,0,0,0,0,0,0,0,0,0,0,0,0],"id":30,"left_children":[1,3,5,-1,7,9,11,-1,-1,13,15,-1,-1,17,19,21,-1,-1,-1,-1,-1,-1,-1],"loss_changes":[1.7310973E2,4.162262E0,2.8876266E0,0E0,1.2931418E0,7.973633E-1,1.3571103E0,0E0,0E0,3.2786512E-1,2.0920181E-1,0E0,0E0,2.8247166E-1,2.9970612E-3,2.0550919E-1,0E0,0E0,0E0,0E0,0E0,0E0,0E0],"parents":[2147483647,0,0,1,1,2,2,4,4,5,5,6,6,9,9,10,10,13,13,14,14,15,15],"right_children":[2,4,6,-1,8,10,12,-1,-1,14,16,-1,-1,18,20,22,-1,-1,-1,-1,-1,-1,-1],"split_conditions":[-2.439181E-1,1.14653215E-1,3.7502358E0,-1.0856016E-2,-4.4953436E-1,5.707123E-1,-7.522277E-1,2.662335E-3,-6.068428E-3,6.611608E-1,6.7436224E-1,2.8431574E-3,-5.908043E-3,-5.540207E-2,-4.4953436E-1,6.345194E-1,4.268795E-3,-6.8689306E-4,2.8293359E-3,-2.3122311E-4,-1.2434402E-3,3.882203E-3,2.952723E-3],"split_indices":[11,15,12,0,0,11,8,0,0,8,11,0,0,11,0,8,0,0,0,0,0,0,0],"split_type":[0,0,0,0,0,0,0,0,0,0,0,0,0,0,0,0,0,0,0,0,0,0,0],"sum_hessian":[4.75E2,1.17E2,3.58E2,1.12E2,5E0,3.52E2,6E0,3E0,2E0,7.2E1,2.8E2,2E0,4E0,7E1,2E0,1.6E2,1.2E2,2E0,6.8E1,1E0,1E0,9.9E1,6.1E1],"tree_param":{"num_deleted":"0","num_feature":"17","num_nodes":"23","size_leaf_vector":"1"}},{"base_weights":[4.716E-3,-1.0240997E0,3.505232E-1,-1.0748416E-2,-1.7935753E-1,3.635785E-1,-5.511485E-2,3.02266E-3,-7.365476E-3,3.1610483E-1,4.0868983E-1,3.3907818E-3,-3.8512105E-1,2.6332694E-1,3.3541837E-1,4.2811248E-1,3.5488838E-1,-4.8047784E-3,-9.781935E-2,2.7780612E-3,1.8542028E-3,3.6126175E-3,2.7049251E-3,4.017987E-3,4.9324376E-3,4.1089715E-3,3.1018944E-3,-2.3006707E-4,-1.2372232E-3],"categories":[],"categories_nodes":[],"categories_segments":[],"categories_sizes":[],"default_left":[0,0,0,0,0,0,0,0,0,0,0,0,0,0,0,0,0,0,0,0,0,0,0,0,0,0,0,0,0],"id":31,"left_children":[1,3,5,-1,7,9,11,-1,-1,13,15,-1,17,19,21,23,25,-1,27,-1,-1,-1,-1,-1,-1,-1,-1,-1,-1],"loss_changes":[1.6970639E2,4.9508896E0,1.910614E0,0E0,2.36948E0,6.1180496E-1,1.69162E0,0E0,0E0,8.801842E-2,2.989006E-2,0E0,1.44773E-1,6.0179234E-3,1.0866356E-1,1.2620926E-2,2.7279854E-3,0E0,2.9671658E-3,0E0,0E0,0E0,0E0,0E0,0E0,0E0,0E0,0E0,0E0],"parents":[2147483647,0,0,1,1,2,2,4,4,5,5,6,6,9,9,10,10,12,12,13,13,14,14,15,15,16,16,18,18],"right_children":[2,4,6,-1,8,10,12,-1,-1,14,16,-1,18,20,22,24,26,-1,28,-1,-1,-1,-1,-1,-1,-1,-1,-1,-1],"split_conditions":[-1.4681935E-1,1.14653215E-1,1.1543357E0,-1.0748416E-2,-4.4953436E-1,6.454614E-1,1.0207734E-1,3.02266E-3,-7.365476E-3,5.568776E-1,7.325277E-1,3.3907818E-3,3.0276644E-1,5.650588E-1,6.3086116E-1,-6.6544235E-2,-1.9559465E-1,-4.8047784E-3,-4.4953436E-1,2.7780612E-3,1.8542028E-3,3.6126175E-3,2.7049251E-3,4.017987E-3,4.9324376E-3,4.1089715E-3,3.1018944E-3,-2.3006707E-4,-1.2372232E-3],"split_indices":[11,15,12,0,0,11,8,0,0,11,8,0,11,8,8,12,12,0,0,0,0,0,0,0,0,0,0,0,0],"split_type":[0,0,0,0,0,0,0,0,0,0,0,0,0,0,0,0,0,0,0,0,0,0,0,0,0,0,0,0,0],"sum_hessian":[4.75E2,1.19E2,3.56E2,1.12E2,7E0,3.45E2,1.1E1,4E0,3E0,1.72E2,1.73E2,5E0,6E0,5E1,1.22E2,1.22E2,5.1E1,4E0,2E0,4E1,1E1,8.4E1,3.8E1,9.2E1,3E1,1.9E1,3.2E1,1E0,1E0],"tree_param":{"num_deleted":"0","num_feature":"17","num_nodes":"29","size_leaf_vector":"1"}},{"base_weights":[4.6880282E-3,-1.0139846E0,3.4708583E-1,-1.0641883E-2,-1.7810681E-1,3.6002105E-1,-5.4803807E-2,2.9984787E-3,-7.310234E-3,3.1300706E-1,4.046958E-1,3.3625253E-3,-3.8216585E-1,2.607845E-1,3.3211553E-1,4.239041E-1,3.5147816E-1,-4.7663404E-3,-9.733025E-2,2.750958E-3,1.8373467E-3,3.5769162E-3,2.6785699E-3,3.9782384E-3,4.884704E-3,4.069936E-3,3.0718157E-3,-2.289167E-4,-1.2310371E-3],"categories":[],"categories_nodes":[],"categories_segments":[],"categories_sizes":[],"default_left":[0,0,0,0,0,0,0,0,0,0,0,0,0,0,0,0,0,0,0,0,0,0,0,0,0,0,0,0,0],"id":32,"left_children":[1,3,5,-1,7,9,11,-1,-1,13,15,-1,17,19,21,23,25,-1,27,-1,-1,-1,-1,-1,-1,-1,-1,-1,-1],"loss_changes":[1.6637657E2,4.8461685E0,1.8756065E0,0E0,2.3333485E0,6.0004425E-1,1.6647084E0,0E0,0E0,8.602524E-2,2.8873444E-2,0E0,1.4196432E-1,5.6922436E-3,1.06339455E-1,1.2794495E-2,2.8543472E-3,0E0,2.9375684E-3,0E0,0E0,0E0,0E0,0E0,0E0,0E0,0E0,0E0,0E0],"parents":[2147483647,0,0,1,1,2,2,4,4,5,5,6,6,9,9,10,10,12,12,13,13,14,14,15,15,16,16,18,18],"right_children":[2,4,6,-1,8,10,12,-1,-1,14,16,-1,18,20,22,24,26,-1,28,-1,-1,-1,-1,-1,-1,-1,-1,-1,-1],"split_conditions":[-1.4681935E-1,1.14653215E-1,1.1543357E0,-1.0641883E-2,-4.4953436E-1,6.454614E-1,1.0207734E-1,2.9984787E-3,-7.310234E-3,5.568776E-1,7.325277E-1,3.3625253E-3,3.0276644E-1,5.650588E-1,6.3086116E-1,-6.6544235E-2,-1.9559465E-1,-4.7663404E-3,-4.4953436E-1,2.750958E-3,1.8373467E-3,3.5769162E-3,2.6785699E-3,3.9782384E-3,4.884704E-3,4.069936E-3,3.0718157E-3,-2.289167E-4,-1.2310371E-3],"split_indices":[11,15,12,0,0,11,8,0,0,11,8,0,11,8,8,12,12,0,0,0,0,0,0,0,0,0,0,0,0],"split_type":[0,0,0,0,0,0,0,0,0,0,0,0,0,0,0,0,0,0,0,0,0,0,0,0,0,0,0,0,0],"sum_hessian":[4.75E2,1.19E2,3.56E2,1.12E2,7E0,3.45E2,1.1E1,4E0,3E0,1.72E2,1.73E2,5E0,6E0,5E1,1.22E2,1.22E2,5.1E1,4E0,2E0,4E1,1E1,8.4E1,3.8E1,9.2E1,3E1,1.9E1,3.2E1,1E0,1E0],"tree_param":{"num_deleted":"0","num_feature":"17","num_nodes":"29","size_leaf_vector":"1"}},{"base_weights":[4.6601165E-3,-1.0039693E0,3.4368214E-1,-1.0536407E-2,-1.7686471E-1,3.5649845E-1,-5.4494422E-2,2.974491E-3,-7.2554075E-3,3.0993965E-1,4.007408E-1,3.3345043E-3,-3.7923366E-1,2.5826666E-1,3.2884523E-1,4.197371E-1,3.4810072E-1,-4.7282097E-3,-9.68436E-2,2.72412E-3,1.8206432E-3,3.5415676E-3,2.6524707E-3,3.938884E-3,4.8374324E-3,4.031272E-3,3.0420283E-3,-2.2777199E-4,-1.224882E-3],"categories":[],"categories_nodes":[],"categories_segments":[],"categories_sizes":[],"default_left":[0,0,0,0,0,0,0,0,0,0,0,0,0,0,0,0,0,0,0,0,0,0,0,0,0,0,0,0,0],"id":33,"left_children":[1,3,5,-1,7,9,11,-1,-1,13,15,-1,17,19,21,23,25,-1,27,-1,-1,-1,-1,-1,-1,-1,-1,-1,-1],"loss_changes":[1.631121E2,4.7436676E0,1.8412514E0,0E0,2.2977688E0,5.885086E-1,1.6382265E0,0E0,0E0,8.407593E-2,2.788353E-2,0E0,1.3920724E-1,5.376816E-3,1.04063034E-1,1.2958527E-2,2.9759407E-3,0E0,2.908269E-3,0E0,0E0,0E0,0E0,0E0,0E0,0E0,0E0,0E0,0E0],"parents":[2147483647,0,0,1,1,2,2,4,4,5,5,6,6,9,9,10,10,12,12,13,13,14,14,15,15,16,16,18,18],"right_children":[2,4,6,-1,8,10,12,-1,-1,14,16,-1,18,20,22,24,26,-1,28,-1,-1,-1,-1,-1,-1,-1,-1,-1,-1],"split_conditions":[-1.4681935E-1,1.14653215E-1,1.1543357E0,-1.0536407E-2,-4.4953436E-1,6.454614E-1,1.0207734E-1,2.974491E-3,-7.2554075E-3,5.568776E-1,7.325277E-1,3.3345043E-3,3.0276644E-1,5.650588E-1,6.3086116E-1,-6.6544235E-2,-1.9559465E-1,-4.7282097E-3,-4.4953436E-1,2.72412E-3,1.8206432E-3,3.5415676E-3,2.6524707E-3,3.938884E-3,4.8374324E-3,4.031272E-3,3.0420283E-3,-2.2777199E-4,-1.224882E-3],"split_indices":[11,15,12,0,0,11,8,0,0,11,8,0,11,8,8,12,12,0,0,0,0,0,0,0,0,0,0,0,0],"split_type":[0,0,0,0,0,0,0,0,0,0,0,0,0,0,0,0,0,0,0,0,0,0,0,0,0,0,0,0,0],"sum_hessian":[4.75E2,1.19E2,3.56E2,1.12E2,7E0,3.45E2,1.1E1,4E0,3E0,1.72E2,1.73E2,5E0,6E0,5E1,1.22E2,1.22E2,5.1E1,4E0,2E0,4E1,1E1,8.4E1,3.8E1,9.2E1,3E1,1.9E1,3.2E1,1E0,1E0],"tree_param":{"num_deleted":"0","num_feature":"17","num_nodes":"29","size_leaf_vector":"1"}},{"base_weights":[4.632257E-3,-9.9405307E-1,3.4031183E-1,-1.0431975E-2,-1.756312E-1,3.530103E-1,-5.4186687E-2,2.9506949E-3,-7.2009917E-3,3.0690232E-1,3.9682445E-1,3.3067167E-3,-3.7632433E-1,2.4058467E-1,3.208159E-1,4.1561106E-1,3.447557E-1,-4.690384E-3,-9.6359394E-2,2.5130375E-3,1.2815323E-3,3.5565672E-3,2.8194722E-3,3.8999184E-3,4.790618E-3,3.9929748E-3,3.0125296E-3,-2.2663324E-4,-1.2187576E-3],"categories":[],"categories_nodes":[],"categories_segments":[],"categories_sizes":[],"default_left":[0,0,0,0,0,0,0,0,0,0,0,0,0,0,0,0,0,0,0,0,0,0,0,0,0,0,0,0,0],"id":34,"left_children":[1,3,5,-1,7,9,11,-1,-1,13,15,-1,17,19,21,23,25,-1,27,-1,-1,-1,-1,-1,-1,-1,-1,-1,-1],"loss_changes":[1.599117E2,4.6432877E0,1.8075256E0,0E0,2.262731E0,5.77198E-1,1.612168E0,0E0,0E0,8.2445145E-2,2.6922226E-2,0E0,1.3650066E-1,8.770108E-3,8.931351E-2,1.3113022E-2,3.092289E-3,0E0,2.87926E-3,0E0,0E0,0E0,0E0,0E0,0E0,0E0,0E0,0E0,0E0],"parents":[2147483647,0,0,1,1,2,2,4,4,5,5,6,6,9,9,10,10,12,12,13,13,14,14,15,15,16,16,18,18],"right_children":[2,4,6,-1,8,10,12,-1,-1,14,16,-1,18,20,22,24,26,-1,28,-1,-1,-1,-1,-1,-1,-1,-1,-1,-1],"split_conditions":[-1.4681935E-1,1.14653215E-1,1.1543357E0,-1.0431975E-2,-4.4953436E-1,6.454614E-1,1.0207734E-1,2.9506949E-3,-7.2009917E-3,5.3314984E-1,7.325277E-1,3.3067167E-3,3.0276644E-1,5.6844765E-1,5.9183925E-1,-6.6544235E-2,-1.9559465E-1,-4.690384E-3,-4.4953436E-1,2.5130375E-3,1.2815323E-3,3.5565672E-3,2.8194722E-3,3.8999184E-3,4.790618E-3,3.9929748E-3,3.0125296E-3,-2.2663324E-4,-1.2187576E-3],"split_indices":[11,15,12,0,0,11,8,0,0,11,8,0,11,8,8,12,12,0,0,0,0,0,0,0,0,0,0,0,0],"split_type":[0,0,0,0,0,0,0,0,0,0,0,0,0,0,0,0,0,0,0,0,0,0,0,0,0,0,0,0,0],"sum_hessian":[4.75E2,1.19E2,3.56E2,1.12E2,7E0,3.45E2,1.1E1,4E0,3E0,1.72E2,1.73E2,5E0,6E0,3.3E1,1.39E2,1.22E2,5.1E1,4E0,2E0,2.9E1,4E0,6.9E1,7E1,9.2E1,3E1,1.9E1,3.2E1,1E0,1E0],"tree_param":{"num_deleted":"0","num_feature":"17","num_nodes":"29","size_leaf_vector":"1"}},{"base_weights":[4.6034856E-3,-9.8423487E-1,3.3697322E-1,-1.0328578E0,-1.7440614E-1,3.4955496E-1,-5.3880576E-2,-1.04444465E-2,-5.7369304E-1,2.9270896E-3,-7.146985E-3,3.038921E-1,3.9294642E-1,3.2791607E-3,-3.734376E-1,1.5601077E-3,-7.951217E-3,2.5313035E-1,3.22469E-1,4.1152558E-1,3.4144288E-1,-4.652861E-3,-9.587761E-2,2.6699714E-3,1.7843315E-3,3.473763E-3,2.5991544E-3,3.8613384E-3,4.7442573E-3,3.9550415E-3,2.983317E-3,-2.2550016E-4,-1.212664E-3],"categories":[],"categories_nodes":[],"categories_segments":[],"categories_sizes":[],"default_left":[0,0,0,0,0,0,0,0,0,0,0,0,0,0,0,0,0,0,0,0,0,0,0,0,0,0,0,0,0,0,0,0,0],"id":35,"left_children":[1,3,5,7,9,11,13,-1,15,-1,-1,17,19,-1,21,-1,-1,23,25,27,29,-1,31,-1,-1,-1,-1,-1,-1,-1,-1,-1,-1],"loss_changes":[1.567738E2,4.5450134E0,1.7744179E0,1.9989014E-3,2.2282283E0,5.6614304E-1,1.586526E0,0E0,9.319341E-1,0E0,0E0,8.15115E-2,2.5989532E-2,0E0,1.3384378E-1,0E0,0E0,5.1853657E-3,1.01350784E-1,1.3256073E-2,3.2024384E-3,0E0,2.8505363E-3,0E0,0E0,0E0,0E0,0E0,0E0,0E0,0E0,0E0,0E0],"parents":[2147483647,0,0,1,1,2,2,3,3,4,4,5,5,6,6,8,8,11,11,12,12,14,14,17,17,18,18,19,19,20,20,22,22],"right_children":[2,4,6,8,10,12,14,-1,16,-1,-1,18,20,-1,22,-1,-1,24,26,28,30,-1,32,-1,-1,-1,-1,-1,-1,-1,-1,-1,-1],"split_conditions":[-1.4681935E-1,1.14653215E-1,1.1543357E0,-9.2211455E-1,-4.4953436E-1,6.454614E-1,1.0207734E-1,-1.04444465E-2,4.4418275E-1,2.9270896E-3,-7.146985E-3,5.568776E-1,7.325277E-1,3.2791607E-3,3.0276644E-1,1.5601077E-3,-7.951217E-3,5.650588E-1,6.3086116E-1,-6.6544235E-2,-1.9559465E-1,-4.652861E-3,-4.4953436E-1,2.6699714E-3,1.7843315E-3,3.473763E-3,2.5991544E-3,3.8613384E-3,4.7442573E-3,3.9550415E-3,2.983317E-3,-2.2550016E-4,-1.212664E-3],"split_indices":[11,15,12,11,0,11,8,0,0,0,0,11,8,0,11,0,0,8,8,12,12,0,0,0,0,0,0,0,0,0,0,0,0],"split_type":[0,0,0,0,0,0,0,0,0,0,0,0,0,0,0,0,0,0,0,0,0,0,0,0,0,0,0,0,0,0,0,0,0],"sum_hessian":[4.75E2,1.19E2,3.56E2,1.12E2,7E0,3.45E2,1.1E1,1.08E2,4E0,4E0,3E0,1.72E2,1.73E2,5E0,6E0,1E0,3E0,5E1,1.22E2,1.22E2,5.1E1,4E0,2E0,4E1,1E1,8.4E1,3.8E1,9.2E1,3E1,1.9E1,3.2E1,1E0,1E0],"tree_param":{"num_deleted":"0","num_feature":"17","num_nodes":"33","size_leaf_vector":"1"}},{"base_weights":[4.5620725E-3,-9.7456795E-1,3.3366865E-1,-1.0226782E-2,-1.7318955E-1,3.4613472E-1,-5.3576093E-2,2.903673E-3,-7.0933825E-3,3.0091402E-1,3.8910627E-1,3.2518345E-3,-3.705734E-1,2.5068638E-1,3.1929368E-1,4.0748027E-1,3.3816186E-1,-4.615638E-3,-9.5398225E-2,2.6439228E-3,1.7681103E-3,3.4394339E-3,2.573829E-3,3.82314E-3,4.698346E-3,3.9174682E-3,2.9543876E-3,-2.2437274E-4,-1.2066007E-3],"categories":[],"categories_nodes":[],"categories_segments":[],"categories_sizes":[],"default_left":[0,0,0,0,0,0,0,0,0,0,0,0,0,0,0,0,0,0,0,0,0,0,0,0,0,0,0,0,0],"id":36,"left_children":[1,3,5,-1,7,9,11,-1,-1,13,15,-1,17,19,21,23,25,-1,27,-1,-1,-1,-1,-1,-1,-1,-1,-1,-1],"loss_changes":[1.5371053E2,4.4494324E0,1.7419319E0,0E0,2.1942518E0,5.552635E-1,1.5612934E0,0E0,0E0,7.966423E-2,2.5081635E-2,0E0,1.3123578E-1,4.8913956E-3,9.918308E-2,1.3389587E-2,3.3073425E-3,0E0,2.8220993E-3,0E0,0E0,0E0,0E0,0E0,0E0,0E0,0E0,0E0,0E0],"parents":[2147483647,0,0,1,1,2,2,4,4,5,5,6,6,9,9,10,10,12,12,13,13,14,14,15,15,16,16,18,18],"right_children":[2,4,6,-1,8,10,12,-1,-1,14,16,-1,18,20,22,24,26,-1,28,-1,-1,-1,-1,-1,-1,-1,-1,-1,-1],"split_conditions":[-1.4681935E-1,1.14653215E-1,1.1543357E0,-1.0226782E-2,-4.4953436E-1,6.454614E-1,1.0207734E-1,2.903673E-3,-7.0933825E-3,5.568776E-1,7.325277E-1,3.2518345E-3,3.0276644E-1,5.650588E-1,6.3086116E-1,-6.6544235E-2,-1.9559465E-1,-4.615638E-3,-4.4953436E-1,2.6439228E-3,1.7681103E-3,3.4394339E-3,2.573829E-3,3.82314E-3,4.698346E-3,3.9174682E-3,2.9543876E-3,-2.2437274E-4,-1.2066007E-3],"split_indices":[11,15,12,0,0,11,8,0,0,11,8,0,11,8,8,12,12,0,0,0,0,0,0,0,0,0,0,0,0],"split_type":[0,0,0,0,0,0,0,0,0,0,0,0,0,0,0,0,0,0,0,0,0,0,0,0,0,0,0,0,0],"sum_hessian":[4.75E2,1.19E2,3.56E2,1.12E2,7E0,3.45E2,1.1E1,4E0,3E0,1.72E2,1.73E2,5E0,6E0,5E1,1.22E2,1.22E2,5.1E1,4E0,2E0,4E1,1E1,8.4E1,3.8E1,9.2E1,3E1,1.9E1,3.2E1,1E0,1E0],"tree_param":{"num_deleted":"0","num_feature":"17","num_nodes":"29","size_leaf_vector":"1"}},{"base_weights":[4.534526E-3,-9.6494246E-1,3.3039644E-1,-1.012542E0,-1.719814E-1,3.42748E-1,-5.3273235E-2,-1.0239631E-2,-5.610529E-1,2.8804434E-3,-7.040182E-3,2.9796514E-1,3.8530368E-1,3.2247358E-3,-3.6773148E-1,1.6034411E-3,-7.814881E-3,2.3339182E-1,3.115189E-1,4.0347475E-1,3.3491242E-1,-4.578713E-3,-9.492125E-2,2.4379636E-3,1.2428603E-3,3.735549E-3,2.8889512E-3,3.7853196E-3,4.652878E-3,3.8802524E-3,2.9257392E-3,-2.2325099E-4,-1.2005677E-3],"categories":[],"categories_nodes":[],"categories_segments":[],"categories_sizes":[],"default_left":[0,0,0,0,0,0,0,0,0,0,0,0,0,0,0,0,0,0,0,0,0,0,0,0,0,0,0,0,0,0,0,0,0],"id":37,"left_children":[1,3,5,7,9,11,13,-1,15,-1,-1,17,19,-1,21,-1,-1,23,25,27,29,-1,31,-1,-1,-1,-1,-1,-1,-1,-1,-1,-1],"loss_changes":[1.5069466E2,4.3552094E0,1.7100563E0,8.178711E-3,2.1607933E0,5.445862E-1,1.5364639E0,0E0,9.2041373E-1,0E0,0E0,7.870579E-2,2.4196625E-2,0E0,1.286757E-1,0E0,0E0,8.296251E-3,8.8570595E-2,1.3515472E-2,3.4070015E-3,0E0,2.7939472E-3,0E0,0E0,0E0,0E0,0E0,0E0,0E0,0E0,0E0,0E0],"parents":[2147483647,0,0,1,1,2,2,3,3,4,4,5,5,6,6,8,8,11,11,12,12,14,14,17,17,18,18,19,19,20,20,22,22],"right_children":[2,4,6,8,10,12,14,-1,16,-1,-1,18,20,-1,22,-1,-1,24,26,28,30,-1,32,-1,-1,-1,-1,-1,-1,-1,-1,-1,-1],"split_conditions":[-1.4681935E-1,1.14653215E-1,1.1543357E0,-9.2211455E-1,-4.4953436E-1,6.454614E-1,1.0207734E-1,-1.0239631E-2,4.4418275E-1,2.8804434E-3,-7.040182E-3,5.3314984E-1,7.325277E-1,3.2247358E-3,3.0276644E-1,1.6034411E-3,-7.814881E-3,5.6844765E-1,5.229947E-1,-6.6544235E-2,-1.9559465E-1,-4.578713E-3,-4.4953436E-1,2.4379636E-3,1.2428603E-3,3.735549E-3,2.8889512E-3,3.7853196E-3,4.652878E-3,3.8802524E-3,2.9257392E-3,-2.2325099E-4,-1.2005677E-3],"split_indices":[11,15,12,11,0,11,8,0,0,0,0,11,8,0,11,0,0,8,8,12,12,0,0,0,0,0,0,0,0,0,0,0,0],"split_type":[0,0,0,0,0,0,0,0,0,0,0,0,0,0,0,0,0,0,0,0,0,0,0,0,0,0,0,0,0,0,0,0,0],"sum_hessian":[4.75E2,1.19E2,3.56E2,1.12E2,7E0,3.45E2,1.1E1,1.08E2,4E0,4E0,3E0,1.72E2,1.73E2,5E0,6E0,1E0,3E0,3.3E1,1.39E2,1.22E2,5.1E1,4E0,2E0,2.9E1,4E0,3.3E1,1.06E2,9.2E1,3E1,1.9E1,3.2E1,1E0,1E0],"tree_param":{"num_deleted":"0","num_feature":"17","num_nodes":"33","size_leaf_vector":"1"}},{"base_weights":[4.493725E-3,-9.554648E-1,3.2715625E-1,-1.0025622E0,-1.7078155E-1,3.3939436E-1,-5.2971985E-2,-1.01381745E-2,-5.566847E-1,2.8573999E-3,-6.987381E-3,2.911039E-1,3.779684E-1,3.197863E-3,-3.6491165E-1,1.5954239E-3,-7.75627E-3,2.3116617E-1,3.0507815E-1,4.401293E-3,3.6199766E-1,-4.5420835E-3,-9.444664E-2,2.414397E-3,1.2329174E-3,3.3791652E-3,2.6387128E-3,3.2463223E-3,3.943078E-3,-2.2213458E-4,-1.194565E-3],"categories":[],"categories_nodes":[],"categories_segments":[],"categories_sizes":[],"default_left":[0,0,0,0,0,0,0,0,0,0,0,0,0,0,0,0,0,0,0,0,0,0,0,0,0,0,0,0,0,0,0],"id":38,"left_children":[1,3,5,7,9,11,13,-1,15,-1,-1,17,19,-1,21,-1,-1,23,25,-1,27,-1,29,-1,-1,-1,-1,-1,-1,-1,-1],"loss_changes":[1.4775008E2,4.2635574E0,1.6787605E0,2.7160645E-3,2.1278455E0,5.3448486E-1,1.5120311E0,0E0,9.078077E-1,0E0,0E0,6.181431E-2,2.8305054E-2,0E0,1.2616289E-1,0E0,0E0,7.912993E-3,7.99799E-2,0E0,6.0331345E-2,0E0,2.766084E-3,0E0,0E0,0E0,0E0,0E0,0E0,0E0,0E0],"parents":[2147483647,0,0,1,1,2,2,3,3,4,4,5,5,6,6,8,8,11,11,12,12,14,14,17,17,18,18,20,20,22,22],"right_children":[2,4,6,8,10,12,14,-1,16,-1,-1,18,20,-1,22,-1,-1,24,26,-1,28,-1,30,-1,-1,-1,-1,-1,-1,-1,-1],"split_conditions":[-1.4681935E-1,1.14653215E-1,1.1543357E0,-9.2211455E-1,-4.4953436E-1,6.3527054E-1,1.0207734E-1,-1.01381745E-2,4.4418275E-1,2.8573999E-3,-6.987381E-3,5.3314984E-1,5.9183925E-1,3.197863E-3,3.0276644E-1,1.5954239E-3,-7.75627E-3,5.6844765E-1,5.9183925E-1,4.401293E-3,6.999564E-1,-4.5420835E-3,-4.4953436E-1,2.414397E-3,1.2329174E-3,3.3791652E-3,2.6387128E-3,3.2463223E-3,3.943078E-3,-2.2213458E-4,-1.194565E-3],"split_indices":[11,15,12,11,0,11,8,0,0,0,0,11,8,0,11,0,0,8,8,0,11,0,0,0,0,0,0,0,0,0,0],"split_type":[0,0,0,0,0,0,0,0,0,0,0,0,0,0,0,0,0,0,0,0,0,0,0,0,0,0,0,0,0,0,0],"sum_hessian":[4.75E2,1.19E2,3.56E2,1.12E2,7E0,3.45E2,1.1E1,1.08E2,4E0,4E0,3E0,1.57E2,1.88E2,5E0,6E0,1E0,3E0,3.3E1,1.24E2,3.3E1,1.55E2,4E0,2E0,2.9E1,4E0,6.5E1,5.9E1,7.7E1,7.8E1,1E0,1E0],"tree_param":{"num_deleted":"0","num_feature":"17","num_nodes":"31","size_leaf_vector":"1"}},{"base_weights":[4.44473E-3,-9.460803E-1,3.2393652E-1,-9.926807E-3,-1.6958997E-1,3.3606187E-1,-5.2672338E-2,2.8345406E-3,-6.9349753E-3,2.921341E-1,3.7780577E-1,3.1712141E-3,-3.621138E-1,2.4319626E-1,3.1005034E-1,3.9576712E-1,3.280547E-1,-4.5057465E-3,-9.397441E-2,2.5654056E-3,1.7134967E-3,3.3422532E-3,2.4941121E-3,3.7122914E-3,4.566144E-3,3.8062788E-3,2.8625105E-3,-2.2102386E-4,-1.1885923E-3],"categories":[],"categories_nodes":[],"categories_segments":[],"categories_sizes":[],"default_left":[0,0,0,0,0,0,0,0,0,0,0,0,0,0,0,0,0,0,0,0,0,0,0,0,0,0,0,0,0],"id":39,"left_children":[1,3,5,-1,7,9,11,-1,-1,13,15,-1,17,19,21,23,25,-1,27,-1,-1,-1,-1,-1,-1,-1,-1,-1,-1],"loss_changes":[1.448605E2,4.1738205E0,1.6479416E0,0E0,2.0954003E0,5.2409744E-1,1.4879882E0,0E0,0E0,7.627964E-2,2.5651932E-2,0E0,1.2369645E-1,4.937649E-3,9.6951485E-2,1.4139175E-2,5.3277016E-3,0E0,2.7384963E-3,0E0,0E0,0E0,0E0,0E0,0E0,0E0,0E0,0E0,0E0],"parents":[2147483647,0,0,1,1,2,2,4,4,5,5,6,6,9,9,10,10,12,12,13,13,14,14,15,15,16,16,18,18],"right_children":[2,4,6,-1,8,10,12,-1,-1,14,16,-1,18,20,22,24,26,-1,28,-1,-1,-1,-1,-1,-1,-1,-1,-1,-1],"split_conditions":[-1.4681935E-1,1.14653215E-1,1.1543357E0,-9.926807E-3,-4.4953436E-1,6.454614E-1,1.0207734E-1,2.8345406E-3,-6.9349753E-3,5.568776E-1,7.325277E-1,3.1712141E-3,3.0276644E-1,5.650588E-1,6.3086116E-1,-6.6544235E-2,-1.9559465E-1,-4.5057465E-3,-4.4953436E-1,2.5654056E-3,1.7134967E-3,3.3422532E-3,2.4941121E-3,3.7122914E-3,4.566144E-3,3.8062788E-3,2.8625105E-3,-2.2102386E-4,-1.1885923E-3],"split_indices":[11,15,12,0,0,11,8,0,0,11,8,0,11,8,8,12,12,0,0,0,0,0,0,0,0,0,0,0,0],"split_type":[0,0,0,0,0,0,0,0,0,0,0,0,0,0,0,0,0,0,0,0,0,0,0,0,0,0,0,0,0],"sum_hessian":[4.75E2,1.19E2,3.56E2,1.12E2,7E0,3.45E2,1.1E1,4E0,3E0,1.72E2,1.73E2,5E0,6E0,5E1,1.22E2,1.22E2,5.1E1,4E0,2E0,4E1,1E1,8.4E1,3.8E1,9.2E1,3E1,1.9E1,3.2E1,1E0,1E0],"tree_param":{"num_deleted":"0","num_feature":"17","num_nodes":"29","size_leaf_vector":"1"}},{"base_weights":[4.417697E-3,-9.3673646E-1,3.2075965E-1,-9.828418E-1,-1.6840664E-1,3.3277366E-1,-5.237429E-2,-9.939364E-3,-5.4440856E-1,2.8118643E-3,-6.8829632E-3,2.8540984E-1,3.7060812E-1,3.1447874E-3,-3.5933772E-1,1.6370809E-3,-7.6236473E-3,2.2659712E-1,2.9912362E-1,4.3169516E-3,3.5491857E-1,-4.4697006E-3,-9.350455E-2,2.3665428E-3,1.2093459E-3,3.3143817E-3,2.5859221E-3,3.1804247E-3,3.8683522E-3,-2.1991879E-4,-1.1826494E-3],"categories":[],"categories_nodes":[],"categories_segments":[],"categories_sizes":[],"default_left":[0,0,0,0,0,0,0,0,0,0,0,0,0,0,0,0,0,0,0,0,0,0,0,0,0,0,0,0,0,0,0],"id":40,"left_children":[1,3,5,7,9,11,13,-1,15,-1,-1,17,19,-1,21,-1,-1,23,25,-1,27,-1,29,-1,-1,-1,-1,-1,-1,-1,-1],"loss_changes":[1.420183E2,4.085373E0,1.6178017E0,8.552551E-3,2.06345E0,5.142555E-1,1.4643297E0,0E0,8.964975E-1,0E0,0E0,5.9653282E-2,2.7925491E-2,0E0,1.21275365E-1,0E0,0E0,7.511139E-3,7.801247E-2,0E0,6.0573578E-2,0E0,2.7111769E-3,0E0,0E0,0E0,0E0,0E0,0E0,0E0,0E0],"parents":[2147483647,0,0,1,1,2,2,3,3,4,4,5,5,6,6,8,8,11,11,12,12,14,14,17,17,18,18,20,20,22,22],"right_children":[2,4,6,8,10,12,14,-1,16,-1,-1,18,20,-1,22,-1,-1,24,26,-1,28,-1,30,-1,-1,-1,-1,-1,-1,-1,-1],"split_conditions":[-1.4681935E-1,1.14653215E-1,1.1543357E0,-9.2211455E-1,-4.4953436E-1,6.3527054E-1,1.0207734E-1,-9.939364E-3,4.4418275E-1,2.8118643E-3,-6.8829632E-3,5.3314984E-1,5.9183925E-1,3.1447874E-3,3.0276644E-1,1.6370809E-3,-7.6236473E-3,5.6844765E-1,5.9183925E-1,4.3169516E-3,6.999564E-1,-4.4697006E-3,-4.4953436E-1,2.3665428E-3,1.2093459E-3,3.3143817E-3,2.5859221E-3,3.1804247E-3,3.8683522E-3,-2.1991879E-4,-1.1826494E-3],"split_indices":[11,15,12,11,0,11,8,0,0,0,0,11,8,0,11,0,0,8,8,0,11,0,0,0,0,0,0,0,0,0,0],"split_type":[0,0,0,0,0,0,0,0,0,0,0,0,0,0,0,0,0,0,0,0,0,0,0,0,0,0,0,0,0,0,0],"sum_hessian":[4.75E2,1.19E2,3.56E2,1.12E2,7E0,3.45E2,1.1E1,1.08E2,4E0,4E0,3E0,1.57E2,1.88E2,5E0,6E0,1E0,3E0,3.3E1,1.24E2,3.3E1,1.55E2,4E0,2E0,2.9E1,4E0,6.5E1,5.9E1,7.7E1,7.8E1,1E0,1E0],"tree_param":{"num_deleted":"0","num_feature":"17","num_nodes":"31","size_leaf_vector":"1"}},{"base_weights":[4.3695597E-3,-9.275357E-1,3.176028E-1,-9.731543E-1,-1.6723144E-1,3.2950616E-1,-5.2077834E-2,-9.840883E-3,-5.401618E-1,2.7893696E-3,-6.8313405E-3,2.8641734E-1,3.7045366E-1,3.118581E-3,-3.565832E-1,1.6288954E-3,-7.5664697E-3,2.3837431E-1,3.0400902E-1,3.8820815E-1,3.2133332E-1,-4.433943E-3,-9.303701E-2,2.5145148E-3,1.679616E-3,3.2778925E-3,2.4438521E-3,3.654125E-3,4.525001E-3,3.7337139E-3,2.8005773E-3,-2.1881907E-4,-1.1767361E-3],"categories":[],"categories_nodes":[],"categories_segments":[],"categories_sizes":[],"default_left":[0,0,0,0,0,0,0,0,0,0,0,0,0,0,0,0,0,0,0,0,0,0,0,0,0,0,0,0,0,0,0,0,0],"id":41,"left_children":[1,3,5,7,9,11,13,-1,15,-1,-1,17,19,-1,21,-1,-1,23,25,27,29,-1,31,-1,-1,-1,-1,-1,-1,-1,-1,-1,-1],"loss_changes":[1.3924075E2,3.9993439E0,1.5881195E0,3.4179688E-3,2.031987E0,5.0437164E-1,1.4410487E0,0E0,8.842509E-1,0E0,0E0,7.374382E-2,2.7002335E-2,0E0,1.1889905E-1,0E0,0E0,4.7266483E-3,9.429073E-2,1.4917374E-2,7.1253777E-3,0E0,2.684135E-3,0E0,0E0,0E0,0E0,0E0,0E0,0E0,0E0,0E0,0E0],"parents":[2147483647,0,0,1,1,2,2,3,3,4,4,5,5,6,6,8,8,11,11,12,12,14,14,17,17,18,18,19,19,20,20,22,22],"right_children":[2,4,6,8,10,12,14,-1,16,-1,-1,18,20,-1,22,-1,-1,24,26,28,30,-1,32,-1,-1,-1,-1,-1,-1,-1,-1,-1,-1],"split_conditions":[-1.4681935E-1,1.14653215E-1,1.1543357E0,-9.2211455E-1,-4.4953436E-1,6.454614E-1,1.0207734E-1,-9.840883E-3,4.4418275E-1,2.7893696E-3,-6.8313405E-3,5.568776E-1,7.325277E-1,3.118581E-3,3.0276644E-1,1.6288954E-3,-7.5664697E-3,5.650588E-1,6.3086116E-1,-4.1881893E-2,-1.9559465E-1,-4.433943E-3,-4.4953436E-1,2.5145148E-3,1.679616E-3,3.2778925E-3,2.4438521E-3,3.654125E-3,4.525001E-3,3.7337139E-3,2.8005773E-3,-2.1881907E-4,-1.1767361E-3],"split_indices":[11,15,12,11,0,11,8,0,0,0,0,11,8,0,11,0,0,8,8,12,12,0,0,0,0,0,0,0,0,0,0,0,0],"split_type":[0,0,0,0,0,0,0,0,0,0,0,0,0,0,0,0,0,0,0,0,0,0,0,0,0,0,0,0,0,0,0,0,0],"sum_hessian":[4.75E2,1.19E2,3.56E2,1.12E2,7E0,3.45E2,1.1E1,1.08E2,4E0,4E0,3E0,1.72E2,1.73E2,5E0,6E0,1E0,3E0,5E1,1.22E2,1.22E2,5.1E1,4E0,2E0,4E1,1E1,8.4E1,3.8E1,9.5E1,2.7E1,1.9E1,3.2E1,1E0,1E0],"tree_param":{"num_deleted":"0","num_feature":"17","num_nodes":"33","size_leaf_vector":"1"}},{"base_weights":[4.3302737E-3,-9.1842556E-1,3.1448817E-1,-9.635624E-3,-1.6606438E-1,3.262823E-1,-5.178297E-2,2.7670544E-3,-6.7801056E-3,2.7982718E-1,3.633914E-1,3.0925926E-3,-3.538502E-1,2.2211853E-1,2.932853E-1,3.795394E-1,3.147939E-1,-4.3984717E-3,-9.257183E-2,2.3196375E-3,1.1862345E-3,3.2508457E-3,2.5341802E-3,3.5248634E-3,4.270149E-3,6.765199E-4,3.1824564E-3,-2.1772503E-4,-1.1708525E-3],"categories":[],"categories_nodes":[],"categories_segments":[],"categories_sizes":[],"default_left":[0,0,0,0,0,0,0,0,0,0,0,0,0,0,0,0,0,0,0,0,0,0,0,0,0,0,0,0,0],"id":42,"left_children":[1,3,5,-1,7,9,11,-1,-1,13,15,-1,17,19,21,23,25,-1,27,-1,-1,-1,-1,-1,-1,-1,-1,-1,-1],"loss_changes":[1.3652003E2,3.9150848E0,1.559082E0,0E0,2.001004E0,4.9478912E-1,1.4181398E0,0E0,0E0,5.756569E-2,2.8841019E-2,0E0,1.1656654E-1,7.1275234E-3,7.6087E-2,2.5438309E-2,2.3682117E-2,0E0,2.6573632E-3,0E0,0E0,0E0,0E0,0E0,0E0,0E0,0E0,0E0,0E0],"parents":[2147483647,0,0,1,1,2,2,4,4,5,5,6,6,9,9,10,10,12,12,13,13,14,14,15,15,16,16,18,18],"right_children":[2,4,6,-1,8,10,12,-1,-1,14,16,-1,18,20,22,24,26,-1,28,-1,-1,-1,-1,-1,-1,-1,-1,-1,-1],"split_conditions":[-1.4681935E-1,1.14653215E-1,1.1543357E0,-9.635624E-3,-4.4953436E-1,6.3527054E-1,1.0207734E-1,2.7670544E-3,-6.7801056E-3,5.3314984E-1,7.325277E-1,3.0925926E-3,3.0276644E-1,5.6844765E-1,5.9183925E-1,-1.7081906E-1,6.4142835E-1,-4.3984717E-3,-4.4953436E-1,2.3196375E-3,1.1862345E-3,3.2508457E-3,2.5341802E-3,3.5248634E-3,4.270149E-3,6.765199E-4,3.1824564E-3,-2.1772503E-4,-1.1708525E-3],"split_indices":[11,15,12,0,0,11,8,0,0,11,8,0,11,8,8,12,11,0,0,0,0,0,0,0,0,0,0,0,0],"split_type":[0,0,0,0,0,0,0,0,0,0,0,0,0,0,0,0,0,0,0,0,0,0,0,0,0,0,0,0,0],"sum_hessian":[4.75E2,1.19E2,3.56E2,1.12E2,7E0,3.45E2,1.1E1,4E0,3E0,1.57E2,1.88E2,5E0,6E0,3.3E1,1.24E2,1.36E2,5.2E1,4E0,2E0,2.9E1,4E0,6.5E1,5.9E1,9.2E1,4.4E1,1E0,5.1E1,1E0,1E0],"tree_param":{"num_deleted":"0","num_feature":"17","num_nodes":"29","size_leaf_vector":"1"}},{"base_weights":[4.296642E-3,-9.0935504E-1,3.1139442E-1,-9.5401204E-1,-1.6490537E-1,3.2308E-1,-5.1489677E-2,-9.647905E-3,-5.282392E-1,2.744918E-3,-6.7292545E-3,2.8080216E-1,3.6325812E-1,3.066821E-3,-3.511384E-1,1.6689291E-3,-7.437454E-3,2.3364739E-1,2.9807118E-1,3.80654E-1,3.151244E-1,-4.3632835E-3,-9.2108965E-2,2.464627E-3,1.6464057E-3,3.5932825E-3,2.7258154E-3,3.582074E-3,4.4401907E-3,3.6680105E-3,2.7425596E-3,-2.1663636E-4,-1.164998E-3],"categories":[],"categories_nodes":[],"categories_segments":[],"categories_sizes":[],"default_left":[0,0,0,0,0,0,0,0,0,0,0,0,0,0,0,0,0,0,0,0,0,0,0,0,0,0,0,0,0,0,0,0,0],"id":43,"left_children":[1,3,5,7,9,11,13,-1,15,-1,-1,17,19,-1,21,-1,-1,23,25,27,29,-1,31,-1,-1,-1,-1,-1,-1,-1,-1,-1,-1],"loss_changes":[1.3383945E2,3.8320618E0,1.5304985E0,8.934021E-3,1.9704936E0,4.8572922E-1,1.3955966E0,0E0,8.731524E-1,0E0,0E0,7.123375E-2,2.5743484E-2,0E0,1.1427724E-1,0E0,0E0,4.5239925E-3,9.410858E-2,1.5893936E-2,9.223938E-3,0E0,2.630854E-3,0E0,0E0,0E0,0E0,0E0,0E0,0E0,0E0,0E0,0E0],"parents":[2147483647,0,0,1,1,2,2,3,3,4,4,5,5,6,6,8,8,11,11,12,12,14,14,17,17,18,18,19,19,20,20,22,22],"right_children":[2,4,6,8,10,12,14,-1,16,-1,-1,18,20,-1,22,-1,-1,24,26,28,30,-1,32,-1,-1,-1,-1,-1,-1,-1,-1,-1,-1],"split_conditions":[-1.4681935E-1,1.14653215E-1,1.1543357E0,-9.2211455E-1,-4.4953436E-1,6.454614E-1,1.0207734E-1,-9.647905E-3,4.4418275E-1,2.744918E-3,-6.7292545E-3,5.568776E-1,7.325277E-1,3.066821E-3,3.0276644E-1,1.6689291E-3,-7.437454E-3,5.650588E-1,5.36226E-1,-4.1881893E-2,-1.9559465E-1,-4.3632835E-3,-4.4953436E-1,2.464627E-3,1.6464057E-3,3.5932825E-3,2.7258154E-3,3.582074E-3,4.4401907E-3,3.6680105E-3,2.7425596E-3,-2.1663636E-4,-1.164998E-3],"split_indices":[11,15,12,11,0,11,8,0,0,0,0,11,8,0,11,0,0,8,8,12,12,0,0,0,0,0,0,0,0,0,0,0,0],"split_type":[0,0,0,0,0,0,0,0,0,0,0,0,0,0,0,0,0,0,0,0,0,0,0,0,0,0,0,0,0,0,0,0,0],"sum_hessian":[4.75E2,1.19E2,3.56E2,1.12E2,7E0,3.45E2,1.1E1,1.08E2,4E0,4E0,3E0,1.72E2,1.73E2,5E0,6E0,1E0,3E0,5E1,1.22E2,1.22E2,5.1E1,4E0,2E0,4E1,1E1,3.2E1,9E1,9.5E1,2.7E1,1.9E1,3.2E1,1E0,1E0],"tree_param":{"num_deleted":"0","num_feature":"17","num_nodes":"33","size_leaf_vector":"1"}},{"base_weights":[4.259526E-3,-9.0042317E-1,3.083426E-1,-9.4460833E-1,-1.6375434E-1,3.1992105E-1,-5.1197957E-2,-9.55231E-3,-5.241105E-1,2.7229588E-3,-6.6787857E-3,2.780544E-1,3.597085E-1,3.0412641E-3,-3.484477E-1,1.6605845E-3,-7.3816734E-3,2.313915E-1,2.9514182E-1,3.769127E-1,3.120964E-1,-4.3283775E-3,-9.164842E-2,2.4405813E-3,1.6314384E-3,3.5584387E-3,2.6988569E-3,3.5466265E-3,4.3973746E-3,3.6331643E-3,2.7159648E-3,-2.1555304E-4,-1.1591732E-3],"categories":[],"categories_nodes":[],"categories_segments":[],"categories_sizes":[],"default_left":[0,0,0,0,0,0,0,0,0,0,0,0,0,0,0,0,0,0,0,0,0,0,0,0,0,0,0,0,0,0,0,0,0],"id":44,"left_children":[1,3,5,7,9,11,13,-1,15,-1,-1,17,19,-1,21,-1,-1,23,25,27,29,-1,31,-1,-1,-1,-1,-1,-1,-1,-1,-1,-1],"loss_changes":[1.3122461E2,3.751297E0,1.5025444E0,4.1046143E-3,1.9404486E0,4.7633743E-1,1.3734131E0,0E0,8.6125576E-1,0E0,0E0,6.964779E-2,2.4894714E-2,0E0,1.1203021E-1,0E0,0E0,4.271269E-3,9.2534065E-2,1.597786E-2,9.19342E-3,0E0,2.6046168E-3,0E0,0E0,0E0,0E0,0E0,0E0,0E0,0E0,0E0,0E0],"parents":[2147483647,0,0,1,1,2,2,3,3,4,4,5,5,6,6,8,8,11,11,12,12,14,14,17,17,18,18,19,19,20,20,22,22],"right_children":[2,4,6,8,10,12,14,-1,16,-1,-1,18,20,-1,22,-1,-1,24,26,28,30,-1,32,-1,-1,-1,-1,-1,-1,-1,-1,-1,-1],"split_conditions":[-1.4681935E-1,1.14653215E-1,1.1543357E0,-9.2211455E-1,-4.4953436E-1,6.454614E-1,1.0207734E-1,-9.55231E-3,4.4418275E-1,2.7229588E-3,-6.6787857E-3,5.568776E-1,7.325277E-1,3.0412641E-3,3.0276644E-1,1.6605845E-3,-7.3816734E-3,5.650588E-1,5.36226E-1,-4.1881893E-2,-1.9559465E-1,-4.3283775E-3,-4.4953436E-1,2.4405813E-3,1.6314384E-3,3.5584387E-3,2.6988569E-3,3.5466265E-3,4.3973746E-3,3.6331643E-3,2.7159648E-3,-2.1555304E-4,-1.1591732E-3],"split_indices":[11,15,12,11,0,11,8,0,0,0,0,11,8,0,11,0,0,8,8,12,12,0,0,0,0,0,0,0,0,0,0,0,0],"split_type":[0,0,0,0,0,0,0,0,0,0,0,0,0,0,0,0,0,0,0,0,0,0,0,0,0,0,0,0,0,0,0,0,0],"sum_hessian":[4.75E2,1.19E2,3.56E2,1.12E2,7E0,3.45E2,1.1E1,1.08E2,4E0,4E0,3E0,1.72E2,1.73E2,5E0,6E0,1E0,3E0,5E1,1.22E2,1.22E2,5.1E1,4E0,2E0,4E1,1E1,3.2E1,9E1,9.5E1,2.7E1,1.9E1,3.2E1,1E0,1E0],"tree_param":{"num_deleted":"0","num_feature":"17","num_nodes":"33","size_leaf_vector":"1"}},{"base_weights":[4.2226585E-3,-8.915792E-1,3.0532068E-1,-9.352974E-1,-1.626113E-1,3.1679302E-1,-5.09078E-2,-9.877534E-3,-8.008541E-1,2.7011752E-3,-6.6286945E-3,2.7163684E-1,3.5286647E-1,3.01592E-3,-3.4577796E-1,-1.6383441E-1,-8.325742E-3,2.1547882E-1,2.8473872E-1,4.113908E-3,3.378492E-1,-4.2937505E-3,-9.119018E-2,-4.1097975E-3,1.6522815E-3,2.2503396E-3,1.1505218E-3,3.1584993E-3,2.4577074E-3,3.0172234E-3,3.6924216E-3,-2.1447538E-4,-1.1533772E-3],"categories":[],"categories_nodes":[],"categories_segments":[],"categories_sizes":[],"default_left":[0,0,0,0,0,0,0,0,0,0,0,0,0,0,0,0,0,0,0,0,0,0,0,0,0,0,0,0,0,0,0,0,0],"id":45,"left_children":[1,3,5,7,9,11,13,-1,15,-1,-1,17,19,-1,21,23,-1,25,27,-1,29,-1,31,-1,-1,-1,-1,-1,-1,-1,-1,-1,-1],"loss_changes":[1.2866093E2,3.6722107E0,1.4750977E0,5.8670044E-3,1.9108617E0,4.67762E-1,1.3515841E0,0E0,6.1123085E-1,0E0,0E0,5.489731E-2,2.712059E-2,0E0,1.0982472E-1,3.1188428E-1,0E0,6.735444E-3,7.391548E-2,0E0,6.551552E-2,0E0,2.578633E-3,0E0,0E0,0E0,0E0,0E0,0E0,0E0,0E0,0E0,0E0],"parents":[2147483647,0,0,1,1,2,2,3,3,4,4,5,5,6,6,8,8,11,11,12,12,14,14,15,15,17,17,18,18,20,20,22,22],"right_children":[2,4,6,8,10,12,14,-1,16,-1,-1,18,20,-1,22,24,-1,26,28,-1,30,-1,32,-1,-1,-1,-1,-1,-1,-1,-1,-1,-1],"split_conditions":[-1.4681935E-1,1.14653215E-1,1.1543357E0,-1.5768806E0,-4.4953436E-1,6.3527054E-1,1.0207734E-1,-9.877534E-3,-1.757203E0,2.7011752E-3,-6.6286945E-3,5.3314984E-1,5.9183925E-1,3.01592E-3,3.0276644E-1,-4.4953436E-1,-8.325742E-3,5.6844765E-1,5.9183925E-1,4.113908E-3,6.999564E-1,-4.2937505E-3,-4.4953436E-1,-4.1097975E-3,1.6522815E-3,2.2503396E-3,1.1505218E-3,3.1584993E-3,2.4577074E-3,3.0172234E-3,3.6924216E-3,-2.1447538E-4,-1.1533772E-3],"split_indices":[11,15,12,11,0,11,8,0,9,0,0,11,8,0,11,0,0,8,8,0,11,0,0,0,0,0,0,0,0,0,0,0,0],"split_type":[0,0,0,0,0,0,0,0,0,0,0,0,0,0,0,0,0,0,0,0,0,0,0,0,0,0,0,0,0,0,0,0,0],"sum_hessian":[4.75E2,1.19E2,3.56E2,1.12E2,7E0,3.45E2,1.1E1,7.6E1,3.6E1,4E0,3E0,1.57E2,1.88E2,5E0,6E0,2E0,3.4E1,3.3E1,1.24E2,3.3E1,1.55E2,4E0,2E0,1E0,1E0,2.9E1,4E0,6.5E1,5.9E1,7.7E1,7.8E1,1E0,1E0],"tree_param":{"num_deleted":"0","num_feature":"17","num_nodes":"33","size_leaf_vector":"1"}},{"base_weights":[4.1649E-3,-8.828683E-1,3.0231565E-1,-9.261273E-1,-1.614761E-1,3.136824E-1,-5.061921E-2,-9.780041E-3,-7.9313695E-1,2.6795657E-3,-6.5789795E-3,2.6897755E-1,3.4939504E-1,2.9907876E-3,-3.43129E-1,-1.6301525E-1,-8.244863E-3,2.1342407E-1,2.819363E-1,3.6506015E-1,3.0230984E-1,-4.2594005E-3,-9.073424E-2,-4.089249E-3,1.6440201E-3,2.2285867E-3,1.1413174E-3,3.3920323E-3,2.5944181E-3,3.4306266E-3,4.216095E-3,2.4538874E-3,3.3776974E-3,-2.134031E-4,-1.1476105E-3],"categories":[],"categories_nodes":[],"categories_segments":[],"categories_sizes":[],"default_left":[0,0,0,0,0,0,0,0,0,0,0,0,0,0,0,0,0,0,0,0,0,0,0,0,0,0,0,0,0,0,0,0,0,0,0],"id":46,"left_children":[1,3,5,7,9,11,13,-1,15,-1,-1,17,19,-1,21,23,-1,25,27,29,31,-1,33,-1,-1,-1,-1,-1,-1,-1,-1,-1,-1,-1,-1],"loss_changes":[1.26154434E2,3.595253E0,1.4480629E0,3.9138794E-3,1.8817263E0,4.584236E-1,1.3301036E0,0E0,5.9649277E-1,0E0,0E0,5.35717E-2,2.9043198E-2,0E0,1.07660174E-1,3.0877322E-1,0E0,6.415248E-3,7.301998E-2,2.5781631E-2,2.4091244E-2,0E0,2.5529098E-3,0E0,0E0,0E0,0E0,0E0,0E0,0E0,0E0,0E0,0E0,0E0,0E0],"parents":[2147483647,0,0,1,1,2,2,3,3,4,4,5,5,6,6,8,8,11,11,12,12,14,14,15,15,17,17,18,18,19,19,20,20,22,22],"right_children":[2,4,6,8,10,12,14,-1,16,-1,-1,18,20,-1,22,24,-1,26,28,30,32,-1,34,-1,-1,-1,-1,-1,-1,-1,-1,-1,-1,-1,-1],"split_conditions":[-1.4681935E-1,1.14653215E-1,1.1543357E0,-1.5768806E0,-4.4953436E-1,6.3527054E-1,1.0207734E-1,-9.780041E-3,-1.757203E0,2.6795657E-3,-6.5789795E-3,5.3314984E-1,7.325277E-1,2.9907876E-3,3.0276644E-1,-4.4953436E-1,-8.244863E-3,5.6844765E-1,5.229947E-1,-6.6544235E-2,7.1511525E-1,-4.2594005E-3,-4.4953436E-1,-4.089249E-3,1.6440201E-3,2.2285867E-3,1.1413174E-3,3.3920323E-3,2.5944181E-3,3.4306266E-3,4.216095E-3,2.4538874E-3,3.3776974E-3,-2.134031E-4,-1.1476105E-3],"split_indices":[11,15,12,11,0,11,8,0,9,0,0,11,8,0,11,0,0,8,8,12,11,0,0,0,0,0,0,0,0,0,0,0,0,0,0],"split_type":[0,0,0,0,0,0,0,0,0,0,0,0,0,0,0,0,0,0,0,0,0,0,0,0,0,0,0,0,0,0,0,0,0,0,0],"sum_hessian":[4.75E2,1.19E2,3.56E2,1.12E2,7E0,3.45E2,1.1E1,7.6E1,3.6E1,4E0,3E0,1.57E2,1.88E2,5E0,6E0,2E0,3.4E1,3.3E1,1.24E2,1.36E2,5.2E1,4E0,2E0,1E0,1E0,2.9E1,4E0,3.1E1,9.3E1,1.03E2,3.3E1,2.3E1,2.9E1,1E0,1E0],"tree_param":{"num_deleted":"0","num_feature":"17","num_nodes":"35","size_leaf_vector":"1"}},{"base_weights":[4.114515E-3,-8.7424266E-1,2.993491E-1,-9.1704714E-1,-1.603488E-1,3.106116E-1,-5.0332148E-2,-9.68351E-3,-7.854945E-1,2.658129E-3,-6.5296376E-3,2.734054E-1,3.5315186E-1,2.9658643E-3,-3.4050062E-1,-1.6220017E-1,-8.16477E-3,2.3248556E-1,2.9298043E-1,3.7152981E-3,3.060249E-1,-4.2253253E-3,-9.028057E-2,-4.0688026E-3,1.6358E-3,2.4715425E-3,1.8319173E-3,3.2825794E-3,2.4117145E-3,3.5332064E-3,2.6563972E-3,-2.1233618E-4,-1.1418724E-3],"categories":[],"categories_nodes":[],"categories_segments":[],"categories_sizes":[],"default_left":[0,0,0,0,0,0,0,0,0,0,0,0,0,0,0,0,0,0,0,0,0,0,0,0,0,0,0,0,0,0,0,0,0],"id":47,"left_children":[1,3,5,7,9,11,13,-1,15,-1,-1,17,19,-1,21,23,-1,25,27,-1,29,-1,31,-1,-1,-1,-1,-1,-1,-1,-1,-1,-1],"loss_changes":[1.2369871E2,3.5198898E0,1.4216003E0,2.029419E-3,1.8530351E0,4.5108032E-1,1.3089659E0,0E0,5.8208275E-1,0E0,0E0,8.327675E-2,2.3145676E-2,0E0,1.05535686E-1,3.0569324E-1,0E0,2.446413E-3,1.4746761E-1,0E0,1.6460419E-3,0E0,2.527438E-3,0E0,0E0,0E0,0E0,0E0,0E0,0E0,0E0,0E0,0E0],"parents":[2147483647,0,0,1,1,2,2,3,3,4,4,5,5,6,6,8,8,11,11,12,12,14,14,15,15,17,17,18,18,20,20,22,22],"right_children":[2,4,6,8,10,12,14,-1,16,-1,-1,18,20,-1,22,24,-1,26,28,-1,30,-1,32,-1,-1,-1,-1,-1,-1,-1,-1,-1,-1],"split_conditions":[-1.4681935E-1,1.14653215E-1,1.1543357E0,-1.5768806E0,-4.4953436E-1,6.5392417E-1,1.0207734E-1,-9.68351E-3,-1.757203E0,2.658129E-3,-6.5296376E-3,5.707123E-1,7.325277E-1,2.9658643E-3,3.0276644E-1,-4.4953436E-1,-8.16477E-3,5.551609E-1,6.2342334E-1,3.7152981E-3,-1.9559465E-1,-4.2253253E-3,-4.4953436E-1,-4.0688026E-3,1.6358E-3,2.4715425E-3,1.8319173E-3,3.2825794E-3,2.4117145E-3,3.5332064E-3,2.6563972E-3,-2.1233618E-4,-1.1418724E-3],"split_indices":[11,15,12,11,0,11,8,0,9,0,0,11,8,0,11,0,0,8,8,0,12,0,0,0,0,0,0,0,0,0,0,0,0],"split_type":[0,0,0,0,0,0,0,0,0,0,0,0,0,0,0,0,0,0,0,0,0,0,0,0,0,0,0,0,0,0,0,0,0],"sum_hessian":[4.75E2,1.19E2,3.56E2,1.12E2,7E0,3.45E2,1.1E1,7.6E1,3.6E1,4E0,3E0,1.88E2,1.57E2,5E0,6E0,2E0,3.4E1,6.5E1,1.23E2,1.08E2,4.9E1,4E0,2E0,1E0,1E0,4.7E1,1.8E1,7E1,5.3E1,1.9E1,3E1,1E0,1E0],"tree_param":{"num_deleted":"0","num_feature":"17","num_nodes":"33","size_leaf_vector":"1"}},{"base_weights":[4.058946E-3,-8.657015E-1,2.9640403E-1,-9.080562E-1,-1.5922925E-1,3.07563E-1,-5.0046634E-2,-9.587933E-3,-7.7792597E-1,2.636864E-3,-6.480665E-3,2.6723915E-1,3.458875E-1,2.9411488E-3,-3.3789268E-1,-1.6138916E-1,-8.085455E-3,2.2221552E-1,2.837348E-1,3.6253476E-1,2.9985872E-1,-4.1915225E-3,-8.9829184E-2,-4.0484583E-3,1.627621E-3,2.3443778E-3,1.5645839E-3,3.065452E-3,2.2674457E-3,3.4082544E-3,4.240191E-3,3.4996413E-3,2.6040515E-3,-2.1127462E-4,-1.1361631E-3],"categories":[],"categories_nodes":[],"categories_segments":[],"categories_sizes":[],"default_left":[0,0,0,0,0,0,0,0,0,0,0,0,0,0,0,0,0,0,0,0,0,0,0,0,0,0,0,0,0,0,0,0,0,0,0],"id":48,"left_children":[1,3,5,7,9,11,13,-1,15,-1,-1,17,19,-1,21,23,-1,25,27,29,31,-1,33,-1,-1,-1,-1,-1,-1,-1,-1,-1,-1,-1,-1],"loss_changes":[1.21289215E2,3.4460983E0,1.395565E0,1.9836426E-4,1.8247818E0,4.422722E-1,1.2881657E0,0E0,5.680008E-1,0E0,0E0,6.543732E-2,2.4618149E-2,0E0,1.0345054E-1,3.0264395E-1,0E0,4.308939E-3,9.03883E-2,1.9662857E-2,1.166296E-2,0E0,2.5022272E-3,0E0,0E0,0E0,0E0,0E0,0E0,0E0,0E0,0E0,0E0,0E0,0E0],"parents":[2147483647,0,0,1,1,2,2,3,3,4,4,5,5,6,6,8,8,11,11,12,12,14,14,15,15,17,17,18,18,19,19,20,20,22,22],"right_children":[2,4,6,8,10,12,14,-1,16,-1,-1,18,20,-1,22,24,-1,26,28,30,32,-1,34,-1,-1,-1,-1,-1,-1,-1,-1,-1,-1,-1,-1],"split_conditions":[-1.4681935E-1,1.14653215E-1,1.1543357E0,-1.5768806E0,-4.4953436E-1,6.454614E-1,1.0207734E-1,-9.587933E-3,-1.757203E0,2.636864E-3,-6.480665E-3,5.568776E-1,7.325277E-1,2.9411488E-3,3.0276644E-1,-4.4953436E-1,-8.085455E-3,5.650588E-1,6.3086116E-1,-4.1881893E-2,-1.9559465E-1,-4.1915225E-3,-4.4953436E-1,-4.0484583E-3,1.627621E-3,2.3443778E-3,1.5645839E-3,3.065452E-3,2.2674457E-3,3.4082544E-3,4.240191E-3,3.4996413E-3,2.6040515E-3,-2.1127462E-4,-1.1361631E-3],"split_indices":[11,15,12,11,0,11,8,0,9,0,0,11,8,0,11,0,0,8,8,12,12,0,0,0,0,0,0,0,0,0,0,0,0,0,0],"split_type":[0,0,0,0,0,0,0,0,0,0,0,0,0,0,0,0,0,0,0,0,0,0,0,0,0,0,0,0,0,0,0,0,0,0,0],"sum_hessian":[4.75E2,1.19E2,3.56E2,1.12E2,7E0,3.45E2,1.1E1,7.6E1,3.6E1,4E0,3E0,1.72E2,1.73E2,5E0,6E0,2E0,3.4E1,5E1,1.22E2,1.22E2,5.1E1,4E0,2E0,1E0,1E0,4E1,1E1,8.4E1,3.8E1,9.5E1,2.7E1,1.9E1,3.2E1,1E0,1E0],"tree_param":{"num_deleted":"0","num_feature":"17","num_nodes":"35","size_leaf_vector":"1"}},{"base_weights":[4.010913E-3,-8.57244E-1,2.9349712E-1,-8.991535E-3,-1.5811741E-1,3.0455384E-1,-4.976264E-2,2.6157692E-3,-6.4320597E-3,2.6802933E-1,3.4631696E-1,2.9166394E-3,-3.3530504E-1,2.2788341E-1,2.8723583E-1,3.6429608E-1,3.0019614E-1,-4.15799E-3,-8.9380026E-2,2.4230345E-3,1.7945998E-3,3.1243612E-3,2.1953678E-3,3.3656051E-3,4.1118874E-3,3.4663947E-3,2.6054895E-3,-2.1021813E-4,-1.1304822E-3],"categories":[],"categories_nodes":[],"categories_segments":[],"categories_sizes":[],"default_left":[0,0,0,0,0,0,0,0,0,0,0,0,0,0,0,0,0,0,0,0,0,0,0,0,0,0,0,0,0],"id":49,"left_children":[1,3,5,-1,7,9,11,-1,-1,13,15,-1,17,19,21,23,25,-1,27,-1,-1,-1,-1,-1,-1,-1,-1,-1,-1],"loss_changes":[1.189286E2,3.3738327E0,1.3700886E0,0E0,1.7969593E0,4.349594E-1,1.2676975E0,0E0,0E0,8.027458E-2,2.1654129E-2,0E0,1.0140431E-1,2.601862E-3,1.4295673E-1,3.3750534E-3,1.750946E-3,0E0,2.4772696E-3,0E0,0E0,0E0,0E0,0E0,0E0,0E0,0E0,0E0,0E0],"parents":[2147483647,0,0,1,1,2,2,4,4,5,5,6,6,9,9,10,10,12,12,13,13,14,14,15,15,16,16,18,18],"right_children":[2,4,6,-1,8,10,12,-1,-1,14,16,-1,18,20,22,24,26,-1,28,-1,-1,-1,-1,-1,-1,-1,-1,-1,-1],"split_conditions":[-1.4681935E-1,1.14653215E-1,1.1543357E0,-8.991535E-3,-4.4953436E-1,6.5392417E-1,1.0207734E-1,2.6157692E-3,-6.4320597E-3,5.707123E-1,7.325277E-1,2.9166394E-3,3.0276644E-1,5.551609E-1,6.497333E-1,-2.0662022E-1,-1.9559465E-1,-4.15799E-3,-4.4953436E-1,2.4230345E-3,1.7945998E-3,3.1243612E-3,2.1953678E-3,3.3656051E-3,4.1118874E-3,3.4663947E-3,2.6054895E-3,-2.1021813E-4,-1.1304822E-3],"split_indices":[11,15,12,0,0,11,8,0,0,11,8,0,11,8,8,12,12,0,0,0,0,0,0,0,0,0,0,0,0],"split_type":[0,0,0,0,0,0,0,0,0,0,0,0,0,0,0,0,0,0,0,0,0,0,0,0,0,0,0,0,0],"sum_hessian":[4.75E2,1.19E2,3.56E2,1.12E2,7E0,3.45E2,1.1E1,4E0,3E0,1.88E2,1.57E2,5E0,6E0,6.5E1,1.23E2,1.08E2,4.9E1,4E0,2E0,4.7E1,1.8E1,8.7E1,3.6E1,7.3E1,3.5E1,1.9E1,3E1,1E0,1E0],"tree_param":{"num_deleted":"0","num_feature":"17","num_nodes":"29","size_leaf_vector":"1"}},{"base_weights":[3.9869836E-3,-8.487783E-1,2.906196E-1,-8.902415E-1,-1.5701327E-1,3.0157503E-1,-4.948019E-2,-9.404551E-3,-7.6168215E-1,2.594843E-3,-6.3838195E-3,2.6539952E-1,3.4293956E-1,2.892334E-3,-3.3273754E-1,-1.5458786E-1,-7.919565E-3,2.2566848E-1,2.8440636E-1,3.6072174E-1,2.9731563E-1,-4.1247266E-3,-8.893313E-2,-3.9832587E-3,1.6644406E-3,2.3993086E-3,1.7775985E-3,3.1883826E-3,2.3386797E-3,3.3324042E-3,4.071911E-3,3.4334643E-3,2.5802748E-3,-2.09167E-4,-1.1248299E-3],"categories":[],"categories_nodes":[],"categories_segments":[],"categories_sizes":[],"default_left":[0,0,0,0,0,0,0,0,0,0,0,0,0,0,0,0,0,0,0,0,0,0,0,0,0,0,0,0,0,0,0,0,0,0,0],"id":50,"left_children":[1,3,5,7,9,11,13,-1,15,-1,-1,17,19,-1,21,23,-1,25,27,29,31,-1,33,-1,-1,-1,-1,-1,-1,-1,-1,-1,-1,-1,-1],"loss_changes":[1.1659551E2,3.3021545E0,1.3450851E0,1.3137817E-2,1.7695613E0,4.2673302E-1,1.2475561E0,0E0,5.5760765E-1,0E0,0E0,7.854462E-2,2.0935059E-2,0E0,9.939605E-2,3.0104202E-1,0E0,2.4468899E-3,1.412096E-1,3.5057068E-3,1.8305779E-3,0E0,2.4525598E-3,0E0,0E0,0E0,0E0,0E0,0E0,0E0,0E0,0E0,0E0,0E0,0E0],"parents":[2147483647,0,0,1,1,2,2,3,3,4,4,5,5,6,6,8,8,11,11,12,12,14,14,15,15,17,17,18,18,19,19,20,20,22,22],"right_children":[2,4,6,8,10,12,14,-1,16,-1,-1,18,20,-1,22,24,-1,26,28,30,32,-1,34,-1,-1,-1,-1,-1,-1,-1,-1,-1,-1,-1,-1],"split_conditions":[-1.4681935E-1,1.14653215E-1,1.1543357E0,-1.5768806E0,-4.4953436E-1,6.5392417E-1,1.0207734E-1,-9.404551E-3,-1.757203E0,2.594843E-3,-6.3838195E-3,5.707123E-1,7.325277E-1,2.892334E-3,3.0276644E-1,-4.4953436E-1,-7.919565E-3,5.551609E-1,6.2342334E-1,-2.0662022E-1,-1.9559465E-1,-4.1247266E-3,-4.4953436E-1,-3.9832587E-3,1.6644406E-3,2.3993086E-3,1.7775985E-3,3.1883826E-3,2.3386797E-3,3.3324042E-3,4.071911E-3,3.4334643E-3,2.5802748E-3,-2.09167E-4,-1.1248299E-3],"split_indices":[11,15,12,11,0,11,8,0,9,0,0,11,8,0,11,0,0,8,8,12,12,0,0,0,0,0,0,0,0,0,0,0,0,0,0],"split_type":[0,0,0,0,0,0,0,0,0,0,0,0,0,0,0,0,0,0,0,0,0,0,0,0,0,0,0,0,0,0,0,0,0,0,0],"sum_hessian":[4.75E2,1.19E2,3.56E2,1.12E2,7E0,3.45E2,1.1E1,7.6E1,3.6E1,4E0,3E0,1.88E2,1.57E2,5E0,6E0,2E0,3.4E1,6.5E1,1.23E2,1.08E2,4.9E1,4E0,2E0,1E0,1E0,4.7E1,1.8E1,7E1,5.3E1,7.3E1,3.5E1,1.9E1,3E1,1E0,1E0],"tree_param":{"num_deleted":"0","num_feature":"17","num_nodes":"35","size_leaf_vector":"1"}},{"base_weights":[3.941072E-3,-8.4048575E-1,2.87771E-1,-8.815129E-1,-1.5591675E-1,2.986261E-1,-4.919925E-2,-9.311727E-3,-7.543421E-1,2.5740846E-3,-6.33594E-3,2.685022E-1,3.478332E-1,2.8682314E-3,-3.3018997E-1,-1.5381493E-1,-7.842632E-3,2.2347507E-1,2.8605604E-1,3.6830022E-3,3.0189843E-3,-4.091729E-3,-8.848846E-2,-3.9633424E-3,1.6561183E-3,2.3758153E-3,1.7607582E-3,3.108173E-3,2.2307152E-3,-2.0812123E-4,-1.1192056E-3],"categories":[],"categories_nodes":[],"categories_segments":[],"categories_sizes":[],"default_left":[0,0,0,0,0,0,0,0,0,0,0,0,0,0,0,0,0,0,0,0,0,0,0,0,0,0,0,0,0,0,0],"id":51,"left_children":[1,3,5,7,9,11,13,-1,15,-1,-1,17,19,-1,21,23,-1,25,27,-1,-1,-1,29,-1,-1,-1,-1,-1,-1,-1,-1],"loss_changes":[1.1432651E2,3.2328568E0,1.3205452E0,1.1207581E-2,1.7425811E0,4.194851E-1,1.2277362E0,0E0,5.442009E-1,0E0,0E0,1.0917091E-1,9.150505E-3,0E0,9.7424924E-2,2.9803914E-1,0E0,2.2974014E-3,1.7084026E-1,0E0,0E0,0E0,2.428092E-3,0E0,0E0,0E0,0E0,0E0,0E0,0E0,0E0],"parents":[2147483647,0,0,1,1,2,2,3,3,4,4,5,5,6,6,8,8,11,11,12,12,14,14,15,15,17,17,18,18,22,22],"right_children":[2,4,6,8,10,12,14,-1,16,-1,-1,18,20,-1,22,24,-1,26,28,-1,-1,-1,30,-1,-1,-1,-1,-1,-1,-1,-1],"split_conditions":[-1.4681935E-1,1.14653215E-1,1.1543357E0,-1.5768806E0,-4.4953436E-1,6.710292E-1,1.0207734E-1,-9.311727E-3,-1.757203E0,2.5740846E-3,-6.33594E-3,5.707123E-1,7.325277E-1,2.8682314E-3,3.0276644E-1,-4.4953436E-1,-7.842632E-3,5.551609E-1,6.5580213E-1,3.6830022E-3,3.0189843E-3,-4.091729E-3,-4.4953436E-1,-3.9633424E-3,1.6561183E-3,2.3758153E-3,1.7607582E-3,3.108173E-3,2.2307152E-3,-2.0812123E-4,-1.1192056E-3],"split_indices":[11,15,12,11,0,11,8,0,9,0,0,11,8,0,11,0,0,8,8,0,0,0,0,0,0,0,0,0,0,0,0],"split_type":[0,0,0,0,0,0,0,0,0,0,0,0,0,0,0,0,0,0,0,0,0,0,0,0,0,0,0,0,0,0,0],"sum_hessian":[4.75E2,1.19E2,3.56E2,1.12E2,7E0,3.45E2,1.1E1,7.6E1,3.6E1,4E0,3E0,2.18E2,1.27E2,5E0,6E0,2E0,3.4E1,6.5E1,1.53E2,8.3E1,4.4E1,4E0,2E0,1E0,1E0,4.7E1,1.8E1,1.07E2,4.6E1,1E0,1E0],"tree_param":{"num_deleted":"0","num_feature":"17","num_nodes":"31","size_leaf_vector":"1"}},{"base_weights":[3.8814999E-3,-8.3227444E-1,2.8493145E-1,-8.7287E-1,-1.548278E-1,2.9151884E-1,-2.371237E-1,-9.219819E-3,-7.4707294E-1,2.5534919E-3,-6.288421E-3,2.1920453E-1,3.1616905E-1,1.636517E-3,-3.7823047E-3,-1.5304585E-1,-7.766446E-3,2.289938E-1,1.1148095E-3,2.8809893E-1,3.462659E-1,-3.9435253E-3,1.6478377E-3,-5.9015193E-4,2.3629302E-3,8.990403E-4,-8.8046014E-4,3.1601822E-3,2.2742155E-3,3.708682E-3,3.0770318E-3],"categories":[],"categories_nodes":[],"categories_segments":[],"categories_sizes":[],"default_left":[0,0,0,0,0,0,0,0,0,0,0,0,0,0,0,0,0,0,0,0,0,0,0,0,0,0,0,0,0,0,0],"id":52,"left_children":[1,3,5,7,9,11,13,-1,15,-1,-1,17,19,-1,-1,21,-1,23,25,27,29,-1,-1,-1,-1,-1,-1,-1,-1,-1,-1],"loss_changes":[1.1209789E2,3.1650162E0,1.2968388E0,9.338379E-3,1.7160125E0,5.5993843E-1,3.4465873E-1,0E0,5.310936E-1,0E0,0E0,1.9829369E-1,1.2073898E-1,0E0,0E0,2.9506618E-1,0E0,2.0104504E-1,4.7498293E-2,1.6699505E-1,6.790161E-4,0E0,0E0,0E0,0E0,0E0,0E0,0E0,0E0,0E0,0E0],"parents":[2147483647,0,0,1,1,2,2,3,3,4,4,5,5,6,6,8,8,11,11,12,12,15,15,17,17,18,18,19,19,20,20],"right_children":[2,4,6,8,10,12,14,-1,16,-1,-1,18,20,-1,-1,22,-1,24,26,28,30,-1,-1,-1,-1,-1,-1,-1,-1,-1,-1],"split_conditions":[-1.4681935E-1,1.14653215E-1,3.7502358E0,-1.5768806E0,-4.4953436E-1,5.898922E-1,-7.522277E-1,-9.219819E-3,-1.757203E0,2.5534919E-3,-6.288421E-3,6.611608E-1,6.7436224E-1,1.636517E-3,-3.7823047E-3,-4.4953436E-1,-7.766446E-3,-5.540207E-2,-4.8303363E-1,6.5580213E-1,7.231225E-1,-3.9435253E-3,1.6478377E-3,-5.9015193E-4,2.3629302E-3,8.990403E-4,-8.8046014E-4,3.1601822E-3,2.2742155E-3,3.708682E-3,3.0770318E-3],"split_indices":[11,15,12,11,0,11,8,0,9,0,0,8,11,0,0,0,0,11,3,8,8,0,0,0,0,0,0,0,0,0,0],"split_type":[0,0,0,0,0,0,0,0,0,0,0,0,0,0,0,0,0,0,0,0,0,0,0,0,0,0,0,0,0,0,0],"sum_hessian":[4.75E2,1.19E2,3.56E2,1.12E2,7E0,3.52E2,4E0,7.6E1,3.6E1,4E0,3E0,9.2E1,2.6E2,1E0,3E0,2E0,3.4E1,8.8E1,4E0,1.4E2,1.2E2,1E0,1E0,2E0,8.6E1,2E0,2E0,9.3E1,4.7E1,6.8E1,5.2E1],"tree_param":{"num_deleted":"0","num_feature":"17","num_nodes":"31","size_leaf_vector":"1"}},{"base_weights":[3.8192682E-3,-8.2414347E-1,2.8211537E-1,-8.6431193E-1,-1.537464E-1,2.8864333E-1,-2.3518161E-1,-9.128818E-3,-7.398742E-1,2.5330642E-3,-6.2412582E-3,2.1703178E-1,3.130542E-1,1.6283345E-3,-3.7539373E-3,-1.5228061E-1,-7.691001E-3,2.267238E-1,1.1073947E-3,2.8525648E-1,3.4285933E-1,-3.9238078E-3,1.6395985E-3,-5.862176E-4,2.3395726E-3,8.9304685E-4,-8.7459025E-4,3.1725909E-3,2.3252878E-3,3.6721327E-3,3.046842E-3],"categories":[],"categories_nodes":[],"categories_segments":[],"categories_sizes":[],"default_left":[0,0,0,0,0,0,0,0,0,0,0,0,0,0,0,0,0,0,0,0,0,0,0,0,0,0,0,0,0,0,0],"id":53,"left_children":[1,3,5,7,9,11,13,-1,15,-1,-1,17,19,-1,-1,21,-1,23,25,27,29,-1,-1,-1,-1,-1,-1,-1,-1,-1,-1],"loss_changes":[1.09911865E2,3.0985718E0,1.2734337E0,7.545471E-3,1.6898491E0,5.491371E-1,3.4015936E-1,0E0,5.1828E-1,0E0,0E0,1.9437361E-1,1.1844063E-1,0E0,0E0,2.9212287E-1,0E0,1.9741488E-1,4.6867095E-2,1.64155E-1,6.1130524E-4,0E0,0E0,0E0,0E0,0E0,0E0,0E0,0E0,0E0,0E0],"parents":[2147483647,0,0,1,1,2,2,3,3,4,4,5,5,6,6,8,8,11,11,12,12,15,15,17,17,18,18,19,19,20,20],"right_children":[2,4,6,8,10,12,14,-1,16,-1,-1,18,20,-1,-1,22,-1,24,26,28,30,-1,-1,-1,-1,-1,-1,-1,-1,-1,-1],"split_conditions":[-1.4681935E-1,1.14653215E-1,3.7502358E0,-1.5768806E0,-4.4953436E-1,5.898922E-1,-7.522277E-1,-9.128818E-3,-1.757203E0,2.5330642E-3,-6.2412582E-3,6.611608E-1,6.7436224E-1,1.6283345E-3,-3.7539373E-3,-4.4953436E-1,-7.691001E-3,-5.540207E-2,-4.8303363E-1,6.381645E-1,7.231225E-1,-3.9238078E-3,1.6395985E-3,-5.862176E-4,2.3395726E-3,8.9304685E-4,-8.7459025E-4,3.1725909E-3,2.3252878E-3,3.6721327E-3,3.046842E-3],"split_indices":[11,15,12,11,0,11,8,0,9,0,0,8,11,0,0,0,0,11,3,8,8,0,0,0,0,0,0,0,0,0,0],"split_type":[0,0,0,0,0,0,0,0,0,0,0,0,0,0,0,0,0,0,0,0,0,0,0,0,0,0,0,0,0,0,0],"sum_hessian":[4.75E2,1.19E2,3.56E2,1.12E2,7E0,3.52E2,4E0,7.6E1,3.6E1,4E0,3E0,9.2E1,2.6E2,1E0,3E0,2E0,3.4E1,8.8E1,4E0,1.4E2,1.2E2,1E0,1E0,2E0,8.6E1,2E0,2E0,8.4E1,5.6E1,6.8E1,5.2E1],"tree_param":{"num_deleted":"0","num_feature":"17","num_nodes":"31","size_leaf_vector":"1"}},{"base_weights":[3.7580673E-3,-8.160922E-1,2.7932745E-1,-8.558379E-1,-1.5267245E-1,2.8579652E-1,-2.3325494E-1,-9.038716E-3,-7.3274505E-1,2.5127993E-3,-6.1944486E-3,2.1488048E-1,3.0997047E-1,1.6201928E-3,-3.7257832E-3,-1.5151922E-1,-7.616288E-3,2.2447623E-1,1.1000037E-3,2.8244293E-1,3.3948627E-1,-3.9041888E-3,1.6314005E-3,-5.8230956E-4,2.3164456E-3,8.8709313E-4,-8.6875976E-4,3.1412384E-3,2.3024427E-3,3.6359436E-3,3.0169482E-3],"categories":[],"categories_nodes":[],"categories_segments":[],"categories_sizes":[],"default_left":[0,0,0,0,0,0,0,0,0,0,0,0,0,0,0,0,0,0,0,0,0,0,0,0,0,0,0,0,0,0,0],"id":54,"left_children":[1,3,5,7,9,11,13,-1,15,-1,-1,17,19,-1,-1,21,-1,23,25,27,29,-1,-1,-1,-1,-1,-1,-1,-1,-1,-1],"loss_changes":[1.07768555E2,3.033516E0,1.250454E0,5.8135986E-3,1.6640849E0,5.385475E-1,3.3571956E-1,0E0,5.057545E-1,0E0,0E0,1.9053173E-1,1.16176605E-1,0E0,0E0,2.8920898E-1,0E0,1.93851E-1,4.6244282E-2,1.6084766E-1,5.455017E-4,0E0,0E0,0E0,0E0,0E0,0E0,0E0,0E0,0E0,0E0],"parents":[2147483647,0,0,1,1,2,2,3,3,4,4,5,5,6,6,8,8,11,11,12,12,15,15,17,17,18,18,19,19,20,20],"right_children":[2,4,6,8,10,12,14,-1,16,-1,-1,18,20,-1,-1,22,-1,24,26,28,30,-1,-1,-1,-1,-1,-1,-1,-1,-1,-1],"split_conditions":[-1.4681935E-1,1.14653215E-1,3.7502358E0,-1.5768806E0,-4.4953436E-1,5.898922E-1,-7.522277E-1,-9.038716E-3,-1.757203E0,2.5127993E-3,-6.1944486E-3,6.611608E-1,6.7436224E-1,1.6201928E-3,-3.7257832E-3,-4.4953436E-1,-7.616288E-3,-5.540207E-2,-4.8303363E-1,6.381645E-1,7.231225E-1,-3.9041888E-3,1.6314005E-3,-5.8230956E-4,2.3164456E-3,8.8709313E-4,-8.6875976E-4,3.1412384E-3,2.3024427E-3,3.6359436E-3,3.0169482E-3],"split_indices":[11,15,12,11,0,11,8,0,9,0,0,8,11,0,0,0,0,11,3,8,8,0,0,0,0,0,0,0,0,0,0],"split_type":[0,0,0,0,0,0,0,0,0,0,0,0,0,0,0,0,0,0,0,0,0,0,0,0,0,0,0,0,0,0,0],"sum_hessian":[4.75E2,1.19E2,3.56E2,1.12E2,7E0,3.52E2,4E0,7.6E1,3.6E1,4E0,3E0,9.2E1,2.6E2,1E0,3E0,2E0,3.4E1,8.8E1,4E0,1.4E2,1.2E2,1E0,1E0,2E0,8.6E1,2E0,2E0,8.4E1,5.6E1,6.8E1,5.2E1],"tree_param":{"num_deleted":"0","num_feature":"17","num_nodes":"31","size_leaf_vector":"1"}},{"base_weights":[3.6976484E-3,-8.0811965E-1,2.7656707E-1,-8.4744704E-1,-1.5160593E-1,2.829778E-1,-2.3134348E-1,-8.949503E-3,-7.256849E-1,2.492697E-3,-6.14799E-3,2.127505E-1,3.069171E-1,1.6120919E-3,-3.6978393E-3,-1.507616E-1,-7.5423014E-3,2.2225092E-1,1.0926605E-3,2.796571E-1,3.3614638E-1,-3.8846678E-3,1.6232437E-3,-5.784273E-4,2.2935471E-3,8.811792E-4,-8.6296815E-4,3.0680646E-3,2.2066336E-3,3.6137505E-3,3.0040997E-3],"categories":[],"categories_nodes":[],"categories_segments":[],"categories_sizes":[],"default_left":[0,0,0,0,0,0,0,0,0,0,0,0,0,0,0,0,0,